50 64
l-l -0.004718415281970886 0.001631447076402423 2.229735443044085 7.025670919222487e-07 1.3594918670309957 -0.07909083333755305 -5.156646898030496e-05 -2.4240274195574703 0.0006568774350776953 -4.931625066587646 0.004843027796629524 4.525463296176617 4.27082577082003e-05 2.7083096181506354e-05 0.07035079347163202 -0.0002144310337028861 0.001103083547251606 -2.4699961891954705 1.3313049848095795 3.9959558346052986 -0.0012341818450414782 6.000000244267554 -1.1119760882293466 0.34192350484526873 -1.0982558027022638 0.0001275472956801492 0.00011387201054397723 4.6820458849434425e-06 0.00017577429193335814 0.0006222792607404529 6.000000573865636 -6.000002283414259 1.0898527164628991e-05 0.19894461421189347 1.426797307233763e-05 6.000000213485148 -5.754411870523535e-05 -3.861279618556174e-06 4.144260475669953 -4.713148734534195 -0.013875476144151891 0.0004311059886523174 5.3848555966717464e-06 -0.12334243542913406 0.0014614624222589086 7.510409374968887e-05 0.00013704510576244207 -0.49504767912414693 -1.8593862773754546e-05 -5.96825346676123e-05 -0.011623660741915945 -0.042843144953517494 2.371984494361743 0.0018278505090099212 3.4327671148397185e-05 0.00033081522230825377 -2.961014508610089 5.1706351444741536e-05 2.507027083258984e-06 -0.0059369499222379175 8.0141468387538e-05 5.045263807752699 0.00014660084145747592 0.00012169743815170971
l-l,l-l -0.005344085672240048 5.71536136876389e-05 1.948300044097608 2.6976499942723237e-06 1.3484208121408414 -0.2071033759981854 1.4260727822045524e-05 -2.4608306058944005 0.001686730217156921 -4.815399897495983 -1.2359719331267237e-05 4.35508849073095 1.7587299282574022e-06 8.357784052789952e-05 0.08018042424725279 -0.0025323375334723314 0.0009748541722510286 -2.414163619254318 1.391944075382064 3.81260180226573 -0.04164357850498048 6.000000546683241 -1.162599643588674 0.11612492206485167 -1.187252930675989 0.004672236446325988 0.0002798081461783001 2.270488227649363e-06 -3.211578176786885e-05 7.591205940141418e-06 6.000000301442591 -6.00000167984183 9.422246532650128e-05 0.9990000752265149 2.274362976571525e-05 6.000000592465105 0.4295819431601863 3.407771926064329e-07 4.0149676068353 -4.600809782611697 -0.018784445207226764 6.7838829798656e-05 -2.015592988560442e-05 -0.10267409511801265 0.0022680017725968645 8.475867024870382e-05 0.0002887559769153688 -0.4177980110152662 0.002855163139758964 -5.573442198000768e-05 -0.0013663866489986363 -0.03754906196334038 2.329961527594625 0.0016461899073744576 2.7147728041016925e-06 -1.7676907236271279e-06 -2.873970037626411 4.133265933434189e-05 5.099157337144528e-06 -0.004127687534874257 8.207871807502226e-05 4.9382939421115815 6.237900663394061e-06 9.453268989298198e-05
l-l,l-l,l-l -0.004029673957882841 0.0009398596188290616 1.7822858932891066 2.969683397727247e-07 1.3421722947074988 -0.10220501746898089 1.1491655740137207e-05 -2.3462102787444095 0.0017363706589645213 -4.690529332954109 -0.002064042731497574 4.2009412959132115 0.00043456395934378145 0.025781115585679228 0.11412720696852026 -0.047932181053106336 -0.000398092734118118 -2.26735752728539 1.5962451452873567 3.63904251228921 -0.0740301796307677 6.000000882311147 -1.0873034383783176 0.1755314921699281 -1.1338128404767869 0.10406937235806281 0.0007672130294825159 2.6025737923308093e-05 0.022017397898994748 6.569530343694822e-06 6.000000496735049 -6.000006963771454 5.1370257332963116e-05 1.6808467888624852 -2.7043452127487117e-06 6.000000229465365 0.7411747521225689 2.7719229203454458e-05 3.9966916976718427 -4.478388866192492 -0.0006321598506465095 5.666466165070235e-06 -1.5821391860318938e-07 -0.038571075545190826 0.0010471853681444864 5.793694384520785e-05 4.642406653354239e-06 -0.40769297244838737 0.0043515085971795415 -0.00010429173902539324 0.0005236755939797268 -0.03217571951024984 2.229021093794951 0.001029200227722905 -2.248194548239536e-06 -2.899064766898401e-06 -2.7320204534633845 7.536140051948149e-06 7.172800226433175e-05 -0.001102832477594764 -1.6935902241373456e-06 4.83440403874284 0.00018203387716397924 0.0001500715578757296
l-l,l-l,l-l,l-l -0.004507977829107516 1.3957507145662322e-05 1.5816949486760672 -4.836849730331515e-05 1.2182735551325297 -0.227575624153985 3.880819972335589e-05 -2.266649623922972 0.0012511063774482414 -4.56077066724714 -0.0031931098452410676 4.028100608989609 0.0004688621294433971 0.02416133705743402 0.5664365600572938 -6.928967069878265e-06 -3.320122905889338e-05 -2.1359760997871136 1.6615866498285647 3.4765890273884077 -0.3237791660737322 6.00000031908441 -1.0411664338729005 0.19706577755094581 -1.0423270859716 0.40034382085005055 -5.642670897831799e-06 6.660335179398624e-06 0.03827144630253842 0.00041165513213944086 5.8968947727057275 -6.000002249223112 6.060337703539885e-05 1.8258372469209279 -6.17626278163004e-06 6.000000594193342 0.9804575388795504 -4.87972474454517e-06 3.9596478215786934 -4.343361516716762 -0.007680849057790578 0.0017956959564626221 6.707038560551983e-06 -0.012900340656136948 0.0006281896426284361 1.3324083401254652e-05 0.00044101317740733175 -0.3508368042906104 -2.1680091360260623e-06 -3.382308424026352e-05 0.00011313750502792536 -0.021237685674208612 2.095266991077612 0.0006477255513349289 4.114812645208709e-05 5.277548721959242e-06 -2.652947500109071 3.704146461270217e-05 -3.5605583734322857e-06 -0.002041762414522135 0.00023748337449517085 4.72841056673173 6.4545578665864435e-06 0.00011762083426406492
l-l,l-l,l-l,l-l,l-l -0.0033364774538416552 -4.2919050014592836e-05 1.4604693560502353 1.512908958967311e-06 1.0766057853341293 -0.14861956381541774 3.1052812373970257e-06 -2.1350736384791738 0.0007555923179296376 -4.418531119938859 -0.0034218240695679933 3.87888773898134 0.00016628883724017463 2.2085713558587147e-06 0.870487300824027 -6.1278207303044995e-06 1.0125353358954268e-07 -1.9215482554001069 1.5719155083749976 3.3438759759360064 -0.2257998491573326 6.000000296995555 -0.8895981762121057 0.13908880150615158 -1.0286836746950938 0.44045605451544473 0.0004012372334989399 7.324288622728989e-05 0.1654607452666176 5.8773266671639673e-05 5.763943739264098 -6.000004690193105 2.12174240245834e-05 1.8196903019455224 4.244709462377508e-05 6.000000756999925 1.0658904688956656 -5.2134125719677715e-06 3.9036889546465896 -4.205663747688577 -0.0014029870321152808 0.0013006587478567417 1.5452236017133738e-05 -0.0032534582672300773 0.003786620125624113 -5.671203596299528e-07 4.3472279510484046e-05 -0.2851184901180538 -1.1255221742013253e-05 -2.739656391725041e-05 -1.521075626080582e-07 -0.09027128585524714 1.975036274093866 0.0004940454325179527 3.886572158889605e-05 0.0004351881441338507 -2.5020485586435464 4.8006272635011925e-05 6.21233871323283e-06 -0.004205708676086929 8.758270388520114e-08 4.60680602055059 2.7331112082241767e-06 0.00011984045401155149
p-l 1.1778132839878164 1.2336465557937268 -5.071483776495958 0.7076535048768954 -1.3948918307656972 1.2754708140208455 0.8867848734689956 1.3902983375412816 1.1858188536563397 2.009226144591471 1.780883217432599 -6.00000364843912 1.1447273263200766 0.6749400778272376 2.2533888915439686 0.8205558218365371 0.8620165641884602 1.0858622069982797 -0.9375587365823379 -6.000000207272379 1.213005949701918 -6.000019010992799 0.6429163051569214 1.0005344249218635 1.2065407875805672 0.6428025631868141 1.1875037550108951 1.1385606136402222 1.0252132606091076 1.071239013747366 -6.000008903102292 6.000001498502498 1.1827945153536188 2.484811379286789 1.0614825573240219 -6.0000128773166415 1.0545073269799743 1.213078030478471 -6.00001329847318 1.847106042231092 0.9819026519375822 1.1361151026054848 1.1088158482214927 0.6005454313716605 0.9234155491700038 1.054826288548703 0.8698233026358044 0.6474645533404965 0.9923200136037228 0.6796346850389198 0.5803659508644942 0.8573717070479214 -4.898750900690613 1.311417547676206 1.0741893336562354 1.2284325471700333 1.0296602237644084 1.2794445228655509 1.0856207252606964 1.3696768969401987 0.9837598069380656 -6.00000017620713 1.1664376023024825 1.286804149719567
l-p 1.1730776958050175 0.9495920509958018 -2.550560066667772 1.1359951537113469 -2.166853274986335 1.3571368634046508 0.9936619961652653 0.914230187442168 0.9266970363057452 0.0327722548003827 1.098019888384826 -6.000000806104704 1.0025306169399513 0.9397376777687036 -4.257985950584549 1.319114343424367 0.8283403852984507 1.0554300095273974 -4.138422803415069 -5.562610420248773 0.9595920882693398 -6.00000141606463 1.2570200215740859 -5.6010388119478965e-06 1.4904839787332036 -0.22618494760238705 1.0758856078518808 1.00344889879278 0.945621738943854 0.8902452379324716 -6.000014105070675 -6.000006934686146 1.2451670316588124 -5.432312312292024 1.1049386244810242 -6.000023008148035 -4.4017440045609035 1.237000911431641 4.997594228140059 0.5604691874816295 1.340151006871991 0.9550377489985737 1.3099611223430088 1.0174499759025462 1.1164797336228298 0.9842034714596052 0.9550533668850982 1.3380815949373288 0.8022620163040898 1.0795876093705945 0.634763565403336 1.1103148791012971 -4.2869001021971 1.2762885337506127 1.4332083402734506 1.3268673002550988 0.9661178637499304 1.2940030860143685 0.8281551945036396 1.150033092263854 0.9505015625776307 -6.0000012113466825 1.2234843400604785 1.067282363594057
l-p,p-l -0.000393311774609763 4.763751899434753e-06 -2.5426593307710426 0.00030174439032733274 -2.57539066864574 2.890644202407717e-05 9.07896985518383e-05 0.0035118541985146396 0.0006003901005328715 0.04043853348185905 0.015968963474015947 -6.000001528663894 0.08687137271025226 -2.9458996987766922e-05 -4.121078305146086 6.994707459593323e-05 1.0667098878092657e-05 0.0010501653399456537 -4.214999254058513 -5.62881623069779 7.602328524821285e-05 -6.000014135565307 -9.424288631555834e-05 2.5080526876055783e-06 9.566424952667345e-05 -0.44476732229762467 0.04953922457566467 0.13989093517368228 4.1506786540796624e-05 4.882479254131493e-05 -6.0000003160173 -6.000003954960826 3.774415885601383e-05 -5.311750034855065 0.031018284790753334 -6.000001314433264 -4.423909536426841 0.13461968012613473 5.778117120451832 0.018907202371448075 4.7193567186950845e-06 2.2026338328405363e-05 0.030159189860590387 0.0014725498907723397 0.000144058656686018 1.5150175459519082e-05 8.354092739114212e-06 0.011100982749993134 -6.947687498561601e-06 1.7568569072599296e-07 0.0002556316975942173 0.0002399797107081684 -4.370567241677491 0.0002230175144372052 0.00011170809109330259 0.14436097106117962 -0.0001932823182051471 -1.8730399234708622e-06 -0.0008913792681533121 -0.0017108263496142672 0.0557494417727851 -6.000000940294692 8.7249099234577e-05 0.000101637659832482
p-l,l-p -0.000723872944907056 -2.277866907417726e-06 -4.58473966683076 -0.0011355538634262295 -2.10499743280201 3.9842730492453815e-05 -1.982007600155565e-05 -0.000813146210112011 4.844240873094884e-05 0.41506680161780746 -0.003262891877191928 -6.000003969124557 -0.0007559273875586794 -0.0007783188604850891 1.1496908971271693 -2.810604356613194e-06 -2.82385055078919e-06 0.0015987273438681684 -2.8593883572687573 -5.850288970635932 -1.7812728311743615e-05 -6.000001813713729 -0.00018547160866960578 -4.923476798624473e-06 -0.0038412647503164943 -0.018082502466899148 -1.3145450220107393e-05 -3.178158907538284e-05 -1.3536942819062444e-05 3.946004236501297e-06 -6.000000635602713 5.994339126280592 4.661346947808629e-05 2.812907711998007 -1.639012206115322e-05 -6.000008978413608 -1.26055268186903 8.516352508586282e-05 -6.000012640760081 0.18534694147298444 -0.0005798667388769229 -0.00011352675516576237 -9.396158916772375e-05 9.039774920646675e-08 -3.896864135635924e-06 4.091426084738951e-05 3.3582562553459577e-05 1.8347398453214217e-06 0.00011954046918381746 2.5419998973195278e-05 -0.006296535650012912 -0.0072227880642470954 -4.484932785972271 9.114302661227172e-06 2.155677861985262e-06 -0.0008070470545889044 0.00016237025047499082 1.5995933962816697e-05 -0.00044664296891634676 -0.0004680826438278567 -0.0005947084625633923 -6.000006474335351 -0.0002983333500403473 0.0001567931921720478
p-l,l-p,p-l 1.0799391385370665 0.9774776035535078 -4.5215097378171825 0.7658691178847807 -1.7664702798801266 1.3528009819208773 0.4235393818168094 1.4534004641756961 0.9951997573283116 1.9503162910729501 1.7862142018829674 -6.000000801233198 1.0088532821147231 0.9936972752876293 1.446863841481097 1.1007673419911546 0.867675859388577 1.3902052590968748 -2.4729296181093225 -5.759446216497378 1.157725713714777 -6.000026316047181 1.1501753109935862 0.5566835760441861 1.4464292383803417 0.21532951707720435 1.0325081190635546 0.8115209211636639 0.774124069639937 0.8088002663736081 -6.000009346852205 5.480911577152103 0.8171881742017743 1.8984505843234876 0.8360516215649201 -6.000013518403333 -0.1416608158016709 1.1109492164232027 -6.000002296059711 1.9960848096888477 1.0699385086873443 0.8722685671522804 1.0887970028276408 0.9153530040479955 0.9656647634848471 0.8605121718579868 0.6707677234584655 1.2269251137805468 0.8388720409482695 0.8000124509755837 0.48396990073078094 1.0625974605028476 -4.365766490325551 1.1098157464558818 1.0541961108228166 1.1363904990823268 1.373047184068211 1.020919831573254 0.9355254164668794 1.2092998440053826 0.8785155722489394 -6.000008662544449 0.9061311282005543 0.9992591038009475
l-p,p-l,l-p 0.9726811753246984 0.6825232259099131 -3.026935735120261 0.9343785937509422 -2.012642819625582 1.0670127761435677 0.4028349849370415 1.1614556784165115 0.8035730824498428 1.8347644339194882 1.3339449997292812 -5.9037524541288935 0.7817740099326856 0.8960243938953842 -4.1783755108786576 1.2387676607365172 0.5980433270180704 1.2926597995418112 -3.9051415023726426 -5.329401396627008 0.8409532985331792 -6.000006452688607 1.2381838640333092 -0.09877221141851068 1.2802988019868142 -0.9983187938965776 0.8763865761789433 0.6869319295354573 0.5986243016503575 0.6128954239061986 -6.0000214718906495 -6.000008953777751 0.7081454289196573 -5.189997453245664 0.7741592527450516 -6.000006167815169 -4.306380847020146 1.0105789132106326 4.190099160478369 1.8549831875238858 1.0676262071278055 0.6545348529249221 1.0080191587123377 0.825010934555696 0.921043300858993 0.6372055204599175 0.6344805252534775 1.3280998773282542 0.4884511362259619 0.8509262044946427 0.4150492599689983 1.105621466570903 -4.084736334334012 1.0783788385216877 1.0720316439425879 1.0733271496069812 1.263855232433288 0.8484845414739952 0.5920731822483133 1.0190348396142015 0.6582928154687604 -6.000001498021608 0.8359096655019942 0.7704950268112775
l-p,p-l,l-p,p-l -0.0008409187720850276 0.001096826087866841 -3.086638827938866 0.07351832784896292 -2.225435794114037 0.0005048646315829182 7.486752817469932e-08 0.08200723105949187 0.0002816015669477834 1.2135382247498194 0.024176526484589237 -5.967450387559611 0.03005310876085315 -0.0001979725928159467 -4.035222279447699 -9.747754094790894e-06 0.00025434674001226655 0.35798852894867733 -3.9528026976125092 -5.39447173580883 0.007108235962355742 -6.000001619989228 0.001129115763727048 -0.35322400819507915 0.35935145828031934 -1.1698961084287707 0.09427325473464904 0.012040830720260472 8.728470387526358e-05 1.421605951527439e-05 -6.000002797013438 -6.000001094407094 2.4956895703890794e-05 -5.046585197420119 0.16930072340907493 -6.000029592386369 -4.2896168793322635 0.02657271902649447 5.181151027152492 1.1227760924852843 0.15980648950023615 3.4034308038727547e-06 0.10939673549913656 2.218410446785326e-05 5.330355620097718e-05 -3.88237626629896e-05 -9.08455484357548e-05 0.21600790203593623 0.00012242449686932305 -8.65335885373244e-06 -0.0033251077772803576 0.03844812122260107 -4.157121021688307 0.22136764891362515 0.015061092233939349 0.07093481425450397 0.1202224660551119 0.00015062214323227464 -2.3896046032900517e-05 0.046614940655259444 0.03599510426941175 -6.000002031775341 0.04661572433554637 -0.001456155752097049
p-l,l-l 0.11106471468590771 0.551061924606701 -4.061811607800251 0.345041714651391 0.10884642897664118 0.23418366717807299 0.5977993020614167 8.543131749484374e-06 0.405100262878692 0.08326678465013718 0.2775507076373052 -6.000000656655008 0.455126104448062 0.1872424881067561 1.757087988512412 0.0011943623330058937 0.4288432767458012 -0.0001276921864905671 1.6593366802326057 -5.509991168880753 0.2549900279919154 -6.000003129459018 -8.3278965958397e-05 0.6993479636328275 9.853125023746024e-06 0.6934415016201301 0.25880348652898155 0.5160320154897861 0.2544827408892416 0.36112734075587555 -6.000007369051998 5.143513736058592 0.39971773203258754 1.666279409590073 0.37238266523535707 -6.000008692297539 2.2363878955048313 0.37221848430088084 -6.000011068424704 -0.002924865624407508 0.20783058075065272 0.39882834047409377 0.14026558888739016 0.20133245849199724 0.43799224600306524 0.39299852085066045 0.5330031594675522 0.005931601881099224 0.44988643096489767 0.32985029437996727 0.6154295946602921 -2.0017458116993495e-06 -3.858453863806866 0.19336790914071364 0.20150474749710348 0.17858319772304718 -0.0001733463704540136 0.42650457032861233 0.4975829687023832 0.4881224647862933 0.4210999384305869 -6.0000011420311745 0.5171457337297882 0.41582548648306206
l-p,p-l,l-l 0.003406829718636591 0.07269055959159954 0.9759553717994505 2.1562210962104598e-05 -0.9035414763043071 1.9004540454238918e-05 0.13084510792560142 0.00010990143338225973 0.05482148036013014 -0.8965522265517966 0.004457355309742283 -4.4573218374856065 0.10702215966190849 -2.4305310011064724e-05 -1.1626032147005032 3.775159309263109e-05 0.09594389613255071 -0.03548131256691761 -2.432414957864648 -3.9523340099899 0.0033299997540175014 -6.000024327855683 -0.00175059917614995 0.23033369013031407 3.953729600933237e-05 0.24050938028733612 0.0013349268850848183 0.22223770596971612 4.629733230837388e-05 0.04713611583040687 -6.000008774041311 -6.000006568702576 -8.11504261573119e-05 -3.6637647869316985 2.6430993882978727e-05 -6.000031799128203 -1.8808039674090833 0.07535914980268862 4.938305461228768 -0.728724409859673 1.267001396442591e-05 2.2556143880259884e-06 9.871460569338424e-07 -1.7645292537639933e-05 0.0001408164459296091 0.11663529534781658 0.073601637208378 -5.64983878846785e-05 0.12420007485522531 0.06885838911678327 0.3163830851422364 0.00012651554623274461 -2.4406791631432707 0.00030296994494679935 0.06683632984306746 0.00018893598271727192 -0.0006426772938908802 3.236800742989624e-05 0.0007855016269855613 0.05637034647500556 0.1600701822189152 -5.206890956784781 0.041385583723810196 0.00862967671659552
l-l,l-p 1.0557848751054737 1.275098839787269 0.5906241153269852 1.382486956404683 1.132463120806136 1.3257026263107452 1.4142433041900837 0.8897069820646589 1.0345773894251553 -1.9075365039455103 1.5637031686783571 1.449865481604692 0.9531271310296208 1.2079686066446833 1.2644524984133307 1.1825866543925283 1.3159073744431486 0.58074826175549 1.1963786340958407 1.081829638568498 1.329137464482768 3.85020100899345e-06 1.0943074642582042 1.152519318564218 1.2303400377111138 1.1267299693596309 1.2143592437666004 1.3403425704912622 0.899939844858051 1.0947016325940546 3.0407533489070606 -6.000006348020529 1.4117923332309683 0.28477755504060065 1.1478342763820877 3.747191954550721 1.4818029080879267 1.3034972791853017 -0.522299154979389 -1.2694106122003421 1.2949148899977625 1.2891335487184488 1.247827717111354 1.3165543087607507 1.4655539204014643 1.233307140254953 1.434352846405559 1.3714240551385743 1.2056227579663863 1.351401932459829 1.6836271218361807 1.0398257096959718 1.1954185750972623 1.300200074308395 1.523644069642309 1.2734164981923106 0.9045280426257606 1.385753876947309 1.432555235453367 1.3779813573782054 1.1731149216837389 2.100378040787791 1.5417759582105481 1.1695905812878462
p-l,l-p,p-l,l-p -3.418466733106259e-05 -3.352352111149972e-06 -4.2331075665072735 -0.0013486484043652822 -1.917634085596181 -1.0002321418311017e-05 4.928303805662841e-05 0.16421181626217013 0.00031903002756925047 0.5316561868014879 -0.0011364450040116808 -6.000000384767899 -0.00010595812880778553 -9.610360682267228e-05 0.6994785463134934 -0.000731889700489463 -6.491207353543924e-05 0.21048095909272524 -2.9052281356517566 -5.491793112837964 3.503259850474911e-07 -6.000007725179409 0.0001350901522996282 9.05910556743545e-06 -0.0034713629943719988 -0.08895131934908565 -0.0017400170321016128 1.3641908207480986e-08 -0.00024526206657051483 2.7838732038237303e-05 -6.000013575184795 5.636100541135335 7.068863851025293e-05 2.476485843384996 -0.00012918585662204836 -6.000006305366592 -1.8199175939243408 -0.0005062249087453632 -6.000002811150173 0.378876253540936 -0.006102936512296263 4.136541265320889e-07 7.873215556802179e-06 2.7929530738133326e-05 3.1729195847210574e-05 3.9797013157429565e-05 -2.090615618775734e-06 -0.005300207523831375 0.0002538201236135468 -1.4979797367399338e-05 -0.0026098278935532803 -0.002598997458487846 -4.1468248913258 0.0004938553688435669 0.00010953455559867212 2.781226151040965e-05 0.0005244114966304205 0.000267557258019063 -2.4552117995124476e-05 -0.000623586924268846 -0.00010992072463497185 -6.000009143724959 -0.0003188292903474669 0.0018014014546310372
l-l,l-p,p-l 0.36363524603344294 0.3786274822482657 0.683616400901921 0.37829743879474326 -1.1549585031173358e-06 0.06339535672629511 0.43444025875688913 0.12982629057554793 0.33051271156997364 -2.051288682008549 0.1947534054019996 0.9418289130702777 0.3648755291281443 0.4322346160574906 -5.631164522916775e-07 0.5265180547752164 0.43427385868147167 0.025938678699774002 -0.00798681863926459 0.6243256031618826 0.3157259211679156 0.0032113889059138044 0.2173748632490539 0.2065240514728408 0.2186097686494987 0.13346092125027742 0.45838123228739835 0.5554351007935373 0.24817211183072785 0.48303479027045687 2.7196120011371416 -6.000006109843983 0.5534513977745719 -0.36010325960843426 0.30476541347303165 3.355128269908861 -0.0002733156292837057 0.5929884185796034 2.5624199345053116 -1.6721689392435697 0.5471260293651586 0.3662382038521811 0.3938849810176881 0.43599382123272673 0.3035983734689223 0.49291566506551693 0.4040585987913611 0.3299798541863031 0.43798683893951396 0.43371972534039654 0.5193453668440425 0.543567490184136 0.006663857946442625 0.3556123950025243 0.695426797445868 0.4738827217236926 0.017743788114795923 0.47053926625896464 0.37629076563857095 0.48130180498802316 0.6299717148499269 0.4987548280869471 0.4531384656190562 0.22625562231953297
p-l,l-p,p-l,l-p,p-l 0.9882814974946638 0.834293450529061 -4.149404986069867 0.5865719384872247 -1.6364283935262314 1.0884629166367272 0.23367154176209562 1.2933942222195813 0.850829975792919 1.7479971317140761 1.6516916229118819 -6.000001529571831 0.8174968299697793 0.9221359812995658 0.8820145933539507 0.9991622800712979 0.6425286831806661 1.3304963100325269 -2.5238169917262834 -5.382741406212078 0.9266826777147574 -6.000018188757883 1.1814503024935377 0.36847498546820157 1.3216328126495631 0.14007867144351885 0.8522757055900405 0.6961632968855939 0.6739983615685378 0.6098851015335732 -6.000001717936534 5.041324677159721 0.5671780585800793 1.4273959438680464 0.6817825148260601 -6.000022668164663 -0.7575554318763189 0.9531804566913662 -6.00000718784917 1.88527073271873 0.9560911067118606 0.6668201075094935 0.878169330046319 0.6805701544371616 0.839641491490468 0.5904780697111427 0.4088851212048579 1.0194501609577507 0.6638484355375978 0.6710544091952533 0.34822905536914733 0.9756524692408489 -4.00437895018767 1.0055053815846413 0.828430882994033 0.9461158195476498 1.260416382710523 0.8559078701101286 0.8812998011941636 1.0323064483419955 0.5915647824766325 -6.000004449572689 0.7991475178149715 0.8066268735648418
l-p,p-l,l-p,p-l,l-p 0.8801910079917236 0.6030386201693632 -2.961170272249451 0.7446086391417163 -1.79105450193182 0.6845857192561552 0.12981493263311356 1.0571236431849058 0.6068487707254151 1.947243256170326 1.449087528066139 -5.686815677843019 0.62234445359006 0.8712794853374256 -3.9812211798253583 1.0591820205376876 0.4351556146363742 1.1161656587809374 -3.6669132119996006 -5.099876687165416 0.7507713518778211 -6.000009785822488 1.1906393607097716 -0.4368181119986786 1.246271218245649 -1.0658903894057954 0.7339794594513867 0.5419158131388143 0.47245941598046837 0.42691083258029994 -6.000027402361541 -6.000002174725389 0.5170052770384322 -4.9589246762171095 0.5614679284579334 -6.000019536504153 -4.109638539818043 0.8158856689524929 3.8496476706187983 1.9726293931845797 0.9392484148076733 0.5145209588748476 0.8019329204345335 0.5776610771088441 0.7306976929430917 0.4637442690216238 0.33103746150901747 1.0577505412668078 0.3797587440434798 0.6373631767525111 0.2286318630860211 0.9541587599605141 -3.856190892980988 0.905784899037942 0.8232978341080608 0.8977592115327857 1.1585077538009496 0.6938249698549172 0.47532029471826337 0.9331694388855676 0.46211972888604513 -6.000000413174741 0.6544446656948362 0.6041935714360688
p-l,l-l,l-l 0.12175256366584898 0.3875696210872545 -3.8564334643403293 0.26469131445639127 0.12171233034215259 0.17211644093757833 0.49528773351575817 0.00016251803947091978 0.4066654179873079 0.03894511634156745 0.30521250583186943 -5.981478859216788 0.3174373757757552 0.18551860998614106 1.660209470948344 7.489473444635009e-06 0.35259112048325164 -0.00025759683916942044 1.6146124335862502 -5.319899352720023 0.27049332261254544 -6.000016883546399 -4.037672771460894e-05 0.5675315397276384 -5.660253331365464e-06 0.6985463903727023 0.15365884538707578 0.383807171152032 0.24954019303271482 0.2822820785739885 -6.000006634991272 4.934640119645659 0.3092231462889522 1.4957837456264351 0.26428321288892764 -6.000025788464096 2.076144698398214 0.25033266151293726 -6.000002031295046 -0.020129028580856804 0.17027143824815696 0.33469593656893665 0.15325388923430225 0.1606862475039127 0.4468369541676524 0.371882894723657 0.5140769413781248 0.0006471954529024374 0.37424810979700507 0.33953346828725084 0.5530196533436237 0.00034113861150650033 -3.6391113377463435 0.15063149774795123 0.18474614626294336 0.13392225325589754 -0.0003458933455916452 0.34811094587718383 0.4405790002616346 0.3490098979010924 0.3558065885054667 -6.0000033979442975 0.3902105940209298 0.31147334097670926
l-p,p-l,l-l,l-l -8.012560277348859e-06 0.00036610054106819823 0.9098431329476814 0.0004135694050858341 -0.760171080510758 -5.080697661615578e-07 0.048078886579582134 5.0399738093519385e-05 0.02235843161959089 -0.9203689936003316 0.0033896126637202213 -4.244568734954016 0.005974850465872566 1.0130150192326886e-05 -0.863412122060735 8.48438557347388e-05 0.014057529298814462 -0.09921563601679781 -2.1587760342483557 -3.754835873952544 -0.00011233166527585579 -6.000001623555744 -3.985803066173959e-05 0.2566753277252033 -0.00022016157653496083 0.23653022600285337 0.002701812382251836 0.1720268365843521 0.0003891124630925042 0.01785896838366434 -6.0000043246258095 -6.0000056095344325 0.00037904648439536157 -3.4178296883593444 6.227613997438068e-05 -6.000012005234533 -1.5548386672563805 0.08971551613965735 4.784817117585076 -0.7793910065156653 0.00019191636842012637 5.2004762678122465e-05 0.00015358808874160238 0.00020860340075787623 0.00018203525166108497 0.11953351787787568 0.12087655401342488 -2.6616446549948807e-05 0.0934588250661127 0.009175650654836697 0.35525017035062356 -2.32741447811545e-06 -2.184225307092246 -4.2412499203665204e-06 3.4598221385830407e-06 3.9838038999295296e-05 -0.09187468792347134 3.249540574550514e-05 0.00021210136714087867 0.001913431163126852 0.07826945561708061 -4.986241398342908 0.04477075697905625 0.0036443535990710553
l-l,l-l,l-p 0.8927164719922949 1.0674177626781638 0.5484408380343674 1.2381320853719204 1.0643883618445744 1.14117778480667 1.2605565072035716 0.668536852741509 0.8500544383274311 -1.874317601111643 1.3399104608009713 1.1292361314715567 0.8387050028546923 1.052922419769169 1.338932081663883 1.0194715583971294 1.2043418591128678 0.40148876365230474 1.2476256738751281 0.9124257363545265 1.1315762739308721 3.22239784187217e-06 0.897723562201173 1.062662827988668 0.9957101736982404 1.096541733912831 1.0300226722249965 1.1563717482870528 0.7956452249014662 0.9068531710930199 2.5459582842455886 -6.000000960237284 1.2695530873475798 0.6248473159330286 0.9877836948930309 3.3001105669687316 1.4162888877851298 1.1125446600595317 -0.984255418657453 -1.3194183903532948 1.0725911466168265 1.0907762320517664 1.0975291836611196 1.1551117586179058 1.296061295921447 1.1379906919202394 1.3480372577260555 1.1284732637042265 1.0434849470460017 1.2119071079624821 1.611913175022254 0.9709461609077239 1.0455445501259104 1.0838408690544428 1.4155009839968469 1.0812188550019086 0.6786944818388113 1.207956290290348 1.2748952794454131 1.285456961656199 1.0477553579409589 1.9476149422546432 1.4071703768608486 1.0213718808220644
l-l,l-l,l-p,p-l 0.28091483794337596 0.29100234510978923 0.5396182843693941 0.30302051983407147 0.0001298947840653013 0.02697149117625453 0.33045106442059735 0.0652517521280055 0.280882053435508 -1.9843507719986913 0.17108498150607845 0.6928298030382187 0.2952522606219629 0.35389170634772027 2.5730363577973825e-05 0.34148615480255695 0.41586257863356707 0.0010630101325412175 -0.03129068343455468 0.399380134501295 0.2021793909576902 0.005341305804872999 0.15755915830162004 0.15797017626416576 0.04924701376140431 0.20935452380632077 0.4091870634575516 0.5041667648165934 0.2771986722156512 0.46326771985341536 2.502133811222145 -6.000000222027143 0.45327512642392254 -0.355502419345255 0.19652228985487627 3.0384188066770172 -6.773588045042465e-06 0.459546696229839 2.394422791863623 -1.6341948600133314 0.46644310833416625 0.35126233510559846 0.28542153417723815 0.311273224774331 0.3110525761608837 0.4203006732137794 0.25747222901771344 0.2947646519899722 0.37474594200255 0.4096346073584675 0.515276327154873 0.49347532768164826 0.05492335524017757 0.2604626100926714 0.5420298515126176 0.4270004015458972 0.0010265177174558543 0.4256859104701931 0.24676131073856364 0.4264089105400669 0.5243261956506516 0.12108723252561178 0.42960076404598485 0.19743453555076346
p-l,l-l,l-l,l-l 0.16666682912433708 0.33155883215477205 -3.657349576642619 0.2156161387261088 0.136761661836461 0.13537891572142863 0.4026821278536175 -3.418341007295524e-05 0.2721473006330443 0.014242804113433113 0.1789404623554918 -5.811443614486937 0.2546195447657554 0.17231878760748864 1.462250356737506 4.895305574654807e-06 0.2735824327553884 3.915810997056495e-05 1.5706468405494969 -5.1422720078373985 0.16866791882448987 -6.000008838559589 -1.7824453308263462e-05 0.5154463716646063 -1.8767490620976623e-06 0.58756541898605 0.1363015657263293 0.34830125188662925 0.21647505889474847 0.27128442414955767 -6.0000001125393645 4.729488292418303 0.2983997350391327 1.3708747136681259 0.22874492259639442 -6.000019470488077 1.9264850624999266 0.19401459860178374 -6.000008810619363 -0.02462572234103566 0.17299259561783445 0.3053477160602547 0.049485935990086646 0.10566194561492065 0.3130859916960262 0.35005308510469674 0.4203560706690764 0.00039631863192342987 0.3440028204978647 0.3331447372655745 0.5847559092236821 0.0008738848045386217 -3.4320096241405627 0.1591596294617343 0.24505432751585485 0.15407915730447475 -0.00038234377672818323 0.2836971404363985 0.3350898400563169 0.3036757427538832 0.31971194614697274 -6.000001223235058 0.33976066423220097 0.23220524111406177
l-p,p-l,l-l,l-l,l-l -8.393768076169167e-06 1.5073654999775527e-05 0.7987427556725014 0.05414798933378889 -0.639588262505257 -3.560835273284027e-05 0.09381546942923621 3.304234940636824e-05 0.012321528342063678 -0.8899245337094847 0.0011298037462937555 -4.045604983528125 0.04424984198626553 -0.00013512831001458446 -0.551023985063206 -2.15283808991575e-05 0.04480698478625174 -0.13613891253796656 -1.917292510177594 -3.5582094848965187 1.428651849599327e-05 -5.995565019914771 -0.007127360198882189 0.23745485697570629 -0.0002230245538683613 0.28036163039343565 0.0012075327624163517 0.19420151893584967 0.010357942596648913 4.0883865617305693e-05 -6.000003643889861 -6.000005888302685 -2.5685029556062634e-05 -3.1600971127688644 0.00039991676076188057 -6.000012362236465 -1.2083314722843335 0.06818399613484519 4.622923275050017 -0.7351228297995177 7.729197420047183e-05 0.0002480005090916585 8.133794105920337e-05 -2.602257232658477e-06 0.0008969927450047146 0.044799718788447004 0.1305667197366825 -2.4786380721381507e-05 0.0115325872149657 0.016681340966676114 0.41463731724821107 0.03367210502234243 -1.9506971240181974 0.0001719879824409976 -4.564086063252273e-06 0.039964328466976055 -0.10443417717659899 5.281763716609634e-06 -8.71068793727287e-05 0.002052134925895025 0.10171685541236586 -4.788549041100119 0.06872552737285269 9.292903200429875e-05
l-l,l-l,l-l,l-p 0.8018117835271797 0.916835877816033 0.5382617034086493 1.116785873439302 1.026571844835254 1.0007701318214144 1.0968546507408288 0.4871620185951181 0.7512414259155099 -1.8300796750920065 1.2304596362092186 0.9296244295142615 0.6897945627907188 0.9189697295054194 1.3542383422130293 0.8585879170362547 1.0463208059562032 0.31538516563444685 1.2580613919746488 0.8362682082280319 0.9436576024543631 1.5129196929709348e-06 0.793502295302053 0.9401276236042624 0.8280367588547645 1.0714933781332396 0.9329405625440972 1.0620014104110727 0.6963434366651363 0.8264067585946819 2.070117544431989 -6.000001688127228 1.1056865720350086 0.9187964491158566 0.8385475261033206 2.8081306677875197 1.42736192927804 0.9537912148265094 -1.5689318785159005 -1.3271152107596187 1.0163426134399474 0.9752306175463044 0.9660868675253909 1.0740174343326918 1.2036112494095872 1.034377426080942 1.2088227010909838 1.022106338199712 0.9861969254231712 1.0774542759077292 1.5255597861397596 0.9245859890668521 1.0187956585080133 0.9105180523133142 1.2411382397045465 0.942837638534432 0.47797887189821026 1.0462648378189496 1.1812331295500837 1.0819237151484478 0.9639058291178293 1.7008247585572862 1.1997193908513581 0.8587991274022656
l-l,l-l,l-l,l-p,p-l 0.27558465623349937 0.2747462228705316 0.46449321386641373 0.2502759167295873 0.00032912129222601914 0.005696643118551438 0.3248743788767181 0.05191368871791192 0.23455324088317267 -1.8879041150154596 0.11497404745377876 0.5667471997552409 0.22490759414148054 0.34598306065949824 0.029706410091918625 0.31698227474491714 0.3208069354224094 0.002094370810281652 -0.004204688362431543 0.36094500901200305 0.13768878736890963 2.2105406002592005 0.11456718861085273 0.13253007104398462 0.03617584983638102 0.2300809948498305 0.2689890239809178 0.3820258517513841 0.18418316163400927 0.3050066199354515 2.3173397595489122 -6.000009647220905 0.40031984532863324 -0.071687801394739 0.24335059596411324 2.8554672203509295 -3.856809841835699e-05 0.4263770981119773 2.2556620201390016 -1.5515330196542687 0.4576946596577055 0.27244194431162616 0.2581462000838517 0.32360538166430475 0.1887886233390222 0.38855584315594266 0.3161275051147396 0.16875187718696502 0.3180571015672582 0.36012926727150746 0.5253981576814102 0.4006473906028742 0.027333278934692787 0.18250405226547775 0.4721946967931605 0.31752584146416596 -0.05470970797172924 0.2897362736120922 0.22270652171396374 0.3768895609862608 0.4498401632133078 0.30857131423692263 0.4064628138161359 0.171251249745715
p-l,l-l,l-l,l-l,l-l 0.09362666505852361 0.2617038749506773 -3.487008529919728 0.19857297902448534 0.1295501385700583 0.12663024148046895 0.3671674609613313 0.0006013355512553463 0.24591793367149065 -6.004177177619125e-05 0.12146658370705911 -5.652104717239273 0.24027411119776176 0.15744280016080797 1.4074205626848952 0.0008352457055421547 0.24622327578612874 -0.001998055935450022 1.4681771858607708 -4.980348047286612 0.10392109887713775 -6.000015244145496 -0.0008354259411565572 0.47473140764838717 -1.4668540415383036e-05 0.5713790717042809 0.08823763073823511 0.3053695314325101 0.23426970944599615 0.1598586920608173 -6.000017586464335 4.5646158633403 0.18925731217472214 1.2617729081178422 0.15364177848699936 -6.000002145416368 1.8128669561012007 0.10337980740567031 -6.000024728046767 -0.021314624969135693 0.19103496908683504 0.2622400846966053 0.010384583243594031 0.10620951928368522 0.3686674343339532 0.2885790771890646 0.31925816603710006 0.006263042882320695 0.23320041265209865 0.28590504369857384 0.4818046193408761 0.0017996070632432233 -3.2503941388866737 0.1607302221157143 0.18869366748107716 0.10501264707219432 -1.0788960555702774e-05 0.25201956211793225 0.2571940247490846 0.2573840077324231 0.24131187895142828 -6.0000039933342375 0.20989883030385215 0.2015290954911292
l-l,l-l,l-l,l-l,l-p 0.6764979279815582 0.8627760482721295 0.4674646124855336 0.9930102794783708 0.9206391329124513 0.9141714705062017 0.9592863199076123 0.41140841375072323 0.6108335794433576 -1.7411799930167646 1.025295942557856 0.7482640345696538 0.6078463019360346 0.8227874529686495 1.287974033435145 0.7090170734676186 0.9359936762503557 0.24269510843017195 1.211205465623012 0.7653563619252487 0.8419168547447858 4.258858398465474e-07 0.663669708535982 0.8556595597302101 0.6794279645784107 1.0123309946039043 0.7820062218486507 0.9497687659703288 0.6761745771245714 0.7107726349443019 1.6171282774157048 -6.000009301740753 0.9729343571369798 0.9395117073840606 0.7639790764972304 2.3970800467570914 1.2948731832976679 0.8170110968021645 -1.6286516431936102 -1.2675312897217463 0.9265260744837949 0.8430159924320679 0.8278443775418343 0.9602109773846195 1.07448026152117 0.9170672581869986 1.1473924871509271 0.8959123227722335 0.8432483529115669 1.017553840344802 1.438844511177534 0.8384565388362307 0.920467737761852 0.8017243973712347 1.1948914439743772 0.8518902260092371 0.33979544988045735 0.9940691290404565 1.0040489046921288 0.9975360808385753 0.9298876603097641 1.6394808671415904 1.1561226233965856 0.7749030380893074
l-l,l-p,p-l,l-l -0.00022378666543161683 6.808009726074802e-05 0.44886713183585003 1.4924464638493597e-05 -8.855985279685965e-05 -0.0003029178521493288 -1.320379166350394e-05 -0.09010617482191487 -1.5153863298799556e-06 -1.6403013244998612 0.0034792668557154212 1.5843777578744325 6.281754456282549e-06 1.9913854417424897e-05 0.0381917153334184 -0.00024112800464960051 0.00012872943759130345 -0.26400462152985393 1.1279258849364557e-05 0.9943122074751843 0.0005065758213031588 3.5097586093841686 -0.007615155638066856 -5.316352574401662e-05 -0.05873626341908468 0.004946883632022413 0.00017629425167671814 0.00021047182042239975 0.0014795791032907527 2.9152252141940188e-05 3.656450977290089 -6.000012214851677 8.029297502810268e-06 -0.014355134095915937 8.506304205802812e-06 4.165363039115109 -2.5415055350555055e-05 4.1621711572218296e-05 1.625760611628319 -1.4072177061095612 -0.0014090593384629097 -1.0497117451751693e-05 -0.0010357971246426707 0.00041292592035569223 0.0008581676217497287 0.00011957231195717134 0.0005507570685811169 -6.335419521607107e-06 -3.0205325089397797e-05 5.876140980239116e-05 0.0001463868511223388 -0.0008943042270920829 0.26206976413355265 0.0004070192221902904 -1.5864382393326845e-05 0.000628093556641056 -0.21185216610645996 3.0314899975401665e-05 -0.00016327312268262517 0.00023800144835588147 0.0001365022085896959 2.220018448591893 2.5472685478513798e-05 1.7422324410122403e-06
l-l,l-l,l-p,p-l,l-l -0.000263545481302583 -1.3727608232706763e-05 0.3806770378502496 0.0002501963957383904 0.00012860781052086577 -0.00010739583946219504 6.251395081330048e-05 -0.09381908604890388 0.00018492960226216293 -1.527936699785768 0.0024853021736575445 1.355623066336531 1.5612567184535475e-05 0.0005360731028641418 0.15208000445861503 -0.000303070489021154 0.002445274062920804 -0.23638767052798984 0.00011483254770745966 0.7786279075833265 5.852910539924115e-06 3.6200428810705896 -0.03731268436253821 -2.13896646514974e-06 -0.07075646905170888 0.018212840625300764 0.00034804775614892265 0.0001110259283692306 3.062239939129425e-05 -1.0453899576697197e-05 3.4743939694488306 -6.0000035333983694 0.000991358436869285 -0.005715586066993995 0.00018176154947486593 3.988108121485384 0.0011302763372188827 0.0004741019004947566 1.6338432674705785 -1.310977224947923 1.6561910774330357e-05 0.00014027845394220883 1.6526468229210447e-05 0.00011984271989039947 0.0009361531321174216 5.182836853205096e-06 0.0002771468748478683 -0.009506324191061892 0.0002345674839087152 0.0037552856437992875 3.029543797424842e-05 -0.0013650528685055137 0.22041906120112376 0.00022356767711117728 -0.00011395369045294164 0.0009041008168810333 -0.24940186374020995 0.00011362711205915287 -8.911650652259674e-06 0.0017944567448564953 4.991952535406025e-05 2.07302457693651 9.10779238494245e-05 4.45694165043465e-05
l-l,l-p,p-l,l-l,l-l -0.0002799481947510426 -6.985410104784629e-05 0.40581386169968947 0.00048663866821913054 -2.8847036539926177e-06 -0.00037259973045539424 -1.9469251396550214e-05 -0.07454148040320172 0.000144995065107996 -1.526062546344342 0.0006581358805896537 1.3540766536504283 2.6231063200404715e-05 -1.896740539992308e-06 0.09900729116496935 4.664662378088103e-06 0.0050324869564629246 -0.23886426790958684 6.926921380877525e-05 0.8513013483924476 -1.136745654585173e-07 3.5503354237035576 -0.024401092785812716 6.0617305952210155e-06 -0.047918768273404654 0.008407175176020597 4.790459495912311e-05 2.3140703562640844e-05 3.703252614327643e-07 2.012516458757943e-05 3.477879631223854 -6.00000858791648 9.86879088712269e-05 -0.0043256263115771425 2.7910358817508223e-05 3.9896486435146654 1.9135451529601265e-06 3.420499097837834e-05 1.5255920165184123 -1.3037242358256071 9.782684252797602e-05 2.733554779075815e-06 -0.00029951297062069833 0.00019194486239222875 0.0004022646459950918 0.0004620784724214701 0.00026943466679794746 4.6865914887028965e-06 0.0009188354616509787 0.020848622883470096 0.00013653712296842616 -0.0029091325842924933 0.16353562319292736 0.0001467599503575135 -3.7719401063923586e-06 0.00018831128304608576 -0.21784651693088478 1.6942231383659372e-05 -7.430429974715406e-05 -5.189429169249128e-06 5.626265408638774e-05 2.061024272387976 0.0008420844661516992 -4.214913105706429e-05
p-l,l-p,p-l,l-l 0.08491562101354434 0.1563385775511085 -3.112418075258274 0.11346811640099462 -0.23613247045216498 0.1195413589435397 0.18943528703523266 0.06507353642383226 0.16621603011770153 0.11834705648723202 0.10893459433414542 -5.211150679015229 0.1807328507800949 0.1038424899596343 0.7685874332916289 0.00012879972114470924 0.1991144462545137 0.014381245614993913 0.0004058217277472565 -4.544846158543525 0.20290643180974283 -6.0000042883152105 0.000777737926165355 0.24085875622619154 0.03387697314061727 0.15170526518947558 0.08612315958583072 0.12179755066333643 0.08631358363659411 0.14494446279528503 -6.000021150725857 4.159892765418576 0.19925480086247777 1.3860914025852136 0.14587736275018412 -6.000001064333919 0.5423342389038383 0.17035240607363344 -6.000002458308558 0.030087505347190596 0.146387740623874 0.12384782824621123 0.14285582572034275 0.16118568358888571 0.15068400440501997 0.19063801684567053 0.17624324663231078 0.022059035255974968 0.18029855939107728 0.2063605219889637 0.2709713570719266 0.05165863301036733 -2.9486945800057636 0.11230421904042893 0.13168833674598407 0.09065250021622823 0.0189862109733997 0.12704082997513524 0.16372098567597196 0.12571561069423998 0.1285871709365589 -5.834892006189249 0.10522290778482875 0.15006544826786425
l-p,p-l,l-p,p-l,l-l 0.011751352469319735 0.00015198994682511579 -0.09785120801990047 0.023729196555898033 -0.6702927557890499 4.744712292824092e-06 0.05971253845292277 0.00028724292838018024 0.0675714985775053 -0.0007958716132527259 0.0040844938100967005 -4.200576514096133 0.027856776102744986 0.009551001394958566 -1.8715018746530707 -5.0100792111744616e-05 0.002062448919248119 -1.6924454791071607e-06 -1.9984648836627932 -3.635833501347472 0.0013976687884697217 -6.000001433882852 -0.004675391120759675 0.0025366598602664004 -1.6423388328214208e-05 -0.0008776956909408883 0.04386318258805732 0.06287667455862422 1.8545885333969855e-05 0.04382972384408712 -6.000011014621302 -6.000010977892275 0.004770600546502106 -3.286012863355087 1.4687397202798174e-05 -6.000010988932991 -2.1477414065625657 0.05945007055979055 3.8598348960035147 -0.021013773418470886 0.09805667194032178 4.758395762761071e-05 0.020157078700437373 -1.139933977626053e-06 0.00012806074211351692 0.03399070586344364 0.033959901725413515 0.01985724698401104 0.020739154205921168 0.026982410976961486 0.13718852795294478 0.03905577799789327 -2.196735436774952 0.02024415522973427 0.03509695889806168 0.010920869246731338 -1.6355253726343865e-05 0.00391752238877249 0.0003419620240492239 0.0022901480946372105 0.03539415176693406 -4.977807895130445 0.0010443485913535747 -3.655970236492295e-05
l-l,l-p,p-l,l-p 0.4517627172225752 0.40096089156771303 -7.652689908227776e-05 0.5121394559020511 0.12151208443633188 0.4983646207155775 0.3611876029191583 0.4563859962685634 0.3949800018448752 -0.6031032258834644 0.6223794605819789 0.4700701373270164 0.4071966730948151 0.43519933118317206 -0.0021036583425618504 0.5278572867935046 0.4317390542088064 0.30141224752334367 0.26117820170626277 0.3123368747565172 0.451138704825676 -0.04634253556152931 0.4413413136991769 0.2993253967736682 0.4641282507308187 0.1130155633953574 0.44855385869643744 0.38704532242519935 0.1768780334184172 0.3420496980249063 1.9969082435890144 -6.000003763076502 0.49074524996516433 0.09607649306965538 0.3966603710164908 2.7026953870850443 0.13154790797162952 0.41416774435055853 -0.984266396691464 -0.3737372339346276 0.5077100420376705 0.4663714065630862 0.5114319429509122 0.45745854171175293 0.5138715328651673 0.37393425034003985 0.3883356231506366 0.5463685861640131 0.3590364972759798 0.44437222743068355 0.47773450720906246 0.3737232575226097 0.31605547118774446 0.43579547443136657 0.5478622138440628 0.3781762186870459 0.47877724786752707 0.5261832030790309 0.4740061469293 0.5607476862585637 0.3664957229818079 0.7496808350255477 0.41318327293082274 0.3800886604531849
l-l,l-p,p-l,l-p,p-l 0.25543698100514756 0.17095111887400857 0.19777928289237542 0.27503551332566306 -0.0021619553686259532 0.13980031955646682 0.15292472834918788 0.20845663363183503 0.29175534125637503 -0.6788834731909412 0.20288082297489504 0.2728804949027528 0.2959708918336763 0.2897184606700299 1.4188239046136612e-06 0.3264289083274691 0.2580099017232092 0.1487034690617103 -0.010742649743468256 0.09028967532681637 0.21324587630245717 2.0360082958901272e-06 0.20250648670533006 0.0880030330661709 0.36745292591860423 0.01036454857508997 0.24964345243007738 0.26470639255058087 0.11986251512506181 0.24528713443827546 0.7315656563680799 -6.000000907902538 0.29792571351852526 -0.05271479202562699 0.22416943528393368 1.6278492702087333 -0.0033404915463674943 0.29900062144847195 1.9737980349079343 -0.45099739534223654 0.3480537482788424 0.24699018555778576 0.2677250548029787 0.24563149094566092 0.22998971008733612 0.25640956546428184 0.21669829480011987 0.29339002798427766 0.22579975411232361 0.23758722403283095 0.3187311237166838 0.3331089171318797 0.0006329620634153216 0.25069819130965915 0.4110773813351472 0.27032166374062555 0.1286387021706907 0.2950437162794699 0.1745346166192996 0.31524646774099296 0.29884877603110543 0.0019321877646827918 0.2577009086628407 0.2007970600171923
p-l,l-p,p-l,l-l,l-l 0.027934185838964717 0.13781087681662957 -2.8541858169848386 0.11057526159346708 -0.15106062386666416 0.13500349291126537 0.13316895894731928 0.04023465062743648 0.14913889747451956 0.04668060856888556 0.07677231994843826 -4.995492926880259 0.15721260658018577 0.06514927649289862 0.6390686942170015 -4.3147973948897564e-05 0.10409904282683718 0.0006362489070824923 0.00046255532726800574 -4.316283850013074 0.11286774085142666 -6.000019849407725 -0.0011256935953001192 0.20921251594367013 -4.632756978964644e-05 0.13441163120810495 0.03844336164512511 0.1170980424012263 0.06821806634506877 0.08178536313346879 -6.000016821042108 3.962409606003293 0.1293730425095194 1.243090834974411 0.09946029005032124 -6.000030842814174 0.45844341924562726 0.095392563681374 -6.000001645733374 1.3272339182926953e-05 0.12605277274257035 0.12687462406299488 0.12112596385599839 0.1144812146348105 0.15162274262355796 0.15801847752611553 0.14432614229025678 0.008349608588134655 0.15685601619092937 0.15547812406807532 0.27255650700717166 0.07254656573988776 -2.6904677246488298 0.07158965498082237 0.14991790964183774 0.0713257297952251 -5.360095995245782e-05 0.14488923057936784 0.12678052257942754 0.09859980755171426 0.12739544046652254 -5.62492090544925 0.0910402569548606 0.07859024861670541
l-l,l-l,l-p,p-l,l-p 0.3698339883713973 0.34018514833710967 7.422636302981962e-05 0.4424653298748574 0.1659795964380814 0.38816198847379196 0.32381413381929147 0.3116891147007727 0.3370314703380197 -0.6402555504615927 0.5172195031304746 0.3626394656229827 0.31017287403083693 0.40442158299370884 0.04635505222514148 0.4350166945913115 0.3921675614453953 0.2119182358916246 0.3411630847365434 0.2576205110432624 0.37345260815348336 2.5702053309230185e-07 0.3667490397660342 0.2228339968879164 0.3853312525489162 0.1679618326314901 0.3246474649143274 0.3436082436742763 0.17836972713687904 0.28797548020961605 1.4640272155643073 -6.000002429584674 0.41645047067889696 0.28621826542072426 0.33741999545110574 2.2106356030562018 0.19681766974192016 0.35848593174180177 -1.0452231637483738 -0.43100594246133134 0.41502153286468646 0.3904816560428362 0.4082254118059828 0.37108239948587063 0.41751374025269417 0.3304426285102695 0.37892910073633695 0.4244893172707776 0.3014786194424326 0.411143293864947 0.5233745326857389 0.39239775114255687 0.2973655423571866 0.36059209624585353 0.5382056701838323 0.3048700710853252 0.31011117289103973 0.4162833696303125 0.3994321161171724 0.44826716966118757 0.29892619913825924 0.6144294745639645 0.3645491844974367 0.30628749824389845
p-l,l-l,l-p 0.0003146095622620155 0.019504319568066832 -1.7657584235867938 -2.224715607764684e-05 -0.0861468946533265 3.4272499753929794e-06 -4.566452718585257e-06 0.043159513123474914 5.9209266610502584e-05 0.1094679332903335 0.0004579795763245513 -4.040136272050784 5.4869843642368915e-05 0.0006008932276028623 0.29526006224832513 -0.0007221485820211144 -9.586186271472578e-05 -2.9181566027509267e-05 0.0035016801147850687 -3.3505359029648547 0.00019263122181678761 -6.0000072723001825 0.000536765645037082 0.03074316803027773 -0.00023332807403091878 0.018747124932747834 1.979039371622033e-07 -7.55201144468404e-06 0.00017265504061499175 -2.1479736693474882e-05 -5.927756979462648 3.560916472789397 1.5261862886610524e-05 0.34137851853691925 0.00010448443905961296 -6.000009842489976 0.39406586764327795 0.0017113717854332596 -5.839620324435971 0.026624518507355276 -4.951835460733158e-05 -2.6674949631388474e-05 9.393741983667143e-07 2.2097387278119715e-05 1.6476903153672983e-05 3.154567728098346e-07 0.010185794373666375 2.62402577535671e-05 8.71896160282562e-05 3.649074760796634e-05 4.679161487248048e-05 -5.201419268925998e-05 -1.6800531082861396 0.00019007288110949643 3.152670619153196e-05 3.929001947023211e-05 -2.182118532160712e-05 7.094695853761215e-05 0.0022909636547492774 -1.4745321223073406e-05 1.5017893278804608e-05 -4.688169662823696 0.0001168370011129528 0.011545403638828125
p-l,l-l,l-p,p-l 0.1375563429465816 0.07997497282768314 -1.8841257102054396 0.08395738434084563 -0.07944597125280733 0.09602892364449092 0.07077208317024022 0.13634023947628088 0.08750030430005744 0.2146612679076902 0.10206596009008334 -4.060951276516482 0.08187851767626687 0.05466189235246448 0.23949945288046032 0.09621383637255522 0.08596922101659529 0.10528529900362024 0.00012739768453918528 -3.3742223034534 0.12860963626554367 -6.000016372778098 0.08300228655998036 0.05980788053331643 0.15419637136158545 0.08773006292010627 0.09168273661888554 0.07928748162278869 0.06686843603793899 0.058812782370555136 -5.942033027079821 2.194259385681683 0.11453601691217014 0.0001505374724199594 0.07339156963144354 -6.00000835527715 0.18744800009576817 0.09562312432716104 -6.000002068842109 0.1692285066837451 0.12004430879832045 0.09583364193894525 0.10560694672067522 0.13696781634364447 0.08423024392891745 0.11956287499048648 0.10304635118438946 0.07849199411616346 0.08003084178756925 0.10919337256761114 0.12517454361625355 0.06625946528180628 -1.6536622198189128 0.10500024552089489 0.08311269559318081 0.11190768131435014 0.1312396490795051 0.0792483085062693 0.07657473531170819 0.1265570190168217 0.07696692240226094 -4.694009351867051 0.09705044531393044 0.11337794565630586
l-p,p-l,l-l,l-p 0.12857914859604233 0.03710361140898288 0.00793603470708955 0.1162454879750842 -0.12462419776550736 0.10983459247245622 0.09175409488362753 0.10249299941755635 0.059018421700622714 -0.001096884588025042 0.06393536713262318 -2.0990391082131277 0.052885477024098945 0.047622834588245296 -0.5315488334069839 0.11382273076885452 0.08459200036542112 0.05368100813119831 -0.6885114525468643 -1.5303495583824496 0.12942384258023013 -4.606992964830575 0.1175377766098618 0.031092903047011015 0.08718905251374269 0.0005961179271026909 0.10105540239996318 0.08141653965171788 0.04185589061687358 0.05306212080052295 -4.248781931603171 -5.757820682350843 0.07855343883143479 -1.89249136935242 0.057427399102724506 -4.673510452733074 -0.7129724544220418 0.056012586544835284 0.019919978583628532 -0.0006281781768967149 0.0897718191736236 0.04954893167120816 0.12078654838988463 0.14375033671339407 0.07820979130159554 0.06798180969844228 0.09357152408553629 0.09928838079215631 0.05943591230219156 0.11399398759667971 0.1193850393685397 0.07320555658480014 -0.5656637370054217 0.10500354182492311 0.0870703076193461 0.07721860783035016 0.10013985397658202 0.08464230637382303 0.0686287035703782 0.09908917748249622 0.05821141506687199 -3.069583033667022 0.06248313791509031 0.0817975536248816
l-p,p-l,l-l,l-p,p-l 0.03190588400392255 -4.077579414746057e-05 0.18061577640271648 0.002327643945639518 -0.18191046667039987 6.552991024231145e-05 0.00026618952194382546 0.021972043798598257 0.009315031454834402 -0.006893582783618382 0.0030869474167149196 -2.3037293270060974 -0.00014908407117124052 0.014837679610444918 -0.47373272502917607 0.01839587178421736 0.0002766836086708453 0.016029193637615298 -0.6771325325359538 -1.7162728062170518 0.0024033873013958396 -4.740358426935499 0.009044857280136221 1.2556598617693224e-05 -3.639154668700532e-05 -0.0008435367875161111 0.06108696013259557 0.028399884830423317 9.494297132907924e-05 0.0003235364514292528 -4.413852539558619 -5.571559596370426 0.0011713682373078618 -1.6874418817034478 0.000464781458341848 -4.835324883553878 -0.6286373276170287 0.025477526752374923 2.960084584332555 -0.003714583163149423 0.001929965640419982 -2.8577119182197888e-05 0.005271215853074351 0.008682747049332041 0.000208964736615645 0.000754552398601554 0.0026878617499472434 0.0003286391663462133 0.00031897785038639256 0.014895009609896728 0.02414325585278436 4.281112415523357e-05 -0.6277718986661157 0.013984497802793767 -0.001437031571873628 0.020318370677139166 0.0038583314066151855 9.213511037617939e-05 -3.7571284245712e-05 0.039850075388881044 0.004943562872779973 -3.216797717682576 0.024941631013592064 0.0001494517506907543
p-l,l-l,l-l,l-p 3.805889924887942e-05 8.594921179673051e-06 -1.5179138507688301 0.0002129025825758437 -0.03931183083662827 -2.862863000801436e-05 4.265667522231497e-05 0.015197747091292409 -0.00047126130045899704 0.05138299874499942 -0.00029136106804200884 -3.7877779803943246 0.0007141916014004203 2.738742451448607e-05 0.2441613640307352 -0.0007608296292887929 -6.743177669911202e-05 -0.0001969918730768047 0.06268264597310075 -3.0770512590688552 0.0008762215627312143 -6.000007879325573 -0.0017236919472176024 0.004162315537478585 0.0005145559523132173 0.012732496167355825 3.330593719850856e-05 1.8133971296214967e-05 -2.3027512491037575e-05 1.3561505960567952e-05 -5.69811005328177 3.3099563806388907 3.11608430774994e-05 0.2500460037058567 -0.0006630084108483877 -6.00000116293818 0.35730690513491103 4.293878310078851e-05 -5.612991309429899 -0.00032796966374363525 -8.993912748470923e-05 7.35848237627406e-05 5.250656324573945e-05 1.5760691203117435e-05 -1.6442351278649794e-06 1.5967030511084044e-05 2.4881582163177133e-05 3.6643056804375176e-06 1.236282454709541e-06 5.700594471707461e-05 1.070319690244601e-05 -4.884100542585305e-05 -1.3943154465888485 4.665684364372278e-05 -6.677368553137504e-05 0.00010682246186777959 -0.00016144811915546513 -0.00021427091898934566 -1.8688094114531734e-06 -8.754095735610984e-05 0.00015707891967336522 -4.4383828813346895 -2.863249196015046e-06 0.00940180714941718
p-l,l-l,l-l,l-p,p-l 0.08658887517878475 0.047254556649492144 -1.6237940170436305 0.06257965411325027 -0.04649233317563756 0.06808668021536185 0.061723217838312326 0.07179661452636776 0.06537101847526036 0.13130418791727264 0.05894889381469915 -3.8291621917679266 0.056702474619361 0.03589644157554617 0.17820538434884997 0.01555334600686928 0.0748966208664914 0.03464830347773141 0.00014454887069423957 -3.110860228119521 0.10014649408511223 -6.000025484867851 0.028581327646334587 0.056516545072612355 0.049803584083985664 0.05227608970357362 0.04436761139665524 0.06331657244420319 0.040791568958928257 0.05298123569500397 -5.732232334132862 1.9892173231395396 0.07182372385994733 -5.245338545761724e-05 0.03294321623998313 -6.0000127828588985 0.20615325799944584 0.08986063908271286 -5.798843591501471 0.023312717017887452 0.057244932280203484 0.05250698961553884 0.09940374349048975 0.10755290123737976 0.03153585606017763 0.07911131810505721 0.055338736552786316 0.034017199302262054 0.06685469064803137 0.08299202405324517 0.09716003403079183 0.040829039590285866 -1.417122806988389 0.0761945176016423 0.03589329096479163 0.03710808566330514 0.03284413476911426 0.06320786611332257 0.06060605786323636 0.09051697626363542 0.060861285553911175 -4.464290065277703 0.05702995210763418 0.04620688822058175
l-p,p-l,l-l,l-l,l-p 0.0980846767374802 0.051553368444406535 0.00825475679484029 0.10079056351339734 -0.12126097123595135 0.0813151927972829 0.07993160133334265 0.050626204314796426 0.05293672664228147 -0.0230438546798958 0.04950118368817055 -1.761810144536636 0.05224999358629557 0.03122901391893678 -0.3401014233947835 0.06709665187246543 0.05063672642924785 0.026029192879087407 -0.5561560849286123 -1.2839573985194286 0.08689183517110564 -4.234244409169181 0.07534662374463379 0.04483109379315124 0.05779127000150401 0.019951637840829716 0.06133282122059458 0.046399615663910536 0.01721639756903445 0.02742278900944323 -3.9722039015457726 -5.518485991962357 0.05058514768777323 -1.532773575286432 0.02469866536557539 -4.384633124679328 -0.4699282791663735 0.07295750628950169 0.017168174782373393 -0.012310992701950317 0.07457635997437018 0.025812738392282906 0.05586434802716671 0.09980797931302121 0.07374719011860237 0.05244059656101807 0.06756597490086957 0.08126557187860778 0.043814007112949596 0.08634308358171024 0.0882521882113475 0.09231710001221935 -0.4352489320429249 0.05073716053700609 0.08509970268683632 0.08118360703417038 0.05636720970059836 0.061836449494442065 0.06310382171760014 0.10523620913673103 0.05309784855250239 -2.735965155630999 0.03704653064520106 0.050603227731972775
p-l,l-l,l-l,l-l,l-p 5.3091996849004394e-05 -5.289378690655323e-05 -1.1884837620596487 -0.00020652572481024784 2.147020405669891e-05 -0.00022220739287747085 9.578530302002372e-05 -4.022076277782519e-07 -1.1536897816897756e-05 0.05312705592486988 -1.5171204670167122e-05 -3.4689565368640958 0.007177147382479582 -2.7797394505591357e-05 0.18005276774240112 0.0001757059787562452 0.00019478610334840832 -1.4298571256638965e-05 0.08785000908432479 -2.7321869374897085 7.081837926769319e-05 -5.755829408813075 -0.005733547647549835 0.024997178025673014 0.00013954648762754546 0.030329403051010676 0.0074551737562016385 -8.296233362939097e-05 0.002732444185281769 -5.096868882945064e-05 -5.411438238578619 3.0335506373032395 7.063877339677877e-05 0.20293962711809424 -3.3315284612106095e-05 -5.85787602402127 0.31777763899290795 -1.101305675539493e-05 -5.318132538954082 0.00044257927198214505 6.188232797048553e-05 -2.2314878976721855e-05 -3.87877412322454e-05 1.8402683393661967e-06 4.474019491823858e-05 -1.4706768726465771e-05 0.00020101644483719788 7.356129775648943e-06 -6.996373521887974e-05 1.9348570869744927e-05 4.4358243897384e-05 -1.9911235584597772e-05 -1.089520589808597 2.429440409816168e-05 -3.173639208812997e-05 6.08753039631616e-06 -0.0020816879943779286 5.135089142463198e-05 0.0012685796149871907 0.00018990948680871708 4.962521590740224e-05 -4.127514746000221 1.975662060672733e-05 0.0026191615850486632
p-l,l-l,l-p,p-l,l-l 0.026059503434144517 0.020380427555534836 -1.2404858324315717 0.026906314090688603 -0.019630442994586862 0.00014009949829076144 0.021853384648279486 0.024721035520915823 0.021875330977900776 0.02405796998618459 0.01856077119063216 -3.5238324588772145 0.010492839676439587 0.008666604849907326 0.22932211820478854 0.00027067580079933673 0.03539769377654433 -0.0016767154124299514 0.12846799687800411 -2.7967027636770485 0.02412938072880062 -5.802878116300653 0.0013048980795938305 0.045314829684431096 0.002010209906896421 0.06438831081062489 0.00039134819125860864 0.012566630505837605 0.01947633546476702 0.012798549515482439 -5.456689637825582 1.7608633855306213 0.011004785570325443 0.1613219180418593 0.0005295392927570625 -5.899069803903604 0.27147067282955645 0.012883055011102262 -5.399392794616626 -0.0030067877980251073 0.004606408567618603 0.015185987160088033 0.0001857960261504213 0.027258260554177113 0.00427967496573921 0.03765991961158046 0.022318241918196185 0.0016743710849707973 0.031287964263958225 0.039526749379645655 0.06647183019812884 0.005928928163747878 -1.1095543081181223 0.006604336287486197 0.0071378474429279 0.009218481078403735 3.8339030744902745e-05 0.01239280361520234 0.04214614921068453 0.03928798787662233 0.029332969465773396 -4.175946431045675 0.05104494529349323 0.03560271232624513
l-l,l-p,p-l,l-l,l-p 0.11380749415081001 0.07573933297060852 8.736403573131738e-06 0.10254962819708385 0.02471962011603357 0.05670593193162859 0.07602203695022981 0.06067612092165006 0.06209867919340844 -0.14241459557005845 0.12069075740707642 0.003448795365203391 0.05338117880503085 0.08285326362214107 0.14122345501408884 0.07940841739743612 0.10296152866301064 0.03865794276819744 0.042264476779567114 0.0016903986085860514 0.09378864997295062 -0.128969489038684 0.09964517513043736 0.0576859496265273 0.07418281200627762 0.06862240194168247 0.076035795610602 0.07011555425414243 0.034720227803278575 0.033541392803021874 0.03593875963453658 -4.763634621072794 0.07832563434212661 -0.005103257987787349 0.03748838115681648 0.34802662346944946 0.11619083420251018 0.07530801747108969 -0.9965025300077478 -0.08715029796733205 0.0806827666307749 0.0493272296485163 0.08526047908201251 0.10536875808316329 0.11910514344240318 0.05407196383953364 0.07338820495456218 0.09659895519540089 0.07177754400226945 0.12551412299552234 0.11673001522749893 0.07221713161206102 0.04671407527106794 0.07409268469657401 0.052779331344366597 0.09020478490745155 0.0887321620534224 0.08272928794234148 0.0733497312968273 0.1150931028838273 0.06517543558525099 5.037386484508336e-05 0.10782833080123352 0.06123483119312875
p-l,l-p,p-l,l-l,l-p -0.0021586541034514534 -1.584689734530784e-05 -1.0143381488655387 -6.401087658101244e-05 -0.08624044087354163 0.012576615920243103 -2.0012776300074713e-05 0.012802193567823575 0.0003737333677993085 0.05182697940172162 0.0006660483715148025 -3.119501405607359 0.0003525692588236972 -7.28417624393134e-05 0.11149324628191881 -0.00027932380172035156 -6.820990267900733e-05 0.026419246118923777 -0.0942435250634888 -2.4073726810938885 0.030328158661703096 -5.404428207809041 0.0033278947617590513 0.006782732167485575 -8.766110507225659e-05 5.541687381290004e-05 0.013783452699985816 -0.0003140879379774872 -7.204159494477709e-05 4.4179745037627924e-05 -5.065617673721304 2.7677748290930992 0.00030213385047838043 0.2954961108341155 6.140504827510919e-06 -5.530978998209613 0.0389034597116108 4.380273505215632e-05 -4.938542017755164 0.06986923201280755 -0.00025268523704311083 4.3395850214050713e-05 8.569902575344132e-05 0.00017263010382429376 -0.0006913810909735574 -6.131281104177393e-06 0.00034790276772570325 0.00023148440899159207 0.000208576902158522 0.00010154954222611592 4.9276233836348546e-05 -3.241933917659554e-05 -0.9756443596887181 4.515839539644357e-05 -3.694999195828483e-05 -6.624409032836637e-06 0.0084950895973747 0.0007416386255149167 0.010995976522879848 0.000231103474842337 0.0003440802570671437 -3.810357476133567 -2.944590982692148e-05 0.027443801739928806
p-l,l-l,l-p,p-l,l-p -8.600641118611913e-06 0.011570363867102534 -0.9627846688468883 -3.17828503203711e-05 -0.035154724300008 0.001693638559931602 0.006650189445023131 0.01628501244953774 2.7685307636463084e-05 0.07048287318348448 -3.863861439661701e-05 -3.078553406009726 -0.00017319872922972663 0.000654222329675933 0.10083440120260449 -0.00011758998098184188 -0.0002374911737665695 0.018105386821666552 -8.641688749160354e-05 -2.36941128020988 0.022048117696253203 -5.389822661295739 0.0001661032670194249 0.01573946914003313 -0.00011265174552258352 8.524963564128567e-07 0.003136891329562758 0.01285228227973228 0.01278950236923071 -0.00033931278216469654 -5.039910284103813 2.7179274428970546 0.001448377913684262 0.22376307723566027 7.89230741411948e-05 -5.498394712301774 0.11992596932272298 0.004169992256279243 -4.946630882573807 0.057065413434428384 0.005386426725884541 -0.0004572595555702311 0.00016402433923969948 -6.19135635670174e-05 1.1402640601527194e-06 0.00031582342710984246 -9.82968757941806e-07 -0.0023021131597124136 0.0036986492582533523 0.0009702382559512817 4.6820586694637726e-05 0.00019453636350746668 -0.9030891577164996 0.00032652217646335455 -0.0001835326851882807 -7.303862108434468e-05 0.031263319399411967 4.2025318966737224e-05 0.00024892439859405634 -6.99940509319374e-05 3.3859159195099725e-05 -3.7631546258681707 0.004905069983792966 2.3986362437046172e-05
