p792 -0.0389191411 0.058931392 0.12103591999999999 0.088493333 0.04075300999999999 0.12952793 -0.13196217000000002 -0.069014411 0.15134578999999998 -0.045336905000000004 -0.14984059500000002 -0.23425553500000001 0.06951959 0.0721988955 0.054614713499999995 -0.14404541499999998 -0.11741707500000001 -0.193313685 -0.15449301 -0.237820752 0.29241486 0.15026723 -0.19986274 0.238505825 -0.17647729 0.07813059350000001 0.212390765 0.243829675 -0.244237563 -0.0437432325 -0.155672655 -0.124877095 0.205025895 0.19403589999999998 -0.104580995 0.054587158999999996 0.17369510999999999 0.118440085 -0.070612355 -0.24772434000000002 -0.11077041500000001 0.1519928765 0.037046285 -0.10694637 0.108420395 0.008934609999999996 -0.121898933 -0.1888304925 -0.021021677000000002 -0.09726151699999999 -0.2737815575 0.024150417499999993 0.05251864750000001 0.04296990185 -0.154914995 0.107783181 -0.007149640000000006 -0.17487201000000002 0.029774787999999996 -0.117900395 0.22800071 0.028419885000000006 0.016310495 -0.1423490715 
p123 -0.42470535000000004 0.2977127 0.088069255 0.12550830000000002 0.14494586850000002 0.028102600999999998 -0.194835401 -0.434147925 0.79733779 0.385539315 -0.081759409 -0.191889615 -0.102073635 0.0836085175 -0.220390165 0.49190901 -0.344768065 -0.302042215 -0.141895354 0.222892035 0.156649885 -0.36415045500000004 -0.157450645 0.15836403 -0.03599471 -0.09856186 0.33770115 0.2531894 -0.43353407 -0.877066825 0.57464493 -0.273767615 0.24123072899999998 0.017524497500000003 -0.111691729 0.36908907775 -0.251266715 -0.010408564999999995 0.12907448 0.23288348 0.47198766000000003 -0.5368277 0.2088370415 -0.1528596215 -0.425609455 0.1380105675 0.66202465 -0.028713809999999992 0.46251394 0.5849927500000001 0.12169016 0.78110696 0.49727573999999997 0.068675135 0.530170035 0.49183915 0.159276527 -0.29811752 -0.48973385999999997 0.667218 -0.36277233 -0.080202675 -0.41457897499999996 0.478280705 
p1017 -0.297438655 0.27299116 0.210076235 0.29938108500000005 -0.135745855 0.14426148 0.12735428000000001 -0.07972124 0.082138375 0.0800319205 -0.344453585 -0.302509415 0.027912270000000003 0.028050655 0.14466121499999998 -0.09203718999999999 -0.1636700875 -0.26535221 -0.37019621999999996 -0.049938001499999995 0.2404154775 0.12095287725000001 -0.019326035000000002 0.03876024 -0.084124268 -0.020947487 0.35132014 0.19626452 -0.129803965 -0.1691054539 0.16836620700000002 -0.22886141650000003 0.217214355 0.29559778000000003 -0.23531211000000002 0.19660126500000003 0.10533239 0.31754792499999995 -0.16437847 -0.0655911045 -0.150272183 0.23417295500000002 0.061611193 -0.24307942800000001 -0.047979506 0.142643845 0.04277715 -0.155832125 -0.251623425 -0.238330565 -0.37076115000000004 -0.3085737 -0.12865427555 -0.128791049 -0.3345809475 0.022706208 0.076465935 -0.032712105 -0.08889918270000001 0.10081000749999999 0.26952741 -0.039717868499999996 0.0322855995 -0.320962995 
p327 0.3115614 0.628535125 -0.337338225 0.29839136499999996 0.125695347 -0.1439569405 0.28400445500000004 -0.52131252 0.767930335 -0.244981655 0.24848558 0.22501051500000002 0.06795730999999999 -0.4977031 0.503318355 0.8322160999999999 0.3289441 -0.27634489 -0.720415365 -0.35704421000000003 0.42435261 0.3580471 0.47333293 0.49285765000000004 0.44557842000000003 0.12030232250000002 -0.188572755 -0.52638078 -0.71684518 -0.77867815 -0.392301205 0.39602172999999996 -0.41439357 0.59432644 -0.581255275 -0.14455193500000002 -0.43719304000000003 -0.23657040000000001 0.275628775 0.41530378 -0.459538215 0.1362104325 0.456228565 -0.6064020750000001 0.142477229 -0.40629360000000003 0.62000535 -0.19783550500000002 -0.009722111999999998 -0.6181601999999999 -0.87151183 -0.70340922 0.221983865 -0.093400132 0.07718791350000001 -0.25002425 -0.19119868499999998 0.13765116 0.194451235 0.431882355 -0.189503395 -0.30849443 -0.169535295 0.033001745 
p702 -0.1493044035 0.103595008 0.320317355 0.17899556500000002 0.087515473 0.21718241300000002 -0.129164025 -0.067382866 0.03074033 0.025713503500000002 -0.324721625 -0.223266515 -0.08739862949999999 0.15754303 0.12483344099999999 -0.14930425 -0.0406997855 -0.223052305 -0.20827882450000001 -0.36972146499999997 0.367903849 0.08476855999999999 -0.138247512 0.26206063 -0.222088797 0.055926007 0.14192259915 0.27873188000000004 -0.310762825 -0.0677706625 0.05455181 0.007815665 0.18079964350000002 0.336547765 -0.19732286 -0.08463909 0.02477961 0.138380132 -0.07530544 -0.0632975915 0.0831959835 0.00760177615 -0.0800498675 -0.1281244315 -0.0730669375 0.0485775145 -0.1432723175 -0.28213237 0.216669934 -0.004258777499999998 -0.216436034 -0.163500425 -0.0644198005 0.0574505535 -0.15230106999999998 0.144900725 0.010629447 -0.33199389 0.15692857999999998 0.019855860500000003 0.0398589915 0.030651667499999997 0.18044258900000001 -0.010047888999999997 
p943 -0.306820285 0.25110458 0.1534587475 0.24042631 -0.283600515 0.15973635 0.22528879000000002 -0.183296345 0.14117943 -0.066239255 -0.2266356855 -0.20139022499999998 -0.010237909999999996 0.10162848199999999 0.009417334999999999 0.010387943000000004 0.0035699424999999993 -0.070422305 -0.19629169 -0.14757999 0.0912361225 -0.10256543 -0.13368486 0.081953952 -0.292995782 0.14058635 0.12758059700000002 0.2579247 -0.111300065 -0.300832215 0.0031854099999999996 -0.33048359 0.09163595 0.11669188999999999 -0.071731285 0.0432750435 -0.021713462000000003 0.293055318 0.018204715000000003 -0.150576912 -0.30420478500000003 0.1775678075 -0.0935403875 -0.27397529 0.161286855 0.1074929 -0.065235663 -0.1828267625 -0.275188985 -0.2678981775 -0.12030436 -0.2446776515 -0.179275485 0.098996635 -0.159192471 0.11535279350000001 0.0922522925 0.0125839815 -0.048480805 0.08110134499999999 0.090549135 -0.220472795 -0.125100518 -0.252014985 
p506 -0.27579459 0.17201360999999998 0.216755055 0.1685175475 -0.28040532 -0.154547255 0.24030234499999997 -0.23990334000000002 0.252485375 0.1304501925 -0.11859147149999999 -0.15826911 0.222313165 0.0990161825 -0.06249440999999999 -0.0288749825 0.20357603000000002 -0.085788685 0.022514111500000003 -0.30463272 0.15059101 -0.24228724000000001 -0.15214022 0.2155457765 0.008728644000000002 0.153250921 -0.002519340999999998 0.314487485 -0.114634002 -0.25879226499999997 -0.139304995 -0.05323370499999999 0.266849227 0.288813525 -0.1848747 0.111972135 -0.12936671 0.033035113000000005 0.144675933 -0.1430213315 -0.19511354 -0.26933741499999997 -0.177598955 -0.25790631 0.01212316095 0.129480618 -0.239191173 -0.22424031 0.14622573 -0.052313244999999994 -0.10671429999999998 -0.22801174749999997 -0.167688635 0.15447005 0.253591615 0.150782792 0.018931325000000006 -0.045466453500000004 -0.105843935 0.14299271 0.138386555 0.15490835 0.0411930965 -0.26704227999999997 
p648 -0.271590565 0.17385659 0.27993915999999996 0.19333785 -0.08965883699999999 0.264150385 0.013533165 -0.057689960500000005 0.010358338000000002 0.057251241 -0.36960536499999996 -0.28782931 -0.0096981425 0.11287894000000001 0.15952587575000002 -0.06758070500000002 -0.0799667815 -0.14076177499999998 -0.235169175 -0.30446337 0.332383805 0.0188254075 -0.023359565000000002 0.233396435 -0.1540530275 0.064608006 0.19293105500000002 0.211495057 -0.172670855 -0.182442685 0.14247162200000002 -0.107689535 0.121666558 0.27149687299999997 -0.19538265 0.052546851000000006 0.04587748 0.1774588325 -0.088173532 -0.060149601999999996 -0.0187634045 0.005237287500000003 0.037526395 -0.083160855 0.0138017585 0.12166595 -0.06391369999999999 -0.18998405000000002 0.007306025000000001 0.009187510000000003 -0.231409035 -0.07754997699999999 -0.126924309 -0.010692445499999998 -0.21980107999999998 0.06609530999999999 0.06528347000000001 -0.2762845 0.07492813499999999 0.015158911999999997 0.060127015 -0.0380336495 0.038553067999999996 -0.1408633025 
p202 -0.28236917500000003 0.6060597249999999 0.650673525 0.236369555 -0.44782564 -0.36356599 -0.275731415 -0.41823090500000004 -0.756927735 -0.236168475 -0.3748549 -0.5650609799999999 -0.221599778 -0.0596267335 -0.232131305 -0.017758629999999997 -0.18407153 -0.11808903 -0.210279685 -0.23237911 0.18578927 -0.206178835 -0.406360085 -0.639589985 0.032215600000000004 -0.2332474 0.32378723 0.13481192 -0.43221924 0.596575645 0.65795465 -0.0699380175 0.437959045 0.1431626885 -0.015809172000000003 0.58127191 -0.33672152 0.39237321999999997 0.48911889999999997 -0.175679645 -0.473270085 -0.361972095 -0.035714435 -0.8155580250000001 -0.531471625 0.48880033 -0.614872375 0.69036495 -0.57469077 0.64432466 -0.516094895 0.25573080000000004 -0.584284635 0.44482071 0.45434829 0.640614185 -0.22173233 -0.443072535 -0.8714724 0.18681173 -0.3608087 0.355330945 0.46920161000000005 -0.611575235 
p678 -0.08735892549999999 0.082533235 0.13054345 0.099239518 0.048694390000000004 0.11485616500000001 -0.125002677 -0.064877532 0.113035207 -0.09635049500000001 -0.170479935 -0.227070725 0.043696975 0.036598134 0.055773692500000006 -0.200430065 -0.136247372 -0.16601043 -0.140147465 -0.206611685 0.313201995 0.146525258 -0.211466465 0.22177848500000003 -0.217582845 0.10360795249999999 0.197530045 0.257863895 -0.28300603 -0.039110334 -0.111102115 -0.134379315 0.22921724000000002 0.2201330125 -0.08464664 0.07320876750000001 0.13306848 0.128867232 -0.058644100000000005 -0.21349075 -0.09466299 0.148578523 0.034428650000000005 -0.13982202500000002 0.0546276985 0.018027374999999998 -0.12599289800000002 -0.20680661 -0.035330411 -0.0436684262 -0.23142821 -0.02656627999999999 0.019440928000000003 0.043915521 -0.12509321365 0.08912858936 -0.014226915000000007 -0.185537965 0.03900401999999999 -0.108564858 0.1589963 0.04069865 0.06573230199999999 -0.1373727415 
p41 0.37225996 -0.253412375 0.6729497499999999 -0.33587729499999996 -0.032185809999999995 -0.34741725 0.6167773999999999 0.5761267 0.82584178 -0.294532895 0.22874366000000002 0.435710185 -0.463768185 0.540073415 -0.37952628499999996 0.48524658 -0.23105988 0.07499556525000001 -0.36486854 -0.1367840005 0.454554915 -0.05391045 0.32080311 0.307477795 0.0075465679999999966 -0.70794827 -0.07822006000000001 -0.34758880999999997 -0.0450776565 -0.24957528140000002 -0.58217678 -0.553448835 -0.40160446000000005 -0.38513975 0.10076703000000001 -0.05031503500000001 0.08184412399999999 0.236056885 -0.40021158 -0.41826269 -0.366786975 0.14082028 0.434239875 -0.73681447 -0.2327410175 0.23577894500000002 0.203690423 -0.493605665 -0.38346101499999996 -0.0883017395 -0.762325025 -0.689500585 -0.411427935 -0.364082725 -0.51662271 0.4495568 0.29503952 0.35277292 -0.273815065 -0.220939275 -0.26573459 -0.215492385 -0.387193785 0.442197515 
p360 -0.0816316 -0.201560138 0.5538524650000001 -0.40687376 -0.306985385 -0.081521307 0.40256649 0.36411783 0.83406775 0.318625025 0.31318881 0.589505625 -0.47808697499999997 0.1163338237 0.38559652499999997 0.461750175 -0.26278643 0.17517194 0.412731685 0.33349425 -0.36659721 0.49894262500000003 -0.668903435 0.44457218 0.52557135 0.38711865 -0.342960105 0.70432037 -0.5006733 -0.454414785 -0.18674875000000002 -0.46437536999999995 -0.42105116 -0.197210515 -0.48294594999999996 0.5318581 0.4302682 0.22197231 0.077608745 -0.334278705 0.43589552000000004 0.37022058999999996 -0.008141812500000001 -0.36868098 -0.051264624999999994 -0.39710532499999995 0.535804255 0.54629083 -0.055329959000000005 -0.27970053 -0.016065894999999997 -0.667995675 -0.17770742 -0.313206255 -0.26142337 -0.41788448 0.038244259499999995 -0.007841227749999999 -0.420901595 0.38858005 -0.5567218 -0.23123281 -0.13858808499999997 -0.0679169835 
p626 0.40023367 0.020780794 0.613668265 -0.43334492 -0.26016369500000003 -0.46997039 -0.181015235 0.42723767 0.7746229250000001 -0.367999265 0.47471576000000004 0.62957741 0.44949666499999996 -0.0168175335 0.5020853200000001 0.467468725 -0.47633511 0.19707266499999998 0.42713195000000004 0.29672301 -0.414942525 -0.300893665 -0.65968205 0.519653425 0.55184665 0.5761606850000001 -0.42644946 0.3688473 -0.705516545 -0.58729705 -0.31566129499999995 -0.7454030650000001 0.19011466 -0.36416035999999996 -0.40018151 0.49193898999999996 0.60503286 0.490189365 -0.26833262 -0.26544793 -0.180655318 0.31264877999999996 -0.221501285 -0.21772257 -0.477602915 0.19185844000000002 0.7241453499999999 -0.23163547499999998 -0.45556459000000005 -0.6679491200000001 0.354919065 -1.0223932 -0.44428059499999994 0.139324605 -0.331644045 -0.324201375 0.30172509000000003 0.46549880499999996 0.40020246000000004 0.15188683 0.340216755 0.44177537 -0.70840058 -0.377606885 
p333 -0.50145003 0.297433805 -0.252130985 -0.068681195 0.0337950865 -0.27963484 0.6638083800000001 0.390713385 0.86301305 0.327617095 0.39545268499999997 0.13886547500000002 0.43358319 -0.46714142000000003 0.2764132 0.9176819 -0.14305658300000001 0.028362155 0.413817 0.05256843 -0.244031675 0.48472638999999995 -0.16802818 0.192310905 -0.356434035 0.5322895249999999 -0.40976513000000003 -0.3909616 -1.0863816 0.278385145 -1.04421945 -0.72356107 -0.18037793 -0.279449745 -0.61116837 -0.45773682000000004 0.61854958 0.66850235 -0.07099874375000001 0.867259835 -0.904598875 0.06627654463999999 -0.27926743 -0.90080275 -0.233179045 -0.037072877 0.464036245 0.22002649999999999 -0.730116905 0.54100653 -0.0862997385 0.6368661999999999 -0.53002905 -0.48679303 -0.65709803 -0.41043986 -0.156967595 -0.28672149999999996 -0.112697509 -0.52154601 -0.162863645 0.19641288 -0.7143815499999999 -0.70890449 
p1007 -0.23335466500000002 0.2246686725 0.243940945 0.278242945 -0.18646572 0.051994448500000005 0.16385901 -0.04825418200000001 -0.014833757500000003 0.0688951885 -0.36223881 -0.33293109 0.078462852 0.043291674915 0.13582663575 -0.11221997500000001 -0.262782105 -0.2212064825 -0.32550855 -0.25294393 0.288138855 0.0359447435 -0.032951234999999995 0.065722171 0.004421894 0.014979780500000001 0.32548499000000003 0.1551626725 -0.13062004700000002 -0.09712669099999999 0.118188758 -0.24625017899999999 0.22166057249999999 0.261337965 -0.25821563000000003 0.22998400500000002 0.16421626150000002 0.29626816499999997 -0.10806261200000002 0.022405190500000005 -0.22345788 0.15029889000000002 0.084203455 -0.182899488 0.058818465 0.1817532075 -0.052693132999999996 -0.17939845000000001 -0.1652692975 -0.238369047 -0.38958479 -0.292659565 -0.147653339 -0.09436792349999999 -0.34508581 0.0564024895 0.12458309349999999 -0.023814439999999992 -0.04929436150000001 0.09506653500000001 0.216738048 -0.058098102 -0.036742595 -0.261638087 
p481 0.52501549 0.0869786835 0.519250795 -0.595033725 -0.379859515 -0.30213175999999997 0.038590167499999994 0.38537411499999996 0.7600944000000001 -0.171590725 0.42344177 0.6995079550000001 0.31746364 -0.239678965 0.46085822499999995 0.50138989 -0.71830908 -0.102268 0.51922312 0.30617881 -0.37579605 -0.29713977999999996 -0.6603409499999999 0.54743897 0.575641225 0.47578731 -0.48141171 0.11987422 -0.64681225 -0.47427348999999996 -0.26879441 -0.552263415 0.278761345 -0.36776411 -0.39055784000000004 0.499087335 0.49613775 0.43197107500000004 -0.40821381 -0.36548154 -0.0501421725 0.42165253 -0.2049608 -0.23862133000000002 -0.49426185 -0.033522088500000005 0.622492985 -0.25856976 -0.530475405 -0.470648725 0.38144575000000003 -0.9865517500000001 -0.31324859 0.1059456275 -0.3178253 -0.287376655 0.31662848 0.47911869 0.30103897999999996 0.0520386765 0.322742475 0.402709815 -0.751010895 -0.448242315 
p568 -0.15765719 0.11024626500000001 0.266220255 0.16447216650000002 0.029751971999999998 0.248516135 -0.07424049 -0.0493503045 -0.029953915999999997 0.070822802 -0.31768040000000003 -0.264851827 -0.04556189805 0.09802067 0.1118536695 -0.01589947 -0.18484539 -0.2070768375 -0.173642878 -0.28367651 0.328704828 -0.084444905 -0.064633508 0.16489285 -0.1515956525 -0.011877924 0.124639945 0.211393133 -0.218238005 -0.182489145 0.077017247 -0.010989200500000004 0.202419695 0.239444573 -0.1609566675 -0.0025789974999999993 -0.020145530000000002 0.14270222 -0.03613713749999999 -0.0205933218 -0.0198940085 0.096874093 0.024535204999999997 -0.0632618675 0.034414447 0.13587648 -0.06474406800000002 -0.158303062 0.07289575200000001 0.048077315 -0.142192792 -0.09003419 -0.12700257399999998 -0.038651125 -0.173388685 0.12429293 0.047508881 -0.24668521 0.10440621700000001 -0.023865532499999995 0.0380563405 -0.017229689500000003 0.01375254 0.03545652 
p826 -0.18084283750000002 0.16310828700000002 0.227539855 0.223438625 -0.06981108800000001 0.25116049 0.002416942500000005 -0.019240877 0.069663562 -0.052676614999999996 -0.36380788500000005 -0.315924875 0.054985282499999996 0.0430235435 0.17037171 -0.152282483 -0.077922975 -0.12192187500000001 -0.216319755 -0.22994891 0.2943667075 0.065802532 -0.096584175 0.251928975 -0.21441121000000002 0.131064655 0.22243923249999997 0.2008979375 -0.127556025 -0.0984865665 0.09064044600000001 -0.1600519 0.09679913 0.21250987 -0.124051735 -0.014481207499999996 0.0758372974 0.22150510499999998 -0.12161871999999999 -0.14813211999999998 -0.11406811 0.08782212 -0.0052762550000000005 -0.136231585 0.012294362500000003 0.179338135 -0.08582753500000001 -0.1945887275 -0.04742096735 -0.0109436625 -0.23562415000000003 -0.107947615 -0.07056277999999999 0.004590727000000003 -0.24363522 0.08731757849999999 0.080527292 -0.20512773499999998 0.06072665 -0.011243323000000006 0.088293225 -0.0617658055 -0.0009163499999999963 -0.12554938 
p978 -0.036405731 0.152512913 0.05694574499999999 0.0886314 0.0945928225 0.012451619999999997 -0.072273465 -0.10473055 0.21300446 -0.1819232215 -0.07973195000000001 -0.176582085 0.16515787999999998 0.030287031 0.04136279999999999 -0.279620041 -0.08545904550000001 -0.24314818500000002 -0.0772018325 -0.10074513 0.13013238500000002 0.19945698499999998 -0.33170184 0.303564865 -0.164614125 0.136053985 0.292157785 0.3950404415 -0.270621816 -0.169759833 -0.172211448 -0.167358 0.22906758 0.1517819175 0.063222885 0.069313069 0.288641645 0.14502784 -0.0157440245 -0.31288337 -0.3035572675 0.35164228000000003 0.012263034999999999 -0.2426231335 0.194563965 0.008013660000000006 -0.21592269349999998 -0.3223342235 -0.29109998 -0.35724269999999997 -0.35644816999999995 -0.0006213225000000003 -0.076122437 0.039030385 -0.213391816 0.1424200585 0.05099781499999999 -0.009767027499999997 -0.08230203 -0.17777617 0.1692991975 -0.026226195999999997 -0.034060206999999995 -0.39079288 
p163 -0.706753195 0.37579726 -0.22619634 0.45484798000000004 0.47508961000000005 -0.22448489 0.303793885 0.0207223435 -0.25693374999999996 -0.605298815 -0.495600955 0.32277796999999997 0.293030785 -0.50161066 -0.29068145 0.43444170000000004 -0.53444181 0.28748204 -0.44778388999999996 -0.31836637 0.7866468 0.39087238 0.29222625999999996 -0.399053435 -0.23320035 0.37741085 0.5866715499999999 0.49716990000000005 0.174900555 0.129327776 -0.5917405 -0.47976074 0.16666750349999998 0.249812415 -0.45802732999999995 -0.409996985 -0.16564784500000002 0.14966405500000002 0.4137594 0.262877575 -0.09323628825 0.48870705 -0.043188576 -0.17493256499999998 0.28475492 0.5609777300000001 0.248486885 0.41857443000000005 -0.40056121 0.18737036499999998 -0.357209925 0.788433025 0.046885109999999994 0.40263124 0.26431854 -0.56640668 0.1876592975 -0.69683905 -0.167455015 0.37724777499999995 0.39515239 -0.16013937 -0.37188404499999994 0.1596172 
p536 -0.38468469 0.27158551000000003 0.220059325 0.253222565 -0.11454144999999999 0.35844924499999997 -0.043348785 -0.151603235 0.010004824999999998 0.07362979 -0.27069569 -0.352498985 -0.119360065 0.143060075 0.1979789655 -0.10840014 0.141574665 -0.0404950525 -0.343505905 -0.13851711 0.30697608750000005 -0.040610563749999995 -0.08681427750000001 0.092708507 -0.27440469 0.10949880499999999 0.22334425 0.26031268 -0.126584135 -0.34666676500000004 0.265082011 -0.23508434 0.075618029 0.277052847 -0.130389345 -0.11107236749999999 -0.117928825 0.24195789499999998 -0.09918208 -0.048754183500000006 -0.016232985000000002 0.056189341 0.086379525 -0.1595775455 -0.1227895285 0.126238535 0.08890946500000001 -0.154095685 -0.1671297575 -0.09918206 -0.050994012500000005 -0.3256329 -0.034781959499999994 0.062167999 -0.0925551475 -0.0409446925 0.228301226 -0.363975975 0.069524135 0.19746872 0.096290828 -0.17391365 0.018729385 -0.127554082 
p448 -0.281462157 0.14784632 0.18091212 0.23374608 -0.043814928 0.26202746 0.0342496815 -0.0156435725 0.2005565475 -0.183011065 -0.36543419499999996 -0.397596935 0.1312321175 -0.039206835 0.17311873 -0.142464245 -0.10905690500000001 -0.008332014999999998 -0.23628975000000002 -0.15294912 0.32515134 0.179810213 -0.21010856 0.16411493 -0.292752695 0.24620437 0.242904705 0.247849961 -0.25034581499999997 -0.042201485500000004 0.034451535 -0.164401083 0.21468473999999999 0.25999564 -0.11472144000000001 0.031542183 0.162830152 0.21090424 -0.16407397150000003 -0.209256588 -0.23021796 0.18182192 0.003309895 -0.241692505 -0.018554710000000002 0.15330905 -0.192247062 -0.191971633 -0.1437427725 -0.094662148 -0.322811285 -0.194206305 -0.0630854615 0.006519997999999999 -0.302341946 0.08896388200000001 0.07630116500000002 -0.13609605 -0.0065635929999999995 -0.068860142 0.240876445 -0.08911957749999999 -0.0568949475 -0.165587337 
p205 -0.17688734 0.27004659 0.337863335 0.409398905 -0.223574375 0.156005695 -0.1627549075 0.279139025 0.642658965 0.25868276 -0.38683614 -0.1005998575 -0.16752302 0.43248837500000004 0.291993295 0.27740688 -0.3548614 -0.4246582 -0.26445884000000003 0.002091639999999992 0.174258465 0.35255342 0.012808044999999997 0.150269848 0.371715885 -0.1184374925 -0.150790075 0.09111272000000001 -0.209226015 0.210957379 -0.26798883 -0.4706424 -0.059965215 -0.018990575000000003 -0.012476072000000001 0.327042 -0.178973685 0.299317245 -0.1021833925 -0.2090614855 -0.387382585 -0.334468775 -0.430196825 -0.279501605 -0.16245093 -0.080744079 0.0661187305 0.008988714999999994 0.47930421 0.39152522749999996 0.128849855 -0.353844135 0.30145016 -0.0333644347 0.26247749 0.026809065499999996 -0.04956668643 -0.37752969999999997 -0.501187565 0.217345745 0.240460375 0.058702308499999994 0.1038009755 -0.37784721499999996 
p303 -0.17523451 -0.395807675 -0.369746895 -0.08149492350000001 -0.58526223 -0.29948023 -0.17748155999999998 0.43481943 0.52646746 0.47179798 -0.0055841209999999974 -0.98879207 0.25749806999999997 0.24706089999999997 -0.113932765 0.7080085199999999 0.36906449500000005 0.10627431000000001 0.43183946 -0.47458663500000003 0.214370895 0.49090322499999994 -0.279222795 0.564454075 0.4993805 -1.0493765 0.539895825 0.269726285 -0.077174982 -0.86799945 -0.78149405 -0.134731066 0.67353002 -0.21872004 0.341982565 0.36229768500000004 0.243014475 0.40700039 -0.4255545 -0.148785735 0.189894737 0.49914939999999997 0.45410919 -0.29358486 0.45942632 -0.49957425999999994 0.56532556 0.45727557500000005 -0.68765042 -0.99116183 0.359956055 -0.59032178 -0.33447228500000004 0.47459114 -0.67885598 -0.49812025 0.18345318 -0.145548195 0.26752229 0.047036698499999995 0.240134175 0.309079265 0.392321215 0.46964225 
p420 0.34669864 0.444191015 -0.34575292 -0.62512968 -0.130757605 0.1588678885 0.220222068 0.462822335 0.68792892 -0.5777522150000001 -0.46689385000000005 0.0855375985 -0.111411755 -0.3746037 -1.0386646800000001 0.6472007500000001 0.11945642249999999 0.28054434 0.26186443 -0.08467198499999999 -0.068980137 -0.189875005 -0.34816678999999995 0.534967815 0.656485 -0.61874226 -0.354427175 -0.34847340000000004 0.100781916 -0.267821745 -0.23329334000000002 -1.0914776 0.36218960499999997 0.612302115 -0.74275353 -0.4504856 0.46531813 -0.27863015 0.287132885 -0.38304295 -1.06816485 -0.079433177 -0.3504663 0.22164017 0.0889391 0.43452199999999996 0.82171365 0.362606675 -0.7656115 -0.65129877 0.093876199 0.23241641 0.2691522 -0.525636 -0.9468249 0.06572177 0.43479474 0.344159895 -0.5330904750000001 -0.574097395 0.31644152 -0.1626972225 -0.732159425 -0.83730405 
p817 -0.15099094999999998 0.16396712 0.13080289750000001 0.17393301500000002 -0.0822226945 0.0793288555 0.0824593605 -0.081036351 0.19496666 -0.16223347249999998 -0.180389255 -0.264437835 0.12718636 0.0392023145 0.08663466 -0.165111863 0.028417301 -0.09985092500000001 -0.11615866500000001 -0.120034865 0.12493641999999999 0.07216479 -0.188217605 0.27104697 -0.16228915 0.18223731999999998 0.280016245 0.2887902 -0.139427843 -0.1986330635 -0.0365842315 -0.22888917250000002 0.115011045 0.10430107 -0.029102302 0.076322065 0.198565845 0.182942675 -0.07654238499999999 -0.21435706999999998 -0.247546717 0.221643165 0.00305569 -0.226779917 0.1161346375 0.12487463500000001 -0.14482308 -0.239761367 -0.22223277 -0.24698124500000002 -0.27030953 -0.076597713 -0.042326206 0.025829911499999997 -0.207032994 0.061305570000000004 0.10298657000000001 -0.058923693 -0.036297678 -0.081573255 0.13801245499999998 -0.10473580499999999 -0.0333712642 -0.272380615 
p75 -0.29253734 0.259595015 0.18014615 0.250357575 -0.31994295 0.148449405 0.215356855 -0.18402533999999998 0.15751287 -0.06314048 -0.17957949499999998 -0.22960212800000002 0.03855526000000001 0.14640603 0.017716700000000002 0.04156831749999999 0.018905465999999996 -0.08503395700000001 -0.22920839499999998 -0.08677549 0.076314798 -0.12006129800000001 -0.101486615 0.07686158500000001 -0.280764805 0.125967217 0.107247883 0.243310965 -0.0923230175 -0.29241166 0.018867005 -0.31425604500000004 0.11670044 0.11797389 -0.0734286345 0.092420005 -0.005442462500000002 0.2732577 0.013960735000000002 -0.15789465 -0.27198805 0.211885735 -0.07746086499999999 -0.24463207999999997 0.18581335799999998 0.16477956500000002 -0.026129895 -0.178291421 -0.243977455 -0.30000788700000003 -0.140396825 -0.239699678 -0.151839045 0.04540489 -0.14692147500000002 0.14649197 0.08374509 0.004868525999999998 -0.0799141715 0.0675811985 0.12453012499999999 -0.22160298500000003 -0.09830159849999999 -0.27958336500000003 
p42 -0.46633757499999995 0.303405265 0.28852051 0.0645065005 -0.0026777200000000015 0.011013250000000002 -0.261086665 0.30992185 0.549561915 0.21424537500000002 -0.229761785 -0.205005915 0.369274555 0.220266677 -0.1655514435 -0.176926325 0.22829001 -0.19304412 -0.1326976675 0.16223168999999998 0.363646365 -0.20128908499999998 -0.22555498000000002 0.006573475000000002 -0.17553461 -0.1377693535 0.257564965 0.28747659999999997 0.3093381 -0.33877652 -0.36610295000000004 -0.610617265 -0.194784715 0.053317012000000004 -0.484366825 0.344269425 -0.200562595 -0.31112684 0.170847925 0.134894775 0.19389057 -0.39717676 -0.32014974 0.1932525 0.19234426500000001 0.0493981 0.3022705 -0.271163325 -0.33932950500000003 0.090761085 0.39038958 -0.5027467 -0.17481896 0.32747318000000003 0.228877045 -0.092034385 0.142341005 -0.37575171 0.27900365 0.30436588499999995 0.333815265 0.26612048499999996 0.29417487 0.1413747475 
p695 -0.25559186 0.22368507499999998 0.22564979000000002 0.257939675 -0.079307195 0.295684305 0.0754898775 0.04815835499999999 0.0715728115 -0.12968048499999998 -0.363591475 -0.270591595 0.04365666 0.056733195 0.14232381649999998 -0.170712388 -0.030463682000000002 -0.14928874 -0.221486235 -0.27133877500000003 0.28981334 0.026670735 -0.14755161 0.24490685 -0.238037325 0.092566776 0.211673505 0.23006451 -0.16181569 -0.1425893 0.042846995 -0.18280475 -0.017486920000000003 0.25829097500000003 -0.145057935 0.010861451000000001 0.135426135 0.22723353 -0.1504880485 -0.106966815 -0.1519053225 0.023737909 0.10264274999999999 -0.198894175 0.0361995725 0.21465248 -0.07384645 -0.244599325 -0.10099680700000001 -0.14813747500000002 -0.1779668825 -0.18137067 -0.19902089 0.030907542 -0.274194445 0.047108822 0.129545735 -0.15024257 0.10458126000000001 -0.068808082 0.11910722700000001 -0.045818224 0.05084849999999999 -0.202885335 
p793 -0.0402083556 0.03631049 0.041921167499999995 0.112269703 0.077072155 0.042602685 -0.104514205 -0.0862808505 0.18965483500000002 -0.06206547500000001 -0.0183645055 -0.201918655 0.11937413 0.09014044500000001 0.00162867500000001 -0.143838365 -0.144645885 -0.19192884500000001 -0.0833473135 -0.12740622499999998 0.17576132 0.12924213499999998 -0.25514848 0.2524111 -0.12337632000000001 0.193259225 0.20273593 0.29588341749999997 -0.261633882 -0.18140047250000002 -0.206920125 -0.17878052 0.25791893499999996 0.133440605 -0.050549258 0.029063924999999997 0.15814955 0.138229575 -0.008438364999999996 -0.26076709 -0.237603385 0.270143895 0.044478352 -0.11855264 0.146552875 0.07631658649999999 -0.1322952035 -0.19899562199999998 -0.119719697 -0.16616921499999998 -0.2549513175 0.050524145 0.018143930000000003 0.0785563975 -0.12273563299999998 0.13380482525 -0.03815791500000001 -0.130818035 -0.009117970999999999 -0.1444168865 0.21080869300000002 -0.004022634999999997 -0.055149580999999996 -0.310119335 
p997 -0.093963825 0.107811882 0.0413376985 0.102454878 0.04064981 0.104796473 -0.08813809 -0.047246579 0.21274347500000002 -0.132200765 -0.0738241855 -0.22853309 0.088626215 0.086099196 0.031120768 -0.17138964 -0.102472208 -0.16575399000000002 -0.14018173499999997 -0.055262106500000005 0.19719965 0.07138413 -0.25286501699999997 0.24744663 -0.20321729 0.22064794499999998 0.22063608 0.2696246135 -0.21913300200000002 -0.1956141 -0.16784092 -0.216164605 0.2295019 0.107639085 -0.03475415900000001 0.0062616350000000015 0.1331997865 0.14530039 -0.053512295 -0.26755931 -0.213667583 0.269584675 0.025700799999999996 -0.179217655 0.163288073 0.0005118970000000042 -0.09111691 -0.19126297650000001 -0.20702031799999998 -0.11942723 -0.274397105 0.07855651150000001 -0.00571986 0.11398486 -0.14618 0.1281988835 -0.020924399999999996 -0.12437777 -0.018416352 -0.1310925 0.174019875 -0.05139826418 -0.069130892 -0.26058668500000004 
p918 -0.0665538675 0.127054275 0.060595078 0.0920314225 0.03631314 0.093954655 -0.06574187000000001 -0.083648815 0.19476280499999998 -0.102218225 -0.06885253799999999 -0.211349185 0.078777315 0.037319867 0.027948194999999995 -0.17809471999999998 -0.058632925 -0.177715335 -0.1264431 -0.121910015 0.14843642 0.088438815 -0.24254706750000002 0.23598709 -0.17938281 0.181072215 0.22597327 0.27980021 -0.2335187685 -0.137424039 -0.15912076 -0.23509891500000002 0.245085955 0.133371183 -0.059359667350000006 0.0868995415 0.145773787 0.10630355 -0.028021579999999997 -0.25752723 -0.191381895 0.24587647999999998 0.025332350000000003 -0.17932442 0.14120914 0.030339711499999998 -0.1294599535 -0.2231501825 -0.196402865 -0.19044163 -0.26065810500000003 0.022453633 0.009734108999999998 0.092868595 -0.122892238 0.12335841149999999 0.01858949 -0.11736975000000001 -0.011322465 -0.13343408 0.20022868500000002 -0.017208148000000003 -0.0419746785 -0.265484685 
p274 0.2603613 0.22316574 -0.016022380000000003 0.44604235000000003 -0.23451055999999998 -0.10910764 0.60475368 0.52541477 -0.39107507500000005 0.40216653 0.493793295 -0.762355685 0.50199275 -0.609385225 -0.293612105 -0.603763625 -0.740552155 -0.36406770499999996 0.125808495 -0.359381705 -0.166526405 -0.228946502 -0.53332986 -0.077185544 0.414463915 -0.625485675 0.648422515 0.309242785 0.5439455 0.52889685 0.445467265 -0.42276880000000006 -0.22247592 0.26928430999999997 -0.73243585 0.30617971499999996 -0.32356914999999997 -0.55608452 -0.29825037 0.586687235 -1.06437403 0.5913084 -0.3529462 -0.15514946764999998 0.56521563 0.45144353000000004 -0.15727027500000001 -0.5869237350000001 0.55373004 0.56481861 0.194217455 -0.54683411 -0.009577795 0.32658187 -0.33669159000000004 0.27398303 -0.32764910999999997 -0.53948792 -0.728012385 -0.299219295 0.796194775 -0.168137387 -0.23201033 -0.442368495 
p155 -0.38585379000000003 -0.20434431 0.46127711000000005 0.25554593 -0.1217618376 -0.35581058 -0.20438303000000002 0.39214125 -0.0945606425 0.445460475 0.210471765 -0.258818455 -0.53093753 0.07763926500000001 0.42223874000000006 0.41003692 -0.578504915 -0.345473125 0.043336504999999984 -0.29791937 0.06495251665 -0.48613789 0.31316142 0.27713733 0.46841569 -0.365823055 0.52166568 0.16238644800000002 0.11887568000000001 -0.095012295 0.11291146 -0.2863738 0.578932785 0.28622181 -0.45501388 0.51512095 -0.414208725 0.316137295 0.15403314435 0.274351112 -0.16911233 -0.289695665 -0.35377428 0.303618145 -0.33947993 0.29548651000000004 -0.0438259905 -0.22139058499999997 -0.4251796 0.40868845 0.010141409999999997 0.30041548500000004 0.34157858 0.1800998275 -0.36399893 -0.204808295 -0.394410215 -0.6967373349999999 0.05644890550000001 0.024250770000000005 0.24844321000000003 -0.1806493 0.234336105 -0.49752010999999996 
p497 0.23207717499999997 0.36134184999999996 0.42529738 0.32540198 -0.58207509 -0.107829755 0.27417114 0.0665168595 0.47208375 -0.17126408925 -0.41545804 0.0238814625 0.50406195 -0.0974866925 -0.216629205 0.7060584000000001 0.1081024665 -0.36505513999999994 0.63824561 -0.509894675 -0.379292535 -0.38840717 -0.2640417 0.39262034 -0.16635198499999998 0.42956677 -0.024603185 -0.1730165065 -0.617616745 -0.28085172999999997 0.31867844 0.10330370999999999 0.11408172600000001 0.1814075895 -0.47285062499999997 0.56445645 0.2137846 0.24977886 -0.34964785 -0.01913835 -0.283442975 0.255414322 0.271097767 -0.10828205 0.45318918 0.595042575 0.42575737999999996 -0.38528532 -0.01103204 -0.35274289000000003 -0.108451301 -0.72846656 -0.394971765 -0.28531174000000004 0.487818435 0.52433402 0.360669195 0.30675142 0.34613829 0.0327923085 0.33123053 0.24349515500000002 0.39678472 0.6843078850000001 
p968 -0.0550071635 0.130603162 0.051890373 0.10284114999999999 0.064335955 0.046613233 -0.045321269000000004 -0.09574231750000001 0.21333286499999998 -0.12735196 -0.063259145 -0.20032086999999998 0.12257768 0.033787924 0.035646905000000007 -0.2177278795 -0.039724904 -0.20739478499999997 -0.10839710999999999 -0.07022068000000001 0.13768868 0.126644885 -0.28298801 0.28552618 -0.15580935 0.182711515 0.25797798 0.340232485 -0.2569040435 -0.19747974 -0.182295665 -0.178538478 0.271452655 0.1326422525 0.0014224050000000016 0.05463475549999999 0.18804348999999998 0.125171665 -0.021148547500000003 -0.290876285 -0.25129002899999997 0.29744023999999997 0.008340189999999997 -0.2185507475 0.1756883325 0.007353982500000002 -0.193192262 -0.271325875 -0.206907685 -0.254029715 -0.29290723 0.007239957000000002 -0.036257515000000004 0.0654527395 -0.159068005 0.1395925895 0.009339489999999992 -0.0705191935 -0.027192949 -0.1657734615 0.1630298 -0.029720025500000004 -0.037807456 -0.35280099 
p361 -0.55124465 0.21042354200000002 0.24045961 -0.54667705 -0.325114965 -0.453749285 0.50506051 0.59139757 0.8181377999999999 0.21221108 0.03451993999999999 0.58076635 -0.40436189 0.042393572500000004 0.20832235 0.618320765 0.411212325 -0.18813596500000002 0.28992681 0.250757045 -0.179962525 0.57688148 -0.44890336000000003 0.360526105 0.27791042 0.32186902500000003 -0.47030694 0.54049785 -0.444930975 -0.48584564999999996 -0.33643786 -0.3374497785 -0.368660325 -0.08283193 -0.48453612 0.47396851 0.545745715 0.21682171 0.35345039 -0.195575365 0.35576645 0.1661115155 -0.29578655 -0.6453905 -0.56418773 -0.18722449 0.46458862 0.52777934 -0.092683089 -0.21400958 -0.30697065 -0.716087575 -0.36040166 -0.168194825 0.039841365000000004 -0.28725952499999996 0.29951233499999996 -0.32715337 -0.27347036999999996 0.33107517 -0.547561675 -0.3486809 -0.013644875 -0.35944418499999997 
p83 -0.0025329309999999987 0.06754001500000001 0.21027286499999998 0.096517645 0.12108760000000002 0.17769094 -0.1626652865 -0.015569194999999997 0.128518505 -0.053939589999999996 -0.270980063 -0.277626617 0.0582445575 0.08772502 0.136889391 -0.150045065 -0.13973104 -0.12021187500000001 -0.13488521 -0.32431894499999997 0.31486552 0.12678836000000002 -0.20162301 0.256474835 -0.1636023 0.066307431 0.194023565 0.26690955 -0.2476300025 -0.015889015 0.0036525919999999996 -0.068520202 0.13517485499999998 0.26578592 -0.11975639499999999 -0.031509715 0.170032609 0.13879167 -0.07838176499999999 -0.21064013 -0.0458380275 0.130800382 -0.010318056999999999 -0.11871377 -0.028653425000000003 0.071370817 -0.12398517999999999 -0.288078725 -0.014496856500000002 -0.08143997 -0.21930059 -0.158724115 -0.09700203 0.02652104875 -0.17180466 0.07663905350000001 0.043162633000000006 -0.20515867999999998 0.09890009 -0.0799640925 0.1645559675 0.035483249999999994 0.100128113 -0.17125758824999998 
p677 -0.0580287365 0.06334264 0.232348617 0.20445934 0.10318341 0.28829767 -0.14513351500000002 -0.08162076 0.011100210499999999 -0.062283820000000004 -0.32478397299999995 -0.27124950999999997 0.09132504500000001 0.050582798 0.15288707325 -0.20063227 -0.19049846 -0.21074710700000002 -0.186522683 -0.24293701 0.39302932500000004 0.158010045 -0.231398995 0.31583196 -0.20615594 0.106297645 0.21447780300000002 0.339107065 -0.2993162475 -0.0357536465 -0.020385131 -0.002603132500000001 0.173223395 0.32260568 -0.09066421 -0.127518795 0.116569459 0.1297457 -0.1336511755 -0.18969530499999998 0.0037276352000000005 0.215631504 0.1487326685 -0.07317444000000001 0.0376011245 0.10139463 -0.15845510499999998 -0.268888495 0.042351318000000006 0.01826452 -0.31758554 0.009378730000000002 -0.0985231575 -0.01946922 -0.174173873 0.127948015 0.08411635 -0.211984265 0.071112005 -0.07976261 0.09454311700000001 0.0196179305 0.048588870000000006 -0.15540394100000002 
p51 -0.1632152 0.22220616750000002 0.150291395 0.18918613499999998 -0.17617292 0.074917798 0.220629055 -0.039257389000000004 0.22041771 -0.037438575 -0.169987495 -0.315378525 0.10496783999999998 0.0586465875 0.11696054499999999 -0.139170745 -0.053986972 -0.08678651300000001 -0.18681746 -0.14923482999999998 0.13857445499999999 0.034241828 -0.070841875 0.22357035000000003 -0.225164855 0.24475101999999999 0.2169215125 0.28563109 -0.11398546000000001 -0.20195698299999998 -1.5424999999999467e-05 -0.3424482175 0.233072145 0.11769404 -0.046169828499999996 0.064364402 0.1459701815 0.28977797 -0.11793568000000001 -0.266706725 -0.34742675 0.19177741999999998 0.031106080000000008 -0.337572545 0.11882973 0.14045303 -0.14294774500000001 -0.21805534000000001 -0.25514924499999997 -0.318465425 -0.306211785 -0.305995685 -0.0927850975 0.048428817 -0.2791765685 0.1588511165 0.11045794 -0.044071145000000006 -0.072492587 0.027681643500000002 0.229965655 -0.18951269999999998 -0.12249025 -0.35126831999999997 
p714 -0.290721765 0.244948685 0.12467798699999999 0.20054917 -0.19624393 0.133127675 0.1715020925 -0.0499596705 0.19804398 -0.11607040999999998 -0.250352768 -0.30560835 0.143812555 0.023092749999999995 0.14487671000000002 -0.136100772 -0.0344258625 -0.124234765 -0.192918165 -0.11566886000000001 0.13393248 0.02616300499999999 -0.162762365 0.23115790000000003 -0.251450455 0.21460722999999998 0.27857429 0.24187899000000002 -0.13468901 -0.18022473849999998 -0.067102131 -0.296591015 0.15951580999999998 0.15791419 -0.09568236 0.115543455 0.16696443 0.22963677500000002 -0.08631507999999999 -0.234431915 -0.328656787 0.190431215 0.013768617999999996 -0.269308695 0.135232285 0.141232105 -0.111033605 -0.287558445 -0.284260695 -0.27479623000000003 -0.263304658 -0.2079226465 -0.17769759 0.029816953500000003 -0.24246122699999997 0.0742311833 0.11198556 0.0024247950000000004 -0.027964662 -0.07082368850000001 0.18708303499999998 -0.12027154500000001 -0.07521154599999999 -0.32597783999999996 
p616 -0.04214815935 0.06276669 0.189710665 0.077767875 0.1011481425 0.21263427499999998 -0.1391993525 -0.0701137565 0.13907945500000002 -0.002796119999999999 -0.20248028299999998 -0.22364298 0.059668389999999995 0.0944335175 0.103206555 -0.1029941825 -0.14420569 -0.136908275 -0.12114982499999999 -0.201747495 0.30339839 0.103607365 -0.19380988 0.233035055 -0.18820575 0.10903147499999999 0.159714985 0.2829879775 -0.33224605 -0.06361275 -0.09332343000000001 -0.133852433 0.174057765 0.22257254199999998 -0.08654572 -0.002863705000000008 0.1136733835 0.1034364 -0.049289285 -0.185832193 -0.0602407685 0.171696827 0.054209376999999996 -0.15627569 0.051311104 0.040875545 -0.13170329 -0.23914307499999998 0.011360700000000001 -0.076623616 -0.22580136499999998 0.033834144999999996 -0.0051999045 -0.022046920000000005 -0.171096902 0.105129905 -0.0015430999999999917 -0.20899816000000002 0.09079606850000001 -0.08500817000000001 0.105957035 0.03413519499999999 0.026655874999999996 -0.13491824349999998 
p88 -0.208709955 0.2435466 0.12533402 0.122647093 -0.21584107000000002 0.091572315 0.156658373 -0.13264402 0.143635215 -0.0135836275 -0.16983888649999998 -0.21159478 0.032511265 0.0189144365 0.00719649 -0.04548445 0.169353165 -0.041480765999999995 -0.13977573 -0.15931229 0.157386205 -0.0826134025 -0.16417271 0.169441 -0.1682186 0.173842295 0.16000362 0.234483813 -0.0999426175 -0.1997864975 -0.0764357525 -0.21173509699999998 0.20036865 0.134810595 -0.0920474715 0.14401596 0.046934415 0.14414362 -0.011618764999999996 -0.25899511 -0.25444255 0.1820650875 -0.011511729999999998 -0.300752055 0.19075044 0.079077065 -0.075920818 -0.1613515485 -0.198186275 -0.30125025 -0.15582887499999998 -0.08709536650000001 -0.110163583 0.129942665 -0.16713316450000001 0.1321686325 0.042436829999999995 -0.053582385 0.026596474000000002 0.0032717669999999983 0.15936564 -0.11263713 0.0270285755 -0.21749552 
p371 -0.161161642 0.130618715 0.37404704 0.157414465 0.023872413500000002 0.24921486 -0.16204574900000002 -0.091701118 0.095097522 -0.04703074 -0.397739185 -0.2549950315 -0.033576993250000006 0.15312140700000001 0.14363259969999997 -0.2008403 -0.0590942925 -0.353377315 -0.464589225 -0.39833521 0.470507635 0.11056551149999999 -0.194350563 0.37891121499999997 -0.2125511925 -0.0344569775 0.198737528 0.480497605 -0.24269556999999997 -0.225901208 0.12137850850000001 -0.162825725 0.194936428 0.449059397 -0.16114428 -0.10333161749999999 0.1428327015 0.24929678 -0.2460744755 -0.244116009 0.25020406 -0.1177694825 0.08005881000000001 -0.145747247 -0.13415648 0.07302749800000001 -0.163763635 -0.214929067 0.155953545 0.0694087515 -0.3994311225 -0.198972335 -0.18810813615 -0.0215025625 -0.229232145 0.297135075 0.2380759765 -0.39597304 0.07991284 0.036465805000000004 0.01703097675 0.01962342285 0.19604013999999997 -0.057030872999999996 
p342 0.500016115 -0.400774465 -0.128948945 0.50871765 0.028308171 -0.38593991 -0.571787 -0.08845678750000001 0.7139543150000001 -0.28039139999999996 -0.088351785 -0.41642492500000006 0.003026244999999997 -0.298212335 0.36454067 0.690968665 0.3742672 -0.622223075 -0.648234975 0.41886232 -0.33867102 0.07961788850000001 0.11870030475 0.447037625 -0.3612179 -1.078684875 0.43897783999999995 -0.6585551000000001 -0.60976038 -1.23127917 -0.76340103 -0.39668564500000003 -0.50720772 0.37903711 0.524730525 0.470608565 0.37347267500000003 0.43867797 0.0983286147 0.7152357149999999 -0.44457497 0.78137112 0.64698155 -0.43869574499999997 0.38239681999999997 -0.35506650500000003 0.5428691 0.34652921999999997 -0.14844332500000001 -0.77009881 -0.07239324700000001 -0.6907651 0.42803793 0.41161681 -0.488747165 -0.2023219425 0.19962844000000002 -0.1464723775 -0.39659182000000004 0.186835022 -0.17780697 0.21990779 0.325325585 -0.31796758999999997 
p785 -0.0782044425 0.101808655 0.072717915 0.156647495 0.060303675 0.080506225 -0.08044747 -0.0595441397 0.23278512 -0.106047652 -0.072479277 -0.21899879700000002 0.089374005 0.044394354299999994 0.053981888 -0.146805315 -0.0555346835 -0.1445489 -0.096204815 -0.12467552 0.19430245499999999 0.08414064999999998 -0.249306525 0.24646876 -0.164918405 0.20832198000000002 0.23074990499999998 0.28124408 -0.22497504999999998 -0.157835665 -0.155210815 -0.176321165 0.24344969500000002 0.141569185 -0.036631502499999996 0.061957955 0.17723474250000001 0.10209381000000001 -0.04275428 -0.2453592 -0.199972913 0.224169482 0.0038748099999999994 -0.15353308 0.160582618 0.054516271250000005 -0.155180645 -0.24897735199999999 -0.1536080535 -0.13567465 -0.252093005 0.000907582000000004 0.023691567499999996 0.055672611999999996 -0.12957689500000003 0.133523689 0.015416935000000007 -0.13727513 0.0240249935 -0.097475065 0.17159291 -0.021287695000000002 -0.019463974999999998 -0.25530241000000004 
p490 -0.185643145 -0.0554193117 0.44923461499999995 0.26948409 -0.094594815 0.0009285500000000002 -0.257856376 -0.15475988000000002 0.183482335 0.428970915 -0.290562575 -0.125343495 0.032532735 -0.09302460650000001 0.13017059 0.179972255 0.08384048000000001 -0.25062019999999996 -0.31348909999999997 -0.15185115999999999 0.077270675 -0.202930915 -0.242093985 -0.11189527499999999 -0.33036798 -0.1767149 -0.0300422135 -0.16287135449999998 -0.1051574703 -0.346488405 0.243259255 0.1340154815 -0.016905945 0.265369295 -0.42063343 0.3326215 -0.15781434 -0.32600265 0.0937254035 -0.16085560999999998 -0.1113950295 -0.22179508 0.005940081 -0.35242939 0.16380080000000002 0.22208983 0.24655791500000002 -0.313976655 0.3089065 -0.25077507 0.083039521 -0.28210276 0.1075901925 0.166959565 -0.18648146 0.385591505 0.1189513865 -0.40146918 0.167365922 0.32065256000000003 0.0225245475 0.21748756000000002 0.264168895 0.1782586235 
p589 -0.12479062399999999 0.23229175000000002 0.23759713 0.38575948 -0.08910741750000001 0.14301039 0.1001493175 -0.15776799 0.250486955 -0.0714524675 0.043677574999999996 -0.005207957000000001 -0.192447125 0.11372217500000001 0.07106751250000001 -0.08313254 0.19405757299999998 -0.194308312 -0.301366565 -0.19394504 0.169996593 0.1442164955 -0.17194856 0.24791442000000002 -0.06819325700000001 -0.019684316999999996 0.026884080999999997 0.1293644985 -0.16391177499999998 -0.27980129 -0.14372293 0.041770268799999996 0.182718935 0.37670201 -0.24155464 0.107616657 0.1573496325 -0.012624947000000001 -0.11015043999999999 -0.17070164999999998 -0.068252385 0.049747778 0.024960365000000012 -0.289268972 0.116213625 0.150755975 -0.10550142500000001 -0.3926585 0.22770484149999998 -0.16287559999999998 -0.26910393 -0.37552055 0.082708804 -0.08361347449999999 -0.133097008 -0.033427842 0.18184547 -0.069972221 0.08114875599999999 0.054115952999999994 0.0177692625 -0.086030895 0.0067020286500000005 -0.29665401199999997 
p147 -0.64262948 0.487614945 0.514545455 0.18598058499999998 -0.51336629 0.3242767 0.0030878599999999996 -0.197108015 -0.762666195 -0.0296032475 -0.640684625 -0.4801354 -0.050508695000000006 -0.5280065349999999 -0.154750075 0.676383425 0.09103235499999998 -0.039870741 -0.35189077999999996 0.189476215 0.175823775 -0.31661804 -0.319472515 -0.6037488900000001 0.2580476 0.189680795 0.16944209300000002 0.310822415 0.4963333 0.338598085 0.45649468000000004 0.4590326 0.33118609 0.17055398 -0.124988183 0.484798937 -0.3451619 0.373681845 0.36735624 0.11584813899999999 -0.2829774 0.216414875 -0.35810585 -0.628905485 -0.056267785 0.34870292 -0.23207339 0.71410315 -0.234375985 -0.047024350000000006 -0.301681695 0.7295399300000001 -0.48478615 0.39152822 -0.38031435 0.5591686499999999 -0.146741585 -0.44453199499999996 -0.77478805 -0.41172633000000003 -0.22205956 0.558538585 0.5501129650000001 -0.37271426 
p369 -0.36763758999999996 -0.425631285 0.27616726 -0.34699179 -0.42116819499999997 -0.422771735 0.67988385 0.5209002 0.7323811650000001 0.39249208999999996 0.29809687 0.534105585 -0.36550859999999996 0.391115545 0.27274589 0.399576695 0.27502657 0.13455726 0.323533785 0.1509364275 -0.371404395 0.47633345 -0.5526090100000001 0.467050915 0.39461533000000004 0.318433375 -0.39758787 0.438490285 -0.31136126000000003 -0.52718378 -0.38227985499999995 -0.406560715 -0.371049435 -0.32495888500000003 -0.54680684 0.66582378 0.35717222000000004 0.151451972 0.301396795 -0.17470828500000002 0.34327299499999997 0.320089505 -0.24578057 -0.53573095 -0.56660764 -0.381358235 0.3068721 0.6027875 0.1490631975 -0.27650365 -0.3173777 -0.5730302 -0.466279365 -0.328744615 -0.117489405 -0.23515565 -0.127239646 -0.30228126 -0.38751805 0.33981085 -0.50507307 -0.45630622 0.5800999 -0.396578685 
p487 -0.11040201 0.087088016 0.12427163 0.104406624 0.0928530635 0.0796490795 0.004308472000000001 0.05850359569 0.136508375 0.12205789 -0.15703374 -0.23986768200000003 -0.13589182500000002 0.0332421985 0.029128988999999997 -0.16391845800000002 -0.2940608 -0.163311105 -0.065751175 -0.27235976500000003 0.35248838 0.135387155 -0.187953145 0.16562175499999998 -0.028316015499999996 0.08431171 0.023326845 0.20275052200000002 -0.27837061 -0.10176299 0.075093 -0.1387754775 0.071630275 0.312598325 -0.191873885 -0.128544001 0.12320258299999999 0.253470525 -0.1086243815 -0.12967128 -0.09351123750000001 -0.047541564999999994 -0.043108805 -0.18212311199999998 -0.10563138350000001 0.17960402 0.044914169999999996 0.014820056500000001 -0.041419459 0.1270526915 -0.09667865334999999 -0.1385523475 -0.1175774515 0.061851859999999995 -0.12859845 -0.0769446978 -0.006199193000000002 -0.266764885 0.012997935000000002 -0.096900435 0.143975355 -0.0573438825 -0.01581275 -0.048695376 
p611 -0.091606515 0.045474145 0.335049515 0.215917737 0.0358349515 0.21745639 -0.122657195 -0.10270995999999999 -0.013481558000000001 0.0426944635 -0.392347275 -0.213788089 0.0237120075 0.150317358 0.154905734 -0.10144906000000001 -0.253245655 -0.22092421399999998 -0.28503859 -0.39058744 0.34394600000000003 0.11384787 -0.10590184 0.190064715 -0.203447512 -0.023393759999999996 0.23278882699999998 0.29920355000000004 -0.2216912925 -0.018942612500000004 0.010581653035000001 0.0044676199999999985 0.24202977 0.333664635 -0.22536678999999998 -0.096046935 0.0275472635 0.24285116999999998 -0.096122175 -0.090392446 0.14212046495 0.03295124 0.0076437925 0.0063377625 -0.005637046 0.146016417 -0.08445471 -0.26376733 0.14634979 0.10430181799999999 -0.267419968 -0.0852482595 -0.135077645 -0.0318192255 -0.171846785 0.159399842 -0.0016262740000000005 -0.27293012 0.16735956999999999 0.018674274999999997 0.047338817000000005 0.014283318 0.110628755 -0.0736160185 
p103 0.10947545750000001 0.14927017 0.21701051500000001 0.320564655 0.1078363015 -0.0269746045 0.064338641 -0.013501874999999997 0.181190555 0.268165335 -0.33638629 -0.31905158 0.1032506525 0.076992575 0.2153504825 -0.0393193055 0.048485150000000005 -0.19996692 -0.31150325 -0.0794151035 0.0290777255 -0.011139102999999997 -0.085630525 -0.054032580000000004 0.014083792999999997 -0.021428012499999996 0.426669695 0.08418064 -0.11972532250000001 -0.321150005 -0.0738127415 0.255453635 -0.00576195 0.305633275 -0.304975585 0.18068079099999998 -0.08185704599999999 0.006842816 0.088203135 0.24459336799999998 -0.192014215 -0.038362607 -0.06481297800000001 -0.24244311000000002 0.027081873000000003 -0.0015076615000000002 -0.1261395535 -0.0538963135 -0.371923805 -0.214325812 -0.16550994000000002 -0.16224332 -0.29420625499999997 -0.0537489785 -0.26208109999999996 -0.08364987600000001 -0.073301863 -0.42330547500000004 -0.1055838965 0.037817316499999996 0.176938016 -0.020387109999999993 -0.08961311999999999 -0.43162979999999995 
p445 -0.167033995 0.18546508 0.42976946000000005 0.20577800699999999 -0.0749633165 0.1908586715 -0.07808797 0.042134939999999996 0.041757195 0.135787505 -0.25082846000000003 -0.12833165900000001 -0.141133972 0.0721468245 0.1027638925 0.001759485000000005 -0.234520695 -0.1536813465 -0.320522595 -0.352394765 0.31086823999999996 -0.06954785050000001 -0.11183152 0.207325015 -0.15693974 -0.1268270592 0.0381782135 0.217169852 -0.051360890000000006 0.005160823000000002 0.20042539150000002 -0.20716362 0.0900332135 0.30679457 -0.223880315 0.028330954 0.01943728 0.2351624575 -0.1202423715 -0.20397623999999998 -0.0221480265 -0.05714653000000001 0.050624982 -0.17518935500000002 -0.088671014 0.143886385 0.06768205499999999 -0.06416399165 0.1303739615 0.012032871999999997 -0.251804255 -0.338223265 -0.253388855 0.010435434 -0.12338421499999999 0.140155655 0.0014852599999999952 -0.1582208325 0.120915578 0.185527555 0.170741945 -0.0872169025 0.19103578850000003 -0.01089664125 
p586 -0.220240305 0.10314708 0.352833965 0.192468654 -0.02020595235 0.30749534 -0.068388535 -0.081205985 0.0019204450000000067 0.034468114999999994 -0.45104525 -0.300675002 0.011812099 0.11860158500000001 0.16953750578 -0.1638082075 -0.280015885 -0.24894500849999998 -0.3499803835 -0.386213673 0.40148401 0.014230611000000004 -0.21285292500000003 0.19071013 -0.18656831999999998 -0.069361805 0.215719347 0.299218345 -0.16028096 -0.0568573695 0.19334629 -0.170950027 0.182111571 0.37092743699999997 -0.226340253 -0.07334270500000001 0.068580763 0.250564273 -0.12856985999999998 -0.1631715125 0.026625580000000003 -0.057353392499999996 0.05776513500000001 -0.119655445 -0.10874917699999999 0.10745323200000001 -0.09507682 -0.17409816 0.041491175 0.09489501350000001 -0.3055831625 -0.18055351 -0.253710565 -0.036591456 -0.277694375 0.173550715 0.11877273999999999 -0.35982290499999997 0.06798133500000002 0.092952997 0.138632305 -0.09115599 0.141204638 -0.1266286715 
p592 -0.0679134 0.08609729499999999 0.131621138 0.11403036999999999 0.0616820035 0.1709179 -0.1099005 -0.077196081 0.1295046825 -0.05190202000000001 -0.146391865 -0.247529925 0.085125455 0.0526855726 0.049194919999999996 -0.162406585 -0.083466348 -0.17199169 -0.10927445499999999 -0.1369330165 0.285819975 0.121894525 -0.224449375 0.20715736 -0.176655695 0.114880875 0.246520925 0.23851081600000001 -0.282530995 -0.062726209 -0.08037872 -0.1357922425 0.152587028 0.21565976 -0.129602275 0.096428985 0.20376607000000002 0.036728342 -0.07216593 -0.21370403500000001 -0.08944334000000001 0.16008005600000003 0.0353672725 -0.20719725 0.1077175 0.0527417175 -0.08298976999999999 -0.23065171 -0.0451101535 -0.14728814499999998 -0.27778071 -0.0009776799999999947 0.03610040999999999 0.0174683825 -0.1118552975 0.077995939 0.0005416949999999948 -0.16541705 0.0953485005 -0.099783105 0.21353819 0.0410111175 -0.026131697 -0.23561715 
p771 -0.225077715 0.272918702 0.1188131825 0.249145265 -0.22152463500000003 0.122490885 0.159922955 -0.10935711 0.19839087 -0.131027332 -0.16949387715 -0.23610899 0.04507786999999999 0.024454049999999998 0.07959791499999999 -0.157472697 0.0270777505 -0.14873539000000002 -0.16626744 -0.071935572 0.128174565 0.036342440000000004 -0.234104755 0.14273051 -0.22897819000000003 0.20025803000000003 0.260564275 0.222781838 -0.11136220825 -0.228823365 -0.046850141500000005 -0.325849515 0.18359066000000002 0.149500495 -0.05276957125 0.12345176499999999 0.15277805149999998 0.25274764 -0.07438868750000001 -0.1842012 -0.3041705 0.23241562000000002 -0.006822013000000002 -0.30790688 0.1863419925 0.089852158 -0.089702225 -0.25331947 -0.271496595 -0.343828475 -0.239996235 -0.24271961 -0.150863505 0.06530157 -0.23125076999999997 0.079990883 0.11343413499999999 0.041497015000000005 -0.051435958 -0.029925339999999995 0.21379839500000003 -0.17032285000000003 -0.09241601 -0.36912148499999997 
p784 -0.286240255 0.120764432 0.329535405 0.212448315 -0.159582255 0.33032861999999996 -0.014725217500000002 -0.052612299 0.11708911 -0.059149665 -0.31380106999999996 -0.302251355 -0.0015584775000000023 0.097021095 0.133458142 -0.099154303 0.09903449 0.014341664999999996 -0.19666065 -0.31267178 0.24391353999999998 -0.0325923465 -0.0843327785 0.304371715 -0.16359448 0.16927092 0.0984941265 0.348104985 -0.156503168 -0.25585148 0.113717348 -0.219585745 0.194583145 0.279149245 -0.083646521 -0.018653510000000005 0.1007570725 0.1452777 -0.09460646 -0.170353835 0.035313405 -0.08014312999999999 0.030048634999999997 -0.186537 0.017534887 0.121134825 -0.138783795 -0.09282969 0.048817059999999995 -0.0239655785 -0.104798775 -0.23393185 -0.057524498 0.004844428000000001 -0.20500712499999998 0.039166581 0.14605916 -0.302511717 0.026649284999999995 -0.0515347725 0.070089026 -0.10161152000000001 0.0692939055 -0.11567324000000001 
p267 -0.098973023 0.42609900999999994 0.55679345 0.268317708 -0.8491264199999999 0.413509015 -0.174374577 0.34306236 -0.2333353 -0.20667058 -0.8312395 -0.0026748024999999967 0.6759988699999999 0.146131975 0.16753015500000001 -0.407884115 -0.6235286 0.27386149 -0.254233115 0.465434385 0.22579474 0.31447265 -0.40450872499999996 -0.04141047345 0.424387615 -0.355870845 -0.353922055 0.235924035 0.021341632500000002 -0.610589775 -0.63015815 -0.7897876 -0.190096075 0.274396325 -0.300255075 0.65611926 0.0786286205 -0.20741591750000002 0.310994725 0.31327940249999997 0.009163845 0.92041185 -0.26669374 0.24363298675 0.5080005400000001 -0.221559855 -0.22730352999999998 0.44523556500000006 0.43365063 -0.5086933849999999 -0.40829737 -0.8863848000000001 0.19515797000000001 -0.14310857 -0.4335003 0.23578727 -0.1728696925 0.21104743150000002 0.402246865 0.6036323 -0.4028582 -0.19489331999999998 -0.380397705 -0.215455295 
p331 -0.11058194 -0.100058015 -0.23992644000000002 -0.124732585 -0.238054645 -0.0526121898 0.18507119500000002 -0.20604801500000003 0.9223241799999999 -0.351749735 -0.20735641 0.368115955 -0.4203981 -0.174925428 0.581423565 0.464965465 -0.41037803 -0.14012124 -0.5137296849999999 0.0507911665 -0.107954378 -0.028914537 0.51056483 0.45472322499999995 -0.45091931500000004 -0.824285175 0.30013629 -0.357457195 -0.650091325 -1.159886375 -1.3495791000000001 -0.13775611 0.18949686999999998 0.39982838 0.38031605 -0.16626839999999998 -0.15220559500000003 -0.012751484999999993 -0.14498745 0.34371311000000004 -0.32020439 0.6136215199999999 0.12630074200000002 0.320077285 0.092238974 0.554328465 -0.41173872499999997 0.19580961000000002 -0.45412883 -0.445436325 0.180689927 -0.7724356 0.1740135625 -0.22728642 -0.870112365 -0.06560992 0.34315718500000003 0.468247085 -0.80161918 -0.152891365 -0.11136056999999999 -0.10450278 0.25232545500000003 -0.728066415 
p607 -0.332436855 0.26224307 0.22948732500000002 0.13888785 -0.344183565 0.17548622 0.21988307 -0.15520444 0.146176105 -0.012663761999999995 -0.2270158115 -0.2290826775 0.020716785 0.09507977 0.057463230000000004 0.020193635 0.09290240685000001 0.013171797999999998 -0.242328649 -0.19803076 0.12972324999999998 -0.10780926 -0.165171925 0.140291505 -0.2727972575 0.05071598149999999 0.10730804 0.22736921 -0.121676436 -0.276217385 0.11156156499999999 -0.329463697 0.01647629325 0.10025071 -0.06980499 0.130622572 -0.02831986 0.287663545 -0.058772615 -0.21888838000000002 -0.341060155 0.03735278433 -0.103207616 -0.262932925 0.094626647 0.18809863999999998 -0.041255223 -0.162791345 -0.225551785 -0.3172992925 -0.14164479 -0.34262304 -0.23071021000000003 0.0650625475 -0.17650101499999998 0.16910444 0.18593916 0.009684208500000003 -0.0876617455 0.120351615 0.12328491999999999 -0.26495987 -0.028854872299999997 -0.25137534 
p610 -0.1883514 0.146588945 0.3257881 0.14308899149999998 0.057819949249999995 0.120695887 -0.100597255 -0.075659745 0.0812804925 -0.026409415 -0.325447905 -0.191621726 -0.07111582 0.134522855 0.12411976899999999 -0.08387988 -0.256102475 -0.237645575 -0.28431005200000004 -0.320625785 0.32543036999999997 0.055659713 -0.115793983 0.16957945 -0.20730199500000002 -0.0616917145 0.169568585 0.27875311999999997 -0.22458646999999998 -0.021880129999999998 0.1076155415 -0.09786782999999999 0.144690777 0.25489249399999997 -0.209366635 0.056446449999999995 0.0167551675 0.272802203 -0.073143904 -0.092496267 0.14587407900000002 0.013469144 -0.052783837 -0.012582467 -0.0969759152 0.100393555 -0.02836413 -0.157215235 0.128483096 0.15174818299999998 -0.18732305700000002 -0.0522628025 -0.1430179775 -0.02264002 -0.09990688 0.09004929 0.012740624999999998 -0.29211479500000004 0.08799477500000001 0.047103593500000006 0.026852835000000002 0.006709094999999998 0.12741140750000002 -0.019649846 
p894 -0.09228030000000001 0.1082927275 0.045941105 0.091138772 0.010177940499999996 0.0991000735 -0.03542759999999999 -0.0769806755 0.212620325 -0.09377650700000001 -0.070115274 -0.18433408499999998 0.092771065 0.034808797499999995 0.011996185000000006 -0.1485780125 -0.019410633 -0.188496945 -0.116713383 -0.079995672 0.168929255 0.09456277999999999 -0.2327556825 0.25543519 -0.1550894 0.18167152 0.21941393 0.28360585 -0.20552347199999998 -0.14878750000000002 -0.16428237 -0.183112495 0.26053722999999995 0.13356428 -0.050336822 0.0732067395 0.17426403000000001 0.09201259850000001 -0.024504632000000005 -0.26246633 -0.181455472 0.2200937225 0.009294548 -0.210793295 0.141118445 0.037102463 -0.12060092250000001 -0.21374328999999997 -0.16776021300000002 -0.21684135499999999 -0.29106113499999997 0.022764811000000003 -0.0014831724999999976 0.0673492825 -0.11856001 0.119593153 0.020365625 -0.10108684500000001 0.0029354389999999998 -0.135131435 0.177258475 -0.025916380000000003 -0.024334424999999996 -0.28535433499999996 
p923 0.036521354500000006 0.1903164335 0.0582178815 0.045904208849999996 0.179098691 -0.029103314999999998 -0.1010391225 -0.08806833250000001 0.2220164925 -0.150069235 -0.085339774 -0.19992670199999998 0.19112680499999998 0.053630013000000004 0.08552910500000001 -0.315241718 -0.089543122 -0.24619109 -0.038759604999999996 -0.1156549 0.13223590000000002 0.304812592 -0.35860187200000004 0.33796345000000005 -0.17987994000000002 0.0590127485 0.33462073 0.47242707500000003 -0.3359591925 -0.15968306399999999 -0.185854385 -0.06913005 0.21744096499999999 0.22248162999999999 0.10184172 0.071280868 0.330671913 0.13785466000000002 -0.023932736500000003 -0.329102605 -0.336728668 0.421416785 0.027293227 -0.241638786 0.266280703 0.027639685 -0.2545881785 -0.381601665 -0.28154547500000005 -0.39315011499999997 -0.43317067 0.026920125000000003 -0.0459168135 -0.034116838 -0.261744825 0.174526197 0.054527044999999996 0.036018307000000006 -0.09366892625 -0.18436869 0.161394985 -0.0250568765 -0.004588821999999999 -0.47728925499999997 
p384 -0.36040418 0.1970448875 0.23895322000000002 -0.74984257 -0.1138862894 -0.51869965 0.6536366499999999 0.65888537 0.7832213800000001 0.48743258500000003 0.47439 0.519927925 -0.49100473499999997 0.32622105 0.1096418215 0.626421885 0.39258845 0.299356315 0.33138385000000004 0.222473275 -0.097846295 0.449168865 -0.135348755 0.573465255 0.338871925 0.38926591 -0.17219253 0.466894865 -0.27361909500000003 -0.5747827000000001 -0.0250745935 -0.37644458999999997 -0.28452198 -0.329145315 -0.437845885 0.5502502149999999 0.395223965 0.15624879 0.247358175 -0.37014974 0.6154799 0.2244247365 -0.20770222 -0.39843456499999996 -0.265669685 -0.211440935 0.6017675650000001 0.6630319 0.188120825 -0.257119203 0.12721545150000002 -0.6612411 -0.097943312 -0.37881677 -0.41345283 0.044531359 -0.145700105 -0.483969985 -0.0748296082 0.427273175 -0.65131172 -0.57989388 0.218784735 -0.35256147000000004 
p388 -0.07230818815000001 0.6045642 -0.18236011500000002 0.66783098 0.3381018925 -0.05228639500000001 0.45348266 -0.187941975 -0.07985336999999999 -0.207700345 0.106250365 0.21828267 0.184821135 0.10270742000000001 -0.5802396999999999 -0.41160157 0.065084905 0.032383876 0.253503585 -0.342499265 -0.039609574999999994 0.37709329999999996 -0.67783562 0.5211587 0.40065292 -0.5744606 0.218985245 -0.32980857 -0.1162447746 -0.495737175 -0.32734971 -0.568673475 -0.451823635 0.31352456 0.29969982 -0.13677512 -0.12415717350000001 -0.345870285 0.30296075499999997 -0.07731664499999999 -0.2459423375 -0.4721698 0.339305835 -0.660219525 0.028022725000000005 0.185324155 0.34191115000000005 0.182570965 -0.644192175 0.304446535 0.23508674 -0.54939953 -0.190556518 0.42180992500000003 -0.5432691350000001 0.30570487999999996 0.27823471499999997 -0.7591792850000001 0.420594405 0.29903507500000004 -0.285432255 0.350308222 -0.45931576 0.41385427 
p903 -0.0444328975 0.075831009 0.24597706000000003 0.13560640200000001 0.15199625 0.304620398 -0.176467528 -0.092281152 -0.038696337500000004 -0.055054544999999996 -0.3865615475 -0.32736444200000003 0.08757736999999999 0.071932669 0.18929924135 -0.256650935 -0.22112741 -0.255440531 -0.264912405 -0.308728365 0.396367403 0.16550095250000002 -0.25544711249999996 0.26594831 -0.23771176700000002 0.06529437499999999 0.29726037 0.34661270250000004 -0.24503227500000002 -0.007128671999999999 0.007723595999999999 -0.045672278999999996 0.1746878 0.33663819500000003 -0.0682747605 -0.072003173 0.09261980547 0.18236948 -0.12921923800000001 -0.1822639625 0.06625912 0.14527176 0.05853571149999999 -0.076931257 -0.0032431779999999993 0.02168431 -0.128234978 -0.281478267 0.026801415000000002 0.064301255 -0.33478289699999997 -0.022826285 -0.1134284825 0.009078242 -0.21540363 0.188948 0.064306205 -0.25070807500000003 0.097104365 -0.10236366 0.131964477 0.021283414499999997 0.040851954999999995 -0.150599743 
p1003 -0.0482586 0.14168829249999998 0.08806533750000001 0.137171348 0.071112261 0.087284811 -0.0766202015 -0.0696546125 0.112138848 -0.060579184999999994 -0.1388678175 -0.2446541625 0.069946815 0.057060173000000006 0.0867066715 -0.1636556875 -0.0763803385 -0.14817739 -0.117323725 -0.146795865 0.18869516 0.1033067 -0.12653491 0.2394811 -0.14803904 0.15734988 0.224266605 0.24797956 -0.226173 -0.10144808350000001 -0.081925828 -0.119660643 0.253225445 0.14363594 -0.0632083415 0.095842023 0.194779985 0.136771 -0.07522477500000001 -0.22966818499999997 -0.186587685 0.2288169 0.077030125 -0.17219885 0.12782010500000002 0.095469027 -0.09963471999999998 -0.22602377999999998 -0.10298864 -0.1676816 -0.31759853 -0.030693057000000003 0.030349616000000003 -0.011548146499999995 -0.1652186695 0.120419118 -0.008099234999999996 -0.11496374749999999 0.009828697999999997 -0.08721908 0.21705976500000002 -0.025850143000000003 -0.023974848 -0.242960872 
p410 -0.189415795 0.62213081 0.36763847000000005 -0.528999715 -0.331905465 -0.245081808 -0.336890325 0.374092265 -0.39800490499999996 -0.571117385 0.124783209 0.37571699999999997 0.378529385 -0.35758635 0.5235257799999999 0.48712586 -0.63471957 -0.4644695 0.21329004000000001 -0.35039017 -0.05051298 0.277540935 -0.0527397585 -0.55339467 0.280445795 0.363201565 0.132020825 -0.379547825 -0.18407933999999998 -0.76822188 -0.89183868 -0.311118075 0.44800393 -0.488949585 -0.0813524525 -0.249434325 0.28493187999999997 -0.39992044000000004 -0.51235995 -0.5910045500000001 -0.9366447 0.85833775 0.4739045 -0.35263975000000003 -0.21188458999999998 0.6536767450000001 0.38361603499999997 -0.6778759050000001 0.526596575 -0.50341934 0.11020822300000001 -0.7425038500000001 -0.61241689 -0.41670226 -0.81627015 0.19383202249999998 -0.7546600800000001 -0.49955182 0.355287095 0.21595898 0.09385314 -0.35559997 0.36634425000000004 -0.31790248499999996 
p99 -0.054763955 0.072809167 0.252518155 0.129046844 0.0781900925 0.2132571025 -0.07946605500000001 -0.0599970315 0.0924219665 0.08865848 -0.280733365 -0.1960026175 -0.036361106500000004 0.1438229 0.1091538125 0.011312017 -0.233198995 -0.07434370800000001 -0.07502268 -0.30454747249999997 0.27632485 -0.0381207205 -0.092592307 0.0752743 -0.105336714 0.032334365000000004 0.142061245 0.247490665 -0.225721395 -0.109096957 0.1143073985 -0.0998948075 0.1449693925 0.2254787835 -0.141575855 -0.036218412500000005 -0.028528786 0.10869736499999999 1.8680000000020902e-06 -0.043036582000000004 -0.025414657 0.050839529999999994 -0.014804814999999999 -0.09766324500000001 -0.043276395 0.081219193 0.057080346 -0.14069945 -0.04493269625 0.071191614 -0.127288375 -0.11977026 -0.103738835 0.034890323 -0.164927685 0.101898935 -0.0192945625 -0.298327915 0.05127264499999999 0.058682242 0.080356575 0.022823626499999996 0.012535375000000001 0.012473821 
p404 -0.357326805 -0.136184987 -0.05058934699999999 -0.27820202 -0.6032622999999999 -0.28953583 -0.38199629999999996 0.391448065 0.589663685 -0.19164553499999998 0.440478325 0.1551462725 -0.6179458250000001 0.37955099999999997 -0.382811675 0.40025864499999997 0.27518648 0.5447845099999999 0.07911826200000001 -0.13711673 0.5503892100000001 -0.460035995 -0.12380404 -0.15276466 -0.02339011 0.15983582000000002 -0.34487724 -0.102899593 -0.47345004 -0.18082494999999998 0.32057372500000003 -0.014743977 0.45118959000000003 -0.26041338 -0.596063715 0.1154911 0.39961503000000004 0.10855039465 -0.364756685 -0.18176459499999997 -0.28439068 0.265945635 -0.36005375 -0.600824315 0.113695045 0.32111469000000004 0.400709945 0.028620314999999993 0.13133552699999998 -0.1393529465 0.421655565 -0.29975424 0.24933914 0.34534923 -0.170216447 -0.25507974499999997 0.42119070000000003 0.2035386525 -0.454561435 0.1195343965 -0.038138675 0.37650874 -0.055549008 0.444096325 
p407 -0.16983545649999998 0.565957995 -0.04590481525 -0.45515102500000004 -0.354982145 -0.08153091999999999 -0.30849415 0.40427903499999995 -0.533729645 -0.454554095 0.0356513125 0.437836665 0.268049685 -0.18958287000000001 0.5350262650000001 0.44889735 -0.71834405 -0.605609 0.195977835 -0.39627446499999996 -0.097487925 0.0656762565 0.147506075 -0.97791505 0.284935135 0.33311987 0.33502352 -0.38841039 0.108960577 -0.920776815 -0.691410065 -0.50431599 0.47807285 0.275755635 0.141149535 -0.14316358 0.42243028000000005 -0.28250843999999997 -0.35696616000000003 -0.47373318499999995 -0.6816046 0.65542095 0.32757087 -0.446014195 -0.35968591 0.670525915 0.699267835 -0.61333412 0.293432265 -0.64123285 -0.36748517999999997 -0.584515565 -0.525002425 -0.375855385 -0.863256 -0.15250539500000002 -0.68287835 -0.5644714949999999 0.411276615 -0.07548935 0.528368035 -0.0380166007 0.23259497 -0.59404035 
p1012 -0.30167555 0.32619791 0.200512075 0.21012284 -0.33435225 -0.0763196215 0.294584895 -0.022247634500000002 -0.059421818 0.12499201 -0.245675515 -0.14406941150000002 0.0776455125 0.08407432499999999 -0.05876798650000001 -0.0553845825 -0.18186945999999998 -0.077151442 -0.213840365 -0.17130738499999998 0.0011764640000000003 -0.182996375 -0.07745859029999999 -0.16543425 0.0533419275 0.0263744825 0.1380325165 0.017614045999999998 0.139428675 -0.021852794499999998 0.053713516999999995 -0.31761948500000003 0.162213465 0.09295509 -0.24167534499999999 0.30501796999999997 -0.07082412965000001 0.161171875 0.0748063287 0.18886952 -0.2601985175 0.349418785 -0.08056691 -0.0878467865 0.056302865 0.0133984345 0.18004329 -0.079721668 -0.21352768 -0.32611905 -0.12885154999999998 -0.2028064735 -0.19673603499999998 0.15039309 -0.23613868500000001 0.186681785 -0.025025037500000007 -0.0867450825 -0.1368888935 0.22893336 0.18073778000000001 -0.122745095 -0.00369009 -0.28238372 
p30 0.38264785 -0.18370018500000002 0.59190985 -0.41946885 0.059374289 0.185581085 0.651774415 0.36892062000000003 0.681173885 -0.315059535 0.23665255000000002 0.39077466 -0.107036278 0.32336127000000003 -0.41341649 0.57684567 -0.3517196 0.105786785 -0.39525071999999994 0.19654101000000002 0.464668975 -0.048872212 0.468267475 0.293752 -0.1633995365 -0.59511706 -0.192160328 -0.35036731 0.31304592 -0.328781115 -0.52992322 -0.672778425 -0.254196195 -0.16735619000000002 -0.04766263999999999 -0.105466398 -0.16853106 -0.113020885 -0.47478231 -0.37861858000000004 -0.567165285 0.388148965 0.463512825 -0.67804813 -0.041086525 -0.24885361500000003 0.57724741 -0.232164555 -0.24842761 -0.153261637 -0.481995495 -0.714735005 -0.56553298 -0.30558835 -0.5377446 0.35695381 0.25248793 0.449367065 0.0032269850000000017 -0.196467735 -0.34112200000000004 0.03765667 -0.52815652 0.5637559400000001 
p343 0.19974828 -0.000975715000000002 0.03770629905 -0.5291711649999999 0.26818867 0.38348984499999994 0.13566452 -0.44947562 1.1772056000000002 0.24854393 0.007689959999999999 0.260160425 0.0563515735 -0.31422751 0.6644701 0.77118075 -0.5516161049999999 -0.070617473 -0.308199995 -0.490904805 0.11228053700000001 0.050284776 0.135758023 0.324494465 0.43627950000000004 0.38363657 0.019192535000000004 0.56194637 -0.8632998000000001 -0.7160234999999999 -0.667968095 -0.9443885 -0.38711735 -0.014331430000000001 0.246190565 0.44538485000000005 0.090578764 0.08077891 -0.11808077 -0.25180108 -0.18280480500000001 0.66528888 -0.22234963500000002 0.63313837 0.51816505 0.272011885 -0.15921695 0.376690965 -0.6062742249999999 -0.24994155575 0.44254835000000003 -1.0482647649999999 0.50412842 -0.563737385 0.144392725 -0.492176355 -0.20102718 0.32051006000000004 -0.76029975 -0.366714455 -0.338709015 0.29352795 -0.80285625 -0.357891765 
p431 -0.02337217435 0.0558500825 0.14812816 0.111155315 0.089560448 0.26708842 -0.06444615000000001 -0.087632822 0.0339905415 -0.024408739999999998 -0.26409255 -0.21612773000000002 0.054257749999999993 0.07950276 0.097981092 -0.072622458 -0.14313140000000002 -0.160762707 -0.16512113 -0.237453755 0.34678804 0.02439132 -0.105907857 0.20918362000000001 -0.15898775 0.103845578 0.261572935 0.2728047575 -0.28230668 -0.0450669625 0.024588477499999997 -0.129769875 0.19687411 0.231333005 -0.07501004750000001 0.045222633 0.07870844885 0.14253579 -0.071993607 -0.12991487 -0.094347975 0.1128972835 0.11638336699999999 -0.1664809 0.053968405000000004 0.112139145 -0.08425954699999999 -0.24843663500000002 0.0016029689999999992 -0.052682467 -0.30320696 0.010531711999999999 -0.062704149 -0.002707487999999994 -0.15528343225 0.1037536065 0.043272857 -0.16396266 0.052237198000000006 -0.056971505 0.1755677925 0.007544112999999998 -0.0030428000000000052 -0.15138301750000002 
p7 -0.43329633500000003 0.39659111999999996 0.241985508 0.30873975000000003 -0.39197355 0.196370503 0.296090795 -0.167440725 0.224252057 -0.05316930799999999 -0.1918135775 -0.24158408999999997 -0.0015938730000000026 0.022908047000000004 0.09363821 -0.0502673725 -0.11169857 -0.104098994 -0.320225256 -0.0774201125 0.1602913025 -0.075584239 -0.11842013500000001 -0.0302241895 -0.30863941 0.044772272 0.18669576 0.192928285 -0.0636459948 -0.39860920499999997 0.12111564 -0.399143755 0.08941812499999999 0.1373656685 -0.13093376 0.118804615 -0.038691145 0.39323238 -0.07830537499999998 -0.035523415850000004 -0.393398202 0.10864131799999999 -0.026563385 -0.3676334625 0.146020552 0.18468042 0.00017373899999999914 -0.134727496 -0.3316334815 -0.43537616 -0.22898824499999998 -0.426783443 -0.392003185 -0.001441249999999998 -0.3474847715 0.10586206000000001 0.1312122375 -0.036261106749999994 -0.08744919500000001 0.167558335 0.20051571799999998 -0.214656435 -0.0751680165 -0.38585765499999997 
p107 0.0323425325 0.033438670000000004 0.424627025 0.176314445 -0.04673008000000001 -0.108094515 0.48394084000000004 0.45455048499999995 -0.12091199000000001 0.38620479500000005 -0.2313557825 -0.382728325 -0.264844065 0.172390102 -0.1959305875 0.532992285 0.48862359499999997 -0.015576875000000004 -0.342100695 0.09408056000000001 0.145248915 0.34043024 0.20233433450000002 -0.45919273 0.245591975 -0.284387065 0.3716771 0.32035621999999997 -0.1799619745 -0.550092445 -0.29284893 0.12072861500000001 -0.055149065 0.35534164 -0.48174322 0.2582355 -0.182385485 0.14756513500000001 0.073760757 0.47785708 0.260054355 -0.5662364950000001 -0.259996505 0.4096847 0.07569301499999999 0.55196806 0.45075584 0.04875583 -0.59275549 0.22391350000000002 -0.36713706 -0.17793315299999998 0.49109191 0.30366846000000003 0.53754991 -0.401348285 -0.16989643 -0.368229075 -0.655733435 0.3005907 0.451879285 -0.053190802499999995 0.5345344249999999 -0.273076115 
p474 0.334006115 0.283637495 -0.27773495000000004 -0.441536755 -0.37474875 0.39878104 0.29468804 0.36412784 0.9724554999999999 -0.47856442499999996 -0.365065725 -0.090220358 -0.1118737195 -0.234856075 -0.69033875 1.08797875 0.190837245 0.29036026000000004 0.211727375 0.08628305750000001 -0.19314896150000002 -0.018053974999999993 -0.5660345849999999 0.38164771 0.640695315 -0.47581274 -0.385119375 -0.223076165 -0.24399671 -0.181967907 0.21014578 -1.1498741 0.10764043 0.49914562500000004 -0.5670216849999999 -0.33834605 0.43824640000000004 -0.383509905 0.16548912999999998 -0.37159146 -1.2022076 0.147767965 -0.27160802 -0.18242037 -0.200423945 0.269452045 0.75253065 0.23610352 -0.7734111800000001 -0.67093923 0.11295425 0.40207545499999997 0.35109277 -0.291422665 -0.71494468 0.114877045 0.45698309 0.251840475 -0.525147185 -0.53224916 0.22626775500000001 -0.1749962025 -0.46841036 -0.51494908 
p524 -0.12533852 0.06344574 0.30361612 0.154684665 0.08091607499999999 0.303357815 -0.19663154800000002 -0.096611665 -0.0012646379999999985 -0.038918438 -0.406506255 -0.318368498 0.11438749200000001 0.064194675 0.1752661465 -0.217900025 -0.20217638 -0.25476165 -0.2680824065 -0.38303198 0.357210629 0.14640666600000002 -0.16486483 0.289808427 -0.2465210265 0.0550113205 0.27137182000000004 0.411455527 -0.28559660000000003 0.005415622499999998 -0.0703500665 -0.006954260000000004 0.18066868 0.37471668999999996 -0.076445562 -0.071474835 0.088032412 0.1643693 -0.0937129875 -0.149466785 -0.0200844315 0.09736288 0.0035171955000000005 -0.045218007 -0.0013220474999999995 0.039247831500000004 -0.16664756 -0.306736635 0.09899044000000001 0.0057733349999999975 -0.33869776 -0.049435740000000006 -0.15099443 -0.01492106 -0.25365172 0.168531615 0.076204885 -0.27821668499999996 0.1540072575 -0.0911970775 0.0922413545 0.058785672500000004 0.137776075 -0.0905867365 
p596 -0.0276040492 0.0806961375 0.23953858 0.13265371 0.10000045 0.262953545 -0.12366769350000001 -0.0621756525 0.12938338 0.034014550000000005 -0.30264024 -0.218086405 0.049520032500000005 0.0626934785 0.12037435999999999 -0.12951532999999998 -0.09270092 -0.12672189 -0.16650958 -0.273621665 0.282329 0.0073244249999999955 -0.166108925 0.244367775 -0.165207988 0.0300158027 0.1607102775 0.20295362150000001 -0.29917981 -0.0553118695 -0.0020984974999999975 -0.10489589999999999 0.097947175 0.233398775 -0.16549459 -0.012933821999999998 0.11999289099999999 0.073617051 -0.055780788000000005 -0.144726043 -0.0828213 0.105328015 -0.036268033 -0.159005465 -0.064619067 0.10700648 -0.06567722999999999 -0.27919288 -0.0580251435 -0.046778448900000005 -0.15381928 -0.11743910700000001 -0.13985953 0.02805482135 -0.1837961125 0.0765114385 0.024652455000000004 -0.269853215 0.13973087499999998 -0.034808617 0.0641652365 0.033283113 0.04086478 -0.109557577 
p379 -0.024223387500000002 0.08324934 0.36111439 -0.26795641000000003 -0.112329508 -0.06954895750000001 -0.43972326500000003 -0.16498466199999998 1.0426434 0.011359146 -0.019438415 0.27086166 -0.5759765649999999 -0.5499411750000001 0.548613715 0.38428274 -0.471140575 0.48920698500000004 0.350103285 0.453433465 -0.320822115 0.35973024 -0.20212194499999997 0.187813325 -0.182809815 0.146600775 -0.148131296 0.907717825 -1.1274123 0.434764335 0.285536615 -1.02853665 -0.243321135 -0.12867013700000002 0.152480632 0.559993265 -0.33527153 -0.364862295 -0.269857345 -0.42044869 -0.640356455 1.10550722 0.15677523475000002 -0.8070399500000001 0.6016761899999999 0.080726353 0.84585875 -0.24151434 -0.86138427 0.571520555 0.44213364 -0.9483188499999999 0.54097184 -0.20232971 -0.254034353 -0.504117325 0.16902336499999998 0.2551028475 0.066710925 0.13762139 -0.375920895 -0.31757923 -0.836788125 -0.6548761 
p81 -0.24252477 0.25018745 0.166326515 0.15708781 -0.26745204499999997 0.074752314 0.19127996 -0.18448911499999998 0.128014322 0.045482386 -0.12408725453 -0.16884004 -0.05108721000000001 0.17353410000000002 -0.03273482999999999 0.08553588415 0.06425002 0.000586086999999999 -0.1713059285 -0.209258425 0.076309412 -0.189325365 -0.08609420500000001 0.12687394 -0.185935845 0.075273266 0.0008145484999999997 0.22203668999999998 -0.122705747 -0.2951978 -0.0007717149999999992 -0.23438294999999998 0.0961754725 0.12879064 -0.107747235 0.0663146885 -0.07351801899999999 0.1490352 0.04161255500000001 -0.206587075 -0.21714904 0.148378455 -0.12307207 -0.18075150499999998 0.19067256500000002 0.12307238200000001 0.002087947999999999 -0.15573573500000001 -0.19783720999999999 -0.222647915 -0.027216435500000004 -0.17487262 -0.0843155965 0.117548687 -0.0435197385 0.198494065 0.002647324999999999 -0.045971617000000006 -0.024985176999999997 0.137625885 0.09692798999999999 -0.20991363000000002 -0.004945544500000001 -0.108172075 
p236 0.21413041 -0.532898575 0.08479243 0.5573299199999999 0.461421345 -0.22141079000000002 0.37306525 -0.25742301 0.544830065 0.192462407 0.127640741 -0.47757772 0.18207339 0.33378947 -0.240503085 0.38587459 -0.43392452 0.367268115 0.053802353000000004 -0.61507997 -0.30951455 -0.101324565 0.20412157 -0.66082412 -0.1215682675 0.44586888999999996 0.42032393999999995 -0.1265858275 0.34985670999999996 -0.382372145 0.010378233 0.24926144175 0.48660488 0.356238375 0.0954981715 0.371843335 0.3649814 -0.43104022 -0.48503531 0.44027075000000004 -0.59187202 -0.3877046 0.462298675 -0.18496569499999999 0.198204283 0.283012365 0.33568622 -0.4755559 0.028262593250000002 -0.31359954 -0.701984315 -0.35350324499999997 0.006585315000000008 0.40198942000000004 -0.427771895 0.58879388 -0.1451070235 -0.50731343 -0.276767725 -0.303368305 0.52351455 0.189245685 -0.6110106399999999 0.29190573 
p718 -0.0341070735 0.008396782 0.289801677 0.126852766 0.1698301455 0.2105647825 -0.2107723815 -0.118997871 -0.047957615 -0.04002948 -0.453088105 -0.34564275 0.105145822 0.139601845 0.177590675 -0.33421039 -0.21473338250000001 -0.333216151 -0.35760940300000005 -0.40329511 0.431313725 0.266848704 -0.31746301499999996 0.324786435 -0.23251787999999998 -0.021375353 0.34574102 0.4381981725 -0.280118595 0.035530997999999994 -0.0228360495 8.532499999999721e-05 0.15893674 0.39880015 -0.12794519 -0.12122654500000002 0.12806972049999998 0.22427460800000001 -0.13966267799999998 -0.231422583 0.12663104349999998 0.1271013785 0.036112955 -0.035183321000000004 0.018089151999999997 -0.023705155 -0.19113024 -0.354055235 0.15598697 0.04917863 -0.42849297350000004 0.00028112500000000706 -0.090309187 -0.0017714764999999973 -0.287583075 0.2765453215 0.09413107999999998 -0.24686544000000002 0.10301066499999999 -0.10196892499999999 0.11328415 0.032630291500000005 0.095996085 -0.1685456015 
p994 -0.274140125 0.23636348000000001 0.145499795 0.17755009800000002 -0.27364868 0.179213985 0.168440915 -0.19824638 0.18632710000000002 -0.040891094999999995 -0.13885212 -0.20499315499999998 -0.0335442525 0.13982671 -0.039388019999999996 0.037357150000000006 0.05481197 -0.06797202199999999 -0.206501185 -0.141547275 0.06702366 -0.149357803 -0.138890125 0.06884835 -0.26570671 0.12357628000000001 0.0946794175 0.26418554 -0.106724636 -0.282727165 -0.0071716 -0.30620946000000004 0.13337562 0.09999700249999999 -0.06491999650000001 0.060114295 -0.060297461999999996 0.227324305 0.031830653 -0.141005167 -0.23216752 0.201155515 -0.1076260525 -0.24757268999999998 0.205755765 0.09354641799999999 -0.04309853200000001 -0.19943662999999998 -0.2237555275 -0.24991617 -0.14060114 -0.19969024000000002 -0.087945821 0.10107682600000001 -0.109114931 0.16795735499999997 0.055410799999999996 -0.06390335 -0.0611065125 0.0758766345 0.09274227 -0.208294375 -0.114605478 -0.23628144 
p322 -0.301184925 0.2110487075 0.3485996 0.4489054 -0.17536802499999998 0.33881322 0.11971673499999999 0.026109970000000003 0.0136125935 0.023610185000000002 -0.274288918 -0.157809398 -0.00665147 -0.080214842 0.1908082885 -0.10595370500000001 -0.14376421 -0.35712267999999997 -0.096363485 -0.33345483 0.2078498775 -0.186059145 -0.210770965 0.113277755 -0.069232212 0.012822497000000002 0.1538638385 0.0802179975 -0.15378394 -0.339067995 0.0605918525 -0.07567739 -0.088992200035 0.176810938 -0.277640485 -0.014142799999999997 0.26120589318000004 0.1931927625 -0.18308426179999998 0.013903228000000004 -0.220219805 0.092982465 0.037058764999999994 -0.289678575 0.11281379250000001 0.35121025499999997 0.0337326125 -0.36986984999999994 -0.1076010585 -0.197630145 -0.20775598299999998 -0.277349365 -0.34714434 -0.03297292 -0.299768032 0.073712292 0.2089774825 0.020745576 0.10067214999999999 0.054835507750000005 0.120569683 -0.0344737096 -0.032070888 -0.03834637885 
p337 -0.175977716 0.019077661500000002 0.38656429999999997 0.61939519 -0.3230261 0.48599729999999997 -0.280471478 0.2659375 0.45753922 -0.22852313000000002 -0.44611460999999997 -0.31606394 -0.098381889 -0.19965329 -0.327305485 -0.129965359 0.306687245 0.020721204999999993 -0.376710965 0.227311417 -0.033654595 -0.112220507 0.21129479885 -0.41364918500000003 -0.4518086 -0.08950594 -0.052462035500000004 0.356671795 -0.24107115 -0.57187192 0.046785428999999996 0.154295959 0.3980177 0.444092155 -0.04829312000000001 0.0053454049999999975 -0.35447822500000004 -0.2498836275 0.306316935 0.457505615 -0.24399446 -0.28468985 0.269509505 -0.44578512000000003 -0.40409764 0.267686045 0.15879209300000002 0.24160934850000002 -0.41369241999999995 -0.55269165 0.442697205 -0.1463256 -0.27028464 0.50240957 -0.155064135 -0.154175405 -0.143779565 -0.85660826 -0.2050295143 -0.022489645 -0.24371215 0.2994276975 0.28981718500000003 0.250000278 
p232 0.471426365 -0.012162190000000003 0.38007641999999997 -0.27472146 0.31869601999999997 -0.48318852999999995 -0.31886524000000005 0.24576472500000002 -0.482619715 0.9616113 -0.55327765 -0.196939865 -0.21977998 -0.0698991615 -0.525983435 0.265742145 -0.197040725 -0.764360625 -0.46967627 0.13772802 0.09549640499999999 -0.619934795 0.3694465 -0.062977575 -0.28038523 -0.184033815 -0.137014136 -0.236981145 0.38517222 -0.52680633 -0.46196026 -0.21865362500000002 0.7833527149999999 -0.3980346 0.56641063 0.66491395 0.445647465 0.44692284000000004 0.039529929000000005 0.11402922 -0.703354515 0.36174485 0.1050397865 -0.813164295 0.457085715 -0.365666515 -0.3734083 -0.04007171500000001 0.129003022 -0.6749963800000001 -0.055072449999999995 -0.439256355 0.15666787999999998 -0.459998175 -1.0639948000000001 -0.02810885085 0.17373348500000002 0.60201769 0.167110385 0.085269762 0.38017544999999997 0.002508097000000001 -0.8881983250000001 -0.793656125 
p171 -0.5702251 -0.1389259 -0.41650202000000003 0.11138388799999999 -0.93591025 0.08674537 -0.70626906 -0.481950635 0.6669122000000001 -0.27562637 0.4961122 0.38396121 0.40082677 -0.21102199 0.19939176 0.17013368 -0.9120771999999999 0.35425643500000004 0.41599221500000005 0.45876682 0.24378045774999998 0.00039761900000000183 0.19178652000000002 -0.28633728 0.012317269999999998 0.183241535 0.34778517 -0.09997149 0.7322348999999999 -0.0440257475 0.047060287500000006 -0.6215826 -0.678215 -0.67860488 0.316912955 0.203804735 -0.6875952700000001 0.28715789999999997 -0.17517865 0.08928762500000001 -0.926095335 -0.080930285 0.403519315 -0.6615502 0.597529325 0.38218474 0.7863129799999999 0.5233074 0.22851470000000002 -0.142491462 -0.9157019500000001 -0.47631473 -0.28684472499999997 -0.58601074 -0.77067088 0.15734607 -0.9989109 -0.90038065 0.62730935 0.355084065 0.6209365250000001 0.1921755 0.52760451 0.42042838000000005 
p872 -0.093828105 0.153721055 0.09416706 0.12746316 0.03352925 0.173306145 -0.037082606000000004 -0.07209652 0.18250251 -0.06431308499999999 -0.1880817925 -0.27206885000000003 0.09058604999999999 0.0632534285 0.09320092499999999 -0.147753542 -0.015861727 -0.10404129749999999 -0.1001785925 -0.1743716975 0.242285325 0.06341988500000001 -0.149768415 0.241243235 -0.18685753 0.175467595 0.273096135 0.25259656 -0.203959826 -0.1253300385 -0.060450758 -0.148114683 0.255231065 0.171469275 -0.0817607345 0.10333330500000001 0.1707555765 0.11350588 -0.08969883249999999 -0.19760971500000002 -0.151894 0.21215008500000002 0.027648260000000008 -0.19298344 0.08111978 0.068346132 -0.13094522 -0.220538485 -0.11102963499999999 -0.12175014 -0.28302805999999997 -0.037951754 -0.0012355100000000022 0.0282950605 -0.182048652 0.09843209119999999 0.05007183 -0.142235675 0.04638391 -0.089975267 0.1520967725 -0.045319706 -0.023877703 -0.212174145 
p720 -0.21853456000000002 0.23376336 0.169653415 0.149039655 -0.1631601 0.22273156 0.13472695 -0.07913453699999999 0.10366278 -0.07512717 -0.339423105 -0.36637082000000004 0.11230158499999998 0.042213995 0.17468044000000002 -0.118191818 0.020143565000000002 -0.0170097535 -0.26864767 -0.239214145 0.25145012 0.031446455 -0.095761767 0.25623184499999996 -0.20100020999999998 0.175842565 0.28331929 0.26021804 -0.13653878 -0.17727838999999998 0.057996065 -0.307133808 0.16976172 0.243967923 -0.155765665 0.1116209675 0.1413405 0.272769535 -0.09242428 -0.23227343 -0.27445534 0.09808069450000001 0.074091268 -0.304071942 0.071728248 0.076718006 -0.0778471 -0.19261445000000002 -0.185966252 -0.291529408 -0.20128446 -0.2736395075 -0.1478169725 0.03241839 -0.24047755599999998 0.052153695 0.13108915999999998 -0.056175568999999995 0.014126004999999997 -0.0044242725 0.177065815 -0.11140409700000001 -0.012615624000000002 -0.29191346799999995 
p818 -0.13958133 0.210311315 0.09208021999999999 0.15598151500000002 -0.1174020425 0.084891984 0.120859625 -0.10013651300000001 0.21932347 -0.125414795 -0.140436447 -0.229855935 0.09432665999999999 0.053460377249999996 0.08683186999999999 -0.1561377275 0.040879558499999996 -0.0818615765 -0.15958006 -0.125993345 0.129399385 0.057947492 -0.187881635 0.23630684 -0.16960745500000002 0.18566606 0.260926365 0.28763393000000004 -0.1138094525 -0.17174747399999998 -0.07463172600000001 -0.28456365499999997 0.17396858999999998 0.1137397675 -0.03668178899999999 0.10849255 0.19289447 0.189107435 -0.05192892 -0.2656941 -0.260824735 0.21468305 0.012437654999999999 -0.252814402 0.145776085 0.077156625 -0.14888353499999998 -0.21785005999999998 -0.21375866999999998 -0.2923571775 -0.283578555 -0.140376355 -0.0402662275 0.036765376 -0.2066757285 0.09612475200000001 0.07552081999999999 -0.007039922500000004 -0.0353507135 -0.07355508499999999 0.166449463 -0.12638751 -0.055104925 -0.298073908 
p902 -0.31042302499999996 0.28284345 0.16476879 0.21555506000000002 -0.295695845 0.19301890300000002 0.201044515 -0.19935034000000001 0.15937764 -0.079619065 -0.2144432395 -0.19333054 -0.026310835000000005 0.11055453500000001 0.04090479500000001 0.013275075499999997 0.019031439 -0.0883049295 -0.222342588 -0.112046437 0.117867542 -0.103357839 -0.139700817 0.0692820775 -0.278486035 0.12189941 0.12312332499999999 0.272172435 -0.09289274349999999 -0.27277745999999997 0.015361430000000002 -0.31743888 0.09627953 0.1414882 -0.06890966800000001 0.07800339 -0.020368681 0.281819375 0.0007193900000000003 -0.15127823 -0.271888695 0.17123938249999998 -0.102762459 -0.2551397 0.162416335 0.09981901 -0.037850015 -0.21135082500000002 -0.26239159 -0.275420695 -0.134080135 -0.254363343 -0.15105663000000003 0.08869624150000001 -0.18182789100000002 0.168287485 0.08364556 0.014599750000000002 -0.085072169 0.0893671615 0.126764925 -0.225825485 -0.11398565999999999 -0.25599410499999997 
p59 -0.37397644999999996 0.227875355 0.25346141499999997 0.23921673499999999 -0.268843055 0.161410535 0.191006433 -0.050078153 0.224641605 -0.10910067 -0.4716125075 -0.35993574 0.19696137800000002 0.074745065 0.23227944500000003 -0.19949197999999999 -0.2244081025 -0.0970497 -0.39564467999999997 -0.36659773500000004 0.248708845 0.1476082025 -0.11203614 0.155725375 -0.2890881 0.19355098 0.3188947265 0.21847179500000002 -0.165858055 -0.096760396 0.16591872885 -0.40746830500000003 0.34380630500000003 0.31961327 -0.29893093 0.100043612 0.159748854 0.326938385 -0.156237665 -0.255761175 -0.24494966499999998 0.015666651000000004 -0.015873727999999997 -0.34238976000000004 -0.1191021065 0.137401993 -0.09233360000000002 -0.21385664000000001 -0.0175847195 -0.194508614 -0.39281463 -0.52877363 -0.16689410500000001 -0.0115073395 -0.36522474 0.14336636 0.06302632250000001 -0.102835815 0.09311373 0.05979685315 0.378311655 -0.14107215 0.025444147 -0.382926235 
p496 -0.061705659999999996 0.054887575 0.253615975 0.111860705 0.05331690150000001 0.17691304500000002 -0.150383598435 -0.109495115 0.068886533 0.07254362049999999 -0.33458700999999996 -0.17253516249999998 0.024535670000000002 0.094268763 0.07616516 -0.09905154000000001 -0.19582718500000001 -0.192781725 -0.1818563075 -0.29569077 0.328207235 0.06716139300000001 -0.134322935 0.18471483 -0.17688018 0.0303955245 0.186177515 0.2878452 -0.30748814 0.060636917 -0.010576421499999999 -0.0934846825 0.24224774500000001 0.25448872499999997 -0.13860664 0.028925650999999997 0.0206522015 0.07483699299999999 -0.0468187575 -0.12839473 -0.044368425499999996 0.10465880500000001 -0.043605353900000005 -0.105737847 0.038922741999999996 0.109123695 -0.053910269999999996 -0.18307721 0.1261816365 0.09960888799999999 -0.21160932000000002 -0.0485964025 0.01420486 -0.08979326545 -0.18264895 0.09945624 0.010451504 -0.24833971 0.05591577699999999 -0.02478847 0.036535697000000006 0.019785987500000005 0.03974805 -0.0249704645 
p833 -0.17265295 0.09306863 0.2635516 0.24676723 0.024529139999999998 0.296699315 -0.048434803 -0.048638494250000004 0.0603562235 -0.07810479 -0.43136536999999997 -0.39481946 0.039086714999999994 0.0872249675 0.2243255485 -0.24881713 -0.177805623 -0.1984968 -0.264235335 -0.26785068 0.379596035 0.17856144999999998 -0.172686705 0.25104294 -0.23855386 0.073283226 0.3396276 0.26735969 -0.19355786 -0.080081719 0.06917041 -0.23359175 0.114343955 0.24134261299999998 -0.0935526 -0.04460919 0.13396301200000002 0.298137865 -0.16170845650000001 -0.144339995 -0.089273393 0.126399675 0.088416295 -0.200688575 0.025131634 0.12358349699999999 -0.1668318 -0.23603506749999997 -0.050874479 -0.0675167095 -0.337319225 -0.10307067 -0.0971530075 0.023292184 -0.377625125 0.151802402 0.10151824000000001 -0.249701275 0.06603164250000002 -0.08331958 0.17847302499999998 -0.039673719499999996 -0.0033964699999999987 -0.227076668 
p576 0.33181788 -0.0010930124999999971 0.41772125 -0.32964361 -0.37501844500000003 0.22150948 0.2715688 0.065204517 0.764041235 -0.295906275 0.28797688 0.53788987 -0.008678628999999998 0.19900919 0.42495726 0.40428497500000005 -0.55635275 -0.03500341350000001 0.549389785 -0.03830519055 -0.32922635 0.4484983 -0.71845365 0.0422903015 0.29239892 0.55289831 -0.464321125 0.60771185 -0.7126825450000001 -0.32551627 -0.09787757169 -0.56167075 -0.32982147 -0.32916179 -0.0357253275 0.62117215 0.49145599 0.47455064 -0.397665175 -0.41069111 0.341470065 0.541573235 0.379273325 -0.5145445 -0.013027312500000002 -0.251276425 0.7495229999999999 0.230886455 -0.49778046 -0.279228568 -0.004524102000000002 -0.8070516750000001 -0.250750535 -0.17052117 -0.324125315 -0.20229211 0.36398141 0.45260131 -0.32495854999999996 0.5715860700000001 -0.388552145 0.35458858 -0.44586018 0.28762331 
p73 -0.0334429075 0.09646288750000001 0.1635869 0.09652573 0.11143841650000001 0.0956013285 -0.09923194499999999 -0.013140147499999998 0.20628828500000002 -0.065257905 -0.123088165 -0.21414268 0.05313426 0.0902975795 0.10114791 -0.150744 -0.059367588 -0.12181291999999999 -0.13155165 -0.22938496 0.23808247 0.151213205 -0.163880065 0.285431265 -0.175695515 0.122333955 0.17655827500000001 0.248400775 -0.273792065 -0.115137504 -0.081093775 -0.0817770025 0.20788404 0.228693475 -0.14621568499999998 0.076466128 0.2232530425 0.119434925 -0.0716246225 -0.24010345 -0.16519772500000002 0.139859641 0.014960267999999999 -0.196179015 0.0470553445 0.066647015 -0.12850988 -0.240611525 0.029600135000000003 -0.17504635500000001 -0.24546572 -0.16657926 -0.002957824500000001 0.049911705 -0.13052934085 0.07152265420000001 0.026327089999999997 -0.125191613 0.0471628635 -0.08901594000000002 0.20874879749999997 0.014242894999999998 0.052014983 -0.2118388935 
p179 -0.4809165 0.382572755 0.19340751 0.30113247 0.379721195 0.15718283 0.28405225 0.49877457 0.223529555 -0.63719785 -0.45103609 0.35347265 0.43102688 -0.5230142849999999 -0.40897233499999996 0.60968152 -0.63392925 -0.16879795 -0.53865425 -0.09730047 0.72062375 0.54789603 0.38073013 -0.56105655 -0.38282969499999997 0.41752807 0.72803862 0.318838125 0.21953204 0.24481055499999999 0.1695329425 -0.5071549550000001 0.256708795 0.3286369 -0.447831365 -0.35469623 -0.5311470300000001 0.008438784999999997 0.54721705 0.663212355 -0.499426035 0.53369384 -0.280776445 -0.31811276 0.45573815500000003 0.40366155 0.46658822 0.483071185 -0.37684901 0.294538875 -0.123001152 0.7774948 0.45077171 0.343674035 0.38972505 -0.5558882 0.320527495 -0.525694445 -0.43991000999999996 0.666099225 0.6692769000000001 0.021154544999999997 -0.337511195 0.326352745 
p988 -0.239933555 0.25574144 0.07457061 0.196042015 -0.22276446 0.116570528 0.161242785 -0.112240745 0.23121824000000002 -0.120659145 -0.13169990099999998 -0.2335353 0.07874306 0.0267437985 0.049702235 -0.133743268 0.005874128500000001 -0.14091475 -0.159859395 -0.0838072125 0.11854802 0.004571875000000003 -0.25463329 0.18626353 -0.26614464 0.21079629500000002 0.245426455 0.271767335 -0.1431933645 -0.26494633 -0.095719994 -0.314378367 0.1960692 0.093398832 -0.0507944215 0.08292845 0.106099053 0.24681502 -0.041288975000000006 -0.24819345999999998 -0.32185960999999996 0.26439671000000003 -0.006179395000000004 -0.3240779775 0.19328225999999998 0.07699120500000001 -0.1120427085 -0.22712485400000001 -0.265576212 -0.30761283 -0.271408325 -0.191234543 -0.1501045 0.08603566600000001 -0.246053605 0.14160413949999998 0.08841535500000001 0.013228785 -0.071462688 -0.02917053 0.19395543250000002 -0.186016745 -0.12760106 -0.35364825 
p752 -0.02709106 0.060176278 0.15832190499999999 0.11480550449999999 0.1312534135 0.21172559000000002 -0.138987105 -0.0035441699999999993 0.128640125 -0.016191210000000004 -0.19066339999999998 -0.25572084 0.011443584999999992 0.09746511299999999 0.101539217 -0.11679006 -0.1089213975 -0.17733858 -0.164994835 -0.177051125 0.327674635 0.12325708 -0.124447525 0.24367551 -0.21013258499999998 0.0604429675 0.22040462 0.246448055 -0.249361308 -0.13927312 -0.054972732 -0.09949482650000001 0.15653413 0.25035071 -0.10619424499999999 -0.01486850499999999 0.11631240000000001 0.131876455 -0.03814482 -0.22127955500000002 -0.056463265 0.116268287 0.020587575000000004 -0.13562782 0.0594354515 0.083159087 -0.004480599999999994 -0.21390449 0.001968255000000002 -0.0173692 -0.22105307300000002 -0.043185682 -0.013952822200000001 0.061023462 -0.19334885400000001 0.1170180995 -0.050569911999999995 -0.27974339 0.087641515 -0.07238198300000001 0.22452858999999997 0.008576074999999996 -0.011426322500000002 -0.225408175 
p885 -0.09983908 0.12872501 0.0456585065 0.09320112 0.03252217 0.106185115 -0.0508545935 -0.0941035935 0.18708906 -0.07827558000000001 -0.0877321875 -0.20577348 0.08540883999999999 0.0502643905 0.03539714 -0.188689947 -0.06770525299999999 -0.20081992999999998 -0.124684735 -0.077346175 0.19451824 0.10599414300000001 -0.21945494 0.24652543 -0.157559165 0.19769022 0.234751145 0.2665442665 -0.22644236 -0.16710918500000002 -0.14853903499999999 -0.16918978499999998 0.222734755 0.13952109499999998 -0.06429980285 0.07753418 0.1591252635 0.119448977 -0.05103540200000001 -0.244709775 -0.16488007699999999 0.23117597499999998 0.038964395 -0.23208327 0.14166398 0.031439800000000004 -0.09884547499999999 -0.22906425000000002 -0.186581263 -0.14303221 -0.277558725 0.035401431 -0.009305935000000001 0.06537992000000001 -0.13250444349999999 0.1273395685 0.01963806 -0.1344947475 -0.016753010999999998 -0.131529655 0.18266481 -0.021988432500000002 -0.036299561999999994 -0.26144052 
p846 -0.31154081 -0.30799586 0.31023212499999997 0.172494905 0.46551374999999995 0.64927015 -0.21003621 0.48245046999999996 0.7476898 -0.30945455 0.43808271 0.49540025 0.29849764 -0.30921984 0.36581004 0.466137625 -0.068636417 -0.307394925 0.35172406 0.48478736 -0.257124245 -0.495926275 -0.33336878 0.077563706 0.53951305 0.39728418 -0.43113828 0.370926565 -0.75307715 -0.759904505 -0.245059475 -0.540000825 0.073519962 -0.35448174 -0.15790216 -0.248550965 0.40605784 0.47399643 -0.54516475 -0.1223398325 0.07848403500000001 0.493376095 0.524593765 -0.42198145 -0.44046858 0.07352336 0.61579865 0.335408685 -0.590309075 -0.44300998999999996 0.35128565 -0.9172293 -0.590992235 -0.34980369 -0.396629535 -0.429202115 0.0386810305 0.40767385 -0.461449425 0.625596225 -0.041185334500000004 -0.362039825 -0.61654323 -0.14324867 
p216 0.238216032 -0.352106735 0.51140892 0.6718224150000001 -0.48626491499999996 -0.1446326 0.36912633 0.060581715 -0.017352629999999994 0.58670265 0.357576315 -0.28379576 0.49284886000000006 -0.14233904 -0.29010020999999997 0.8441024 -0.014630992 0.077513671 0.32040978 0.3314961 -0.30967017500000005 0.639825615 0.633927735 0.68131253 -0.73393789 0.66140558 -0.325946525 -0.263022705 -0.9653111999999999 -0.378648055 -0.58081201 0.15528718 0.239074525 -0.26642291 0.067241115 -0.32550756 0.4876408 -0.38868044500000004 -0.43237746 0.93928905 -0.92384315 0.76702312 0.364861505 -0.9688133999999999 0.26048543350000003 -0.01281318027 0.41178492499999997 0.67987645 -0.570945665 -0.101369288 0.105610597 -0.16635394 -0.58223295 0.41209832 0.30211028 0.090982855 0.15668164999999998 0.26619145 0.6376168449999999 0.40559572 -0.1697155175 0.1319142475 -0.635244225 -0.932747625 
