3389	64
p792 -0.07495998 0.062913746 0.08458682 0.12218214 -0.08142435 0.1378735 0.03770109 -0.12116062 0.13407686 0.11041749 -0.10178824 -0.09879007 -0.13666102 0.105744205 -0.062475063 0.08474364 -0.06535402 -0.11861821 -0.13536906 -0.090368554 0.14545816 -0.06845304 -0.11946262 0.16263491 -0.16580327 0.1368243 0.14196756 0.04287858 -0.087982126 -0.062076468 -0.14146067 -0.13237363 0.12825319 0.09080338 -0.12621285 0.1318468 0.05117105 0.14339106 0.06098977 -0.15405962 -0.0958459 0.056667443 -0.08819711 -0.06982337 0.08578396 0.10725375 0.097595334 -0.095608145 -0.059959676 -0.11668962 -0.112723865 -0.091076665 -0.038634405 0.087639645 -0.02785961 0.001665842 -0.13751693 -0.13842925 -0.061628394 0.04308788 0.14147826 -0.06833402 -0.11125671 -0.044312283
p123 -0.2236348 0.16766992 0.05696948 0.07540875 0.044357017 0.078055024 -0.37528118 -0.49188647 0.41601038 0.29753023 -0.12067935 -0.16187187 -0.14885704 0.068734095 -0.10789581 0.48483714 -0.36327153 -0.1608504 -0.23886833 -0.17205673 0.09126205 -0.08908055 -0.13135111 -0.13334882 -0.2178858 -0.37662488 0.1428756 0.33056006 -0.41571772 -0.43040255 0.41016966 -0.46846995 0.038025208 0.09452549 -0.038642958 0.0137362555 -0.25187153 0.16500606 0.15853348 0.28556913 0.4502375 -0.40807334 -0.060378447 -0.2686173 -0.40873984 0.1545267 0.3157864 -0.20056707 0.36591044 0.367532 0.33212993 0.37468162 0.43683183 0.24636658 0.34948727 0.4404273 -0.049625676 -0.08578569 -0.38329348 0.41601104 -0.33230576 -0.22297083 -0.38568175 0.41191658
p1017 -0.11769531 0.11764012 0.14186777 0.16134153 -0.11131622 0.16286507 0.08815372 -0.12145997 0.07083164 0.102174625 -0.18007627 -0.171069 -0.12931716 0.09034436 -0.01658142 0.0857951 -0.100060835 -0.13689746 -0.16949964 -0.10828286 0.056282535 -0.0149632655 -0.09562442 0.095197424 -0.06695337 0.043982916 0.14908318 0.08573008 -0.08167972 0.0029621122 -0.015420116 -0.023987073 0.09650858 0.10873178 -0.15841804 0.12943783 -0.05004224 0.1594889 0.03895036 -0.033362843 -0.064274296 0.10074651 -0.080405414 -0.051767536 0.013851363 0.08647476 0.13113947 -0.08350582 -0.11996845 -0.12873168 -0.1518167 -0.14884694 0.0010692689 -0.023112018 -0.083708495 0.02486839 -0.09590228 -0.1335806 -0.17056523 0.14095478 0.0716799 -0.10060691 -0.013908001 -0.06215209
p327 0.3252917 0.57897145 -0.38926733 0.13264705 0.075776994 -0.3118497 0.3839232 -0.54473317 0.6496662 -0.32818526 0.37018293 0.2578609 0.19980362 -0.3514349 0.33240947 0.8087287 0.2258897 -0.14932023 -0.47659048 -0.5493451 0.21031982 0.23982048 0.32972676 0.28031966 0.40068454 -0.076547705 -0.3049619 -0.38992226 -0.6894822 -0.7382008 -0.32303736 0.40656486 -0.46519434 0.39468628 -0.39644745 -0.38696498 -0.49410135 -0.25227284 0.41099334 0.48166266 -0.37338343 0.2824487 0.30726203 -0.53448415 0.2924744 -0.31084317 0.5600813 -0.19501966 -0.107719004 -0.5600337 -0.71771896 -0.7292599 0.30307645 -0.12002787 0.049734417 -0.27723506 -0.32183227 0.35999966 0.17659552 0.38529608 -0.2792288 -0.44049504 -0.2207086 -0.15866756
p702 -0.060352217 0.071029596 0.16304308 0.08434043 -0.029815014 0.044162866 0.09053823 -0.0954458 0.04200209 0.10998391 -0.11839072 -0.06698311 -0.101652905 0.1357917 -0.018653888 0.11899163 -0.059406392 -0.07047481 -0.014557399 -0.14368717 0.053796038 -0.0414306 -0.097162604 0.13366096 -0.078582674 0.09894755 0.0036337783 0.08885481 -0.17675251 -0.12445111 0.0395321 -0.08787618 0.046697307 0.10323257 -0.12422654 0.06523707 -0.070661694 0.110552594 0.04174197 -0.055506423 -0.036449853 0.02260199 -0.10420602 -0.060781673 0.027026825 0.074539006 0.080978885 -0.1315639 -0.008341812 -0.09077043 -0.044367168 -0.17288205 0.009921319 0.052519225 -0.09359454 0.08089197 -0.06564739 -0.14159198 -0.09318761 0.111250795 0.04485374 -0.050857935 -0.016965052 0.043223232
p943 -0.1535077 0.12620452 0.078901045 0.09469245 -0.14901276 0.09972364 0.13905083 -0.14656413 0.1064241 0.06474888 -0.008135511 -0.06980399 -0.13941415 0.1091661 -0.18266186 0.11634461 -0.05552332 -0.11633739 -0.06704188 -0.11839144 0.07844636 -0.15335476 -0.07228062 0.09740356 -0.115448244 0.06789508 0.074516624 0.12419568 -0.0606078 -0.16200525 -0.10371747 -0.09160158 0.08685663 0.0983789 -0.11550475 0.053161044 -0.07377553 0.111964986 0.1541767 -0.098924294 -0.1155157 0.094085485 -0.14272298 -0.11755318 0.10030058 0.08813868 0.055743974 -0.040949505 -0.09814123 -0.076837525 -0.06468872 -0.052709673 -0.1868016 0.15291052 0.056034118 0.059731897 -0.121141985 -0.043108627 -0.038067695 0.13276811 0.06567501 -0.14632663 -0.055213466 -0.17562045
p506 -0.15893818 0.13220502 0.10106471 0.034329925 -0.16861857 -0.11915024 0.17096154 -0.21450768 0.13971075 0.1455544 -0.018642213 -0.06225912 0.07296911 0.14041409 -0.21020961 0.01870457 0.14034948 -0.0843925 0.10074349 -0.1623761 0.08671849 -0.2304074 -0.10151232 0.043148883 0.036821336 0.021337902 -0.060174305 0.18298909 0.000636066 -0.19140053 -0.07638 0.08628452 0.061010074 0.16648309 -0.0837251 0.04987989 -0.19191137 0.05153793 0.20630312 -0.020441063 -0.11022502 -0.12917265 -0.17891379 -0.13291179 0.023438666 0.058434386 -0.094474606 -0.10941975 0.13011277 0.12512967 -0.06830014 -0.082013115 -0.2434351 0.19845258 0.20558323 0.19973157 -0.09510592 -0.021590887 -0.08597351 0.13687126 0.07821117 0.0725011 0.05926752 -0.13729386
p648 -0.12016343 0.11248129 0.16197072 0.10694756 -0.0731884 0.12813057 0.08580905 -0.10418433 0.084038906 0.12776871 -0.1510436 -0.14042637 -0.088208415 0.10833679 -0.0038731485 0.12014251 -0.12201944 -0.07731753 -0.09792811 -0.14927834 0.08486381 -0.042970955 -0.098842725 0.15667953 -0.056686305 0.049194258 0.09519901 0.104608744 -0.12374046 -0.08596111 -0.025166286 -0.07951869 0.070065886 0.091200076 -0.11856036 0.0924046 -0.02664185 0.095376365 0.059208926 -0.08806667 -0.086350866 0.07204098 -0.06760988 -0.08654885 0.051284455 0.10974308 0.1185663 -0.1332041 -0.11413942 -0.09214348 -0.11188077 -0.14221667 -0.045701418 0.031447083 -0.10038262 0.07993752 -0.06399888 -0.1264614 -0.11544225 0.11372837 0.05084271 -0.107572846 -0.046050854 -0.035490535
p202 -0.33649707 0.46379545 0.3768749 0.16819811 -0.44881162 -0.44067118 -0.25849998 -0.47751015 -0.6496212 -0.24024788 -0.437416 -0.46162426 -0.3268697 -0.017764367 -0.2762819 -0.17627876 -0.15787274 -0.11454794 -0.29048473 -0.27251473 0.18249594 -0.16725716 -0.35878107 -0.754432 -0.09396744 -0.24996197 0.16412066 -0.08432046 -0.17253128 0.51799786 0.5632531 -0.035774305 0.21332029 0.22885583 -0.15290084 0.28176892 -0.4313254 0.20687488 0.29047596 -0.18876977 -0.43798774 -0.39946106 -0.13799 -0.54373705 -0.52868855 0.2387456 -0.51503175 0.5238712 -0.5497252 0.40154248 -0.56872374 0.1117164 -0.6753546 0.4126754 0.35311598 0.65880287 -0.2581856 -0.23148867 -0.6104507 0.07945426 -0.45812595 0.23523489 0.46556222 -0.69921297
p678 -0.086019136 0.06001202 0.09515936 0.13863161 -0.06627975 0.11774236 0.031105826 -0.11078651 0.1360795 0.07911691 -0.0913287 -0.10596245 -0.13592525 0.08311088 -0.055369925 0.03369242 -0.094472624 -0.08265428 -0.1542511 -0.07502843 0.15179089 -0.072308384 -0.12362806 0.15611283 -0.17199324 0.12724258 0.13385281 0.05461866 -0.09352848 -0.06251219 -0.0987721 -0.14491053 0.15766065 0.113904305 -0.1333162 0.13347827 0.03844209 0.1605602 0.07421106 -0.1445442 -0.08722397 0.038380466 -0.07485017 -0.07339636 0.06514682 0.10367385 0.099110104 -0.09660312 -0.07941784 -0.08039318 -0.08435927 -0.1306953 -0.037076894 0.07195969 -0.0024971373 0.00039965872 -0.15224391 -0.15630615 -0.06242831 0.062222984 0.12757017 -0.07055349 -0.091412336 -0.032237113
p41 0.34225872 -0.23590781 0.6690516 -0.49324155 -0.097541854 -0.29247022 0.524644 0.4280349 0.65357333 -0.24950713 0.29715696 0.37964407 -0.4110083 0.5551431 -0.50538754 0.50660574 -0.19696137 0.1421339 -0.3931723 0.024538599 0.46946627 -0.24686958 0.24610792 0.38292527 -0.111373074 -0.57857597 -0.21584095 -0.30797738 0.002852867 -0.49712536 -0.5779282 -0.46722347 -0.4331362 -0.36755145 0.2546875 -0.2737662 -0.024846522 0.37902796 -0.31657606 -0.27413568 -0.32126883 0.42394286 0.3582811 -0.49693978 -0.039153855 0.26536754 0.36614636 -0.42787763 -0.43197533 -0.15708889 -0.5723408 -0.60021967 -0.6263623 -0.3237201 -0.38310272 0.3521869 0.29715732 0.33009526 -0.36473006 -0.1932398 -0.34722057 -0.2251115 -0.43247205 0.26229733
p360 -0.04282541 -0.087809056 0.32269388 -0.4771724 -0.3671018 -0.04965085 0.45573565 0.31215638 0.5986548 0.22656222 0.41882566 0.4340749 -0.4164471 -0.0021992126 0.4278455 0.5022118 -0.11471776 0.28844672 0.40488967 0.326383 -0.4141605 0.40056795 -0.58052427 0.38071346 0.429334 0.3895821 -0.36449024 0.6700753 -0.4161523 -0.48934504 -0.21507081 -0.3080266 -0.37039605 -0.20921429 -0.3202947 0.4214295 0.37796587 0.265256 0.11573864 -0.37084365 0.20243374 0.33014104 -0.055632655 -0.41793784 0.03509169 -0.4144438 0.47601488 0.4333258 -0.13190734 -0.39368212 0.1726428 -0.67062575 -0.1666535 -0.30999207 -0.11607866 -0.42150936 -0.002199976 -0.022690453 -0.34484932 0.39316317 -0.4156715 -0.28300866 -0.3290024 -0.10507635
p626 0.30467242 0.01474671 0.5035711 -0.3252779 -0.26746985 -0.44051716 -0.15143427 0.3890348 0.6660551 -0.4088765 0.42720252 0.48551652 0.43696013 -0.04672696 0.43565044 0.5007208 -0.47450164 0.13519888 0.435693 0.35709718 -0.4288886 -0.34461537 -0.6394414 0.4082959 0.422071 0.54119027 -0.4434756 0.42254964 -0.63112545 -0.5463431 -0.35125047 -0.6094068 0.11499914 -0.37010768 -0.32126722 0.50244355 0.50687796 0.61181283 -0.22883524 -0.3078939 -0.26177073 0.38689977 -0.24755657 -0.24228203 -0.35628918 0.20201495 0.57088226 -0.27650714 -0.4970105 -0.586944 0.4261599 -0.8452894 -0.52851045 0.16772261 -0.28349462 -0.2822125 0.26604465 0.45156056 0.337833 0.15625042 0.36160675 0.37648594 -0.714548 -0.38291785
p333 -0.35897526 0.24790683 -0.38456476 0.01784954 0.07800928 -0.32892236 0.6781692 0.27667487 0.7950254 0.40198866 0.45662037 0.11458252 0.29279798 -0.40228587 0.2542308 0.7979228 -0.23274532 -0.19822347 0.2667229 0.24126017 -0.34761384 0.41194218 -0.14108646 0.10064907 -0.4371458 0.38423765 -0.32989636 -0.49737218 -0.8725488 0.5197675 -1.1389563 -0.7571712 -0.20006621 -0.37991464 -0.54310614 -0.42530876 0.57668686 0.6300087 0.0025528825 0.79542977 -0.8688682 -0.00027246072 -0.3631026 -0.8324483 -0.23460759 -0.19481494 0.53875697 0.17907362 -0.73007697 0.36026546 -0.11574283 0.4475569 -0.4953394 -0.2936276 -0.53723556 -0.32020882 -0.2042936 -0.2525436 -0.21094747 -0.40037122 -0.08378007 0.15993021 -0.8752076 -0.44411334
p1007 -0.06887649 0.091355905 0.15492274 0.14707512 -0.1032009 0.15715364 0.07833305 -0.074368894 0.081342235 0.07985885 -0.15377668 -0.14574988 -0.089314476 0.086378105 0.0065715415 0.05335915 -0.11727177 -0.109142385 -0.15185902 -0.13926044 0.07561395 -0.056403533 -0.13388556 0.10265408 -0.013353287 0.057624146 0.09038782 0.098375715 -0.048726294 -0.016471682 -0.037250124 -0.038056638 0.088802285 0.12592915 -0.11349334 0.09982033 -0.010892547 0.13838407 0.042359136 -0.029504593 -0.08947436 0.0791027 -0.0465393 -0.071210556 0.03965648 0.104754455 0.093991704 -0.1020742 -0.086305395 -0.104234934 -0.18419923 -0.12159145 -0.025355928 0.015877783 -0.12897786 0.063374795 -0.049272873 -0.13699646 -0.14438638 0.11651678 0.039457176 -0.12705876 -0.046466734 -0.017404934
p481 0.39405558 0.051861197 0.40738925 -0.46522835 -0.387989 -0.24590579 0.05471457 0.3455261 0.6965052 -0.30916628 0.35796437 0.54070777 0.3697137 -0.31565148 0.38876125 0.44164413 -0.63065106 -0.12781405 0.49142718 0.43501598 -0.461621 -0.25289446 -0.6370538 0.42162824 0.42914745 0.46929204 -0.5036613 0.16902228 -0.5088093 -0.41339338 -0.35870668 -0.50305843 0.20562816 -0.3962024 -0.29709676 0.5465 0.4152409 0.54419667 -0.37724814 -0.40864682 -0.16013889 0.4594881 -0.15701823 -0.30008748 -0.3879522 -0.12501244 0.4211556 -0.28022242 -0.58884835 -0.49236265 0.45837283 -0.7925855 -0.3239246 0.18574505 -0.2492489 -0.24508503 0.35444906 0.46104875 0.27467376 0.011817443 0.31115752 0.36849043 -0.76151264 -0.48256353
p568 -0.05867252 0.0537709 0.12637475 0.050683293 -0.038338166 0.08072074 0.06838317 -0.074990086 0.044021323 0.125754 -0.1588691 -0.087555684 -0.09194843 0.1228877 0.011590309 0.163686 -0.15124308 -0.070790075 -0.084680356 -0.12768127 0.075125456 -0.06256549 -0.08312085 0.0794132 -0.029430605 0.023357075 0.0503321 0.095396966 -0.14042409 -0.11455969 -0.027863266 -0.089008816 0.07278001 0.071481146 -0.096357025 0.08176921 -0.0809272 0.08498234 0.072116785 -0.039931774 -0.044903617 0.037843406 -0.05230577 -0.06934507 0.05603616 0.10114039 0.096778624 -0.085439704 -0.051989146 -0.07341747 -0.046222024 -0.1387177 -0.039895188 0.06950801 -0.14591004 0.10306449 -0.052537218 -0.0901363 -0.086540066 0.06996043 0.05084367 -0.081369825 -0.09999034 -0.01308078
p826 -0.095561035 0.106961794 0.14792371 0.12852252 -0.09317171 0.13864458 0.074629575 -0.093510464 0.11333547 0.10512588 -0.14069861 -0.13566205 -0.117484055 0.102475226 -0.03555368 0.071034804 -0.10891723 -0.11479582 -0.11760148 -0.12771854 0.098760515 -0.037994556 -0.12121016 0.17996109 -0.10308142 0.10932069 0.117938615 0.104075715 -0.09449148 -0.039556973 -0.044938408 -0.08650175 0.10369586 0.09366637 -0.12400301 0.0947241 0.0038106148 0.14940643 0.06470026 -0.13285021 -0.09541034 0.08433849 -0.11448354 -0.10353462 0.05833122 0.14886382 0.12420073 -0.123908475 -0.09237223 -0.09228421 -0.1416166 -0.15002702 -0.03567843 0.057718124 -0.06602138 0.041874647 -0.097385846 -0.12817965 -0.10348502 0.104401074 0.06795545 -0.11180423 -0.08769004 -0.04559251
p978 -0.05294464 0.050906606 0.06823204 0.11156961 -0.074273735 0.10393466 0.01806466 -0.11363591 0.10679529 0.045984257 -0.02022808 -0.06459323 -0.10650382 0.07948518 -0.13925813 0.019404018 -0.025105331 -0.13978623 -0.13563286 -0.05119029 0.12974 -0.12359403 -0.11084868 0.15154713 -0.15342642 0.14018616 0.13977623 0.044170123 -0.020848332 -0.024270726 -0.108881146 -0.10862459 0.13920748 0.059979815 -0.09471454 0.08697127 0.06723204 0.146504 0.059802216 -0.16231857 -0.048158385 0.05260491 -0.07858067 -0.044797927 0.06830951 0.08030565 0.046248443 -0.058474287 -0.06697681 -0.1065832 -0.09219461 -0.048909698 -0.11619138 0.0865066 0.057795748 -0.018753663 -0.14183058 -0.101621695 -0.01789551 0.04471986 0.105973445 -0.06425584 -0.100508034 -0.09997066
p163 -0.41847533 0.47606492 -0.30786982 0.37105176 0.35890132 -0.26112482 0.39485544 0.03755867 -0.30448294 -0.33369827 -0.34742007 0.39008018 0.29171455 -0.41425112 -0.2780269 0.32936147 -0.35441878 0.21137941 -0.43703884 -0.42206988 0.4524955 0.21616636 0.3098032 -0.5272549 -0.28227964 0.3186935 0.5277104 0.3493219 0.31101334 0.24745715 -0.4427349 -0.36685503 0.32503992 0.1811908 -0.39186856 -0.3231264 -0.16872749 0.03200867 0.2351206 0.27960095 0.0077419635 0.4044565 -0.119285636 -0.30716762 0.35011536 0.35185966 0.20364507 0.35952756 -0.4098331 0.08341579 -0.49440297 0.44528845 0.22246295 0.46199948 0.26990953 -0.28951746 0.118718155 -0.39883843 -0.26806024 0.3124203 0.5227043 -0.35851374 -0.56347215 0.19458872
p536 -0.20397848 0.14858392 0.08979785 0.12291496 -0.12508765 0.16091739 0.04188197 -0.16978751 -0.04524437 0.15750974 -0.1139972 -0.16545087 -0.08622558 0.15948366 0.005790071 0.07800498 -0.03418847 -0.107122645 -0.09343641 -0.08137726 0.095167175 -0.0124259675 -0.12058557 0.121144354 -0.1365425 0.07850647 0.08987382 0.12023846 -0.15292975 -0.15699223 0.048628762 -0.07145271 0.12241231 0.124852024 -0.07146854 -0.029150395 -0.17378785 0.09603511 0.0788301 -0.03594996 -0.08616693 0.103908055 -0.04352044 -0.020979071 -0.011700047 0.12889415 0.16970493 -0.09171949 -0.124624975 -0.04963928 -0.052617703 -0.15490714 0.009911971 0.07683598 -0.013729595 0.022445435 0.034733802 -0.13472125 -0.10071104 0.17366621 0.08295271 -0.18631002 0.004920885 -0.046710804
p448 -0.119025014 0.09854178 0.09590424 0.13664976 -0.035676166 0.16635457 0.05757928 -0.12238374 0.123661935 0.04999215 -0.09269809 -0.15164371 -0.113484435 0.06846554 -0.05826804 0.07710896 -0.08009878 -0.09654852 -0.16877203 -0.10734744 0.15439358 -0.013690824 -0.12227406 0.13993874 -0.15128183 0.1819488 0.09573069 0.048343282 -0.10130686 -0.012075841 -0.06408792 -0.065554366 0.16244993 0.11787501 -0.11959019 0.0930108 0.034317654 0.10089862 0.046955887 -0.116164826 -0.09844192 0.07792877 -0.09917828 -0.10476665 0.06666986 0.150396 0.059782326 -0.110935666 -0.089680985 -0.054423656 -0.16774447 -0.08933817 -0.06978738 0.07997485 -0.026097132 0.030124484 -0.16317363 -0.13894212 -0.06436836 0.030246716 0.11039384 -0.13601585 -0.099334225 -0.024062164
p205 -0.26686996 0.22661182 0.17832844 0.14993106 -0.20828265 0.16723092 -0.019653145 0.10599705 0.30434033 0.25301892 -0.37988144 -0.17056786 -0.26330975 0.31401885 0.18428342 0.37280798 -0.3173801 -0.19530855 0.07325136 -0.1549799 0.17702055 0.21226214 0.14390264 -0.099539004 0.17851147 -0.3069791 -0.1072151 -0.11194443 -0.28349814 0.040026218 -0.27016148 -0.3736541 -0.27451268 -0.12340149 -0.029717617 0.23986116 -0.15297407 0.16010685 -0.029418945 0.017541979 -0.39221293 -0.08917938 -0.28194875 -0.29093364 0.08363524 -0.11320429 0.13972709 -0.22027029 0.20129767 0.023740385 0.13177864 -0.4495959 0.13029692 -0.0022012834 0.0828845 -0.022478059 -0.00084741286 -0.3317852 -0.31986183 0.2829649 0.20095669 0.16062231 0.022637151 -0.27205953
p303 -0.15783484 -0.3022622 -0.43766606 -0.031256247 -0.5507534 -0.3125369 -0.05131862 0.46622536 0.5560636 0.54230106 0.076595254 -0.94321364 0.4111797 0.2525223 -0.0732535 0.65167564 0.30514592 0.15616219 0.35562962 -0.33229297 0.21382245 0.4309557 -0.18187772 0.42037755 0.50948024 -1.018808 0.55510545 0.20853801 -0.10706206 -0.7395761 -0.7908531 -0.038007222 0.54070234 -0.31134143 0.29049143 0.3103689 0.22928889 0.30287498 -0.384477 -0.14761451 0.048983604 0.4655742 0.44382134 -0.44048887 0.4370933 -0.35270038 0.59973216 0.3306594 -0.7265441 -0.95370126 0.35395998 -0.71536976 -0.32662305 0.41100103 -0.6920145 -0.4054166 0.20763998 -0.10586594 0.25025162 0.15146494 0.30185223 0.2651842 0.37268737 0.3436528
p420 0.33415234 0.33885533 -0.32968354 -0.47660196 -0.2077612 0.023499807 0.36821902 0.39186937 0.81833184 -0.54653543 -0.2973161 0.030367477 -0.20887418 -0.49309286 -0.93530136 0.6655235 0.3072145 0.36883035 0.29663286 0.10232738 -0.14405547 -0.26125807 -0.29663765 0.3644845 0.5653918 -0.38273922 -0.41594893 -0.33612025 0.020785222 -0.3206501 -0.2610689 -0.9357304 0.41383418 0.3759567 -0.53300726 -0.35111877 0.45207164 -0.31867915 0.30464607 -0.4126572 -1.1899621 0.017615246 -0.31916118 0.07498908 0.11841386 0.3021565 0.7939795 0.42214382 -0.6414118 -0.5341955 0.010404278 0.1320071 0.34844163 -0.5199416 -0.8641153 0.0357702 0.45140013 0.44970012 -0.6810062 -0.46489996 0.28007212 -0.23297526 -0.91353005 -0.8797824
p817 -0.10596873 0.08406666 0.106985435 0.12965728 -0.110279545 0.13826442 0.072905645 -0.12614031 0.1277194 0.042791255 -0.03181331 -0.14570557 -0.13166878 0.1037626 -0.13040222 0.046925824 -0.020337598 -0.14016719 -0.13641658 -0.11893465 0.11418325 -0.10479943 -0.12261619 0.19217718 -0.14293696 0.1468565 0.15209186 0.09728146 -0.025422076 -0.047970247 -0.10098745 -0.095842905 0.14058259 0.08753029 -0.119956404 0.08788479 0.06592671 0.1479916 0.08472133 -0.15826204 -0.077578634 0.07395396 -0.12617883 -0.102400474 0.084040985 0.13276671 0.06737598 -0.105039954 -0.09080287 -0.10988363 -0.1491776 -0.059736986 -0.11225599 0.091010526 0.037133332 -0.02583868 -0.13438071 -0.1398728 -0.04056911 0.06926273 0.10117504 -0.1396005 -0.06843425 -0.06823259
p75 -0.13781722 0.14457889 0.09141116 0.09062619 -0.17454353 0.11345346 0.12747827 -0.15018344 0.1023689 0.0657994 0.01669171 -0.092773356 -0.11101654 0.14226824 -0.18595202 0.1253 -0.041112408 -0.12247378 -0.09268117 -0.09161006 0.06234238 -0.17440352 -0.07274438 0.07902911 -0.11655969 0.065399684 0.056117326 0.1323152 -0.055697575 -0.14762826 -0.09391997 -0.07726529 0.08675615 0.10674166 -0.093047395 0.08094592 -0.084400475 0.09330978 0.15520798 -0.08722694 -0.0889647 0.11792067 -0.13784528 -0.10624301 0.120338656 0.11421733 0.06677133 -0.036904212 -0.08382126 -0.096207514 -0.07210693 -0.024010776 -0.17012475 0.13940072 0.07124905 0.09294582 -0.12940276 -0.049254194 -0.043862768 0.11324814 0.06601568 -0.152705 -0.014584097 -0.17457888
p42 -0.29681635 0.19780083 0.21743979 0.09814489 0.0953623 -0.07188622 -0.189943 0.12990505 0.30267757 0.28117445 -0.29908523 -0.1236184 0.24616571 0.33540365 -0.27080393 -0.11696143 0.14690459 -0.12406768 0.120391525 0.14332512 0.31332213 -0.24447986 -0.22453836 -0.09042615 -0.23092404 -0.2509914 0.19477478 0.20432082 0.1527038 -0.3160228 -0.2992918 -0.37767228 -0.24044178 0.09251721 -0.38641125 0.18862578 -0.18541087 -0.23114188 0.26995024 0.11550548 0.17699131 -0.20009622 -0.24109668 0.23367786 0.3118107 0.16898741 0.21738252 -0.36369333 -0.16256236 0.19732751 0.31854576 -0.3589 -0.25866848 0.25872004 0.08170869 -0.08384147 0.08385463 -0.28086662 0.16552967 0.30222815 0.25201353 0.13190512 0.23982264 0.116683595
p695 -0.11891035 0.08969487 0.13664353 0.1506782 -0.101401724 0.13621001 0.09317216 -0.07295769 0.1066691 0.05623156 -0.13731025 -0.10581669 -0.134161 0.13069415 -0.055011697 0.064119264 -0.08793301 -0.11299423 -0.11657833 -0.14575028 0.09500021 -0.06894698 -0.13005829 0.19967245 -0.125037 0.13763568 0.08245381 0.09423956 -0.08280513 -0.06885345 -0.08942718 -0.08711404 0.10318232 0.10060239 -0.14478217 0.05367915 0.022885 0.15455163 0.048061643 -0.15515238 -0.114849485 0.047214657 -0.03389901 -0.08039701 0.04960526 0.14392176 0.12694098 -0.10216985 -0.049115814 -0.11450193 -0.083740465 -0.11770015 -0.07266485 0.05479236 -0.03385649 0.03937319 -0.0878275 -0.14229581 -0.06647378 0.084739126 0.067676224 -0.10887972 -0.05237737 -0.06573357
p793 -0.084125 0.05649921 0.069303386 0.10962133 -0.0713445 0.12023744 0.05232809 -0.121938035 0.13157202 0.10414599 -0.02279142 -0.09426387 -0.12189388 0.10160056 -0.1334115 0.06994214 -0.06728126 -0.14667065 -0.13520825 -0.06594512 0.12561524 -0.12704796 -0.11556761 0.15602455 -0.15077761 0.14352939 0.15417111 0.061630785 -0.067672804 -0.072222665 -0.15545602 -0.15071963 0.16425677 0.11777988 -0.11627813 0.104646675 0.04150014 0.15491469 0.0821294 -0.15258688 -0.08365317 0.09537869 -0.092366226 -0.06632858 0.09149028 0.12408293 0.046409763 -0.071498044 -0.062152904 -0.13053963 -0.098369755 -0.07350452 -0.08229186 0.106544055 0.040032834 -0.0015392695 -0.16640814 -0.14579768 -0.02283563 0.034396227 0.120474756 -0.08154388 -0.1406142 -0.1354507
p997 -0.10206812 0.082890004 0.069794945 0.11610227 -0.09340922 0.12621291 0.04463437 -0.110628806 0.13809055 0.07209259 -0.015479471 -0.1031479 -0.14166905 0.12031503 -0.123708144 0.0674808 -0.047463376 -0.11846793 -0.14453512 -0.056276023 0.15042649 -0.14560807 -0.114170834 0.1653137 -0.17701335 0.15734199 0.1579033 0.046821047 -0.053225424 -0.07505545 -0.1363327 -0.15660393 0.17120647 0.09069795 -0.1117105 0.09005605 0.043312803 0.15046223 0.07991824 -0.17053087 -0.079107486 0.08744068 -0.09258747 -0.08326394 0.110660166 0.0951883 0.06731633 -0.060089953 -0.085472986 -0.10825498 -0.12192446 -0.041043427 -0.11543667 0.11879736 0.04035948 -0.010322793 -0.1676961 -0.10365869 -0.028802322 0.0456713 0.12026979 -0.10364857 -0.1148449 -0.1368571
p918 -0.070531525 0.09328681 0.087001234 0.116812065 -0.0729848 0.14792989 0.03515779 -0.12330083 0.13892864 0.09060635 -0.027752366 -0.11059242 -0.14929822 0.09534758 -0.13408692 0.04377382 -0.048030965 -0.1513358 -0.14331828 -0.07162403 0.12788929 -0.12997513 -0.119754285 0.17473696 -0.1675704 0.13533953 0.15850748 0.06063525 -0.054291077 -0.044911418 -0.13851368 -0.14733103 0.17035708 0.098590806 -0.11514928 0.12141908 0.054559734 0.13096684 0.10367821 -0.1490933 -0.07812275 0.08997444 -0.09064042 -0.07972674 0.09615867 0.12176258 0.059599563 -0.088380195 -0.07647661 -0.11863331 -0.12203018 -0.06950274 -0.099005826 0.10743972 0.046499804 -0.020953577 -0.14600219 -0.13855827 -0.020315705 0.03995357 0.13575433 -0.08744894 -0.108934104 -0.11303447
p274 0.31608048 0.24461316 -0.073441505 0.3064293 -0.29428846 -0.18873037 0.55755466 0.3187697 -0.46145603 0.40796572 0.47196344 -0.549703 0.2815756 -0.43978298 -0.40865386 -0.542519 -0.66181135 -0.41693428 0.05742041 -0.45490804 -0.15043275 -0.43286946 -0.58299387 -0.14587031 0.32309473 -0.7596263 0.54822433 0.31100792 0.4438406 0.5113164 0.43009755 -0.5205239 -0.3442169 0.37270758 -0.6137996 0.3085418 -0.39064974 -0.3809504 -0.15183674 0.5845161 -0.94204676 0.5603136 -0.4980096 -0.30706212 0.6707735 0.43613246 -0.0705604 -0.6028789 0.49502468 0.32713112 0.20704468 -0.722117 -0.22867814 0.4550984 -0.2768161 0.23770866 -0.37820062 -0.4423546 -0.76546377 -0.27637872 0.65948975 -0.3413597 -0.35679594 -0.41827354
p155 -0.20876618 -0.20343658 0.26856127 0.22350064 -0.24140468 -0.25129443 -0.06638089 0.2356313 -0.2042775 0.3247468 0.15794858 -0.24667169 -0.25564066 0.21265669 0.28030828 0.37593314 -0.35363173 -0.26078078 0.27086002 -0.24784206 0.1335219 -0.29577518 0.2126652 0.06004506 0.23947218 -0.5017217 0.24367326 0.31367704 -0.27375844 0.15150121 0.05690623 -0.22338082 0.22759527 0.24137665 -0.2687877 0.2017761 -0.3471635 0.13392603 0.31055093 0.5004304 -0.30307615 -0.18859123 -0.26923186 0.18051179 -0.11377096 0.27099288 -0.081840575 -0.31337613 -0.3307369 0.1899489 -0.079319365 0.18059364 0.12746002 0.33435002 -0.45093006 -0.10328019 -0.27300563 -0.26537997 0.1252118 -0.14021222 0.3141359 -0.25313437 0.11511075 -0.29583612
p497 0.2533156 0.415471 0.3060866 0.22667009 -0.41175795 -0.12451363 0.3490703 0.040627334 0.4135401 -0.33057463 -0.35450578 0.017328618 0.554825 -0.24281591 -0.11851349 0.5106254 0.20047824 -0.18132292 0.46727347 -0.30303475 -0.5247043 -0.29833624 -0.2570149 0.31838402 -0.1799962 0.38381797 -0.01843183 0.042153187 -0.49660665 -0.4583305 0.46397573 0.1107798 0.043580312 0.011268479 -0.34556565 0.3501044 0.22438844 0.30662528 -0.3877411 -0.14077924 -0.31174523 0.38973698 0.4184897 0.05415084 0.39026353 0.3609877 0.29077506 -0.36997584 0.03691508 -0.19177748 -0.15909731 -0.47750652 -0.30446613 -0.30137408 0.31116083 0.5571237 0.43306416 0.40452182 0.24620594 -0.014929203 0.10922876 0.26714352 0.4502609 0.4178951
p968 -0.053079374 0.067255534 0.073585816 0.121013485 -0.06930922 0.123884104 0.042959232 -0.11684597 0.12859888 0.07920932 -0.02146017 -0.09839284 -0.1181117 0.08711334 -0.13012837 0.026851691 -0.022140978 -0.12975477 -0.14893982 -0.03814958 0.12017386 -0.13271739 -0.10714396 0.17169683 -0.14217773 0.1464057 0.15260856 0.05838053 -0.042307187 -0.05446953 -0.13922383 -0.121010736 0.15983708 0.085932955 -0.11033934 0.08455183 0.05191008 0.14146559 0.08215069 -0.16151935 -0.056512818 0.07343282 -0.09317477 -0.073104195 0.090750195 0.09085988 0.025390796 -0.07439847 -0.0490196 -0.09705366 -0.10003036 -0.061319146 -0.11306289 0.093622774 0.04599359 -0.009518621 -0.16320264 -0.12043975 -0.004650248 0.030710857 0.10861157 -0.08822211 -0.103946544 -0.12820922
p361 -0.38938934 0.31833386 0.21387658 -0.5300488 -0.3757481 -0.54339665 0.44993857 0.49098864 0.6106892 0.21230772 0.17461485 0.4589532 -0.43441835 -0.054943845 0.26539695 0.67902166 0.50161433 -0.07614543 0.29914212 0.26455936 -0.25344294 0.40813926 -0.32084212 0.21224621 0.19500484 0.26355425 -0.45098808 0.5211161 -0.37408295 -0.4547034 -0.36288792 -0.052205857 -0.3278104 -0.12956236 -0.31131744 0.30466262 0.42931786 0.2905633 0.418728 -0.20749189 0.2325083 0.30558679 -0.38390997 -0.5207017 -0.36059496 -0.24000236 0.5038044 0.41647708 -0.15553741 -0.36565676 -0.1795716 -0.68321675 -0.3032746 -0.16608876 0.1517717 -0.23572893 0.18390329 -0.32354578 -0.25716794 0.3574497 -0.43864632 -0.42641664 -0.15006475 -0.3153125
p83 -0.045416314 0.06530366 0.14889747 0.09726674 -0.03915026 0.09117958 0.037234977 -0.08985251 0.11064365 0.10066442 -0.118843056 -0.106290534 -0.100028165 0.11562004 -0.024344318 0.09199933 -0.09816555 -0.07144105 -0.11452261 -0.13574475 0.08988614 -0.05243114 -0.11902852 0.15586802 -0.09153473 0.073327966 0.07717013 0.03816064 -0.091463685 -0.050737336 -0.03147333 -0.09838294 0.08005282 0.07387189 -0.11870112 0.10097783 0.024192018 0.12532924 0.04146239 -0.11217069 -0.04441054 0.039064024 -0.088669114 -0.04590484 0.04107545 0.11090401 0.09725047 -0.13445525 -0.08655501 -0.09277442 -0.07459612 -0.16162272 -0.02463143 0.05006791 -0.04061112 0.015236927 -0.069850214 -0.14009741 -0.09085209 0.073384665 0.086827785 -0.06407329 -0.089371234 -0.0143582765
p677 -0.05675632 0.06509144 0.116647504 0.09015015 -0.04655028 0.11633234 0.03769867 -0.07754059 0.081569426 0.10286708 -0.106647946 -0.07369092 -0.08478421 0.064676486 0.0013283765 0.09488216 -0.10912008 -0.045781214 -0.107057996 -0.07998832 0.09370111 -0.02769185 -0.09268659 0.15563947 -0.10762948 0.07236733 0.102540426 0.07858873 -0.121753015 -0.04175239 -0.035168145 -0.08759904 0.08729876 0.05937191 -0.10995745 0.06958754 -0.004393102 0.10794146 0.022969589 -0.08852931 -0.0077513526 0.061717458 -0.014562163 -0.06747665 0.038324915 0.11288184 0.08992639 -0.09529909 -0.071186714 -0.073885 -0.08387014 -0.13026531 -0.030859685 0.03567068 -0.022691306 0.02502363 -0.07686415 -0.11739159 -0.08627005 0.0681997 0.06928101 -0.042296655 -0.11317684 -0.024776962
p51 -0.10210868 0.106362775 0.10723058 0.11167067 -0.12287821 0.1412725 0.11206327 -0.11232387 0.12897736 0.08429819 -0.01632865 -0.16100495 -0.12176256 0.09696011 -0.13886075 0.03295104 -0.06581705 -0.13589291 -0.13325389 -0.13621311 0.12681317 -0.122532114 -0.05778179 0.19311596 -0.16521387 0.17833158 0.092015095 0.128423 -0.03606822 -0.041630346 -0.06511418 -0.108926795 0.13806677 0.12133584 -0.118466504 0.08974895 0.022604063 0.16002554 0.07929926 -0.150506 -0.1213302 0.06367069 -0.10588571 -0.13929945 0.08326439 0.11494059 0.01605281 -0.10885178 -0.08821917 -0.10519489 -0.14367193 -0.08851233 -0.13781619 0.10102956 0.029952863 0.018499853 -0.13165987 -0.12143858 -0.03247757 0.10138967 0.09160468 -0.1492517 -0.08637698 -0.14045574
p714 -0.12022881 0.09733187 0.103318214 0.12984666 -0.13527396 0.1420101 0.094523065 -0.12660527 0.1057788 0.07361168 -0.032420956 -0.13324285 -0.13031219 0.12645051 -0.11383371 0.055698156 -0.046968427 -0.1349333 -0.14709072 -0.09223694 0.09802896 -0.12766567 -0.10136353 0.17345223 -0.14643748 0.15458639 0.13253522 0.08069361 -0.02367432 -0.036989707 -0.11724512 -0.07827423 0.1567389 0.11474978 -0.14034864 0.0889132 0.05604816 0.14014688 0.10379031 -0.17217611 -0.113204874 0.06567766 -0.100041874 -0.08671879 0.08475575 0.12964903 0.07293901 -0.08062397 -0.08498956 -0.09873539 -0.115103886 -0.049403653 -0.14646678 0.09546274 0.049947146 -0.0036889534 -0.1570074 -0.08895702 -0.014016411 0.052460883 0.08387087 -0.13519792 -0.048077602 -0.12524982
p616 -0.07854291 0.07299901 0.11727103 0.0948539 -0.029564265 0.13484795 0.040988095 -0.10269699 0.13409491 0.13255844 -0.101869516 -0.09234516 -0.11419596 0.116376735 -0.03965705 0.105077185 -0.12193355 -0.08415892 -0.13667853 -0.08388657 0.11255703 -0.07485355 -0.11748106 0.15247901 -0.15448436 0.12528808 0.09699787 0.080476485 -0.1476626 -0.056626644 -0.1152259 -0.14938943 0.13850784 0.120663784 -0.11292032 0.12235151 0.042055417 0.14604314 0.07005537 -0.117484346 -0.046881277 0.032665014 -0.075526826 -0.09283063 0.078040116 0.117797025 0.08781066 -0.13510561 -0.04936886 -0.12465543 -0.09690666 -0.09257667 -0.031316705 0.04491376 -0.012703854 0.01810962 -0.14105473 -0.1401949 -0.053291503 0.06583565 0.094982944 -0.07491005 -0.12022995 -0.057109147
p88 -0.14484563 0.12387942 0.10187096 0.123669416 -0.15294358 0.11905863 0.119656906 -0.15043184 0.11109013 0.111670785 -0.039094653 -0.14296503 -0.15277272 0.06568762 -0.17567497 0.09072707 0.05059658 -0.13017626 -0.13463105 -0.12380404 0.16262767 -0.12982713 -0.14622034 0.13372 -0.09951275 0.13225026 0.14040416 0.118904956 0.016645845 -0.064667575 -0.14409642 -0.042390194 0.18532017 0.14597286 -0.1262521 0.12473424 0.00907995 0.16436477 0.12310733 -0.17473494 -0.13603102 0.113276675 -0.10307509 -0.15826853 0.14936584 0.106926955 0.100537784 -0.041765757 -0.10152815 -0.12566328 -0.13443375 -0.023356073 -0.19331387 0.15670711 0.017703671 0.008568965 -0.16015744 -0.12738872 -0.006208095 0.05697236 0.11746314 -0.12170697 0.026625099 -0.11801461
p371 -0.064121924 0.06820897 0.17005208 0.03861213 -0.029152809 0.09286178 0.048209272 -0.09459364 0.069081314 0.13337946 -0.10131332 -0.056005463 -0.07850972 0.120629944 -0.0068696006 0.1576975 -0.08841854 -0.11298633 -0.10323128 -0.12699996 0.11882167 0.010797763 -0.045106456 0.14462303 -0.103119165 0.015156675 0.067788556 0.13696171 -0.17429514 -0.111846216 0.010357047 -0.09336245 0.034838296 0.094314694 -0.07596797 0.085317165 -0.018509857 0.11931848 0.018946249 -0.010325198 0.01348609 0.064665735 -0.08450534 -0.024888134 0.03310794 0.13500385 0.10359909 -0.064526394 -0.07042273 -0.051956687 -0.081350885 -0.16436301 0.0005999077 0.043952625 -0.10569533 0.10173781 -0.007653247 -0.15872978 -0.14311092 0.13828403 -0.0022558165 -0.0072669983 -0.08801824 0.021884974
p342 0.46391463 -0.44410107 -0.23357406 0.3968992 0.015707249 -0.4783552 -0.3178755 -0.042734455 0.71191293 -0.3730205 -0.04070371 -0.514638 0.17165248 -0.27605435 0.2957655 0.60010177 0.2889893 -0.38679665 -0.52530175 0.3471459 -0.46211797 0.18330824 0.0047957595 0.3582975 -0.37977767 -0.97137475 0.37217918 -0.5460791 -0.588659 -0.99812114 -0.8753621 -0.48018557 -0.33093664 0.23911192 0.40296525 0.44159645 0.40996855 0.2812273 0.20052409 0.57243073 -0.5947913 0.67673564 0.5510249 -0.49463636 0.43728158 -0.39619684 0.5432741 0.2652354 -0.22611924 -0.79786015 -0.1689796 -0.9106994 0.49294716 0.43880042 -0.40943253 -0.40159687 0.21820568 -0.031076755 -0.3705657 0.077063024 -0.07258131 0.2270214 0.37339237 -0.5607325
p785 -0.075665995 0.07833309 0.09343124 0.14962736 -0.06823793 0.13796724 0.03686627 -0.116809964 0.16099527 0.092180446 -0.030044654 -0.100308694 -0.14766279 0.09430082 -0.120338514 0.0569152 -0.027069867 -0.12252757 -0.13012531 -0.08705446 0.14220215 -0.1156283 -0.14188497 0.16375844 -0.16709279 0.14750202 0.14413941 0.06765144 -0.04386637 -0.06406623 -0.1250166 -0.14005485 0.15982006 0.1277375 -0.110588565 0.10613984 0.072094955 0.13750872 0.08479478 -0.1472045 -0.083759226 0.059533514 -0.11086877 -0.07505863 0.107785046 0.11893541 0.04483751 -0.104371004 -0.059666917 -0.10659874 -0.13739756 -0.07980997 -0.06718042 0.0944275 0.03039464 -0.004554222 -0.16394861 -0.13175097 -0.011697269 0.07002097 0.12662718 -0.10646158 -0.08484288 -0.08303549
p490 -0.13639389 -0.10984337 0.2660835 0.1555532 -0.03650723 -0.15271194 -0.058965452 -0.25042656 0.09303165 0.28083917 -0.21147305 0.03356141 0.08777076 -0.002366053 0.02701436 0.27946123 -0.13908707 -0.1505128 -0.12273185 -0.19860218 -0.09460215 -0.18058373 -0.20935827 -0.1096374 -0.1498658 -0.1038571 -0.04861448 -0.026256189 -0.0006363006 -0.26128054 0.11904671 0.048482053 -0.14474376 0.18543181 -0.22963326 0.2079206 -0.184464 -0.1057361 0.19286132 -0.11254191 -0.22150268 -0.07420156 -0.008965013 -0.17645928 0.18257332 0.18530062 0.30629155 -0.21294637 0.16529475 -0.16103184 0.17531478 -0.16069682 0.028564755 0.24855354 -0.22442393 0.29038754 0.046216693 -0.18669936 0.023706824 0.22709206 -0.051819935 0.07226679 0.11816154 0.044487797
p589 -0.012299608 0.10309018 0.19641702 0.1949016 -0.14893912 0.15580694 0.127823 -0.1888673 0.13876024 0.026759615 0.04686758 -0.021243481 -0.23052123 0.14748056 -0.054851625 0.17289822 0.055048626 -0.068775594 -0.14462727 -0.14389127 0.053958986 -0.023853509 -0.15597382 0.13834536 -0.07640278 0.0608594 -0.024714628 -0.011869533 -0.12515773 -0.17421593 -0.07677877 0.0026988776 0.10254517 0.21615312 -0.11505614 0.056803014 -0.056655735 0.019329999 0.08104232 -0.10382053 -0.043758065 0.03455748 -0.13827509 -0.118103124 0.12574187 0.14653829 0.12689719 -0.1413552 0.038020413 0.02072 -0.09155014 -0.16428857 -0.009552992 -0.022735499 0.019652084 -0.11721421 -0.05080048 -0.1638308 -0.038109988 0.12765752 -0.033030115 -0.08901212 0.0071256943 -0.061595224
p147 -0.3224373 0.48102725 0.33277717 0.14916237 -0.37901148 0.27748394 0.020313622 -0.3508035 -0.60175484 -0.020831825 -0.4858713 -0.4551338 -0.23934563 -0.4033828 -0.19312295 0.55078375 0.38104203 -0.047193155 -0.2863497 0.04465597 0.05345508 -0.24893531 -0.3338026 -0.67492664 0.17712028 0.17963229 0.047608446 0.43609384 0.42806655 0.42542532 0.30171666 0.5271826 0.20464525 0.20648454 -0.061620936 0.124091074 -0.31323338 0.15415144 0.2882505 0.19539858 -0.2336545 0.20927171 -0.37695464 -0.50460577 -0.041982625 0.09508484 -0.08448021 0.383394 -0.3087387 -0.25011355 -0.3738173 0.5369733 -0.50818145 0.41196424 -0.29840076 0.5472901 -0.18390885 -0.32477525 -0.5830661 -0.41443548 -0.13824032 0.36299217 0.5000552 -0.48088992
p369 -0.29056516 -0.26855654 0.28818187 -0.42699483 -0.50461936 -0.42463255 0.5657122 0.4109295 0.48565573 0.375915 0.42892286 0.4228898 -0.47268414 0.22760564 0.3189613 0.45109886 0.32962137 0.30058983 0.32109827 0.25775394 -0.34593272 0.332252 -0.49083462 0.29895353 0.2608415 0.27902612 -0.38512444 0.50918776 -0.38099417 -0.51612806 -0.34821388 -0.15255293 -0.39584884 -0.2846862 -0.32611525 0.39947996 0.3085106 0.22562869 0.35542497 -0.11956717 0.26552647 0.39824045 -0.35451427 -0.5241346 -0.32918638 -0.39132723 0.48312086 0.403623 0.076373965 -0.36392283 -0.20730048 -0.59743875 -0.4359007 -0.3464322 -0.07161691 -0.300983 -0.22600143 -0.28992978 -0.31537 0.36488572 -0.35815054 -0.47331578 0.3916642 -0.32193664
p487 -0.12110635 0.042130932 0.04180816 0.15336083 -0.028137743 -0.002476641 0.12882292 0.00041027638 0.15617155 0.15841816 -0.07811802 -0.108048424 -0.14067882 0.018863631 -0.004353952 0.050238054 -0.15813936 -0.06317881 -0.02731183 -0.11445203 0.12379356 0.03239762 -0.13259865 0.14609843 0.017918255 0.10706946 -0.03938587 0.039615724 -0.14607172 -0.0904713 0.03296478 -0.16483349 0.06192775 0.13580267 -0.18073297 0.012076378 0.031297266 0.19905177 -0.030041963 -0.1522833 -0.0990599 -0.017019106 -0.12340261 -0.096987344 -0.055806927 0.12855114 0.16087432 -0.01153998 -0.069296665 -0.011412117 -0.0072418167 -0.22176458 -0.042395703 0.07670626 -0.05509863 -0.0054165656 -0.05375391 -0.13437302 -0.14408387 0.02405044 0.06426932 -0.10878509 -0.16210905 -0.016921122
p611 -0.018841 0.05941494 0.17047615 0.071210414 -0.035513293 0.07574565 0.07023939 -0.09157929 0.03999552 0.12376344 -0.15987085 -0.027490158 -0.03256974 0.105063036 0.026490888 0.15326571 -0.13921311 -0.009858848 -0.06874108 -0.13247278 0.0418317 -0.01824756 -0.08728406 0.08304066 -0.059484944 0.0483922 0.053122994 0.09477146 -0.113398485 -0.093038745 -0.00047176593 -0.06527295 0.04782884 0.08497237 -0.09359798 0.04829409 -0.050609253 0.09853184 0.00814215 -0.043242462 0.0012636499 0.04071361 -0.038005885 -0.044858485 0.027731618 0.111013904 0.1428302 -0.1243394 -0.0382336 -0.024431104 -0.058920186 -0.1519173 -0.02958694 0.009253045 -0.1218618 0.105099104 -0.058128633 -0.09891246 -0.10870401 0.12430445 0.01890292 -0.04529842 -0.09902569 -0.029876117
p103 0.067696765 0.16680379 0.20787524 0.21764004 0.004749843 0.025424091 0.16003469 -0.12433295 0.14449924 0.19243637 -0.2955932 -0.16016269 0.035849795 0.17334564 0.115890265 0.012217749 -0.0595712 -0.15122552 -0.21600813 -0.042018827 -0.015225219 -0.11832902 -0.20628542 0.06853585 -0.072893314 -0.11905157 0.20773199 0.10283389 -0.15862735 -0.12851417 -0.1756212 0.00803867 -0.020946426 0.1877326 -0.2084885 0.013737042 -0.13596381 0.007875884 0.1033077 0.082763106 -0.18568063 -0.017906994 -0.116689496 -0.16597494 0.095326826 0.019005727 0.020362973 -0.016590897 -0.19355136 -0.076424174 -0.19383195 -0.11114959 -0.09022843 -0.032251067 -0.23328674 -0.037226252 -0.13672176 -0.2552598 -0.24408723 0.030050233 0.049022652 -0.15426874 -0.0799298 -0.14461003
p445 -0.07829671 0.15073591 0.21805806 0.061344914 -0.037490383 0.056512043 0.08856756 -0.04799691 0.06128257 0.18891326 -0.06797397 -0.047955118 -0.077742144 0.12760332 0.020842465 0.19077952 -0.08741303 -0.058885373 -0.06364313 -0.171084 0.08750202 -0.055936925 -0.09307673 0.1415867 -0.02800556 -0.0037968184 -0.040168673 0.108708024 -0.06613053 -0.053603444 0.048241083 -0.12729321 0.021295257 0.07887124 -0.14842756 0.116869435 -0.10024712 0.087505765 0.026298257 -0.0734755 -0.06861407 0.10414638 -0.017496906 -0.09055738 0.056139782 0.12577207 0.19567709 -0.12672453 0.002406123 -0.054629136 -0.09082143 -0.19621423 -0.07594535 0.059115823 -0.0422549 0.12961242 -0.06714137 -0.067117475 -0.061512884 0.10942317 0.09890422 -0.095524035 -0.021340463 -0.027783051
p586 -0.05558159 0.09454726 0.13393573 0.045534708 -0.044045415 0.06871495 0.10652037 -0.09010887 0.06734333 0.13424698 -0.1332445 -0.085833244 -0.055689722 0.11832911 0.00028915156 0.112586685 -0.12828302 -0.059499137 -0.061418537 -0.106547646 0.07100692 -0.054184604 -0.07887447 0.09652749 -0.0375849 0.01300132 0.064350314 0.06549039 -0.15399882 -0.09825839 -0.01666719 -0.080892034 0.031438522 0.064509474 -0.094921686 0.0766634 -0.068808794 0.068232246 0.04012478 -0.061671555 -0.06976104 0.056152675 -0.05133015 -0.06693769 0.050533246 0.088996544 0.12342736 -0.12474626 -0.0971829 -0.046123233 -0.082192525 -0.14084457 -0.02982243 0.030439908 -0.09641987 0.08776213 -0.04355077 -0.10460081 -0.14846447 0.13500609 0.04553488 -0.06847387 -0.075952224 -0.030972743
p592 -0.07583089 0.07093191 0.119729266 0.12877417 -0.055425953 0.1626959 0.03176618 -0.13744588 0.113420315 0.10703119 -0.10821868 -0.12273801 -0.13886215 0.10731681 -0.06723971 0.06845223 -0.08157646 -0.12956427 -0.14930345 -0.061724443 0.13986057 -0.08109935 -0.13186055 0.1523453 -0.15906982 0.12871812 0.15974945 0.051199492 -0.10257253 -0.011643758 -0.09436716 -0.15204328 0.105174296 0.11084792 -0.14172567 0.12840484 0.08422484 0.112894 0.05981359 -0.13389915 -0.07161032 0.039035972 -0.082904555 -0.1025022 0.08819501 0.115481086 0.10655576 -0.10988859 -0.026243987 -0.12438968 -0.11775475 -0.11256635 -0.06532554 0.05389066 0.025764605 -0.018232632 -0.14723103 -0.15235434 -0.011056819 0.06659255 0.11935795 -0.057752635 -0.10200895 -0.0663865
p771 -0.09254893 0.122640304 0.095515035 0.12891153 -0.14632817 0.14950112 0.07429155 -0.13651676 0.12678 0.058428306 -0.0036963543 -0.11299241 -0.15469135 0.10736496 -0.15065917 0.038842566 -0.007887696 -0.14151883 -0.11255121 -0.07077396 0.11464406 -0.13848226 -0.10906774 0.13921696 -0.14179778 0.14486106 0.11385377 0.066634536 -0.0018795765 -0.08403223 -0.10481015 -0.08458676 0.1589814 0.1151607 -0.11724126 0.08976535 0.038675953 0.12401092 0.097513355 -0.13621613 -0.0940097 0.08568374 -0.118328586 -0.08869579 0.097620025 0.104377866 0.07001595 -0.06860224 -0.06326452 -0.11582875 -0.10217287 -0.05221699 -0.17048436 0.10199082 0.0720679 -0.021640714 -0.13811003 -0.07347652 -0.015142036 0.08439098 0.09261589 -0.13525137 -0.04180723 -0.15209381
p784 -0.11571736 0.079725504 0.15023121 0.11248423 -0.09668144 0.15490319 0.056364775 -0.13255444 0.08464587 0.10031626 -0.11198179 -0.14480034 -0.108421445 0.08818624 -0.018548036 0.080149874 -0.07116462 -0.08278035 -0.08686637 -0.14977369 0.07500678 -0.04408482 -0.10857167 0.15677628 -0.0908485 0.09684846 0.052334353 0.12774447 -0.124411516 -0.09551049 -0.010728704 -0.07881337 0.09839329 0.11603719 -0.086082116 0.08379086 -0.033931985 0.12793696 0.07300068 -0.11243869 -0.05153267 0.04015921 -0.08984821 -0.09061984 0.0585313 0.11833255 0.10803843 -0.10271019 -0.07894808 -0.073074475 -0.100708015 -0.13681012 -0.06364918 0.0427553 -0.06684733 0.060549326 -0.06258318 -0.111054294 -0.1245328 0.098822385 0.055023722 -0.14209372 -0.025150659 -0.0419865
p267 -0.07920773 0.31564042 0.4659437 0.099288516 -0.64734644 0.51330143 -0.38873848 0.3901707 -0.1941617 -0.25779846 -0.633658 -0.12320537 0.30985904 0.15772517 0.11258788 -0.19868289 -0.35891515 0.25950688 -0.05584918 0.26434407 0.25897115 0.14648134 -0.56156707 0.0017266131 0.41183206 -0.25203863 -0.30361515 0.23066443 -0.030478155 -0.70782125 -0.6387263 -0.6209413 -0.25727737 0.34890217 -0.28484505 0.65590996 0.12746735 -0.29542854 0.2701064 0.075227305 0.051376875 0.6923827 -0.37543276 0.0032016735 0.599558 -0.08962733 -0.2225507 0.31156093 0.34727186 -0.6219813 -0.21752334 -0.8925454 0.2050801 -0.08481847 -0.5801973 0.21271631 -0.30828893 -0.021948237 0.37918878 0.5788927 -0.3029256 -0.24481733 -0.5526966 -0.26229447
p331 -0.07232853 -0.13213933 -0.16175544 -0.08958608 -0.2875255 -0.10249458 0.15554506 -0.30347726 0.9355551 -0.40456492 -0.19741875 0.23229276 -0.35931432 -0.23900722 0.49110147 0.34856153 -0.30833566 -0.01022108 -0.39925647 0.13137168 -0.2347756 0.027197616 0.34155732 0.44587559 -0.5492436 -0.72826475 0.2347423 -0.33633623 -0.74526715 -0.95469755 -1.3851222 -0.13473064 0.2290672 0.29432786 0.44740093 -0.23324391 -0.14979215 -0.18321474 -0.06218276 0.25075012 -0.20110008 0.61433834 0.040805854 0.303646 0.1709966 0.39642873 -0.48118693 0.13347705 -0.5030412 -0.53886235 0.083595894 -0.701797 0.30831724 -0.16775851 -0.69910413 -0.08403233 0.32814947 0.36862367 -0.7601483 -0.2413384 -0.07650215 -0.1143406 0.263902 -0.74430317
p607 -0.16569348 0.12388231 0.10471179 0.05019342 -0.17537767 0.12155428 0.11866048 -0.15559319 0.08762063 0.07367252 -0.008612963 -0.101606585 -0.13289586 0.1426903 -0.15520294 0.12055157 0.0045508337 -0.06467219 -0.058675118 -0.14334512 0.08003123 -0.15778151 -0.12336485 0.10992191 -0.113188915 0.06949338 0.06690252 0.12373827 -0.058545172 -0.1514754 -0.03547837 -0.043414194 0.03771468 0.0531935 -0.09505031 0.085325204 -0.09612741 0.11210691 0.10073404 -0.10013281 -0.14935611 0.07483326 -0.14969017 -0.07406785 0.09621706 0.12202093 0.089273684 -0.0796596 -0.0779877 -0.069084585 -0.08792914 -0.06388428 -0.2036801 0.12881102 0.07059995 0.1247953 -0.06255091 -0.054210793 -0.030789161 0.1340029 0.0661266 -0.20289731 0.0052019954 -0.14337803
p610 -0.08576567 0.08438404 0.1681717 0.050501913 -0.0101048015 0.027478604 0.09889172 -0.04923803 0.072469085 0.08597513 -0.14243771 -0.052659582 -0.08155463 0.09421709 0.039517168 0.1526755 -0.12568468 -0.07117637 -0.043822404 -0.09394117 0.03623704 -0.040352844 -0.050102226 0.08008472 -0.07465531 0.016962191 0.03392259 0.08306742 -0.13430664 -0.11865015 0.020152863 -0.07013571 0.015771734 0.019826088 -0.11536517 0.08632113 -0.064000145 0.109411746 0.032254152 -0.027881784 -0.018718902 0.05625837 -0.07558764 -0.049410004 0.0020083296 0.05243794 0.15909678 -0.12355975 -0.048476208 -0.051415794 -0.051101714 -0.13384794 -0.041476425 0.03293289 -0.09651953 0.11755792 -0.04325585 -0.08440459 -0.14186572 0.12585592 0.03589123 -0.06536786 -0.082969315 -0.009629077
p894 -0.08259917 0.070963725 0.064696714 0.108297184 -0.091023035 0.14609972 0.05702898 -0.12843591 0.14165425 0.102992356 -0.037718613 -0.10235857 -0.13122627 0.098370455 -0.13217573 0.065693505 -0.025782466 -0.1541734 -0.13535601 -0.052515034 0.14398861 -0.11706916 -0.114380285 0.18653916 -0.14705123 0.1356841 0.16419266 0.07724876 -0.037100364 -0.05325358 -0.14844725 -0.13346331 0.1738707 0.09281364 -0.11913641 0.103954695 0.06745622 0.1368254 0.101156816 -0.1549213 -0.074039094 0.062918745 -0.0960327 -0.10147719 0.10101529 0.12063199 0.066160895 -0.07886088 -0.059035826 -0.12965769 -0.13752279 -0.058850158 -0.0960496 0.10234107 0.03705372 -0.015370674 -0.15440738 -0.12752567 -0.0172839 0.04016733 0.11641749 -0.10116094 -0.094229944 -0.1153864
p923 -0.033807967 0.058093507 0.066013575 0.09544438 -0.046938818 0.09775393 0.027837135 -0.084788285 0.121040545 0.06839678 -0.028797578 -0.059379064 -0.11969576 0.084615745 -0.10724416 0.014034064 -0.019858634 -0.10234948 -0.14158298 -0.05246922 0.11142504 -0.079234116 -0.107130244 0.13735554 -0.17324762 0.13866709 0.12955666 0.0382976 -0.032319885 -0.023304028 -0.10220789 -0.08790705 0.13609347 0.07348759 -0.09916913 0.078150146 0.048135426 0.11214772 0.031420197 -0.13772148 -0.022403736 0.03839033 -0.059770156 -0.037149232 0.088072106 0.08681885 0.035369243 -0.05214513 -0.04502415 -0.09152423 -0.09284668 -0.046459056 -0.08117884 0.049574934 0.0731358 -0.016085926 -0.13845731 -0.098408386 0.0021029175 0.04164719 0.08696337 -0.05973535 -0.081394784 -0.10031061
p384 -0.26571196 0.27158186 0.23317106 -0.60249084 -0.22710264 -0.5305751 0.5819958 0.54009604 0.57896066 0.4025155 0.54814106 0.4787196 -0.41014957 0.2643552 0.20305145 0.62406707 0.5112264 0.3692627 0.531938 0.22584309 -0.14799435 0.44421396 -0.12280782 0.37178975 0.2016257 0.29071558 -0.22243883 0.64062613 -0.4187114 -0.5629819 0.019044407 -0.18646778 -0.30288526 -0.29274485 -0.28521547 0.28964943 0.3160185 0.26749465 0.33932015 -0.3250856 0.4303636 0.40596002 -0.27145165 -0.4888016 -0.06992647 -0.1508275 0.47700533 0.5439025 0.16375972 -0.3943309 0.30131516 -0.6473534 -0.028259274 -0.37310687 -0.3492059 0.019544538 -0.14654803 -0.28379497 -0.0006753464 0.3499919 -0.5577129 -0.5636137 0.10766783 -0.37647194
p388 0.0006519437 0.4463436 -0.27088472 0.46982276 0.060118485 -0.27459356 0.34714442 -0.31924644 -0.03634341 -0.29761904 0.09068743 0.18108194 0.12997408 0.35506892 -0.43294886 -0.26068234 0.20635639 0.12220243 0.15878077 -0.3322133 -0.1635322 0.264741 -0.5000679 0.2924028 0.15263614 -0.389333 0.08913955 -0.23021947 -0.23573245 -0.51715755 -0.5418482 -0.5507563 -0.21904217 0.30835906 0.18007241 -0.20844525 -0.20195977 -0.14199471 0.17543006 -0.24181733 -0.45548147 -0.26803556 0.19729373 -0.5312912 0.12414948 0.1284035 0.1337776 0.21213153 -0.36212328 0.10184397 0.09939588 -0.6426001 0.010497704 0.33174765 -0.5303501 0.311936 0.21309993 -0.34759197 0.22591661 0.32249865 -0.16607858 0.091776244 -0.4947012 0.21504124
p903 -0.033508208 0.061133232 0.12889257 0.069155104 -0.03349415 0.105477236 0.036987204 -0.080478214 0.064375155 0.09738901 -0.120919295 -0.074627034 -0.06512015 0.0951398 0.0059689027 0.08360793 -0.12632672 -0.059328012 -0.09068157 -0.08275228 0.086580336 -0.038784795 -0.112821385 0.1234068 -0.085992634 0.06510664 0.09893637 0.090928875 -0.11258968 -0.06033176 -0.042298518 -0.11467173 0.06882947 0.06932833 -0.087589346 0.108546704 -0.00035588906 0.10684388 0.045631494 -0.068860665 -0.03600726 0.04231659 -0.060410127 -0.055070974 0.03635053 0.11036451 0.115244664 -0.102968864 -0.05929297 -0.08482535 -0.069445394 -0.1337769 -0.023205595 0.022979941 -0.06981721 0.03782292 -0.06947127 -0.12031785 -0.0942157 0.06290645 0.083652414 -0.048873566 -0.13494644 -0.029309446
p1003 -0.07757511 0.083123855 0.091700785 0.124367766 -0.056211438 0.1486257 0.021364177 -0.11436524 0.100880936 0.08452149 -0.097628325 -0.124672495 -0.14117773 0.10023595 -0.055859897 0.041828625 -0.056031477 -0.13379706 -0.16244659 -0.10302854 0.13175438 -0.08048706 -0.11443562 0.1650613 -0.16416147 0.1300812 0.14212415 0.07301657 -0.06805736 -0.031680707 -0.106383674 -0.112516366 0.15777442 0.10101648 -0.12455365 0.13401438 0.06336707 0.15726165 0.06435389 -0.14637071 -0.07527213 0.0616754 -0.06775052 -0.0873752 0.0938503 0.12002842 0.07316441 -0.09761399 -0.07803235 -0.1271223 -0.15437783 -0.09266272 -0.035387084 0.048787832 -0.011829539 0.008046036 -0.15612027 -0.1501678 -0.0616308 0.06379073 0.13319743 -0.10280371 -0.11384012 -0.049988244
p410 -0.10886222 0.56242716 0.38561714 -0.39560157 -0.36050513 -0.43118387 -0.34142178 0.2938627 -0.42078707 -0.44274774 0.22569099 0.44190565 0.33268955 -0.29601943 0.35804346 0.55301774 -0.6119558 -0.4561827 0.11760984 -0.3472958 -0.20662433 0.28420597 -0.037290577 -0.6644006 0.33101845 0.18897773 0.12405628 -0.3624048 -0.08010998 -0.6600806 -0.7898561 -0.42120573 0.4110662 -0.4711493 0.012733195 -0.2489114 0.13739073 -0.30218998 -0.46308464 -0.42063755 -0.7114441 0.6568694 0.3332227 -0.31549686 -0.14308274 0.66595405 0.4418313 -0.62746525 0.36447865 -0.6323826 0.16116345 -0.6971131 -0.60672843 -0.36322314 -0.6056642 0.084750615 -0.8169833 -0.5632121 0.22336029 0.23269716 0.22351314 -0.38063076 0.3146726 -0.26240817
p99 -0.04889791 0.09670851 0.14463897 0.037010938 -0.039474495 0.061002705 0.07125538 -0.078262106 0.041290373 0.115096375 -0.13813627 -0.074314035 -0.057331935 0.09617635 -0.003371155 0.12662493 -0.15682064 -0.0696949 -0.05395194 -0.118780345 0.05648544 -0.038112964 -0.07711965 0.07197723 -0.037533518 0.01622273 0.04391987 0.10943801 -0.15640749 -0.11608519 -0.018209053 -0.08793308 0.039202515 0.047288537 -0.0681297 0.079043165 -0.07929627 0.06423283 0.06568459 -0.023568314 -0.055003278 0.0331768 -0.07022631 -0.06523357 0.03924571 0.07009513 0.14066023 -0.09564055 -0.098961174 -0.047846332 -0.0747216 -0.16629007 -0.025737 0.061239447 -0.13344067 0.12909305 -0.061069615 -0.09385429 -0.13307251 0.10357223 0.03842912 -0.036303617 -0.12486565 -0.026626598
p404 -0.30431238 -0.22256608 -0.17868014 -0.35927984 -0.567191 -0.31588486 -0.2045632 0.22439243 0.31372657 -0.22516829 0.4090417 0.109315395 -0.3979317 0.3097138 -0.3191564 0.46390173 0.28099874 0.37949842 -0.086286806 -0.06990956 0.29662022 -0.42477655 -0.18867809 -0.38761595 -0.1572584 0.11551558 -0.43750116 -0.1012695 -0.43104488 -0.29915822 0.32400995 -0.035212923 0.35348728 -0.37310517 -0.3836852 -0.14831553 0.19868116 0.22237207 -0.22163191 -0.14869823 -0.26018676 0.32706705 -0.4571153 -0.43673423 0.09843037 0.33583686 0.39304817 -0.08990027 -0.053766876 -0.042396363 0.35333985 -0.1834826 0.02723263 0.46980643 -0.119599454 -0.15077117 0.3449297 0.30008617 -0.4841174 -0.019740107 0.09027688 0.23239698 -0.14950168 0.2091425
p407 -0.044530213 0.46134079 0.0111540295 -0.25743365 -0.46204334 -0.3036192 -0.3043982 0.31817997 -0.49681473 -0.31745574 0.111958325 0.4245064 0.2711336 -0.15726964 0.36991203 0.5605055 -0.5684059 -0.49279004 0.34719878 -0.37182093 -0.28783667 0.17272897 0.17030145 -0.99954236 0.332504 0.17562592 0.25696322 -0.30278584 0.12902032 -0.73434263 -0.591546 -0.47850758 0.3999282 0.15528215 0.20342663 -0.21119371 0.28706682 -0.299235 -0.29950052 -0.3195185 -0.5906001 0.5715927 0.22523901 -0.30741626 -0.30730766 0.55812323 0.63835007 -0.5463112 0.27378696 -0.6711871 -0.31245336 -0.6112911 -0.46002775 -0.31479573 -0.7628568 -0.21662442 -0.6418956 -0.46553215 0.21024933 -0.09930749 0.60932547 0.0056959186 0.23510598 -0.5036768
p1012 -0.14680518 0.18666932 0.126572 0.06294146 -0.1912423 -0.004483663 0.10298063 -0.07443674 0.036661964 0.1164229 -0.07473213 -0.036812883 -0.026965065 0.1352455 -0.17701927 0.033565555 -0.14157517 -0.09032039 -0.07313818 -0.17711194 0.030600091 -0.20477542 -0.15588981 -0.16506146 0.04358868 -0.057889935 -0.009021927 0.09029147 0.07203465 -0.06407062 -0.061980836 -0.07778653 0.11532045 0.11252043 -0.13026589 0.14962988 -0.14605227 0.07130145 0.1450515 0.18778877 -0.089274585 0.19581597 -0.1446464 -0.056113623 0.05034254 0.012183186 0.1336193 -0.08721936 -0.04575399 -0.16139403 -0.07113792 0.013761693 -0.1967097 0.15069978 -0.13301149 0.17059836 -0.13072073 -0.101297505 -0.061322127 0.1722069 0.09067908 -0.18007302 0.036341805 -0.19574204
p30 0.3561944 -0.21401092 0.5334687 -0.4664047 0.005973578 0.1981621 0.5873067 0.23556474 0.56242007 -0.38178557 0.2317102 0.3565333 -0.12935111 0.40278372 -0.5587799 0.5786054 -0.28052908 0.09142731 -0.2744545 0.1857647 0.43694615 -0.109772615 0.30905095 0.30512014 -0.2702352 -0.56532186 -0.30036998 -0.21073869 0.35173926 -0.50209963 -0.629196 -0.609214 -0.2995049 -0.0854482 0.06483785 -0.31083515 -0.21809638 0.04835215 -0.38825142 -0.2948234 -0.49159694 0.5634856 0.3917645 -0.5505169 0.13833232 -0.21730457 0.51495147 -0.24363133 -0.28477693 -0.21964113 -0.30937052 -0.65565825 -0.5935201 -0.24933878 -0.5370586 0.3137564 0.22826764 0.39332893 -0.13877507 -0.25965208 -0.38239488 -0.05207016 -0.54155564 0.33993688
p343 0.14279886 0.20078018 0.07656649 -0.44013983 0.14190307 0.25159454 0.34768406 -0.5160772 1.1465088 0.37289447 -0.02105841 0.29337156 -0.031805363 -0.34574392 0.5310529 0.70998526 -0.52151686 0.053230364 0.05413781 -0.39173567 -0.074904166 -0.022060694 0.011279366 0.21139887 0.3374974 0.29774904 -0.07818965 0.53378874 -0.8305134 -0.6970913 -0.68020535 -0.8627387 -0.4574701 -0.0542165 0.3037227 0.336366 0.008910528 -0.11362238 0.04046514 -0.27511787 -0.25033438 0.82397276 -0.2815751 0.37818214 0.5771854 0.22404154 -0.18065462 0.3365485 -0.73582065 -0.5125738 0.6002885 -0.92941743 0.48510674 -0.4204881 0.17243348 -0.42771274 -0.2200843 0.33168456 -0.5796191 -0.23596781 -0.27807683 0.21675856 -0.7085995 -0.35934108
p431 -0.0426 0.032479115 0.09907374 0.08638352 -0.029730024 0.1578639 0.05173075 -0.12750794 0.055067204 0.10703824 -0.13000476 -0.07308371 -0.13405606 0.11729611 -0.046423666 0.106767334 -0.11661003 -0.108451754 -0.16269621 -0.11505636 0.15192543 -0.07101761 -0.122564904 0.14327164 -0.12166459 0.113367416 0.14110453 0.092703715 -0.10756468 0.020396385 -0.098663785 -0.12953433 0.13804656 0.09844754 -0.09810715 0.11811613 0.0022022277 0.15906724 0.081242226 -0.0822653 -0.09519741 0.019655077 -0.056622516 -0.09133932 0.06839319 0.13849778 0.114778176 -0.14113547 -0.041179802 -0.11108042 -0.14936152 -0.08078412 -0.027824922 0.068826854 -0.0111421645 0.030728113 -0.099372976 -0.1140199 -0.096767694 0.07328458 0.108359635 -0.098214254 -0.10728339 -0.044309735
p7 -0.16137347 0.17739204 0.064232156 0.08502584 -0.1956414 0.098017976 0.11502029 -0.15612735 0.112010814 0.043726154 0.042369265 -0.08338451 -0.12761575 0.081528336 -0.16109508 0.068638675 -0.07425248 -0.057800118 -0.033921152 -0.072634235 0.087451905 -0.14261395 -0.03691909 0.026792431 -0.11968302 0.020428734 0.04335142 0.13068509 -0.0065069846 -0.16189271 -0.06083366 -0.02620141 0.03447894 0.050211627 -0.11019372 0.07881687 -0.15492083 0.08410076 0.09671875 -0.0026711717 -0.068928204 0.042093646 -0.09906398 -0.075918555 0.110011764 0.08877537 0.0551507 -0.023665702 -0.025147503 -0.09096359 -0.07962042 -0.022796756 -0.19341691 0.12370647 0.016880857 0.11463274 -0.120439105 -0.07673527 -0.03052023 0.13486385 0.052246366 -0.09953181 0.017602287 -0.17338221
p107 0.01888014 -0.27531698 0.28046295 0.23766176 -0.30465806 0.12357741 0.38118243 0.25192577 -0.3922937 0.32335487 -0.40942296 -0.35742325 -0.3461328 0.33565718 -0.3131697 0.28353277 0.24211909 -0.22318658 -0.31922945 -0.21606301 0.0695029 0.284864 0.016180819 -0.53206676 -0.03694658 -0.3517331 0.2663885 0.339508 -0.33621052 -0.32539806 -0.30290908 0.3463874 -0.27108315 0.27009428 -0.3365903 -0.18316206 -0.32440805 0.19598673 0.13086942 0.5542058 0.21245636 -0.33563864 -0.31164354 0.404275 0.31612048 0.33913332 0.27851638 -0.25545174 -0.35143688 0.35042503 -0.32787362 -0.30492726 0.35300332 0.31601232 0.26098382 -0.24099137 -0.28889474 -0.32436278 -0.40166157 0.20824723 0.21868157 -0.14966759 0.38731182 -0.0550847
p474 0.29787725 0.27957082 -0.2513916 -0.35153377 -0.45450106 0.24446143 0.43399906 0.2716323 1.0221599 -0.47233495 -0.2090683 -0.18536375 -0.23527431 -0.32558095 -0.6413308 1.1146721 0.29593316 0.3805386 0.1759519 0.20217581 -0.3603023 -0.15304452 -0.43544847 0.25815412 0.55509573 -0.33354178 -0.42252985 -0.22430348 -0.25238082 -0.112779014 0.13914122 -1.0550034 0.1405331 0.3200643 -0.34273282 -0.26762024 0.42609772 -0.35375363 0.19881052 -0.38270774 -1.2598456 0.14676543 -0.33781904 -0.2306206 -0.14980409 0.23407261 0.8324646 0.21843696 -0.6965044 -0.54038376 0.02930505 0.28902915 0.31653237 -0.29973245 -0.5642098 0.09836702 0.40166992 0.38996637 -0.6048061 -0.39521992 0.2204112 -0.2615523 -0.60863185 -0.46009266
p524 -0.06673776 0.06288162 0.14674854 0.06415092 -0.03695839 0.10593983 0.052784864 -0.10900469 0.08390225 0.118618734 -0.13593015 -0.075694196 -0.054306366 0.07895201 0.004673193 0.08199408 -0.1257231 -0.0633045 -0.058305193 -0.09780616 0.045518618 -0.024473518 -0.07928173 0.122725524 -0.062200103 0.09054329 0.08918544 0.108006984 -0.1055291 -0.031582072 -0.026078278 -0.11789597 0.05536034 0.08571738 -0.083407104 0.11969927 -0.013988836 0.09274016 0.049474195 -0.0693242 -0.053950883 0.03997324 -0.062751815 -0.026269954 0.034176975 0.0934547 0.12808745 -0.13094807 -0.07330006 -0.09162977 -0.09539732 -0.14342935 -0.03344669 0.035286445 -0.1052725 0.06213753 -0.05037349 -0.14814557 -0.084580325 0.069158345 0.084117845 -0.018778805 -0.0576731 -0.009833213
p596 -0.053828605 0.071962215 0.14931062 0.10168234 -0.02787007 0.12229534 0.050606113 -0.101663485 0.11208386 0.13996457 -0.15258768 -0.09028828 -0.100250445 0.11037852 -0.03688223 0.08123622 -0.1212672 -0.09970968 -0.12652314 -0.10993988 0.0597698 -0.0684565 -0.11827375 0.16387212 -0.087295406 0.06394759 0.075305425 0.054342743 -0.12748376 -0.08775583 -0.06794312 -0.13053404 0.0906473 0.10682448 -0.13206865 0.09671316 0.014101602 0.12518024 0.053959094 -0.112167716 -0.09861212 0.06948094 -0.10634787 -0.08594865 0.033036586 0.10821575 0.14812674 -0.14023486 -0.101082124 -0.09718643 -0.06322918 -0.13349572 -0.04986594 0.059842385 -0.082413025 0.032279577 -0.10482543 -0.15320553 -0.06054235 0.102782436 0.054806847 -0.073432684 -0.12733656 -0.033430874
p379 0.028632075 0.23155463 0.2568032 -0.416295 -0.17366624 -0.16927369 -0.3171353 -0.310175 0.883345 0.069443926 0.17516111 0.16256727 -0.54943883 -0.48400015 0.43944523 0.4085278 -0.4518778 0.32217053 0.29460233 0.36519223 -0.48335013 0.17155458 -0.12989262 0.07769811 -0.20223615 0.06409654 -0.31609532 0.98126805 -1.0360897 0.32332417 0.23331898 -1.0015562 -0.20651734 -0.13421078 0.27207014 0.35011828 -0.43899712 -0.31136787 -0.13688847 -0.39532652 -0.57077295 0.93345314 0.0135952495 -0.6241061 0.7130595 0.08891132 0.8235644 -0.33302435 -0.92527544 0.39809284 0.3932218 -0.8683 0.42744878 -0.2497237 -0.023265356 -0.38190955 0.13329718 0.45122415 0.24818091 0.08937492 -0.27520785 -0.27672106 -0.9175417 -0.5642864
p81 -0.15846814 0.1586424 0.09501465 0.09013925 -0.16640532 0.057893742 0.16839784 -0.1723016 0.13690339 0.09305092 0.00047741094 -0.0867791 -0.14161322 0.16289769 -0.1701304 0.1644519 -0.04263835 -0.104334906 -0.060028117 -0.1406962 0.076534174 -0.17640588 -0.08522816 0.11010588 -0.08033303 0.035540592 0.027608296 0.12177193 -0.077085204 -0.18746632 -0.08146724 -0.08521016 0.08056104 0.1269058 -0.11104151 0.08724152 -0.10544661 0.09622472 0.13409016 -0.11731592 -0.12696384 0.12438095 -0.17189848 -0.13358924 0.14085004 0.105326764 0.097689256 -0.07347257 -0.11692779 -0.08562716 -0.019108096 -0.08322044 -0.19025278 0.17600603 0.011077883 0.13609932 -0.12025909 -0.043679368 -0.028631113 0.13972782 0.09148085 -0.18414865 0.018081121 -0.12997007
p236 0.31519455 -0.33133608 0.17658901 0.44132918 0.28244913 -0.25295514 0.52505744 -0.3899817 0.47229433 0.34712312 0.24727798 -0.38020974 0.26460165 0.47268084 -0.365495 0.459404 -0.54441774 0.27895117 0.09904271 -0.4724021 -0.29427406 -0.32619905 0.17995048 -0.53488654 -0.022800835 0.34483024 0.38068566 -0.082938455 0.16685946 -0.23218699 0.09579019 0.0015438535 0.3063704 0.2998174 0.24188034 0.28538802 0.3521714 -0.2803558 -0.25272822 0.4753798 -0.45214608 -0.17170975 0.2611719 -0.2535839 0.3653495 0.4144909 0.45652127 -0.4929259 0.07070545 -0.30200148 -0.56798553 -0.41400683 -0.25919744 0.52644634 -0.44699576 0.50791186 -0.2357606 -0.2564519 -0.44780564 -0.24140958 0.36130884 0.15718302 -0.59157133 0.20171633
p718 -0.041765418 0.024133634 0.112243354 0.046598062 -0.018637609 0.085791685 0.031466477 -0.058709692 0.07564042 0.11216526 -0.11679081 -0.06284494 -0.080385156 0.10785096 -0.01991569 0.08918242 -0.119663395 -0.057349302 -0.086682506 -0.07276132 0.07064915 -0.022216992 -0.11638767 0.12130067 -0.06316866 0.06534456 0.08118524 0.064647645 -0.12054916 -0.054893784 -0.034629725 -0.11300338 0.04316133 0.06186727 -0.10633988 0.10955811 -0.018797329 0.120648146 0.032111894 -0.077428766 -0.024192853 0.044956177 -0.05498295 -0.039357305 0.047397774 0.08811329 0.12721832 -0.07915052 -0.03294059 -0.08544572 -0.058787487 -0.14449403 -0.030918384 0.04450206 -0.07339485 0.041429713 -0.06634051 -0.11690662 -0.10580755 0.07660271 0.07453493 -0.019416757 -0.12986653 -0.021462373
p994 -0.1322671 0.15064406 0.08665331 0.060804226 -0.15213346 0.10861565 0.12628324 -0.15919536 0.13944553 0.09256804 0.0156424 -0.08130055 -0.14294791 0.13150582 -0.19436699 0.1293581 -0.02587176 -0.124554664 -0.05189991 -0.0988018 0.06397877 -0.18796353 -0.0828286 0.07945544 -0.10957609 0.06401079 0.07097685 0.11159386 -0.058921732 -0.1525554 -0.09738803 -0.09836812 0.08614997 0.09583006 -0.09700379 0.08294722 -0.10012694 0.08096871 0.14802873 -0.080284834 -0.09245248 0.1026716 -0.14877044 -0.12102068 0.13544603 0.099486426 0.066616446 -0.05766593 -0.079033755 -0.08190731 -0.07682959 -0.04330776 -0.16667019 0.15725791 0.059777558 0.07977999 -0.11119329 -0.06405895 -0.03993721 0.13313532 0.07104322 -0.14846459 -0.040736746 -0.17992438
p322 -0.12431989 0.100079015 0.1671076 0.1826673 -0.15099262 0.11967839 0.11894196 -0.11464276 0.00805082 0.08242423 -0.065960996 -0.037683796 -0.13501336 0.062690146 0.033950407 0.11234371 -0.0845144 -0.16264176 -0.04212782 -0.1683444 -0.029096065 -0.11365076 -0.13007605 0.07342556 -0.031211784 0.077784054 0.008611877 0.040948965 -0.06983282 -0.16535689 -0.087082945 -0.082483 -0.00018701007 0.028968846 -0.1576667 0.06268128 -0.00035838364 0.089473985 -0.0062188236 -0.111086614 -0.14037761 0.06370088 -0.05038506 -0.15387839 0.043202955 0.18486041 0.15968314 -0.2009317 -0.023753567 -0.14851359 -0.053933706 -0.10782739 -0.12413133 0.100799 -0.103019364 0.09586999 -0.008064855 -0.019519428 -0.14904295 0.0969036 0.005494846 -0.07206769 -0.047915816 -0.0008661177
p337 0.022819368 -0.052401487 0.2936108 0.38942838 -0.1434382 0.2908207 -0.085850656 0.1465061 0.34668314 -0.04727392 -0.37912712 -0.17702225 -0.042956978 -0.05330098 -0.26028553 0.014769682 0.14613016 0.17511153 -0.13036719 0.027634414 -0.13129994 -0.21621616 0.0064422777 -0.232416 -0.3910904 -0.2105335 -0.121428385 0.25665262 -0.35382026 -0.33883467 0.021700528 0.060031068 0.2750157 0.32465065 0.07625552 -0.18083578 -0.324931 -0.058274135 0.36916587 0.27536047 -0.3225338 -0.10107712 0.11899041 -0.37107134 -0.10788064 0.29906225 0.36539638 0.040258467 -0.2359537 -0.298614 0.20266241 -0.46937174 -0.3781741 0.36392274 -0.21717013 -0.15473817 -0.35195366 -0.43280372 -0.41228843 0.04420382 -0.12797143 0.065569535 0.04043107 0.098016016
p232 0.39679837 -0.13309203 0.17634444 -0.28480816 0.2151137 -0.32081866 -0.2881811 0.30072618 -0.39510083 0.7842203 -0.4053792 -0.34378895 -0.1174353 -0.08370726 -0.65708053 0.21246159 -0.13695425 -0.74589235 -0.40331274 0.32121667 -0.11322161 -0.62137526 0.2500335 -0.15501773 -0.4227448 -0.22934785 -0.23397952 -0.23811333 0.41918117 -0.41253316 -0.6155775 -0.30357465 0.6464304 -0.541494 0.5583502 0.5304346 0.29858467 0.27282888 0.12434309 0.04813915 -0.57657903 0.29332352 0.019573973 -0.78011173 0.47970948 -0.44065583 -0.3535171 -0.18011576 0.14645578 -0.51977706 0.12537238 -0.24864551 0.18027246 -0.3560839 -1.0048332 -0.058667 0.22207792 0.48943388 0.20044397 -0.041370496 0.4148739 0.07883949 -0.8082157 -0.93561995
p171 -0.7278304 0.09485953 -0.5240639 -0.067247204 -0.8231676 0.02995073 -0.43454632 -0.56404847 0.6358966 -0.4104148 0.530862 0.32081822 0.29495874 -0.20062733 0.15375812 0.17005639 -0.7634015 0.40683824 0.5330337 0.47154692 0.47770703 -0.037472237 0.1558339 -0.28358966 -0.08897173 0.23236562 0.22404106 -0.03341096 0.6133917 -0.013043405 0.037748095 -0.70624596 -0.5908536 -0.6495045 0.13772945 0.01701725 -0.7139716 0.21839963 -0.14032397 0.2680506 -0.66528827 -0.30165002 0.3150824 -0.5893631 0.5110941 0.4524756 0.81683546 0.22168556 0.27833202 -0.2548591 -0.9126975 -0.59576076 -0.45584294 -0.47072545 -0.6537237 0.17030244 -0.8193182 -0.6141496 0.65942335 0.27512053 0.59885275 0.14326952 0.38763022 0.13913026
p872 -0.08461662 0.09788686 0.10236729 0.11792524 -0.0692054 0.16906585 0.037882198 -0.12653269 0.13902247 0.11184446 -0.099839285 -0.1467205 -0.1399426 0.10710117 -0.0672588 0.058681816 -0.06320184 -0.11420338 -0.13452454 -0.102711275 0.14185195 -0.09461402 -0.12362029 0.1682937 -0.1583387 0.13273641 0.16878752 0.06967492 -0.051974952 -0.037802357 -0.11247061 -0.118901186 0.16263416 0.10720509 -0.119496666 0.13029096 0.054899413 0.15374732 0.083928265 -0.13985868 -0.09527696 0.0679617 -0.10976448 -0.10537441 0.07173819 0.12515873 0.08257479 -0.10323853 -0.08422028 -0.10562413 -0.1547737 -0.09956593 -0.06349367 0.075812064 -0.028291604 -0.0049939076 -0.13884832 -0.14078854 -0.05042748 0.071299866 0.116176605 -0.13067219 -0.11231722 -0.05663773
p720 -0.11862335 0.08732484 0.10180658 0.12310184 -0.13553554 0.145439 0.09408838 -0.13117921 0.08477741 0.07843561 -0.06623396 -0.15992744 -0.139608 0.11844924 -0.06888509 0.071380004 -0.05406566 -0.09639934 -0.14429824 -0.12496869 0.12751451 -0.09974668 -0.10897321 0.19041659 -0.106191 0.12557937 0.11202615 0.08713213 -0.04462115 -0.06287516 -0.09386864 -0.070353016 0.11923972 0.113773346 -0.1347676 0.09904317 0.0414266 0.1522923 0.11039452 -0.1571829 -0.12118551 0.095863424 -0.088289954 -0.118062004 0.091901846 0.112754665 0.09077794 -0.0735156 -0.089060634 -0.099444486 -0.11589675 -0.066370815 -0.097417675 0.06676076 0.022848858 0.0321313 -0.11787278 -0.101981804 -0.07289144 0.10500292 0.0620636 -0.1589293 -0.03492644 -0.078971736
p818 -0.08921318 0.10100178 0.0806562 0.12842923 -0.11104983 0.15670343 0.08064409 -0.124642916 0.13505602 0.06390466 -0.015150024 -0.12228843 -0.15348408 0.113875404 -0.12961563 0.045580495 -0.007962853 -0.11911041 -0.15380354 -0.11233171 0.1301244 -0.118613526 -0.11942157 0.17310144 -0.13971025 0.14213002 0.14237985 0.09060339 -0.017119575 -0.029147848 -0.118313044 -0.10747041 0.15591912 0.096669085 -0.11766679 0.10602842 0.05920594 0.1372003 0.10346617 -0.17050172 -0.07698049 0.06538318 -0.09269656 -0.105831034 0.09601688 0.10301419 0.05554331 -0.07102312 -0.06050868 -0.111744255 -0.13627934 -0.05682728 -0.12318767 0.09365713 0.042175613 -0.007579766 -0.15470086 -0.10995227 -0.012716144 0.066835 0.101865046 -0.1455409 -0.0669987 -0.090688266
p902 -0.15122859 0.1520798 0.10108078 0.07969425 -0.15903279 0.118779406 0.12770227 -0.16173352 0.11098371 0.06807472 -0.013172979 -0.06914726 -0.14303836 0.11654725 -0.15828124 0.117766656 -0.044295438 -0.121326916 -0.061878376 -0.084273174 0.101750754 -0.15723464 -0.077609554 0.08882314 -0.10222132 0.08485175 0.07529454 0.13466355 -0.040748887 -0.13910998 -0.10228875 -0.07952966 0.09675733 0.1110835 -0.10380212 0.08364477 -0.08327342 0.09979958 0.14523798 -0.08820549 -0.10469396 0.103885435 -0.14883763 -0.10495667 0.09868077 0.08962224 0.07341242 -0.06791698 -0.10411404 -0.08072385 -0.06600139 -0.047891486 -0.16603158 0.15672146 0.034117248 0.09688023 -0.12983058 -0.0423471 -0.048740994 0.13877706 0.08560253 -0.14825755 -0.04007982 -0.16670536
p59 -0.1360777 0.11127228 0.15838343 0.09049027 -0.14361903 0.13671659 0.113954596 -0.13408118 0.11109903 0.08808066 -0.118464455 -0.09027882 -0.109553084 0.11214791 -0.09099008 0.07045769 -0.106928505 -0.05293453 -0.07580526 -0.15875937 0.08783759 -0.104134955 -0.13028213 0.16041239 -0.13058 0.11579968 0.046339653 0.09038082 -0.08551777 -0.047777522 -0.0023011423 -0.07128135 0.07689895 0.12647514 -0.12750776 0.052777484 -0.047681242 0.11625187 0.14480807 -0.14287005 -0.08195546 0.07785751 -0.12722424 -0.07482942 0.027148787 0.113077626 0.10614985 -0.11889545 -0.016260779 -0.060317878 -0.13628396 -0.11714766 -0.10637996 0.007941131 -0.04302178 0.07633919 -0.122875325 -0.0934412 -0.05678064 0.123489946 0.08467311 -0.13830274 -0.070776306 -0.05997247
p496 -0.05987263 0.06490811 0.14237145 0.07813404 -0.034822907 0.10150815 -0.00071517687 -0.08681943 0.073703006 0.13512823 -0.16707882 -0.018549375 -0.08109756 0.040498666 -0.0130017 0.09014922 -0.1133081 -0.07379765 -0.090845615 -0.11537578 0.07882757 -0.051176924 -0.08306863 0.08736913 -0.08189553 0.079850584 0.09397666 0.10655994 -0.15340808 -0.040568076 -0.048570745 -0.119933575 0.08147487 0.09292937 -0.07501464 0.11574833 -0.036578927 0.06470299 0.020861505 -0.07804339 -0.08642013 0.05093111 -0.09028769 -0.096695304 0.08322007 0.07262493 0.13056438 -0.12326041 -0.028720107 -0.017513834 -0.07666494 -0.14318366 0.020291511 -0.0025907909 -0.12704441 0.10267737 -0.057664722 -0.12515494 -0.116447486 0.08119279 0.05085955 -0.068501495 -0.11449464 0.014907231
p833 -0.07660336 0.07665304 0.14361395 0.11035798 -0.06784434 0.15460607 0.052015804 -0.10817358 0.09241907 0.1009189 -0.12770474 -0.14585552 -0.12985615 0.106836885 -0.043387663 0.06299524 -0.113196276 -0.12115457 -0.10618482 -0.10821506 0.09387751 -0.0548944 -0.12820803 0.15814808 -0.12103938 0.0975297 0.1245807 0.08119786 -0.08210838 -0.046320528 -0.0724802 -0.0988531 0.10438915 0.076991096 -0.10963284 0.10358794 0.001289354 0.14989196 0.055403057 -0.10417852 -0.07196097 0.06274599 -0.07328677 -0.07652847 0.054183066 0.12607463 0.09973766 -0.098825835 -0.072410956 -0.12262146 -0.11336845 -0.11760728 -0.059728995 0.053557638 -0.06903015 0.044795144 -0.09131447 -0.1302883 -0.080667645 0.08908914 0.07866943 -0.08783352 -0.103124596 -0.049133666
p576 0.2881133 0.059686225 0.2869241 -0.35312608 -0.40662166 0.19099556 0.31752688 0.079086214 0.7154539 -0.38744128 0.38413438 0.45252424 -0.041702393 0.16604716 0.43121228 0.4114993 -0.4333432 0.058565293 0.40603617 -0.0016268961 -0.5334995 0.346226 -0.5622717 0.055008873 0.28644174 0.6346785 -0.41507635 0.6310478 -0.49044806 -0.4426872 -0.19528618 -0.446766 -0.2858415 -0.38192245 0.014354031 0.5054868 0.48285148 0.5502911 -0.36706868 -0.47564182 0.17961437 0.48703477 0.33711535 -0.4062304 0.009224365 -0.28878653 0.6828219 0.18333536 -0.61458546 -0.44708094 0.09655374 -0.7535365 -0.25493705 -0.18312633 -0.20332393 -0.20347278 0.28547615 0.36471102 -0.30214483 0.6533885 -0.32794315 0.31135532 -0.5353475 0.20770608
p73 -0.056494147 0.08550019 0.1328204 0.12651044 -0.037562087 0.12879057 0.05503794 -0.108243175 0.1252502 0.09091232 -0.10855816 -0.10748139 -0.140093 0.115737624 -0.04767594 0.07154585 -0.07423253 -0.08620839 -0.1527497 -0.09637202 0.11191112 -0.04476412 -0.12274919 0.19669443 -0.16448799 0.13927904 0.08204482 0.04606725 -0.10256608 -0.038873278 -0.07468373 -0.10308434 0.10962483 0.10047198 -0.1445788 0.11975786 0.060316585 0.15946509 0.061152715 -0.15535393 -0.07112082 0.052231032 -0.077134654 -0.0782873 0.07577581 0.12954003 0.08574554 -0.12402839 -0.05711596 -0.11071572 -0.08819928 -0.12093821 -0.039403755 0.06337638 0.0052134483 0.0047147884 -0.09694928 -0.122899786 -0.056794293 0.06965044 0.112801395 -0.081225425 -0.089101754 -0.027771607
p179 -0.38433176 0.50000226 0.2450651 0.25468594 0.41442782 0.1288091 0.3838339 0.4808751 0.15592411 -0.44352096 -0.526309 0.37249094 0.4130233 -0.43997917 -0.37615997 0.4564696 -0.5012694 -0.16687587 -0.3782768 -0.31532377 0.5123036 0.41450986 0.41232336 -0.5577925 -0.38303712 0.25580114 0.73132104 0.42278188 0.2997791 0.3168836 0.3674285 -0.39959535 0.30617008 0.27222353 -0.37557933 -0.40838942 -0.46502146 -0.04748178 0.4208324 0.67974406 -0.37944627 0.47849658 -0.22246975 -0.36758146 0.45013088 0.2994466 0.38003504 0.41386527 -0.46958837 0.4296037 -0.30176014 0.5420285 0.36378312 0.24554309 0.265788 -0.3857255 0.41171184 -0.40046325 -0.429176 0.53182685 0.5970837 -0.08211467 -0.40553224 0.34339663
p988 -0.10568251 0.11768418 0.05862165 0.10647793 -0.14235952 0.13392794 0.07193023 -0.12508605 0.12299742 0.07176821 0.019650798 -0.08752408 -0.14267468 0.09363283 -0.17068408 0.054114964 -0.03085762 -0.1483105 -0.09742701 -0.080282405 0.10273728 -0.15596345 -0.10850051 0.15245624 -0.14223136 0.15216039 0.11713271 0.08939497 -0.017986089 -0.10029501 -0.13820778 -0.079854034 0.15819103 0.083607264 -0.12444202 0.07011217 0.022923226 0.11295046 0.11427777 -0.16373539 -0.09957862 0.09213612 -0.10030023 -0.107890055 0.09382842 0.09567681 0.060844813 -0.035491288 -0.060626924 -0.08904446 -0.11830005 -0.025859686 -0.1595044 0.11604617 0.05582539 0.011761459 -0.16064219 -0.087710366 -0.021646576 0.07877466 0.089838795 -0.1329519 -0.07575824 -0.1615696
p752 -0.06860526 0.057468016 0.11771314 0.119006805 -0.049937073 0.1154085 0.03246946 -0.09623484 0.10482392 0.09972251 -0.10550348 -0.08606771 -0.128558 0.09872514 -0.052788686 0.11337202 -0.09710601 -0.11835525 -0.14160396 -0.0896092 0.11501034 -0.0807435 -0.11955969 0.16755374 -0.14428714 0.087558605 0.12741454 0.07771763 -0.099156946 -0.07407424 -0.096066944 -0.14375876 0.10334027 0.11047294 -0.14002253 0.10299088 0.03248479 0.12976852 0.0856899 -0.12988289 -0.05994607 0.074261434 -0.10426659 -0.06528266 0.07693293 0.109732114 0.10787926 -0.10833366 -0.07703609 -0.11512783 -0.087558016 -0.14103779 -0.03439997 0.07288039 -0.054654658 0.029417759 -0.13597146 -0.1599941 -0.08561213 0.082308374 0.13147518 -0.08473218 -0.12059147 -0.06906915
p885 -0.09753886 0.07859998 0.06501459 0.10986961 -0.08905751 0.14603545 0.048898783 -0.13543275 0.13749085 0.1061466 -0.048900675 -0.10086496 -0.1339901 0.09217369 -0.11372057 0.040473606 -0.052343316 -0.14298783 -0.15731974 -0.06180586 0.15271984 -0.102611974 -0.1188299 0.17104086 -0.14405389 0.15371242 0.15433787 0.055600133 -0.03790565 -0.05675854 -0.13975711 -0.1264855 0.16756351 0.09550869 -0.13616362 0.11788138 0.056049667 0.15664423 0.087441936 -0.15750101 -0.072894454 0.07270298 -0.08756369 -0.11175904 0.09155951 0.11414589 0.07564489 -0.09318509 -0.082763396 -0.10425741 -0.1241452 -0.059049238 -0.09150514 0.1006553 0.029022343 0.001393757 -0.15388063 -0.1487879 -0.03785221 0.04690073 0.13925527 -0.106202245 -0.111422524 -0.09110254
p846 -0.26183176 -0.29282928 0.19113775 0.14758821 0.3272964 0.420963 -0.16620488 0.38235044 0.6504319 -0.3115822 0.37470898 0.3453266 0.22518998 -0.25662926 0.42523888 0.571436 -0.08115198 -0.20342249 0.3452836 0.37693396 -0.34771493 -0.36846915 -0.37749836 0.008497662 0.458244 0.43224692 -0.44934002 0.37997013 -0.76256603 -0.63900125 -0.3058866 -0.6327317 0.12066518 -0.3652482 -0.13119167 -0.2451654 0.27163118 0.5743292 -0.47356513 -0.26517418 -0.10200398 0.52392054 0.39195743 -0.4277967 -0.50377136 0.03735968 0.59038454 0.2981249 -0.5871133 -0.5111408 0.4746293 -0.9309379 -0.49327087 -0.2836642 -0.34398177 -0.4589415 0.011483091 0.4348589 -0.56902295 0.60661525 -0.010645419 -0.4370336 -0.62072533 -0.2923211
p216 0.36213416 -0.19968547 0.40276474 0.58753633 -0.55916536 -0.22171926 0.49355346 -0.07781966 -0.19729222 0.5829932 0.48389468 -0.25610495 0.44409576 -0.03471354 -0.45520952 0.8305413 -0.05816545 -0.007001878 0.4067526 0.43585414 -0.51792413 0.44629288 0.43665302 0.40452856 -0.92414063 0.37836722 -0.51053685 -0.25255555 -0.96340215 -0.15860035 -0.72333795 0.16209012 0.11799575 -0.43027014 0.26724952 -0.45317248 0.3881858 -0.24379775 -0.17992312 0.9015356 -0.8948984 0.8907835 0.12626131 -0.8429038 0.48568767 -0.025295021 0.5094529 0.4600642 -0.69151783 -0.27202493 0.23152086 -0.09830658 -0.636269 0.5031887 0.44304234 0.09782019 -0.02980448 0.40311542 0.55424434 0.44883642 -0.2189037 -0.003891305 -0.7530551 -0.76893395
p450 -0.046630036 0.09339061 0.16555993 0.006605134 -0.065212145 0.053047955 0.06957663 -0.10229655 0.025301844 0.120994374 -0.15085183 -0.08414273 -0.034234237 0.12044043 0.039390225 0.16188209 -0.10597398 -0.035701368 -0.082797386 -0.119836025 0.011614747 -0.0026875786 -0.0402603 0.07268538 -0.038307883 0.055226993 0.026442636 0.12345439 -0.14546911 -0.055562846 0.00017162734 -0.07230174 0.005005565 0.0043700393 -0.12800787 0.11014921 -0.033167 0.103852876 0.06807428 -0.070637815 0.005003468 0.063136265 -0.04871551 -0.048926353 0.0047612716 0.09291348 0.1292027 -0.09098595 -0.03876277 -0.046483565 -0.08148538 -0.18462403 0.012277081 0.016407248 -0.08402798 0.052984 -0.0016698726 -0.04453806 -0.15899776 0.059003394 -0.005486338 -0.046787053 -0.071772344 0.0106832115
p952 -0.11922738 0.16434424 0.098983064 0.1097007 -0.1704971 0.06783205 0.17010382 -0.12868087 0.14317378 0.036595777 -0.034899224 -0.097891055 -0.12528165 0.1532386 -0.15924683 0.08947866 -0.052121516 -0.162027 -0.10608169 -0.092855245 0.10214999 -0.20168608 -0.07016885 0.09858372 -0.106017776 0.051212665 0.06546239 0.16614805 -0.0011072018 -0.13729295 -0.080736674 -0.1025263 0.13265547 0.13828526 -0.07547579 0.039212342 -0.07792789 0.13824524 0.120199695 -0.101239935 -0.14332147 0.14807174 -0.17786023 -0.12151537 0.109932385 0.16494474 0.087984025 -0.042990457 -0.14056139 -0.090689816 -0.11765204 0.024174172 -0.09229033 0.24323541 0.078238785 0.1539084 -0.13236177 -0.10350809 -0.0323303 0.11165572 0.07890937 -0.20326148 -0.057295535 -0.09641143
p5 -0.15480693 0.19878525 0.09108036 0.012297302 -0.22162743 0.1281169 0.02245637 -0.1572711 0.106906116 0.131887 0.057031922 -0.042472504 -0.15145817 0.12832487 -0.11618016 0.15444463 0.016407054 -0.04022133 -0.06414754 -0.05123309 0.00039666978 -0.21557963 -0.11029833 0.01688102 -0.18838899 -0.0047647636 0.071814224 0.19300939 -0.11306462 -0.2194152 0.027990978 -0.11765072 0.14556085 0.05686028 -0.10274696 0.04932113 -0.07919508 0.012799275 0.11408768 -0.06796781 0.05293062 -0.051185217 -0.20412165 -0.12586051 0.018284865 0.12461986 0.0034683144 -0.07188861 -0.037643567 -0.058866367 -0.0882261 0.075334966 -0.19721921 0.18576644 0.16287988 0.094384275 -0.06932546 -0.04820824 -0.0423232 0.11711559 -0.022864651 -0.20900589 -0.0021661392 -0.12601699
p178 0.24586838 0.10606529 0.14495921 0.15738653 -0.13338806 0.37522766 0.5042303 -0.72855604 0.26540205 0.54660773 0.21946687 -0.47029 -0.34523576 0.064715624 -0.47455445 -0.7084303 -0.332902 0.10571093 -0.17836984 -0.2823319 0.0402235 -0.1629129 0.074423306 -0.47721142 -0.2782784 -0.25511962 -0.16702956 0.9450655 -0.360976 -0.48161703 -0.44989747 0.7678353 0.18150893 0.11029208 -0.39263648 0.44075137 0.04023882 0.016879316 -0.0018221673 0.33329782 0.7470034 -0.41960248 -0.29369277 0.7948665 0.63544893 -0.14822343 -0.7457084 0.1680919 0.60755277 -0.40278065 -0.6252759 0.8082041 -0.8142011 0.43249997 -0.8072781 0.37343827 0.013677216 -0.56658244 -0.057994038 0.32422653 -0.3464189 0.15996681 -0.49356645 -0.65404505
p219 -0.21713343 0.44067273 -0.131566 -0.3535666 -0.6439855 -0.38482663 -0.3989671 -0.09838119 -0.08424699 -0.42598632 -0.17750609 0.4607971 0.4170733 -0.24881251 0.31534836 0.5259248 -0.5254511 -0.54941523 0.48344338 -0.017023757 0.07984089 0.32955495 -0.024323776 -0.8483336 0.32030877 0.2683657 0.657747 -0.21570222 0.25329 -0.66129464 -0.6864692 -0.3363994 0.30259636 -0.40636033 0.14158553 -0.19194442 -0.075991854 -0.23309244 -0.30476436 -0.3467961 -0.71440744 0.5931831 0.39675042 0.11412394 -0.23519619 0.51489085 0.7023426 -0.50312424 0.3615065 -0.7035269 -0.46281025 -0.647212 -0.10929168 -0.49286488 -0.90431494 -0.29140788 -0.41781425 -0.44430217 0.3865423 0.42697984 0.7010075 -0.07384693 0.14340462 -0.45551354
p1001 -0.05463866 0.087912925 0.15756975 0.15114507 -0.09610258 0.15477656 0.053107996 -0.093009174 0.10480134 0.09164735 -0.15421131 -0.1612506 -0.10497808 0.09811348 -0.008030085 0.03420959 -0.060263537 -0.105679736 -0.1908644 -0.15476081 0.10937 -0.061109062 -0.14091432 0.1326373 -0.074836396 0.090680026 0.13525471 0.0783684 -0.01993764 0.006828693 -0.0407704 -0.050737236 0.12504038 0.13511482 -0.13617198 0.1275988 0.013479004 0.13974291 0.06562262 -0.07946143 -0.06951846 0.06330248 -0.07293167 -0.093379736 0.06447325 0.110851735 0.078262456 -0.11093003 -0.06338085 -0.08721373 -0.17937936 -0.084354036 -0.011869681 0.024308562 -0.050307844 0.044846468 -0.09307809 -0.13084857 -0.103531286 0.09397976 0.064262554 -0.10536073 -0.05512413 -0.03558433
p621 -0.09069705 0.06572097 0.07696202 0.12412529 -0.08329776 0.13477531 0.024886338 -0.08879599 0.12646544 0.12271084 -0.122430235 -0.078879476 -0.110571064 0.10837319 -0.054356463 0.07229188 -0.08765987 -0.07626699 -0.15858346 -0.07765295 0.12343565 -0.06812455 -0.12049064 0.18076013 -0.1363538 0.11033946 0.13760409 0.061168138 -0.113659084 -0.01820109 -0.1159964 -0.13819751 0.13152596 0.10747588 -0.15000418 0.119303286 0.048916917 0.16651572 0.05756934 -0.17340161 -0.06925766 0.06879305 -0.06978476 -0.09656361 0.09588394 0.14008324 0.12230064 -0.11987513 -0.07604913 -0.10097907 -0.1096331 -0.13595788 -0.05556895 0.054224655 -0.012874577 0.021611838 -0.137026 -0.12715028 -0.045223128 0.015389811 0.11800468 -0.054846987 -0.13771011 -0.054180004
p929 -0.06941181 0.07932618 0.06565464 0.106714934 -0.075972185 0.13411708 0.037495166 -0.12861381 0.15761253 0.09710676 -0.019233998 -0.09557522 -0.1384241 0.11196044 -0.143393 0.06273795 -0.025815297 -0.11877058 -0.13356794 -0.0496566 0.1513311 -0.11572626 -0.11246156 0.18032928 -0.16264611 0.13943821 0.14412074 0.05357949 -0.03950044 -0.053516675 -0.13684906 -0.13069206 0.15455617 0.09054682 -0.10923258 0.10430052 0.046836033 0.12116531 0.10789045 -0.1506007 -0.07720309 0.06090207 -0.09571162 -0.10513246 0.10292316 0.09810955 0.06925894 -0.0809508 -0.05214889 -0.120275 -0.12777859 -0.049138952 -0.11059583 0.0995022 0.050662182 -0.024969535 -0.147394 -0.11610239 -0.024724068 0.05262437 0.14356883 -0.09069872 -0.11119783 -0.09711599
p456 -0.12967563 0.62899494 -0.28905934 0.32743785 -0.36270115 -0.21568194 0.33932328 -0.3370881 -0.37896883 -0.35020837 0.35184893 0.19880302 -0.25863773 0.30439 -0.33250535 -0.09300007 0.21127017 0.26732552 0.30514038 -0.21577413 -0.095220186 0.28740412 -0.3694619 0.30778918 0.20545222 -0.40111592 0.18181697 -0.25071543 -0.15071121 -0.41703176 -0.52072763 -0.51471543 -0.25156462 0.29994202 0.14782009 -0.28310558 -0.14177778 -0.18670546 0.31171167 -0.25145346 -0.49379915 -0.12730259 0.3480605 -0.54773015 -0.17083324 0.20047744 0.28708678 0.38000906 -0.45794708 -0.032148577 0.124229625 -0.5998347 -0.24131897 0.29246962 -0.51829875 0.20136088 0.25219616 -0.2922492 0.24515043 0.48157096 -0.3073153 0.041514706 -0.44282869 -0.00334996
p537 -0.14147092 0.066961214 0.093151085 0.15799601 -0.13369294 0.15122116 -0.048685532 -0.19517891 0.11113083 0.16633402 -0.058220595 -0.101452984 -0.16626155 0.16055481 -0.15571676 0.026813325 -0.032959033 -0.14721061 -0.13946132 -0.11000955 0.116883665 -0.18098296 -0.17687143 0.19689098 -0.19705717 0.10453102 0.15872166 0.066269614 -0.0020925044 -0.09163192 -0.0072750626 -0.1320241 0.14844967 0.15016161 -0.16016738 0.16392432 0.0025347841 0.18337846 0.15372577 -0.12379199 -0.06574673 -0.0007195896 -0.16659927 -0.16236214 0.0890269 0.13534556 0.09898024 -0.13688712 0.012411033 -0.03328786 -0.1239556 0.036832742 -0.1347009 0.13150524 0.13454439 0.06412584 -0.128329 -0.110780224 0.047027774 0.1119371 0.08545832 -0.13247499 -0.011163194 -0.03729851
p559 -0.13307971 0.122067474 0.0993813 0.078737974 -0.12768683 -0.0930474 0.13025187 -0.1846626 0.1628299 0.15370288 -0.040723637 -0.09082565 0.05768374 0.12981646 -0.19821315 -0.006189097 0.1632601 -0.09809924 0.083004735 -0.19208762 0.079356946 -0.20402122 -0.14333117 0.079915665 0.021817556 0.089724965 -0.016067792 0.1907413 0.021661213 -0.14951622 -0.05777401 0.09520375 0.07919534 0.1775973 -0.110124834 0.05834384 -0.15578158 0.058927957 0.19069171 -0.054123092 -0.08712764 -0.13499144 -0.15441734 -0.13260254 0.022042649 0.08670468 -0.11661071 -0.119383045 0.15221927 0.099823706 -0.090196915 -0.07397889 -0.17891301 0.14537014 0.19419466 0.16982897 -0.116332814 -0.06648323 -0.072208844 0.11139724 0.07475478 0.08358638 0.040851243 -0.10177288
p920 -0.0693635 0.08975704 0.14264427 0.03533119 -0.049215145 0.070637785 0.05605541 -0.10313535 0.06072898 0.13218585 -0.15804884 -0.059433136 -0.07018015 0.095459685 -0.0032574919 0.1453032 -0.14054821 -0.049676873 -0.07019323 -0.100984804 0.06740609 -0.054615293 -0.07600879 0.07865525 -0.035172578 0.0348428 0.04207927 0.1313199 -0.15400505 -0.11379203 -0.03266591 -0.089709945 0.056379832 0.070986405 -0.072552264 0.07069005 -0.07219523 0.071518354 0.043978125 -0.051739063 -0.057114825 0.037067283 -0.061956175 -0.06441795 0.03804304 0.08818763 0.12957156 -0.07738834 -0.07626304 -0.074629314 -0.05880385 -0.13851424 -0.006111427 0.03298619 -0.10804083 0.10877419 -0.052545596 -0.095785126 -0.13571216 0.1214146 0.03819799 -0.056500416 -0.099389784 -0.026150193
p90 -0.07255047 0.060050834 0.1534482 0.038836148 -0.08156477 0.2122451 0.067037374 -0.037154987 0.18742959 0.17534919 -0.185879 -0.14289364 -0.041212328 0.017526267 -0.08945289 0.0048414073 -0.09851851 -0.043636743 -0.12833555 -0.15735807 0.15362836 -0.1320093 -0.19142261 0.16183533 -0.0031150023 -0.014043409 0.13559528 0.17553124 -0.026556708 -0.015210674 0.014170546 -0.121976286 0.048773803 0.04851737 -0.17494601 0.19475783 0.004665115 0.17425214 0.11617535 0.022071803 -0.09110519 0.1115303 -0.16288653 -0.2062478 0.077397294 0.20722936 0.088736035 -0.063488245 -0.02397142 -0.14197768 -0.13416769 -0.06426205 -0.016060285 -0.005174539 -0.16095763 0.16091885 -0.00034533016 -0.14716288 -0.21523064 0.062000606 -0.0060213506 -0.18541875 0.005529126 -0.07937561
p951 0.3568331 0.12009116 0.47695634 -0.32491592 -0.4474609 0.20632331 0.2476125 0.17318124 0.6542983 -0.4412156 0.2871522 0.47076598 0.24764869 0.25803626 0.42362177 0.4254599 -0.5013849 -0.1352091 0.5116862 0.20803757 -0.5012888 0.13762008 -0.6212261 0.1657754 0.35086885 0.5748084 -0.4449986 0.5206382 -0.57237387 -0.47181576 -0.28910378 -0.49202728 -0.1677493 -0.29902568 0.09416744 0.5115319 0.4852652 0.5129576 -0.38747367 -0.3920993 0.075882144 0.5101355 0.21416059 -0.29730174 -0.19452187 -0.048679724 0.67247134 -0.026023997 -0.623906 -0.53420347 0.22375524 -0.6703833 -0.30174494 -0.2636345 -0.25480267 -0.07052468 0.2956365 0.43518567 -0.18145879 0.684523 -0.13517402 0.5464414 -0.47386345 0.18996663
p403 -0.3110936 -0.29596502 -0.2528929 -0.45294496 -0.7105114 -0.38645878 -0.25703627 0.34483102 0.48236424 -0.3920522 0.47194812 -0.063893594 -0.430842 0.33986175 -0.3839421 0.6686131 0.42656544 0.5067152 0.001194948 -0.08450915 0.35040277 -0.5391792 -0.06897574 -0.4529226 -0.15343373 0.25071186 -0.5040257 -0.124387965 -0.3896736 -0.4662123 0.39683238 -0.28820595 0.46741048 -0.40381557 -0.40029544 -0.2613089 0.30281633 0.14248274 -0.27580705 -0.26852593 -0.43478256 0.49916703 -0.468359 -0.5868488 0.041038595 0.36524698 0.57402736 -0.006444248 -0.27854055 -0.16501212 0.42959106 0.06972389 0.13907477 0.45917872 -0.33813053 -0.19820854 0.4570038 0.43856934 -0.59861284 -0.16820222 0.26216024 0.20908685 -0.23826429 0.09686653
p845 -0.084741704 0.07981503 0.07825975 0.13799857 -0.09170625 0.14370205 0.033585444 -0.12317151 0.1540265 0.10253412 -0.04980794 -0.101793654 -0.14034688 0.1123823 -0.11148357 0.05047501 -0.026537266 -0.124127515 -0.15394542 -0.053395156 0.13316803 -0.1208206 -0.11467345 0.16310965 -0.18345152 0.13409203 0.1585022 0.0735645 -0.034814436 -0.055206377 -0.154567 -0.12584744 0.1515645 0.11800601 -0.13645442 0.10510883 0.06535003 0.13096838 0.08419384 -0.16965814 -0.07651609 0.0799956 -0.095895655 -0.07510835 0.097708695 0.099898875 0.046672445 -0.080368176 -0.08014992 -0.10295175 -0.13569187 -0.060179237 -0.09485718 0.10426851 0.0239207 -0.010623509 -0.14158437 -0.11883477 -0.029352307 0.05432524 0.14025205 -0.09819649 -0.1259825 -0.10469114
p405 -0.371121 -0.0017399358 0.0016860099 -0.34862632 -0.4660928 -0.10333721 -0.18295577 0.32807958 0.573566 -0.42142355 0.3082142 -0.04127554 -0.5117627 0.37189686 -0.41692358 0.47490796 0.34283796 0.41084406 0.24217945 -0.16132943 0.35067922 -0.5534794 0.35556105 -0.38923854 0.10094934 0.24122617 -0.43509233 0.39828166 -0.43131214 -0.47410315 0.38932613 -0.55461013 0.48558268 -0.26914224 -0.4576732 -0.30116063 0.36802903 -0.121906094 0.18689305 -0.2578096 -0.43776423 0.43663785 -0.49181402 -0.5285781 -0.13595322 0.5207877 0.5220554 0.2715315 -0.3600695 -0.24715209 0.16205679 0.33074817 0.27195492 0.39417845 -0.60033745 -0.16538234 0.45326927 0.3039021 -0.5666158 -0.094377376 0.30629906 -0.31417271 -0.3774868 -0.29661924
p857 -0.06396139 0.082305565 0.1538742 0.059972264 -0.024319667 0.12584783 0.034285244 -0.09247082 0.11667283 0.13249926 -0.127305 -0.09405894 -0.120888285 0.11558615 0.0014187171 0.09066339 -0.1437553 -0.09795957 -0.09025183 -0.11880707 0.0620627 -0.0459432 -0.11232279 0.15716083 -0.13051237 0.07970942 0.07552069 0.06965623 -0.14587957 -0.06499847 -0.01716358 -0.13576302 0.091397844 0.09202943 -0.13089383 0.10787449 0.0070328633 0.1406196 0.06466132 -0.10318188 -0.051928196 0.06039426 -0.063080855 -0.07127127 0.076291285 0.10465869 0.13407776 -0.114223786 -0.050021663 -0.118525475 -0.07798172 -0.14567529 -0.03982771 0.06319705 -0.08156659 0.06526495 -0.06937883 -0.16106102 -0.09137686 0.07549731 0.06933049 -0.075376034 -0.13382322 -0.008525604
p905 -0.08150431 0.07488696 0.07995462 0.09613029 -0.08303378 0.12035049 0.054169517 -0.11361827 0.14321147 0.108637996 -0.033909537 -0.08807963 -0.11721415 0.08752794 -0.1437127 0.07434553 -0.053139504 -0.13510053 -0.122043766 -0.05951669 0.1275764 -0.12223268 -0.11259344 0.14141873 -0.14950883 0.13081186 0.14374882 0.040991146 -0.052405883 -0.05260587 -0.13716008 -0.15568113 0.14863105 0.08777382 -0.11268552 0.10403889 0.057951666 0.12519313 0.09389031 -0.16667365 -0.07750987 0.05967304 -0.09419309 -0.064440385 0.100802146 0.112220876 0.06192392 -0.07249155 -0.05577277 -0.12879753 -0.09383617 -0.061116286 -0.078411385 0.113339774 0.041110545 -0.022483611 -0.16421102 -0.137799 -0.019487144 0.03179013 0.1453465 -0.08661375 -0.13442856 -0.104414046
p84 -0.05993922 0.06568441 0.14813563 0.054783847 -0.0069851135 0.08884924 0.081043236 -0.06218549 0.07885312 0.10099408 -0.15226609 -0.07116718 -0.05314564 0.10918675 -0.016038578 0.113440275 -0.1327969 -0.06876778 -0.080394566 -0.12424519 0.05159431 -0.01267904 -0.11027463 0.09877638 -0.046230838 0.026112465 0.039706435 0.04814234 -0.11222196 -0.07404226 -0.025851969 -0.09790607 0.017514804 0.056325536 -0.113933146 0.09452972 -0.022852905 0.087797344 0.034088444 -0.06430304 -0.048968706 0.04664752 -0.07652746 -0.042304683 0.029047804 0.11557357 0.13091893 -0.13620321 -0.09430211 -0.05899147 -0.048189733 -0.1752092 -0.011536327 0.042786103 -0.10554833 0.061123658 -0.06927365 -0.109029874 -0.1079624 0.12123252 0.0485115 -0.07265308 -0.098987475 -0.011929002
p558 -0.080671735 0.06783346 0.046399612 0.1552932 -0.11870524 0.11503069 0.06902728 -0.13357806 0.14609788 0.08736328 -0.03094592 -0.15204783 -0.110671364 0.103853084 -0.17226332 0.056490984 -0.006368963 -0.16270322 -0.14901969 -0.0885868 0.10321861 -0.1517977 -0.08028079 0.14641798 -0.102734946 0.14616835 0.11688662 0.07440377 -0.03307125 -0.0761725 -0.106774226 -0.096068814 0.16513734 0.10783794 -0.09262184 0.09690996 0.03665031 0.10749863 0.08247313 -0.1671602 -0.09057155 0.10176779 -0.09213492 -0.15128748 0.08824799 0.09799887 0.03583998 -0.038811516 -0.084300965 -0.11430051 -0.13942066 -0.033152565 -0.16388276 0.09677183 0.04139319 -0.018411472 -0.13516474 -0.082631856 -0.012168531 0.08768104 0.060495894 -0.17174624 -0.048432723 -0.10008366
p696 -0.101679124 0.10142217 0.09732509 0.14114664 -0.105413295 0.121103495 0.039726846 -0.14037529 0.1447588 0.10445556 -0.03694531 -0.11648808 -0.13866585 0.11274112 -0.13651052 0.08054876 -0.04348013 -0.14159375 -0.1625067 -0.09876939 0.15523914 -0.11385595 -0.124603555 0.16554937 -0.1793265 0.14054789 0.12563872 0.057327945 -0.06103736 -0.07116346 -0.14082253 -0.13593337 0.14615421 0.13912195 -0.12576056 0.11844649 0.045820218 0.11750051 0.13281909 -0.17751703 -0.07961504 0.08838278 -0.09258306 -0.11210488 0.119929954 0.12516284 0.06849969 -0.111865126 -0.055878557 -0.12676685 -0.12273237 -0.07153714 -0.08900767 0.10327381 0.05311335 -0.00075547694 -0.14989235 -0.14200428 -0.03810538 0.042235166 0.12417752 -0.098153524 -0.08786598 -0.10753126
p786 -0.10226004 0.08399839 0.12392097 0.14225508 -0.10609244 0.14694478 0.09113178 -0.0997546 0.11419386 0.068206176 -0.060795553 -0.13027811 -0.15965208 0.10190184 -0.081051916 0.030798314 -0.02462496 -0.11468961 -0.13686779 -0.1311071 0.12375433 -0.09400697 -0.13839838 0.17875664 -0.14363031 0.15796621 0.1354681 0.099683456 -0.04377092 -0.040611796 -0.10980915 -0.0852874 0.13081057 0.114778884 -0.14552473 0.107821964 0.05736827 0.16721275 0.08175446 -0.15409282 -0.09677692 0.077233344 -0.11063052 -0.09850427 0.07334772 0.12148856 0.09304825 -0.12355992 -0.08167014 -0.11185974 -0.12368042 -0.10065461 -0.10729785 0.094528474 0.03374017 -0.0039755404 -0.1514305 -0.115701295 -0.039501227 0.082049176 0.08042404 -0.14823961 -0.06151795 -0.047982283
p455 -0.20988974 0.19706759 0.23706266 -0.12016727 -0.2746125 0.0392057 0.031932574 0.12314494 -0.06557977 0.19777907 0.1316941 0.110461935 -0.30309933 0.22745048 -0.22273031 0.29062375 -0.20173728 -0.2001544 -0.24335052 0.083316565 0.23384984 0.157086 -0.29620728 -0.17292385 -0.082965426 0.13349958 0.31354755 -0.23874065 -0.2813412 -0.29007336 -0.33361888 -0.29991472 -0.03764211 0.093253285 -0.28958738 0.3154206 -0.06971891 0.121636495 0.23984358 0.18493862 0.03994527 -0.07733158 -0.1876675 0.075331375 0.28310084 0.066991016 -0.07373841 -0.10002779 -0.061392866 -0.015755724 -0.29354325 0.076196745 -0.061594058 0.014444754 0.07980839 -0.17502502 0.04757865 0.06479688 -0.26405194 0.24317113 0.31624743 0.09933459 0.10576479 0.10437346
p323 0.5435932 -0.291475 0.24893036 -0.123502985 0.11631264 -0.38682434 -0.5864397 0.35124776 0.47906852 0.19651109 -0.037378926 -0.3838787 -0.004281395 -0.10151423 0.046452958 0.4072338 0.30406553 -0.73815286 -0.6285011 0.32649288 -0.079913266 -0.260392 0.17447323 0.09414456 -0.32496032 -0.6495516 0.0066068135 -0.24059454 -0.023726657 -0.84107655 -0.8112234 -0.755924 -0.13286246 -0.30893868 0.47077703 0.49335608 0.39244068 -0.13689518 -0.06223657 0.27332643 -0.7768218 0.63346803 0.27827168 -0.7253364 0.4246096 -0.5760981 0.4900614 0.16290958 -0.33466637 -0.55626684 0.24891421 -0.8431087 0.33977106 0.10471996 -1.0711514 -0.28880957 0.33915877 -0.10520287 -0.19786698 -0.3478766 0.20207547 -0.036342673 0.1933575 -0.79998165
p513 0.4026597 0.22741958 0.5372124 -0.14735447 -0.57461584 -0.09636075 0.3102116 0.24565715 0.5213671 -0.46905795 0.1958807 0.377382 0.3842638 0.3642632 0.39510867 0.42071885 -0.45798668 -0.03482599 0.39868128 -0.43105605 -0.4988691 0.1513984 -0.5857818 0.04163803 -0.1111132 0.5350487 -0.5030111 0.7436865 -0.5045382 -0.47415835 0.048661422 -0.48378527 -0.40704274 -0.15774779 -0.0058418177 0.67104447 0.556847 0.6480625 -0.48852137 -0.48510844 -0.13740058 0.54905075 0.35401663 -0.2543435 0.111841634 0.05899001 0.5747144 -0.33008578 -0.5042432 -0.42817798 0.10790978 -0.68271166 -0.26666778 -0.061355736 -0.12404097 0.3398157 0.22058716 0.45110142 0.101137064 0.77076113 -0.10631638 0.47587228 -0.2946764 0.37239587
p440 0.029180923 -0.14048247 0.32319564 -0.33097357 -0.13565195 0.16430104 0.15056495 0.1438633 0.87780565 -0.0068137962 0.25916702 0.40168533 -0.5383796 -0.29990992 0.58298886 0.4210649 -0.5177482 0.22013408 0.4311776 0.3045443 -0.51100475 0.33018783 -0.46837232 0.40378 0.26481715 0.44058257 -0.50562954 0.8744319 -0.7149432 -0.28990686 -0.009717045 -0.68690693 -0.47012204 -0.31617334 -0.029147636 0.46847856 -0.046002243 0.2099677 -0.15670656 -0.41234004 0.06990527 0.54623085 0.27699777 -0.36651772 0.2343956 -0.20101611 0.8333029 0.27352422 -0.43816307 -0.23806909 0.37518665 -1.0054892 0.24245276 -0.38021797 -0.10744048 -0.5420056 0.052853417 0.24621004 -0.4110325 0.38460106 -0.38524073 -0.1613976 -0.77150124 -0.47393155
p184 0.27085042 -0.10534597 0.26758003 -0.2710469 0.070533104 -0.08498664 -0.1683113 0.26453927 -0.69328934 0.6751606 -0.7067124 -0.62904793 0.1767794 0.27614242 -0.6542212 0.042525716 -0.60221153 -0.93906516 -0.44555938 0.6635744 -0.06453582 -0.8448202 0.08372423 -0.2289248 -0.3456327 -0.9640922 -0.067776 -0.13894464 0.4754871 -0.015699774 -0.65783006 0.33510628 0.5805237 -0.47106063 0.62735766 0.41771203 0.22513148 0.508073 -0.03363759 -0.026115678 -0.21717423 0.50536895 -0.3228967 -0.78548414 0.3625672 -0.050284777 -0.46856838 -0.8546797 -0.31976208 -0.6277157 -0.2650313 0.45166156 0.2643045 -0.7022871 -1.48102 -0.0714283 0.48975828 0.66029483 0.43345064 0.39899436 0.6391767 -0.22779103 -0.73720187 -0.75664693
