3389	64
p792 -0.0028783022 0.054949038 0.15748502 0.054804526 0.16293037 0.12118236 -0.30162543 -0.016868202 0.16861472 -0.2010913 -0.19789295 -0.369721 0.2757002 0.038653586 0.17170449 -0.37283447 -0.16948013 -0.26800916 -0.17361696 -0.38527295 0.43937156 0.3689875 -0.28026286 0.31437674 -0.18715131 0.019436887 0.28281397 0.44478077 -0.400493 -0.025409997 -0.16988464 -0.11738056 0.2817986 0.29726842 -0.08294914 -0.022672482 0.29621917 0.09348911 -0.20221448 -0.34138906 -0.12569493 0.24731831 0.16228968 -0.14406937 0.13105683 -0.08938453 -0.3413932 -0.28205284 0.017916322 -0.077833414 -0.43483925 0.1393775 0.1436717 -0.0016998413 -0.28197038 0.21390052 0.12321765 -0.21131477 0.12117797 -0.27888867 0.31452316 0.12517379 0.1438777 -0.24038586
p123 -0.6257759 0.42775548 0.11916903 0.17560785 0.24553472 -0.021849822 -0.014389622 -0.37640938 1.1786652 0.4735484 -0.042839468 -0.22190736 -0.05529023 0.09848294 -0.33288452 0.49898088 -0.3262646 -0.44323403 -0.044922378 0.6178408 0.22203772 -0.63922036 -0.18355018 0.45007688 0.14589638 0.17950116 0.5325267 0.17581874 -0.45135042 -1.3237311 0.7391202 -0.07906528 0.44443625 -0.059476495 -0.1847405 0.7244419 -0.2506619 -0.18582319 0.09961548 0.18019783 0.49373782 -0.66558206 0.47805253 -0.037101943 -0.44247907 0.121494435 1.0082629 0.14313945 0.55911744 0.8024535 -0.08874961 1.1875323 0.55771965 -0.10901631 0.7108528 0.543251 0.36817873 -0.51044935 -0.59617424 0.91842496 -0.3932389 0.06256548 -0.4434762 0.54464483
p1017 -0.477182 0.4283422 0.2782847 0.43742064 -0.16017549 0.12565789 0.16655484 -0.03798251 0.09344511 0.057889216 -0.5088309 -0.43394983 0.1851417 -0.03424305 0.30590385 -0.26986948 -0.22727934 -0.39380696 -0.5708928 0.008406857 0.42454842 0.25686902 0.05697235 -0.017676944 -0.101295166 -0.08587789 0.5535571 0.30679896 -0.17792821 -0.34117302 0.35215253 -0.43373576 0.33792013 0.48246378 -0.31220618 0.2637647 0.26070702 0.47560695 -0.3677073 -0.097819366 -0.23627007 0.3675994 0.2036278 -0.43439132 -0.109810375 0.19881293 -0.04558517 -0.22815843 -0.3832784 -0.34792945 -0.5897056 -0.46830046 -0.25837782 -0.23447008 -0.5854534 0.020544026 0.24883415 0.06815639 -0.0072331354 0.060665235 0.46737492 0.021171173 0.0784792 -0.5797739
p327 0.2978311 0.6780988 -0.28540912 0.46413568 0.1756137 0.023935819 0.18408571 -0.49789187 0.88619447 -0.16177805 0.12678823 0.19216013 -0.063889 -0.6439713 0.67422724 0.8557035 0.4319985 -0.40336955 -0.96424025 -0.16474332 0.6383854 0.47627372 0.6169391 0.70539564 0.4904723 0.31715235 -0.07218361 -0.6628393 -0.74420816 -0.8191555 -0.46156505 0.3854786 -0.3635928 0.7939666 -0.7660631 0.09786111 -0.38028473 -0.22086796 0.14026421 0.3489449 -0.545693 -0.010027835 0.6051951 -0.67832 -0.007519942 -0.50174403 0.6799294 -0.20065135 0.08827478 -0.6762867 -1.0253047 -0.67755854 0.14089128 -0.066772394 0.10464141 -0.22281344 -0.0605651 -0.08469734 0.21230695 0.47846863 -0.09977799 -0.17649382 -0.11836199 0.22467105
p702 -0.23825659 0.13616042 0.47759163 0.2736507 0.20484596 0.39020196 -0.34886628 -0.039319932 0.01947857 -0.058556903 -0.53105253 -0.37954992 -0.073144354 0.17929436 0.26832077 -0.41760013 -0.021993179 -0.3756298 -0.40200025 -0.59575576 0.68201166 0.21096772 -0.17933242 0.3904603 -0.36559492 0.012904464 0.28021142 0.46860895 -0.44477314 -0.011090215 0.06957152 0.10350751 0.31490198 0.56986296 -0.27041918 -0.23451525 0.120220914 0.16620767 -0.19235285 -0.07108876 0.20284182 -0.0073984377 -0.055893715 -0.19546719 -0.1731607 0.022616023 -0.36752352 -0.43270084 0.44168168 0.082252875 -0.3885049 -0.1541188 -0.13876092 0.062381882 -0.2110076 0.20890948 0.086906284 -0.5223958 0.40704477 -0.071539074 0.034864243 0.11216127 0.37785023 -0.06331901
p943 -0.46013287 0.37600464 0.22801645 0.38616017 -0.41818827 0.21974906 0.31152675 -0.22002856 0.17593476 -0.19722739 -0.44513586 -0.33297646 0.11893833 0.094090864 0.20149653 -0.095568724 0.062663205 -0.02450722 -0.3255415 -0.17676854 0.104025885 -0.0517761 -0.1950891 0.066504344 -0.47054332 0.21327762 0.18064457 0.39165372 -0.16199233 -0.43965918 0.11008829 -0.5693656 0.09641527 0.13500488 -0.02795782 0.033389043 0.030348606 0.47414565 -0.11776727 -0.20222953 -0.49289387 0.26105013 -0.044357795 -0.4303974 0.22227313 0.12684712 -0.1862153 -0.32470402 -0.45223674 -0.45895883 -0.17592 -0.43664563 -0.17174937 0.04508275 -0.37441906 0.17097369 0.30564657 0.06827659 -0.058893915 0.02943458 0.11542326 -0.29461896 -0.19498757 -0.32840952
p506 -0.392651 0.2118222 0.3324454 0.30270517 -0.39219207 -0.18994427 0.30964315 -0.265299 0.36526 0.115345985 -0.21854073 -0.2542791 0.37165722 0.057618275 0.08522079 -0.076454535 0.26680258 -0.08718487 -0.055715267 -0.44688934 0.21446353 -0.25416708 -0.20276812 0.38794267 -0.019364048 0.28516394 0.055135623 0.44598588 -0.22990407 -0.326184 -0.20222999 -0.19275193 0.47268838 0.41114396 -0.2860243 0.17406438 -0.06682205 0.014532296 0.083048746 -0.2656016 -0.28000206 -0.40950218 -0.17628412 -0.38290083 0.0008076559 0.20052685 -0.38390774 -0.33906087 0.16233869 -0.22975616 -0.14512846 -0.37401038 -0.09194217 0.11048752 0.3016 0.101834014 0.13296857 -0.06934202 -0.12571436 0.14911416 0.19856194 0.2373156 0.023118673 -0.3967907
p648 -0.4230177 0.23523189 0.3979076 0.27972814 -0.106129274 0.4001702 -0.05874272 -0.011195591 -0.06332223 -0.013266228 -0.58816713 -0.43523225 0.06881213 0.11742109 0.3229249 -0.25530392 -0.037914123 -0.20420602 -0.37241024 -0.4596484 0.5799038 0.08062177 0.052123595 0.31011334 -0.25141975 0.080021754 0.2906631 0.31838137 -0.22160125 -0.27892426 0.31010953 -0.13586038 0.17326723 0.45179367 -0.27220494 0.012689102 0.11839681 0.2595413 -0.23555599 -0.032232534 0.048824057 -0.061566405 0.14266267 -0.07977286 -0.023680938 0.13358882 -0.2463937 -0.246764 0.12875147 0.1105185 -0.3509373 -0.012883284 -0.2081472 -0.052831974 -0.33921954 0.0522531 0.19456582 -0.4261076 0.26529852 -0.083410546 0.06941132 0.031505547 0.12315699 -0.24623607
p202 -0.22824128 0.748324 0.92447215 0.304541 -0.44683966 -0.2864608 -0.29296285 -0.35895166 -0.86423427 -0.23208907 -0.3122938 -0.6684977 -0.116329856 -0.1014891 -0.18798071 0.1407615 -0.21027032 -0.12163012 -0.13007464 -0.19224349 0.1890826 -0.24510051 -0.4539391 -0.52474797 0.15839864 -0.21653283 0.4834538 0.3539443 -0.6919072 0.67515343 0.7526562 -0.10410173 0.6625978 0.057469547 0.121282496 0.8807749 -0.24211764 0.57787156 0.68776184 -0.16258952 -0.50855243 -0.32448313 0.06656113 -1.087379 -0.5342547 0.73885506 -0.714713 0.8568587 -0.59965634 0.88710684 -0.46346605 0.3997452 -0.49321467 0.47696602 0.5555806 0.6224255 -0.18527906 -0.6546564 -1.1324941 0.2941692 -0.26349145 0.475427 0.472841 -0.5239375
p678 -0.088698715 0.10505445 0.16592754 0.059847426 0.16366853 0.11196997 -0.28111118 -0.018968554 0.089990914 -0.2718179 -0.24963117 -0.348179 0.2233192 -0.009914612 0.16691731 -0.43455255 -0.17802212 -0.24936658 -0.12604383 -0.33819494 0.4746131 0.3653589 -0.29930487 0.28744414 -0.26317245 0.079973325 0.26120728 0.46110913 -0.47248358 -0.015708478 -0.12343213 -0.1238481 0.30077383 0.32636172 -0.03597708 0.012939265 0.22769487 0.097174264 -0.19149926 -0.2824373 -0.10210201 0.25877658 0.14370747 -0.20624769 0.044108577 -0.0676191 -0.3510959 -0.3170101 0.008757018 -0.0069436724 -0.37849715 0.07756274 0.07595875 0.015871352 -0.24768929 0.17785752 0.12379008 -0.21476978 0.14043635 -0.2793527 0.19042243 0.15195079 0.22287694 -0.24250837
p41 0.4022612 -0.27091694 0.6768479 -0.17851304 0.033170234 -0.40236428 0.7089108 0.7242185 0.99811023 -0.33955866 0.16033036 0.4917763 -0.51652807 0.52500373 -0.25366503 0.46388742 -0.26515839 0.0078572305 -0.33656478 -0.2981066 0.43964356 0.13904868 0.3954983 0.23203032 0.12646621 -0.83732057 0.05940083 -0.38720024 -0.09300818 -0.0020252028 -0.58642536 -0.6396742 -0.37007272 -0.40272805 -0.05315344 0.17313613 0.18853477 0.09308581 -0.4838471 -0.5623897 -0.41230512 -0.1423023 0.51019865 -0.97668916 -0.42632818 0.20619035 0.041234486 -0.5593337 -0.3349467 -0.019514589 -0.95230925 -0.7787815 -0.19649357 -0.40444535 -0.6501427 0.5469267 0.29292172 0.37545058 -0.18290007 -0.24863875 -0.18424861 -0.20587327 -0.34191552 0.6220977
p360 -0.12043779 -0.31531122 0.78501105 -0.33657512 -0.24686897 -0.113391764 0.34939733 0.41607928 1.0694807 0.41068783 0.20755196 0.74493635 -0.53972685 0.23486686 0.34334755 0.42128855 -0.4108551 0.06189716 0.4205737 0.3406055 -0.31903392 0.5973173 -0.7572826 0.5084309 0.6218087 0.3846552 -0.32142997 0.73856544 -0.5851943 -0.41948453 -0.15842669 -0.62072414 -0.47170627 -0.18520674 -0.6455972 0.6422867 0.48257053 0.17868862 0.03947885 -0.29771376 0.6693573 0.41030014 0.03934903 -0.31942412 -0.13762094 -0.37976685 0.59559363 0.65925586 0.021247422 -0.16571894 -0.20477459 -0.6653656 -0.18876134 -0.31642044 -0.40676808 -0.4142596 0.078688495 0.0070079975 -0.49695387 0.38399693 -0.6977721 -0.17945696 0.05182623 -0.030757617
p626 0.49579492 0.026814878 0.72376543 -0.54141194 -0.25285754 -0.49942362 -0.2105962 0.46544054 0.88319075 -0.32712203 0.522229 0.7736383 0.4620332 0.013091893 0.5685202 0.43421665 -0.47816858 0.25894645 0.4185709 0.23634884 -0.40099645 -0.25717196 -0.6799227 0.63101095 0.6816223 0.6111311 -0.40942332 0.31514496 -0.77990764 -0.628251 -0.28007212 -0.88139933 0.26523018 -0.35821304 -0.4790958 0.48143443 0.70318776 0.3685659 -0.30783 -0.22300196 -0.099539906 0.23839779 -0.195446 -0.19316311 -0.59891665 0.18170193 0.87740844 -0.18676381 -0.41411868 -0.74895424 0.28367823 -1.199497 -0.36005074 0.1109266 -0.37979347 -0.36619025 0.33740553 0.47943705 0.46257192 0.14752324 0.31882676 0.5070648 -0.70225316 -0.37229592
p333 -0.6439248 0.34696078 -0.11969721 -0.15521193 -0.010419107 -0.23034732 0.64944756 0.5047519 0.9310007 0.25324553 0.334285 0.16314843 0.5743684 -0.53199697 0.2985956 1.037441 -0.053367846 0.25494778 0.5609111 -0.13612331 -0.14044951 0.5575106 -0.1949699 0.28397274 -0.27572227 0.6803414 -0.4896339 -0.28455102 -1.3002144 0.03700279 -0.9494826 -0.68995094 -0.16068965 -0.17898485 -0.6792306 -0.49016488 0.6604123 0.706996 -0.14455037 0.9390899 -0.94032955 0.13282555 -0.19543226 -0.9691572 -0.2317505 0.120669186 0.38931552 0.26097938 -0.73015684 0.7217476 -0.056856647 0.8261755 -0.5647187 -0.67995846 -0.7769605 -0.5006709 -0.10964159 -0.3208994 -0.014447548 -0.6427208 -0.24194722 0.23289555 -0.5535555 -0.97369564
p1007 -0.39783284 0.35798144 0.33295915 0.40941077 -0.26973054 -0.053164743 0.24938497 -0.02213947 -0.11100975 0.057931527 -0.57070094 -0.5201123 0.24624018 0.00020524483 0.26508173 -0.2777991 -0.40829244 -0.33327058 -0.49915808 -0.36662742 0.50066376 0.12829302 0.06798309 0.028790262 0.022197075 -0.027664585 0.56058216 0.21194963 -0.2125138 -0.1777817 0.27362764 -0.45444372 0.35451886 0.39674678 -0.40293792 0.36014768 0.33932507 0.45415226 -0.25848436 0.074314974 -0.3574414 0.22149508 0.21494621 -0.29458842 0.07798045 0.25875196 -0.19937797 -0.2567227 -0.2442332 -0.37250316 -0.59497035 -0.46372768 -0.26995075 -0.20461363 -0.56119376 0.049430184 0.29843906 0.08936758 0.045797657 0.07361629 0.39401892 0.010862556 -0.027018456 -0.50587124
p481 0.6559754 0.12209617 0.63111234 -0.7248391 -0.37173003 -0.35835773 0.022465765 0.42522213 0.8236836 -0.03401517 0.48891917 0.85830814 0.26521358 -0.16370645 0.5329552 0.56113565 -0.8059671 -0.07672195 0.54701906 0.17734164 -0.2899711 -0.3413851 -0.6836281 0.6732497 0.722135 0.48228258 -0.45916212 0.07072616 -0.7848152 -0.5351536 -0.17888214 -0.6014684 0.35189453 -0.33932582 -0.48401892 0.45167467 0.5770346 0.31974548 -0.43917948 -0.32231626 0.059854545 0.38381696 -0.25290337 -0.17715518 -0.6005715 0.057968263 0.82383037 -0.2369171 -0.47210246 -0.4489348 0.30451867 -1.180518 -0.30257258 0.026146205 -0.3864017 -0.32966828 0.2788079 0.49718863 0.3274042 0.09225991 0.33432743 0.4369292 -0.74050915 -0.4139211
p568 -0.25664186 0.16672163 0.40606576 0.27826104 0.09784211 0.41631153 -0.21686415 -0.023710523 -0.103929155 0.015891604 -0.4764917 -0.44214797 0.0008246339 0.07315364 0.21211703 -0.19548494 -0.2184477 -0.3433636 -0.2626054 -0.43967175 0.5822842 -0.10632432 -0.046146166 0.2503725 -0.2737607 -0.047112923 0.19894779 0.3273893 -0.29605192 -0.2504186 0.18189776 0.067030415 0.33205938 0.407408 -0.22555631 -0.086927205 0.04063614 0.2004221 -0.14439106 -0.0012548696 0.0051156 0.15590478 0.10137618 -0.057178665 0.012792734 0.17061257 -0.22626676 -0.23116642 0.19778065 0.1695721 -0.23816356 -0.04135068 -0.21410996 -0.14681026 -0.20086733 0.14552137 0.14755498 -0.40323412 0.2953525 -0.117691495 0.025269011 0.046910446 0.12749542 0.08399382
p826 -0.26612464 0.21925478 0.307156 0.31835473 -0.046450466 0.3636764 -0.06979569 0.05502871 0.025991654 -0.21047911 -0.58691716 -0.4961877 0.22745462 -0.016428139 0.3762971 -0.37559977 -0.04692872 -0.12904793 -0.31503803 -0.33217928 0.4899729 0.16959962 -0.07195819 0.32389686 -0.325741 0.15280862 0.32693985 0.29772016 -0.16062057 -0.15741616 0.2262193 -0.23360205 0.0899024 0.33135337 -0.12410046 -0.123686515 0.14786398 0.29360378 -0.3079377 -0.16341403 -0.13272588 0.09130575 0.10393103 -0.16892855 -0.033742495 0.20981245 -0.2958558 -0.26526898 -0.0024697047 0.070396885 -0.3296317 -0.06586821 -0.10544713 -0.04853667 -0.42124906 0.13276051 0.25844043 -0.28207582 0.22493832 -0.12688772 0.108631 -0.011727381 0.08585734 -0.20550625
p978 -0.019866822 0.25411922 0.04565945 0.06569319 0.26345938 -0.07903142 -0.16261159 -0.09582519 0.31921363 -0.4098307 -0.13923582 -0.28857094 0.43681958 -0.018911118 0.22198373 -0.5786441 -0.14581276 -0.34651014 -0.018770805 -0.15029997 0.13052477 0.522508 -0.552555 0.4555826 -0.17580183 0.13192181 0.44453934 0.74591076 -0.5203953 -0.31524894 -0.23554175 -0.22609141 0.31892768 0.24358402 0.22116031 0.051654868 0.51005125 0.14355168 -0.091290265 -0.46344817 -0.55895615 0.65067965 0.10310674 -0.44044834 0.32081842 -0.06427833 -0.47809383 -0.58619416 -0.51522315 -0.6079022 -0.62070173 0.047667053 -0.036053494 -0.00844583 -0.48457938 0.30359378 0.24382621 0.08208764 -0.14670855 -0.4002722 0.23262495 0.011803448 0.03238762 -0.6816151
p163 -0.99503106 0.2755296 -0.14452286 0.5386442 0.5912779 -0.18784496 0.21273233 0.003886017 -0.20938456 -0.87689936 -0.64378184 0.25547576 0.29434702 -0.5889702 -0.303336 0.53952193 -0.71446484 0.36358467 -0.45852894 -0.21466286 1.1207981 0.5655784 0.27464932 -0.27085197 -0.18412106 0.4361282 0.6456327 0.6450179 0.03878777 0.011198402 -0.7407461 -0.59266645 0.008295087 0.31843403 -0.5241861 -0.49686757 -0.1625682 0.26731944 0.5923982 0.2461542 -0.19421454 0.5729576 0.032908484 -0.04269751 0.21939448 0.7700958 0.2933287 0.4776213 -0.39128932 0.29132494 -0.22001688 1.1315776 -0.12869273 0.343263 0.25872755 -0.8432959 0.25660044 -0.99483967 -0.06684979 0.44207525 0.26760048 0.038235 -0.18029594 0.12464568
p536 -0.5653909 0.3945871 0.3503208 0.38353017 -0.10399525 0.5559811 -0.12857954 -0.13341896 0.06525402 -0.01025016 -0.42739418 -0.5395471 -0.15249455 0.12663649 0.39016786 -0.29480526 0.3173378 0.02613254 -0.5935754 -0.19565696 0.518785 -0.06879516 -0.053042985 0.06427266 -0.41226688 0.14049114 0.35681468 0.4003869 -0.10023852 -0.5363413 0.48153526 -0.39871597 0.028823748 0.42925367 -0.18931015 -0.19299434 -0.0620698 0.38788068 -0.27719426 -0.061558407 0.05370096 0.008470627 0.21627949 -0.29817602 -0.23387901 0.12358292 0.008114 -0.21647188 -0.20963454 -0.14872484 -0.049370322 -0.49635866 -0.07947589 0.047500018 -0.1713807 -0.10433482 0.42186865 -0.5932307 0.23975931 0.22127123 0.109628946 -0.16151728 0.032537885 -0.20839736
p448 -0.4438993 0.19715086 0.26592 0.3308424 -0.05195369 0.35770035 0.010920083 0.091096595 0.27745116 -0.41601428 -0.6381703 -0.64355016 0.37594867 -0.14687921 0.4045055 -0.36203745 -0.13801503 0.07988449 -0.30380747 -0.1985508 0.4959091 0.37331125 -0.29794306 0.18829112 -0.43422356 0.31045994 0.39007872 0.44735664 -0.39938477 -0.07232713 0.13299099 -0.2632478 0.26691955 0.40211627 -0.10985269 -0.029926434 0.29134265 0.32090986 -0.37510383 -0.30234835 -0.361994 0.28571507 0.10579807 -0.37861836 -0.10377928 0.1562221 -0.44427645 -0.2730076 -0.19780456 -0.13490064 -0.4778781 -0.29907444 -0.056383543 -0.066934854 -0.57858676 0.14780328 0.31577596 -0.13324998 0.051241174 -0.167967 0.37135905 -0.042223305 -0.01445567 -0.30711251
p205 -0.08690472 0.31348136 0.49739823 0.66886675 -0.2388661 0.14478047 -0.30585667 0.452281 0.9809776 0.2643466 -0.39379084 -0.030631855 -0.07173629 0.5509579 0.39970317 0.18200578 -0.3923427 -0.65400785 -0.60216904 0.15916318 0.17149638 0.4928447 -0.11828655 0.4000787 0.5649203 0.070104115 -0.19436505 0.29416987 -0.13495389 0.38188854 -0.26581618 -0.5676307 0.15458225 0.08542034 0.004765473 0.41422284 -0.2049733 0.43852764 -0.17494784 -0.43566495 -0.38255224 -0.57975817 -0.5784449 -0.26806957 -0.4085371 -0.048283868 -0.007489629 0.23824772 0.75731075 0.75931007 0.12592107 -0.25809237 0.4726034 -0.064527586 0.44207048 0.07609619 -0.09828596 -0.4232742 -0.6825133 0.15172659 0.27996406 -0.043217693 0.1849648 -0.4836349
p303 -0.19263418 -0.48935315 -0.30182773 -0.1317336 -0.61977106 -0.28642356 -0.3036445 0.4034135 0.49687132 0.4012949 -0.087763496 -1.0343705 0.10381644 0.2415995 -0.15461203 0.7643414 0.43298307 0.05638643 0.5080493 -0.6168803 0.21491934 0.55085075 -0.37656787 0.7085306 0.48928076 -1.079945 0.5246862 0.33091456 -0.047287904 -0.9964228 -0.772135 -0.23145491 0.8063577 -0.12609865 0.3934737 0.41422647 0.25674006 0.5111258 -0.466632 -0.14995696 0.33080587 0.5327246 0.46439704 -0.14668085 0.48175934 -0.64644814 0.53091896 0.58389175 -0.64875674 -1.0286224 0.36595213 -0.4652738 -0.34232152 0.53818125 -0.66569746 -0.5908239 0.15926638 -0.18523045 0.28479296 -0.057391543 0.17841612 0.35297433 0.41195506 0.5956317
p420 0.35924494 0.5495267 -0.3618223 -0.7736574 -0.05375401 0.29423597 0.072225116 0.5337753 0.557526 -0.608969 -0.6364716 0.14070772 -0.01394933 -0.25611454 -1.142028 0.628878 -0.068301655 0.19225833 0.227096 -0.27167135 0.006095196 -0.11849194 -0.39969593 0.70545113 0.7475782 -0.8547453 -0.29290542 -0.36082655 0.18077861 -0.21499339 -0.20551778 -1.2472248 0.31054503 0.84864753 -0.9524998 -0.54985243 0.47856462 -0.23858115 0.2696197 -0.3534287 -0.9463676 -0.1764816 -0.38177142 0.36829126 0.05946434 0.5668875 0.8494478 0.30306953 -0.8898112 -0.76840204 0.17734812 0.33282572 0.18986277 -0.5313304 -1.0295345 0.09567334 0.41818935 0.23861967 -0.38517475 -0.68329483 0.35281092 -0.092419185 -0.5507888 -0.7948257
p817 -0.19601317 0.24386758 0.15462036 0.21820875 -0.054165844 0.020393291 0.092013076 -0.035932392 0.26221392 -0.3672582 -0.3289652 -0.3831701 0.3860415 -0.025357971 0.30367154 -0.37714955 0.0771722 -0.05953466 -0.09590075 -0.12113508 0.13568959 0.24912901 -0.25381902 0.34991676 -0.18164134 0.21761814 0.40794063 0.48029894 -0.25343361 -0.34929588 0.027818987 -0.36193544 0.0894395 0.12107185 0.0617518 0.06475934 0.33120498 0.21789375 -0.2378061 -0.2704521 -0.4175148 0.36933237 0.13229021 -0.35115936 0.14822829 0.11698256 -0.35702214 -0.37448278 -0.35366267 -0.38407886 -0.39144146 -0.09345844 0.027603578 -0.039350703 -0.45119932 0.14844982 0.34035385 0.022025414 -0.032026246 -0.23240924 0.17484987 -0.06987111 0.0016917216 -0.47652864
p75 -0.44725746 0.37461114 0.26888114 0.41008896 -0.46534237 0.18344535 0.30323544 -0.21786724 0.21265684 -0.19208036 -0.3758507 -0.3664309 0.18812706 0.15054382 0.22138542 -0.042163365 0.07892334 -0.047594134 -0.36573562 -0.08194092 0.090287216 -0.065719076 -0.13022885 0.07469406 -0.44496992 0.18653475 0.15837844 0.35430673 -0.12894846 -0.43719506 0.13165398 -0.5512468 0.14664473 0.12920612 -0.053809874 0.10389409 0.07351555 0.45320562 -0.12728651 -0.22856236 -0.4550114 0.3058508 -0.01707645 -0.38302115 0.25128806 0.2153418 -0.11903112 -0.31967863 -0.40413365 -0.50380826 -0.20868672 -0.45538858 -0.13355334 -0.04859094 -0.365092 0.20003812 0.29689294 0.058991246 -0.115965575 0.021914257 0.18304457 -0.29050097 -0.1820191 -0.38458785
p42 -0.6358588 0.4090097 0.35960123 0.030868111 -0.10071774 0.09391272 -0.33223033 0.48993865 0.79644626 0.1473163 -0.16043834 -0.28639343 0.4923834 0.105129704 -0.060298957 -0.23689122 0.30967543 -0.26202056 -0.38578686 0.18113826 0.4139706 -0.15809831 -0.2265716 0.1035731 -0.12014518 -0.024547307 0.32035515 0.37063238 0.4659724 -0.36153024 -0.4329141 -0.84356225 -0.14912765 0.014116814 -0.5823224 0.49991307 -0.21571432 -0.3911118 0.07174561 0.15428407 0.21078983 -0.5942573 -0.3992028 0.15282714 0.07287783 -0.07019121 0.38715848 -0.17863332 -0.51609665 -0.01580534 0.4622334 -0.6465934 -0.09096944 0.39622632 0.3760454 -0.1002273 0.20082738 -0.4706368 0.39247763 0.30650362 0.415617 0.40033585 0.3485271 0.1660659
p695 -0.39227337 0.35767528 0.31465605 0.36520115 -0.057212666 0.4551586 0.057807595 0.1692744 0.036476523 -0.31559253 -0.5898727 -0.4353665 0.22147432 -0.01722776 0.33965933 -0.40554404 0.027005646 -0.18558325 -0.32639414 -0.39692727 0.48462647 0.12228845 -0.16504493 0.29014125 -0.35103765 0.047497872 0.3408932 0.36588946 -0.24082625 -0.21632515 0.17512117 -0.27849546 -0.13815616 0.41597956 -0.1453337 -0.031956248 0.24796727 0.29991543 -0.34903774 -0.05878125 -0.18896116 0.000261161 0.23918451 -0.31739134 0.022793885 0.2853832 -0.27463388 -0.3870288 -0.1528778 -0.18177302 -0.2721933 -0.24504119 -0.32537693 0.007022724 -0.5145324 0.054844454 0.34691897 -0.15818933 0.2756363 -0.22235529 0.17053823 0.017243272 0.15407437 -0.3400371
p793 0.0037082888 0.01612177 0.014538949 0.114918076 0.22548881 -0.03503207 -0.2613565 -0.050623666 0.24773765 -0.22827694 -0.013937591 -0.30957344 0.36064214 0.07868033 0.13666885 -0.35761887 -0.22201051 -0.23718704 -0.031486377 -0.18886733 0.2259074 0.38553223 -0.39472935 0.34879765 -0.09597503 0.24298906 0.25130075 0.53013605 -0.45559496 -0.29057828 -0.25838423 -0.20684141 0.3515811 0.14910133 0.015179614 -0.046518825 0.27479896 0.12154446 -0.09900613 -0.3689473 -0.3915536 0.4449091 0.18132293 -0.1707767 0.20161547 0.028550243 -0.31100017 -0.3264932 -0.17728649 -0.2017988 -0.41153288 0.17455281 0.11857972 0.05056874 -0.2855041 0.26914892 0.09009231 -0.11583839 0.004599688 -0.32323 0.30114263 0.07349861 0.030315038 -0.48478797
p997 -0.08585953 0.13273376 0.012880452 0.088807486 0.17470884 0.083380036 -0.22091055 0.016135648 0.2873964 -0.33649412 -0.1321689 -0.35391828 0.31892148 0.051883362 0.18594968 -0.41026008 -0.15748104 -0.21304005 -0.13582835 -0.05424819 0.24397281 0.28837633 -0.3915592 0.32957956 -0.22942123 0.2839539 0.28336886 0.49242818 -0.38504058 -0.31617275 -0.19934914 -0.27572528 0.28779733 0.12458022 0.042202182 -0.07753278 0.22308677 0.14013855 -0.18694283 -0.36458775 -0.34822768 0.45172867 0.14398907 -0.27517137 0.21591598 -0.094164506 -0.24955015 -0.322436 -0.32856765 -0.13059948 -0.42686975 0.19815645 0.10399695 0.10917236 -0.33271948 0.26672056 0.1258473 -0.14509685 -0.008030382 -0.3078563 0.22776996 0.00085204164 -0.023416884 -0.38431627
p918 -0.06257621 0.16082174 0.034188922 0.06725078 0.14561108 0.03997942 -0.16664153 -0.0439968 0.25059697 -0.2950428 -0.10995271 -0.31210595 0.30685285 -0.020707846 0.18998331 -0.39996326 -0.069234885 -0.20409487 -0.10956792 -0.172196 0.16898355 0.30685276 -0.36533985 0.29723722 -0.19119522 0.2268049 0.29343906 0.49896517 -0.41274646 -0.22993666 -0.17972784 -0.3228668 0.31981483 0.16815156 -0.0035700547 0.052380003 0.23698784 0.08164026 -0.15972137 -0.36596116 -0.30464104 0.40177852 0.14130512 -0.2789221 0.18625961 -0.061083157 -0.31851947 -0.35792017 -0.31632912 -0.26224995 -0.39928603 0.114410006 0.118474044 0.07829747 -0.29228428 0.2676704 0.18318117 -0.09618123 -0.002329225 -0.30682173 0.26470304 0.053032644 0.024984747 -0.4179349
p274 0.20464212 0.20171832 0.041396745 0.5856554 -0.17473266 -0.02948491 0.6519527 0.73205984 -0.32069412 0.39636734 0.51562315 -0.97500837 0.7224099 -0.77898747 -0.17857035 -0.66500825 -0.81929296 -0.31120113 0.19419658 -0.26385537 -0.18262006 -0.025023544 -0.48366585 -0.008500778 0.5058331 -0.49134505 0.7486207 0.30747765 0.6440504 0.5464773 0.46083698 -0.3250137 -0.10073494 0.16586104 -0.8510721 0.30381763 -0.25648856 -0.73121864 -0.444664 0.58885837 -1.1867013 0.6223032 -0.2078828 -0.0032368153 0.45965776 0.4667546 -0.24398015 -0.57096857 0.6124354 0.8025061 0.18139023 -0.37155122 0.20952255 0.19806534 -0.39656708 0.3102574 -0.2770976 -0.63662124 -0.690561 -0.32205987 0.9328998 0.005084926 -0.10722472 -0.46646345
p155 -0.5629414 -0.20525204 0.65399295 0.28759122 -0.0021189952 -0.46032673 -0.34238517 0.5486512 0.015156215 0.56617415 0.26299495 -0.27096522 -0.8062344 -0.05737816 0.5641692 0.4441407 -0.8033781 -0.43016547 -0.18418701 -0.34799668 -0.0036168667 -0.6765006 0.41365764 0.4942296 0.6973592 -0.22992441 0.7996581 0.011095856 0.5115098 -0.3415258 0.16891669 -0.34936678 0.9302703 0.33106697 -0.64124006 0.8284658 -0.48125395 0.49834856 -0.0024846413 0.048271824 -0.03514851 -0.3908001 -0.4383167 0.4267245 -0.5651889 0.31998014 -0.005811406 -0.12940504 -0.5196223 0.627428 0.099602185 0.42023733 0.55569714 0.025849635 -0.2770678 -0.3063364 -0.5158148 -1.1280947 -0.012313989 0.18871376 0.18275052 -0.10816423 0.35356146 -0.6992041
p497 0.21083875 0.3072127 0.54450816 0.42413387 -0.75239223 -0.09114588 0.19927198 0.092406385 0.5306274 -0.0119535485 -0.4764103 0.030434307 0.4532989 0.047842525 -0.31474492 0.9014914 0.015726693 -0.54878736 0.80921775 -0.7167546 -0.23388077 -0.4784781 -0.2710685 0.46685666 -0.15270777 0.47531557 -0.03077454 -0.3881862 -0.73862684 -0.10337296 0.17338115 0.09582762 0.18458314 0.3515467 -0.6001356 0.7788085 0.20318076 0.19293244 -0.3115546 0.10250254 -0.25514072 0.121091664 0.123705834 -0.27071494 0.51611483 0.82909745 0.5607397 -0.4005948 -0.05897916 -0.5137083 -0.057805292 -0.9794266 -0.4854774 -0.2692494 0.66447604 0.49154434 0.28827423 0.20898102 0.44607064 0.08051382 0.5532323 0.21984679 0.34330854 0.95072067
p968 -0.056934953 0.19395079 0.03019493 0.084668815 0.19798113 -0.030657638 -0.13360177 -0.074638665 0.29806685 -0.33391324 -0.10505812 -0.3022489 0.36326706 -0.019537492 0.20142218 -0.46230745 -0.05730883 -0.2850348 -0.0678544 -0.10229178 0.1552035 0.38600716 -0.45883206 0.39935553 -0.16944097 0.21901733 0.3633474 0.62208444 -0.4715009 -0.34048995 -0.2253675 -0.23606622 0.38306823 0.17935155 0.11318415 0.024717681 0.3241769 0.10887774 -0.124447785 -0.42023322 -0.44606724 0.52144766 0.10985515 -0.3639973 0.26062647 -0.076151915 -0.41177532 -0.46825328 -0.36479577 -0.41100577 -0.4857841 0.07579906 0.04054786 0.037282705 -0.3641296 0.2887038 0.18188162 -0.020598637 -0.04973565 -0.36225778 0.21744803 0.028782059 0.028331632 -0.57739276
p361 -0.71309996 0.102513224 0.26704264 -0.5633053 -0.27448183 -0.36410192 0.56018245 0.6918065 1.0255864 0.21211444 -0.10557497 0.7025795 -0.37430543 0.13973099 0.15124775 0.55761987 0.32081032 -0.3001265 0.2807115 0.23695473 -0.10648211 0.7456237 -0.5769646 0.508806 0.360816 0.3801838 -0.4896258 0.5598796 -0.515779 -0.5169879 -0.3099878 -0.6226937 -0.40951025 -0.0361015 -0.6577548 0.6432744 0.66217357 0.14308012 0.28817278 -0.18365884 0.4790246 0.026636241 -0.20766313 -0.7700793 -0.7677805 -0.13444662 0.42537284 0.6390816 -0.029828768 -0.0623624 -0.4343697 -0.7489584 -0.41752872 -0.17030089 -0.07208897 -0.33879012 0.41512138 -0.33076096 -0.2897728 0.30470064 -0.65647703 -0.27094516 0.122775 -0.40357587
p83 0.040350452 0.06977637 0.27164826 0.09576855 0.28132546 0.2642023 -0.36256555 0.05871412 0.14639336 -0.2085436 -0.42311707 -0.4489627 0.21651728 0.05983 0.2981231 -0.39208946 -0.18129653 -0.1689827 -0.15524781 -0.51289314 0.5398449 0.30600786 -0.2842175 0.35708165 -0.23566987 0.059286896 0.310877 0.49565846 -0.40379632 0.018959306 0.038778514 -0.038657464 0.19029689 0.45769995 -0.12081167 -0.16399726 0.3158732 0.1522541 -0.19822592 -0.30910957 -0.047265515 0.22253674 0.068033 -0.1915227 -0.0983823 0.031837624 -0.34522083 -0.4417022 0.057561297 -0.07010552 -0.36400506 -0.15582551 -0.16937263 0.0029741875 -0.3029982 0.13804118 0.15617548 -0.27021995 0.28865227 -0.23331285 0.24228415 0.13503979 0.28962746 -0.3281569
p677 -0.059301153 0.06159384 0.34804973 0.31876853 0.2529171 0.460263 -0.3279657 -0.08570093 -0.059369005 -0.22743472 -0.54292 -0.4688081 0.2674343 0.03648911 0.30444577 -0.4961467 -0.27187684 -0.375713 -0.26598737 -0.4058857 0.69235754 0.34371194 -0.3701114 0.47602445 -0.3046824 0.14022796 0.32641518 0.5996254 -0.47687948 -0.029754903 -0.005602117 0.082392775 0.25914803 0.58583945 -0.07137097 -0.32462513 0.23753202 0.15154994 -0.29027194 -0.2908613 0.015206623 0.36954555 0.3120275 -0.07887223 0.036877334 0.08990742 -0.4068366 -0.4424779 0.15588935 0.11041404 -0.55130094 0.14902277 -0.16618663 -0.07460912 -0.32565644 0.2308724 0.24509685 -0.30657694 0.22849406 -0.22772492 0.119805224 0.081532516 0.21035458 -0.28603092
p51 -0.22432172 0.33804956 0.19335221 0.2667016 -0.22946763 0.008563096 0.32919484 0.033809092 0.31185806 -0.15917534 -0.32364634 -0.4697521 0.33169824 0.020333065 0.37278184 -0.31129253 -0.042156894 -0.037680116 -0.24038103 -0.16225655 0.15033574 0.19101577 -0.08390196 0.25402474 -0.28511584 0.31117046 0.34182793 0.44283918 -0.1919027 -0.36228362 0.06508333 -0.57596964 0.32807752 0.11405224 0.026126847 0.038979854 0.2693363 0.4195304 -0.31517062 -0.38290745 -0.5735233 0.31988415 0.16809787 -0.53584564 0.15439507 0.16596547 -0.3019483 -0.3272589 -0.42207932 -0.53173596 -0.46875164 -0.52347904 -0.047754005 -0.004171926 -0.588306 0.29920238 0.35257575 0.03329629 -0.112507604 -0.046026383 0.36832663 -0.2297737 -0.15860352 -0.5620809
p714 -0.46121472 0.3925655 0.14603776 0.27125168 -0.2572139 0.12424525 0.24848112 0.026685929 0.29030916 -0.3057525 -0.46828458 -0.47797385 0.4179373 -0.08026501 0.40358713 -0.3278997 -0.021883298 -0.11353623 -0.23874561 -0.13910078 0.169836 0.17999168 -0.2241612 0.28886357 -0.35646343 0.27462807 0.42461336 0.40306437 -0.2457037 -0.32345977 -0.016959142 -0.5149078 0.16229272 0.2010786 -0.05101608 0.14217371 0.2778807 0.31912667 -0.27642047 -0.29668772 -0.5441087 0.31518477 0.12757911 -0.4518986 0.18570882 0.15281518 -0.29500622 -0.49449292 -0.48353183 -0.45085707 -0.41150543 -0.36644164 -0.2089284 -0.035828833 -0.5348696 0.15215132 0.38097852 0.09380661 -0.041912913 -0.19410826 0.2902952 -0.10534517 -0.10234549 -0.52670586
p616 -0.0057534087 0.05253437 0.2621503 0.06068185 0.23186055 0.2904206 -0.3193868 -0.037530523 0.144064 -0.13815068 -0.30309105 -0.3549408 0.23353274 0.0724903 0.24607016 -0.31106555 -0.16647783 -0.18965763 -0.10562112 -0.31960842 0.49423975 0.28206828 -0.2701387 0.3135911 -0.22192714 0.09277487 0.2224321 0.48549947 -0.5168295 -0.070598856 -0.07142096 -0.118315436 0.20960769 0.3244813 -0.06017112 -0.12807892 0.18529135 0.06082966 -0.16863394 -0.25418004 -0.07360026 0.31072864 0.18394558 -0.21972075 0.024582092 -0.036045935 -0.35121724 -0.34318054 0.07209026 -0.028591802 -0.35469607 0.16024496 0.020916896 -0.0890076 -0.32948995 0.19215019 0.13796853 -0.27780142 0.23488364 -0.23585199 0.116931126 0.14318044 0.1735417 -0.21272734
p88 -0.27257428 0.36321378 0.14879708 0.12162477 -0.27873856 0.064086 0.19365984 -0.1148562 0.1761803 -0.13883804 -0.30058312 -0.28022453 0.21779525 -0.027858747 0.19006795 -0.18169597 0.28810975 0.047214728 -0.14492041 -0.19482054 0.15214474 -0.035399675 -0.18212508 0.205162 -0.23692445 0.21543433 0.17960308 0.35006267 -0.21653108 -0.33490542 -0.008775085 -0.38108 0.21541713 0.12364833 -0.057842843 0.16329768 0.08478888 0.12392247 -0.14634486 -0.34325528 -0.37285408 0.2508535 0.08005163 -0.44323558 0.23213504 0.051227175 -0.25237942 -0.28093734 -0.2948444 -0.47683722 -0.177224 -0.15083466 -0.027013296 0.10317822 -0.35197 0.2557683 0.2450311 0.02022395 0.059401043 -0.050428826 0.20126814 -0.10356729 0.027432052 -0.31697643
p371 -0.25820136 0.19302846 0.578042 0.2762168 0.076897636 0.40556794 -0.37230077 -0.088808596 0.12111373 -0.22744094 -0.69416505 -0.4539846 0.0113557335 0.18561287 0.2941348 -0.5593781 -0.029770045 -0.5937683 -0.82594717 -0.66967046 0.8221936 0.21033326 -0.34359467 0.6131994 -0.32198322 -0.08407063 0.3296865 0.8240335 -0.311096 -0.3399562 0.23239997 -0.232289 0.35503456 0.8038041 -0.24632059 -0.2919804 0.30417526 0.37927508 -0.5110952 -0.47790682 0.48692203 -0.3002047 0.24462296 -0.26660636 -0.3014209 0.011051146 -0.43112636 -0.36533174 0.38232982 0.19077419 -0.71751136 -0.23358166 -0.37681618 -0.08695775 -0.35276896 0.49253234 0.4838052 -0.6332163 0.3029366 -0.06535242 0.03631777 0.046513844 0.48009852 -0.13594672
p342 0.5361176 -0.35744786 -0.02432383 0.6205361 0.040909093 -0.29352462 -0.8256985 -0.13417912 0.7159957 -0.1877623 -0.13599986 -0.31821185 -0.16559999 -0.32037032 0.43331584 0.78183556 0.4595451 -0.8576495 -0.7711682 0.49057874 -0.21522407 -0.024072463 0.23260485 0.53577775 -0.34265813 -1.185995 0.5057765 -0.7710311 -0.63086176 -1.4644372 -0.65143996 -0.31318572 -0.6834788 0.5189623 0.6464958 0.49962068 0.3369768 0.59612864 -0.0038668606 0.8580407 -0.29435864 0.8860066 0.7429382 -0.38275513 0.32751206 -0.31393617 0.5424641 0.42782304 -0.07076741 -0.74233747 0.024193106 -0.4708308 0.3631287 0.3844332 -0.5680618 -0.003047015 0.1810512 -0.261868 -0.42261794 0.29660702 -0.28303263 0.21279418 0.2772588 -0.07520268
p785 -0.08074289 0.12528422 0.05200459 0.16366763 0.18884528 0.02304521 -0.19776121 -0.0022783154 0.30457497 -0.30427575 -0.1149139 -0.3376889 0.3264108 -0.0055121114 0.22830229 -0.35052583 -0.0839995 -0.16657023 -0.06228432 -0.16229658 0.24640276 0.2839096 -0.35672808 0.32917908 -0.16274402 0.26914194 0.3173604 0.49483672 -0.40608373 -0.2516051 -0.18540503 -0.21258748 0.32707933 0.15540087 0.03732556 0.01777607 0.28237453 0.0666789 -0.17030334 -0.3435139 -0.3161866 0.38880545 0.11861839 -0.23200753 0.21338019 -0.0099028675 -0.3551988 -0.3935837 -0.24754919 -0.16475056 -0.36678845 0.081625134 0.114563555 0.016917724 -0.28954843 0.2716016 0.19478248 -0.14279929 0.059747256 -0.2649711 0.21655864 0.06388619 0.04591493 -0.42756933
p490 -0.2348924 -0.0009952534 0.63238573 0.38341498 -0.1526824 0.15456904 -0.4567473 -0.0590932 0.27393302 0.57710266 -0.3696521 -0.2842484 -0.02270529 -0.18368316 0.23332682 0.08048328 0.30676803 -0.3507276 -0.50424635 -0.10510014 0.2491435 -0.2252781 -0.2748297 -0.11415315 -0.51087016 -0.2495727 -0.011469947 -0.29948652 -0.20967864 -0.43169627 0.3674718 0.21954891 0.11093187 0.34530678 -0.6116336 0.4573224 -0.13116468 -0.5462692 -0.005410513 -0.20916931 -0.001287379 -0.3693886 0.020845175 -0.5283995 0.14502828 0.25887904 0.18682428 -0.41500694 0.45251825 -0.3405183 -0.009235738 -0.4035087 0.18661563 0.08536559 -0.14853899 0.48079547 0.19168608 -0.616239 0.31102502 0.41421306 0.09686903 0.36270833 0.41017625 0.31202945
p589 -0.23728164 0.36149332 0.27877724 0.57661736 -0.029275715 0.13021384 0.072475635 -0.12666868 0.36221367 -0.16966455 0.04048757 0.010827567 -0.15437302 0.07996379 0.19698665 -0.3391633 0.33306652 -0.31984103 -0.45810586 -0.24399881 0.2860342 0.3122865 -0.1879233 0.35748348 -0.059983734 -0.100228034 0.07848279 0.27059853 -0.20266582 -0.38538665 -0.21066709 0.08084166 0.2628927 0.5372509 -0.36805314 0.1584303 0.371355 -0.044579893 -0.3013432 -0.23758277 -0.092746705 0.064938076 0.18819582 -0.46043482 0.10668538 0.15497366 -0.33790004 -0.6439618 0.41738927 -0.3464712 -0.44665772 -0.58675253 0.1749706 -0.14449145 -0.2858461 0.050358526 0.41449142 0.023886358 0.2004075 -0.019425614 0.06856864 -0.08304967 0.006278363 -0.5317128
p147 -0.96282166 0.49420264 0.69631374 0.2227988 -0.6477211 0.37106946 -0.014137902 -0.04341253 -0.92357755 -0.03837467 -0.79549795 -0.505137 0.13832824 -0.65263027 -0.1163772 0.8019831 -0.19897732 -0.032548327 -0.41743186 0.33429646 0.29819247 -0.38430077 -0.30514243 -0.53257114 0.33897492 0.1997293 0.29127574 0.18555099 0.56460005 0.25177085 0.6112727 0.3908826 0.45772693 0.13462342 -0.18835543 0.8455068 -0.37709042 0.59321225 0.44646198 0.036297698 -0.3323003 0.22355804 -0.33925706 -0.7532052 -0.070552945 0.602321 -0.37966657 1.0448123 -0.16001327 0.15606485 -0.22954609 0.92210656 -0.46139085 0.3710922 -0.46222794 0.5710472 -0.10957432 -0.56428874 -0.96651 -0.40901718 -0.3058788 0.754085 0.60017073 -0.2645386
p369 -0.44471002 -0.58270603 0.26415265 -0.26698875 -0.33771703 -0.42091092 0.7940555 0.6308709 0.9791066 0.40906918 0.16727088 0.64532137 -0.25833306 0.55462545 0.22653048 0.34805453 0.22043177 -0.03147531 0.3259693 0.044118915 -0.39687607 0.6204149 -0.6143834 0.6351483 0.52838916 0.35784063 -0.4100513 0.36779281 -0.24172835 -0.5382395 -0.41634583 -0.6605685 -0.34625003 -0.36523157 -0.76749843 0.9321676 0.40583384 0.077275254 0.24736862 -0.2298494 0.42101952 0.24193856 -0.13704687 -0.5473273 -0.8040289 -0.37138924 0.13062334 0.801952 0.22175243 -0.18908447 -0.42745492 -0.54862165 -0.49665803 -0.31105703 -0.1633619 -0.1693283 -0.028477862 -0.31463274 -0.4596661 0.31473598 -0.6519956 -0.43929666 0.7685356 -0.47122073
p487 -0.09969767 0.1320451 0.2067351 0.055452418 0.21384387 0.1617748 -0.120205976 0.116596915 0.1168452 0.08569762 -0.23594946 -0.37168694 -0.13110483 0.047620766 0.06261193 -0.37807497 -0.42998224 -0.2634434 -0.10419052 -0.4302675 0.5811832 0.23837669 -0.24330764 0.18514508 -0.074550286 0.06155396 0.08603956 0.36588532 -0.4106695 -0.11305468 0.11722122 -0.112717465 0.0813328 0.48939398 -0.2030148 -0.26916438 0.2151079 0.30788928 -0.1872068 -0.10705926 -0.087962575 -0.078064024 0.037185 -0.26725888 -0.15545584 0.2306569 -0.07104598 0.041180093 -0.013542253 0.2655175 -0.18611549 -0.055340115 -0.1927592 0.04699746 -0.20209827 -0.14847283 0.041355524 -0.39915675 0.17007974 -0.21785131 0.22368139 -0.005902675 0.13048355 -0.08046963
p611 -0.16437203 0.03153335 0.49962288 0.36062506 0.107183196 0.35916713 -0.31555378 -0.11384063 -0.066958636 -0.038374513 -0.6248237 -0.40008602 0.079993755 0.19557168 0.28332058 -0.35616383 -0.3672782 -0.43198958 -0.5013361 -0.6487021 0.6460603 0.2459433 -0.12451962 0.29708877 -0.34741008 -0.09517972 0.41245466 0.50363564 -0.3299841 0.05515352 0.021635072 0.07420819 0.4362307 0.5823569 -0.3571356 -0.24038796 0.10570378 0.3871705 -0.2003865 -0.13754243 0.28297728 0.02518887 0.05329347 0.05753401 -0.03900571 0.18101893 -0.31173962 -0.40319526 0.33093318 0.23303474 -0.47591975 -0.018579219 -0.24056835 -0.072891496 -0.22183177 0.21370058 0.054876085 -0.44694778 0.44342315 -0.0869559 0.075774714 0.073865056 0.3202832 -0.11735592
p103 0.15125415 0.13173655 0.22614579 0.42348927 0.21092276 -0.0793733 -0.031357408 0.0973292 0.21788187 0.3438943 -0.37717938 -0.47794047 0.17065151 -0.01936049 0.3148107 -0.09085636 0.1565415 -0.24870832 -0.40699837 -0.11681138 0.07338067 0.096050814 0.03502437 -0.17660101 0.1010609 0.076195545 0.6456074 0.06552739 -0.080823295 -0.51378584 0.027995717 0.5028686 0.009422526 0.42353395 -0.40146267 0.34762454 -0.027750282 0.005809748 0.07309857 0.40642363 -0.1983478 -0.05881822 -0.01293646 -0.31891128 -0.04116308 -0.02202105 -0.27264208 -0.09120173 -0.55029625 -0.35222745 -0.13718793 -0.21333705 -0.49818408 -0.07524689 -0.29087546 -0.1300735 -0.009881966 -0.59135115 0.032919437 0.0455844 0.30485338 0.11349452 -0.09929644 -0.71864957
p445 -0.25577128 0.22019425 0.64148086 0.3502111 -0.11243625 0.3252053 -0.2447435 0.13226679 0.02223182 0.08266175 -0.43368295 -0.2087082 -0.2045258 0.016690329 0.18468532 -0.18726055 -0.38162836 -0.24847732 -0.57740206 -0.53370553 0.53423446 -0.083158776 -0.13058631 0.27306333 -0.28587392 -0.2498573 0.1165251 0.32563168 -0.03659125 0.06392509 0.3526097 -0.28703403 0.15877117 0.5347179 -0.29933307 -0.060207527 0.13912168 0.38281915 -0.266783 -0.33447698 0.024318017 -0.21843944 0.11874687 -0.25982133 -0.23348181 0.1620007 -0.06031298 -0.0016034533 0.2583418 0.07869488 -0.41278708 -0.4802323 -0.43083236 -0.038244955 -0.20451353 0.15069889 0.07011189 -0.24932419 0.30334404 0.26163194 0.24257967 -0.07890977 0.40341204 0.0059897685
p586 -0.38489902 0.1117469 0.5717322 0.3394026 0.0036335103 0.54627573 -0.24329744 -0.0723031 -0.06350244 -0.06531075 -0.768846 -0.51551676 0.07931392 0.11887406 0.33878586 -0.4402031 -0.43174875 -0.43839088 -0.63854223 -0.6658797 0.7319611 0.082645826 -0.34683138 0.28489277 -0.33555174 -0.15172493 0.36708838 0.5329463 -0.1665631 -0.015456349 0.40335977 -0.26100802 0.33278462 0.6773454 -0.35775882 -0.22334881 0.20597032 0.4328963 -0.2972645 -0.26467147 0.1230122 -0.17085946 0.16686042 -0.1723732 -0.2680316 0.12590992 -0.313581 -0.22345006 0.18016525 0.23591326 -0.5289738 -0.22026245 -0.4775987 -0.10362282 -0.45896888 0.2593393 0.28109625 -0.615045 0.28442714 0.050899904 0.23172973 -0.11383811 0.3583615 -0.2222846
p592 -0.05999591 0.10126268 0.14351301 0.09928657 0.17878996 0.1791399 -0.25156718 -0.016946282 0.14558905 -0.21083523 -0.18456505 -0.37232184 0.30911306 -0.0019456648 0.16562955 -0.3932654 -0.085356236 -0.21441911 -0.06924546 -0.21214159 0.43177938 0.3248884 -0.3170382 0.26196942 -0.19424157 0.10104363 0.3332924 0.42582214 -0.46248946 -0.11380866 -0.06639028 -0.119541205 0.19999976 0.3204716 -0.11747888 0.06445313 0.3233073 -0.039437316 -0.20414545 -0.29350892 -0.10727636 0.28112414 0.1536391 -0.3118923 0.12723999 -0.009997651 -0.2725353 -0.35141483 -0.06397632 -0.17018661 -0.43780667 0.11061099 0.13752636 -0.018953895 -0.2494752 0.17422451 0.14831442 -0.17847976 0.20175382 -0.26615876 0.30771843 0.13977487 0.049745556 -0.4048478
p771 -0.3576065 0.4231971 0.14211133 0.369379 -0.2967211 0.09548065 0.24555436 -0.08219746 0.27000174 -0.32048297 -0.3352914 -0.35922557 0.24484709 -0.05845686 0.309855 -0.35378796 0.062043197 -0.15595195 -0.21998367 -0.073097184 0.14170507 0.21116714 -0.35914177 0.14624406 -0.3161586 0.255655 0.40727478 0.37892914 -0.22084484 -0.3736145 0.011109867 -0.56711227 0.20819992 0.18384029 0.0117021175 0.15713818 0.26688015 0.38148436 -0.24629073 -0.23218627 -0.5143313 0.3791475 0.10468456 -0.52711797 0.27506396 0.07532645 -0.2494204 -0.4380367 -0.47972867 -0.5718282 -0.3778196 -0.43322223 -0.13124265 0.02861232 -0.53456944 0.18162248 0.3649783 0.15647055 -0.08772988 -0.14424166 0.3349809 -0.20539433 -0.14302479 -0.58614916
p784 -0.45676315 0.16180336 0.5088396 0.3124124 -0.22248307 0.50575405 -0.08581521 0.027329842 0.14953235 -0.21861559 -0.51562035 -0.45970237 0.10530449 0.10585595 0.28546432 -0.27845848 0.2692336 0.11146368 -0.30645493 -0.47556987 0.4128203 -0.021099873 -0.060093887 0.45196715 -0.23634046 0.24169338 0.1446539 0.5684655 -0.18859482 -0.41619247 0.2381634 -0.36035812 0.290773 0.4422613 -0.081210926 -0.12109788 0.23544613 0.16261844 -0.2622136 -0.22826898 0.12215948 -0.20044547 0.14994548 -0.28245416 -0.023461526 0.1239371 -0.38560602 -0.08294919 0.1765822 0.025143318 -0.108889535 -0.33105358 -0.051399816 -0.033066444 -0.34316692 0.017783836 0.3547015 -0.49396914 0.17783137 -0.20189193 0.08515433 -0.06112932 0.16373847 -0.18935998
p267 -0.118738316 0.5365576 0.6476432 0.4373469 -1.0509064 0.3137166 0.039989326 0.29595402 -0.2725089 -0.1555427 -1.028821 0.117855765 1.0421387 0.13453878 0.22247243 -0.61708534 -0.88814205 0.2882161 -0.45261705 0.6665247 0.19261833 0.48246396 -0.24745038 -0.08454756 0.43694317 -0.45970306 -0.40422896 0.24118364 0.07316142 -0.5133583 -0.62159 -0.9586339 -0.12291478 0.19989048 -0.3156651 0.65632856 0.029789891 -0.119403295 0.35188305 0.5513315 -0.033049185 1.148441 -0.15795472 0.4840643 0.41644308 -0.35349238 -0.23205636 0.5789102 0.5200294 -0.39540547 -0.5990714 -0.8802242 0.18523584 -0.20139867 -0.2868033 0.25885823 -0.037450455 0.4440431 0.42530495 0.6283719 -0.5027908 -0.14496931 -0.20809881 -0.16861612
p331 -0.14883535 -0.0679767 -0.31809744 -0.15987909 -0.18858379 -0.0027297996 0.21459733 -0.10861877 0.90909326 -0.29893455 -0.21729407 0.50393915 -0.48148188 -0.110843636 0.67174566 0.5813694 -0.5124204 -0.2700214 -0.6282029 -0.029789347 0.018866844 -0.08502669 0.67957234 0.46357086 -0.35259503 -0.9203056 0.36553028 -0.37857816 -0.5549155 -1.3650752 -1.314036 -0.14078158 0.14992654 0.5053289 0.31323117 -0.09929289 -0.15461904 0.15771177 -0.22779214 0.4366761 -0.4393087 0.6129047 0.21179563 0.33650857 0.013481348 0.7122282 -0.34229052 0.25814217 -0.40521646 -0.3520103 0.27778396 -0.8430742 0.039709885 -0.28681433 -1.0411206 -0.04718751 0.3581649 0.5678705 -0.84309006 -0.06444433 -0.14621899 -0.09466496 0.24074891 -0.71182966
p607 -0.49918023 0.40060383 0.35426286 0.22758228 -0.51298946 0.22941816 0.32110566 -0.15481569 0.20473158 -0.099000044 -0.44541866 -0.35655877 0.17432943 0.04746924 0.2701294 -0.0801643 0.18125398 0.091015786 -0.42598218 -0.2527164 0.17941527 -0.05783701 -0.206979 0.1706611 -0.4324056 0.031938583 0.14771356 0.33100015 -0.1848077 -0.40095937 0.2586015 -0.6155132 -0.0047620935 0.14730792 -0.04455967 0.17591994 0.03948769 0.46322018 -0.21827927 -0.33764395 -0.5327642 -0.00012769134 -0.056725062 -0.451798 0.093036234 0.25417635 -0.17178413 -0.24592309 -0.37311587 -0.565514 -0.19536044 -0.6213618 -0.25774032 0.001314075 -0.42360198 0.21341358 0.43442923 0.07357921 -0.14453433 0.10670033 0.18044324 -0.32702243 -0.06291174 -0.35937265
p610 -0.29093713 0.20879385 0.4834045 0.23567607 0.1257447 0.21391317 -0.30008623 -0.10208146 0.0900919 -0.13879396 -0.5084581 -0.33058387 -0.06067701 0.17482862 0.20872237 -0.32043526 -0.38652027 -0.40411478 -0.5247977 -0.5473104 0.6146237 0.15167227 -0.18148574 0.25907418 -0.33994868 -0.14034562 0.30521458 0.47443882 -0.3148663 0.07488989 0.19507822 -0.12559995 0.27360982 0.4899589 -0.3033681 0.02657177 0.09751048 0.43619266 -0.17854196 -0.15711075 0.31046706 -0.029320082 -0.029980034 0.02424507 -0.19596016 0.14834917 -0.21582504 -0.19087072 0.3054424 0.35491216 -0.3235444 0.029322335 -0.24455953 -0.07821293 -0.10329423 0.06254066 0.0687371 -0.499825 0.31785527 -0.031648733 0.01781444 0.07878605 0.33779213 -0.029670615
p894 -0.10196143 0.14562173 0.027185496 0.07398036 0.111378916 0.052100427 -0.12788418 -0.025525441 0.2835864 -0.29054537 -0.102511935 -0.2663096 0.3167684 -0.02875286 0.1561681 -0.36284953 -0.0130388 -0.22282049 -0.098070756 -0.10747631 0.1938699 0.30619472 -0.35113108 0.32433122 -0.16312757 0.22765894 0.2746352 0.48996294 -0.37394658 -0.24432142 -0.18011749 -0.23276168 0.34720376 0.17431492 0.018462766 0.042458784 0.28107184 0.047199797 -0.15016608 -0.37001136 -0.28887185 0.3772687 0.114621796 -0.3201094 0.1812216 -0.046427064 -0.30736274 -0.3486257 -0.2764846 -0.30402502 -0.44459948 0.10437978 0.093083255 0.032357495 -0.27417374 0.25455698 0.19513863 -0.07464802 0.023154778 -0.3104302 0.23809946 0.04932818 0.045561094 -0.45532227
p923 0.106850676 0.32253936 0.050422188 -0.0036359623 0.4051362 -0.15596056 -0.22991538 -0.09134838 0.32299244 -0.36853525 -0.14188197 -0.34047434 0.50194937 0.022644281 0.27830237 -0.6445175 -0.15922761 -0.3900327 0.06406377 -0.17884058 0.15304676 0.6888593 -0.6100735 0.53857136 -0.18651226 -0.020641593 0.5396848 0.90655655 -0.6395985 -0.2960621 -0.26950088 -0.05035305 0.29878846 0.37147567 0.30285257 0.06441159 0.6132084 0.1635616 -0.07928567 -0.52048373 -0.6510536 0.80444324 0.11435661 -0.44612834 0.4444893 -0.03153948 -0.5445456 -0.7110582 -0.5180668 -0.694776 -0.77349466 0.100299306 -0.010654787 -0.11780861 -0.59662545 0.36513832 0.2475114 0.170445 -0.18944077 -0.41038457 0.2358266 0.009621597 0.07221714 -0.8542679
p384 -0.4550964 0.122507915 0.24473538 -0.8971943 -0.0006699388 -0.5068242 0.7252775 0.7776747 0.9874821 0.57234967 0.40063894 0.56113625 -0.5718599 0.3880869 0.016232193 0.6287767 0.2739505 0.22944993 0.1308297 0.21910346 -0.04769824 0.45412377 -0.14788969 0.77514076 0.47611815 0.48781624 -0.12194623 0.2931636 -0.12852679 -0.5865835 -0.069193594 -0.5664214 -0.2661587 -0.36554578 -0.5904763 0.810851 0.47442943 0.04500293 0.1553962 -0.41521388 0.8005962 0.042889453 -0.14395279 -0.30806753 -0.4614129 -0.27205437 0.7265298 0.7821613 0.21248193 -0.119907506 -0.046884257 -0.6751288 -0.16762735 -0.38452667 -0.47769976 0.06951818 -0.14485218 -0.684145 -0.14898387 0.50455445 -0.74491054 -0.59617406 0.32990164 -0.328651
p388 -0.14526832 0.7627848 -0.09383551 0.8658392 0.6160853 0.17002077 0.5598209 -0.05663751 -0.12336333 -0.11778165 0.1218133 0.2554834 0.23966819 -0.14965408 -0.72753054 -0.5625208 -0.07618658 -0.057434678 0.3482264 -0.35278523 0.08431305 0.4894456 -0.85560334 0.7499146 0.6486697 -0.7595882 0.34883094 -0.42939767 0.0032429008 -0.4743168 -0.11285122 -0.58659065 -0.6846051 0.31869006 0.41932723 -0.06510499 -0.046354577 -0.54974586 0.43049145 0.08718404 -0.036403205 -0.67630404 0.48131794 -0.78914785 -0.06810403 0.24224481 0.5500447 0.1530104 -0.92626107 0.5070491 0.3707776 -0.45619896 -0.39161074 0.5118722 -0.55618817 0.29947376 0.3433695 -1.1707666 0.6152722 0.2755715 -0.40478593 0.6088402 -0.42393032 0.6126673
p903 -0.055357587 0.090528786 0.36306155 0.2020577 0.33748665 0.50376356 -0.38992226 -0.10408409 -0.14176783 -0.2074981 -0.6522038 -0.58010185 0.24027489 0.048725538 0.37262958 -0.5969098 -0.3159281 -0.45155305 -0.43914324 -0.53470445 0.70615447 0.3697867 -0.39807284 0.40848982 -0.3894309 0.06548211 0.49558437 0.60229653 -0.37747487 0.046074416 0.05774571 0.023327172 0.28054613 0.60394806 -0.048960175 -0.25255305 0.1855955 0.25789508 -0.30406997 -0.29566726 0.1685255 0.24822693 0.17748155 -0.09879154 -0.042836886 -0.06699589 -0.37171462 -0.45998767 0.1128958 0.21342786 -0.6001204 0.08812433 -0.20365137 -0.004823457 -0.36099005 0.34007308 0.19808368 -0.3810983 0.28842443 -0.26763377 0.18027654 0.091440395 0.21665035 -0.27189004
p1003 -0.01894209 0.20025273 0.08442989 0.14997493 0.19843596 0.025943922 -0.17460458 -0.024943985 0.12339676 -0.20567986 -0.18010731 -0.36463583 0.28107136 0.013884396 0.22927324 -0.36914 -0.0967292 -0.16255772 -0.07220086 -0.19056319 0.24563594 0.28710046 -0.1386342 0.3139009 -0.13191661 0.18461856 0.30640906 0.42294255 -0.38428864 -0.17121546 -0.057467982 -0.12680492 0.34867647 0.1862554 -0.001863033 0.057669666 0.3261929 0.11628035 -0.21480344 -0.31296566 -0.29790324 0.3959584 0.22181077 -0.2570225 0.16178991 0.070909634 -0.27243385 -0.35443357 -0.12794493 -0.2082409 -0.48081923 0.031276606 0.096086316 -0.071884125 -0.3186078 0.2327922 0.1399218 -0.079759695 0.081288196 -0.23822889 0.3009221 0.051103424 0.065890424 -0.4359335
p410 -0.26996937 0.68183446 0.3496598 -0.66239786 -0.3033058 -0.058979746 -0.33235887 0.45432183 -0.37522274 -0.69948703 0.023875428 0.30952835 0.42436922 -0.41915327 0.6890081 0.42123398 -0.65748334 -0.4727563 0.30897024 -0.35348454 0.10559837 0.2708759 -0.06818894 -0.44238874 0.22987314 0.5374254 0.13998537 -0.39669085 -0.2880487 -0.87636316 -0.99382126 -0.20103042 0.48494166 -0.50674987 -0.1754381 -0.24995725 0.43247303 -0.4976509 -0.56163526 -0.76137155 -1.1618453 1.0598061 0.6145863 -0.38978264 -0.28068644 0.64139944 0.32540077 -0.72828656 0.6887145 -0.37445608 0.059252996 -0.7878946 -0.61810535 -0.47018138 -1.0268761 0.30291343 -0.69233686 -0.43589154 0.4872139 0.1992208 -0.03580686 -0.33056918 0.4180159 -0.3733968
p99 -0.06063 0.048909824 0.36039734 0.22108275 0.19585468 0.3655115 -0.23018749 -0.041731957 0.14355356 0.062220585 -0.42333046 -0.3176912 -0.015390278 0.19146945 0.22167878 -0.104000896 -0.30957735 -0.078992516 -0.09609342 -0.4903146 0.49616426 -0.038128477 -0.108064964 0.07857137 -0.17313991 0.048446 0.24020262 0.38554332 -0.2950353 -0.102108724 0.24682385 -0.111856535 0.25073627 0.40366903 -0.21502201 -0.15147999 0.022238698 0.1531619 -0.065680854 -0.06250485 0.004173964 0.06850226 0.04061668 -0.13009292 -0.1257985 0.092343256 -0.026499538 -0.18575835 0.0090957815 0.19022956 -0.17985515 -0.07325045 -0.18174067 0.008541199 -0.1964147 0.07470482 0.02248049 -0.50280154 0.2356178 0.013792254 0.12228403 0.08195087 0.1499364 0.05157424
p404 -0.41034123 -0.049803894 0.077501446 -0.1971242 -0.6393336 -0.2631868 -0.5594294 0.5585037 0.8656008 -0.15812278 0.47191495 0.20097715 -0.83795995 0.4493882 -0.44646695 0.33661556 0.26937422 0.7100706 0.24452333 -0.2043239 0.8041582 -0.49529544 -0.05892999 0.08208663 0.11047818 0.20415606 -0.25225332 -0.104529686 -0.5158552 -0.06249168 0.3171375 0.005724969 0.5488919 -0.14772159 -0.80844223 0.37929773 0.6005489 -0.0052712807 -0.50788146 -0.21483096 -0.3085946 0.20482422 -0.2629922 -0.7649144 0.12895972 0.30639252 0.40837172 0.1471409 0.31643793 -0.23630953 0.48997128 -0.41602588 0.47144565 0.22089203 -0.22083344 -0.35938832 0.4974517 0.106991135 -0.42500547 0.2588089 -0.16655423 0.5206205 0.038403664 0.67905015
p407 -0.2951407 0.6705752 -0.10296366 -0.6528684 -0.24792095 0.14055736 -0.3125901 0.4903781 -0.57064456 -0.59165245 -0.0406557 0.45116693 0.26496577 -0.2218961 0.7001405 0.3372892 -0.8682822 -0.71842796 0.04475689 -0.420728 0.09286082 -0.041376457 0.1247107 -0.95628774 0.23736627 0.49061382 0.41308382 -0.47403494 0.088900834 -1.107211 -0.79127413 -0.5301244 0.5562175 0.39622912 0.07887244 -0.07513345 0.55779374 -0.26578188 -0.4144318 -0.62794787 -0.7726091 0.7392492 0.42990273 -0.58461213 -0.41206416 0.7829286 0.7601856 -0.68035704 0.31307757 -0.6112786 -0.422517 -0.55774003 -0.5899771 -0.43691504 -0.9636552 -0.08838637 -0.7238611 -0.66341084 0.6123039 -0.05167121 0.4474106 -0.08172912 0.23008396 -0.6844039
p1012 -0.45654592 0.4657265 0.27445215 0.35730422 -0.4774622 -0.14815558 0.48618916 0.029941471 -0.1555056 0.13356112 -0.4166189 -0.25132594 0.18225609 0.03290315 0.059483297 -0.14433472 -0.22216375 -0.063982494 -0.35454255 -0.16550283 -0.028247163 -0.16121733 0.0009726294 -0.16580704 0.063095175 0.1106389 0.28508696 -0.055063378 0.2068227 0.020365031 0.16940787 -0.55745244 0.20910648 0.07338975 -0.3530848 0.46040606 0.0044040107 0.2510423 0.0045611574 0.18995027 -0.43112245 0.5030216 -0.01648742 -0.11957995 0.06226319 0.014613683 0.22646728 -0.072223976 -0.38130137 -0.49084407 -0.18656518 -0.41937464 -0.19676237 0.1500864 -0.33926588 0.20276521 0.080670655 -0.07219266 -0.21245566 0.28565982 0.27079648 -0.06541717 -0.043721985 -0.3690254
p30 0.4091013 -0.15338945 0.650351 -0.372533 0.112775 0.17300007 0.71624213 0.5022765 0.7999277 -0.2483335 0.2415949 0.42501602 -0.084721446 0.24393882 -0.26805308 0.57508594 -0.42291012 0.12014626 -0.51604694 0.20731732 0.4923918 0.012028191 0.627484 0.28238386 -0.056563873 -0.62491226 -0.083950676 -0.48999593 0.27435258 -0.1554626 -0.43065044 -0.73634285 -0.20888749 -0.24926418 -0.16016313 0.099902354 -0.11896574 -0.27439392 -0.5613132 -0.46241376 -0.64273363 0.21281233 0.53526115 -0.80557936 -0.22050537 -0.28040266 0.63954335 -0.22069778 -0.21207829 -0.086882144 -0.65462047 -0.77381176 -0.53754586 -0.36183792 -0.5384306 0.40015122 0.27670822 0.5054052 0.14522904 -0.13328339 -0.29984912 0.1273835 -0.5147574 0.787575
p343 0.2566977 -0.20273161 -0.0011538919 -0.6182025 0.39447427 0.51538515 -0.07635502 -0.38287404 1.2079024 0.12419339 0.03643833 0.22694929 0.14450851 -0.2827111 0.7978873 0.83237624 -0.58171535 -0.19446531 -0.6705378 -0.59007394 0.29946524 0.122630246 0.26023668 0.43759006 0.5350616 0.4695241 0.11657472 0.590104 -0.8960862 -0.7349557 -0.65573084 -1.0260383 -0.3167646 0.02555364 0.18865843 0.5544037 0.172247 0.2751802 -0.27662668 -0.22848429 -0.11527523 0.506605 -0.16312417 0.8880946 0.4591447 0.31998223 -0.13777928 0.41683343 -0.4767278 0.0126906885 0.2848082 -1.1671121 0.5231501 -0.70698667 0.11635197 -0.55663997 -0.18197006 0.30933556 -0.9409804 -0.4974611 -0.3993412 0.37029734 -0.897113 -0.35644245
p431 -0.0041443487 0.07922105 0.19718258 0.13592711 0.20885092 0.37631294 -0.18062305 -0.047757704 0.012913879 -0.15585572 -0.39818034 -0.35917175 0.24257156 0.04170941 0.24238585 -0.25201225 -0.16965277 -0.21307366 -0.16754605 -0.35985115 0.54165065 0.11980025 -0.08925081 0.2750956 -0.19631091 0.09432374 0.38204134 0.4529058 -0.45704868 -0.11053031 0.14784074 -0.13000542 0.25570166 0.36421847 -0.051912945 -0.027670864 0.15521467 0.12600434 -0.22522944 -0.17756444 -0.09349854 0.20613949 0.28938925 -0.24162248 0.03954362 0.08578051 -0.28329727 -0.3557378 0.04438574 0.005715486 -0.4570524 0.101847544 -0.097583376 -0.07424183 -0.2994247 0.1767791 0.18591869 -0.21390542 0.20124209 -0.18722759 0.24277595 0.11330248 0.10119779 -0.2584563
p7 -0.7052192 0.6157902 0.41973886 0.53245366 -0.5883057 0.29472303 0.4771613 -0.1787541 0.3364933 -0.15006477 -0.42599642 -0.39978367 0.124428004 -0.035712242 0.3483715 -0.16917342 -0.14914466 -0.15039787 -0.60652936 -0.08220599 0.2331307 -0.008554528 -0.19992118 -0.08724081 -0.4975958 0.06911581 0.3300401 0.25517148 -0.120785005 -0.6353257 0.30306494 -0.7720861 0.14435731 0.22451971 -0.1516738 0.15879236 0.07753854 0.702364 -0.2533295 -0.06837566 -0.7178682 0.17518899 0.04593721 -0.65934837 0.18202934 0.28058547 -0.054803222 -0.24578929 -0.63811946 -0.77978873 -0.37835607 -0.83077013 -0.59058946 -0.12658897 -0.7118504 0.09709138 0.38286358 0.0042130565 -0.14437816 0.20025282 0.34878507 -0.32978106 -0.16793832 -0.5983331
p107 0.045804925 0.34219432 0.5687911 0.11496713 0.2111979 -0.33976644 0.58669925 0.6571752 0.15046972 0.44905472 -0.053288605 -0.4080334 -0.18355533 0.009123024 -0.078691475 0.7824518 0.7351281 0.19203283 -0.36497194 0.40422413 0.22099493 0.39599648 0.38848785 -0.3863187 0.52813053 -0.21704103 0.4769657 0.30120444 -0.023713429 -0.77478683 -0.28278878 -0.10493017 0.16078502 0.440589 -0.62689614 0.69963306 -0.04036292 0.09914354 0.016652094 0.40150836 0.30765235 -0.79683435 -0.20834947 0.4150944 -0.16473445 0.7648028 0.6229953 0.3529634 -0.8340741 0.09740197 -0.4064005 -0.050939046 0.6291805 0.2913246 0.814116 -0.5617052 -0.05089812 -0.41209537 -0.9098053 0.39293417 0.685077 0.043285985 0.68175703 -0.49106753
p474 0.37013498 0.28770417 -0.3040783 -0.53153974 -0.29499644 0.55310065 0.15537702 0.45662338 0.9227511 -0.4847939 -0.52106315 0.004923034 0.011526871 -0.1441312 -0.7393467 1.0612854 0.08574133 0.20018192 0.24750285 -0.029609695 -0.025995623 0.11693657 -0.6966207 0.5051413 0.7262949 -0.6180837 -0.3477089 -0.22184885 -0.2356126 -0.2511568 0.28115034 -1.2447448 0.07474776 0.67822695 -0.79131055 -0.40907186 0.45039508 -0.41326618 0.13216774 -0.36047518 -1.1445696 0.1487705 -0.205397 -0.13422014 -0.2510438 0.30483148 0.6725967 0.25377008 -0.85031796 -0.8014947 0.19660345 0.51512176 0.38565317 -0.28311288 -0.86567956 0.13138707 0.51229626 0.11371458 -0.44548827 -0.6692784 0.23212431 -0.088440105 -0.32818887 -0.5698055
p524 -0.18393928 0.06400986 0.4604837 0.24521841 0.19879054 0.5007758 -0.44604796 -0.08421864 -0.086431526 -0.19645561 -0.67708236 -0.5610428 0.28308135 0.04943734 0.3458591 -0.51779413 -0.27862966 -0.4462188 -0.47785962 -0.6682578 0.66890264 0.31728685 -0.25044793 0.45689133 -0.43084195 0.019479351 0.4535582 0.71490407 -0.4656641 0.042413317 -0.114621855 0.10398745 0.30597702 0.663716 -0.06948402 -0.26264894 0.19005366 0.23599844 -0.23690017 -0.22960937 0.01378202 0.15475252 0.069786206 -0.06416606 -0.03682107 -0.014959037 -0.46138257 -0.4825252 0.27128094 0.10317644 -0.5819982 0.04455787 -0.26854217 -0.065128565 -0.40203094 0.2749257 0.20278326 -0.4082878 0.39259484 -0.2515525 0.100364864 0.13635015 0.33322525 -0.17134026
p596 -0.0013794934 0.08943006 0.32976654 0.16362508 0.22787097 0.40361175 -0.2979415 -0.02268782 0.1466829 -0.07193547 -0.4526928 -0.34588453 0.19929051 0.015008437 0.27763095 -0.34026688 -0.06413464 -0.1537341 -0.20649602 -0.43730345 0.5048882 0.08310535 -0.2139441 0.32486343 -0.24312057 -0.0039159846 0.24611513 0.3515645 -0.47087586 -0.022867909 0.063746125 -0.07925776 0.10524705 0.35997307 -0.19892053 -0.122580804 0.22588418 0.022053862 -0.16552067 -0.17728437 -0.06703048 0.14117509 0.033811804 -0.23206228 -0.16227472 0.10579721 -0.2794812 -0.4181509 -0.014968163 0.0036295322 -0.24440938 -0.101382494 -0.22985312 -0.0037327423 -0.2851792 0.1207433 0.15413034 -0.3865009 0.3400041 -0.17239967 0.073523626 0.13999891 0.20906612 -0.18568428
p379 -0.07707885 -0.06505595 0.46542558 -0.11961782 -0.050992776 0.030175775 -0.56231123 -0.019794324 1.2019418 -0.046725634 -0.21403794 0.37915605 -0.6025143 -0.6158822 0.6577822 0.36003768 -0.49040335 0.65624344 0.40560424 0.5416747 -0.1582941 0.5479059 -0.27435127 0.29792854 -0.16338348 0.22910501 0.019832728 0.8341676 -1.2187349 0.5462045 0.33775425 -1.0555171 -0.28012493 -0.123129494 0.032891124 0.76986825 -0.23154594 -0.41835672 -0.40282622 -0.44557086 -0.70993996 1.2775613 0.29995522 -0.9899738 0.49029288 0.072541386 0.8681531 -0.15000433 -0.7974931 0.74494827 0.49104548 -1.0283377 0.6544949 -0.15493572 -0.48480335 -0.6263251 0.20474955 0.058981545 -0.11475906 0.18586786 -0.47663394 -0.3584374 -0.75603455 -0.7454658
p81 -0.3265814 0.3417325 0.23763838 0.22403637 -0.36849877 0.091610886 0.21416208 -0.19667663 0.119125254 -0.002086148 -0.24865192 -0.25090098 0.0394388 0.18417051 0.10466074 0.0066198683 0.17113839 0.10550708 -0.28258374 -0.27782065 0.07608465 -0.20224485 -0.08696025 0.143642 -0.29153866 0.11500594 -0.025979199 0.32230145 -0.16832629 -0.40292928 0.07992381 -0.38355574 0.111789905 0.13067548 -0.10445296 0.045387857 -0.041589428 0.20184568 -0.05086505 -0.29585823 -0.30733424 0.17237596 -0.07424566 -0.22791377 0.24049509 0.140818 -0.09351336 -0.2379989 -0.27874663 -0.35966867 -0.035324775 -0.2665248 0.021621587 0.059091344 -0.09811736 0.26088881 0.12555374 -0.048263866 -0.021339241 0.13552395 0.10237513 -0.23567861 -0.02797221 -0.08637408
p236 0.11306627 -0.73446107 -0.00700415 0.67333066 0.64039356 -0.18986644 0.22107306 -0.12486432 0.6173658 0.037801694 0.008003502 -0.5749457 0.09954513 0.1948981 -0.11551117 0.31234518 -0.3234313 0.45558506 0.008561996 -0.75775784 -0.32475504 0.12354992 0.22829266 -0.7867617 -0.2203357 0.54690754 0.45996222 -0.1702332 0.53285396 -0.5325573 -0.075033724 0.49697903 0.66683936 0.41265935 -0.050883997 0.45829865 0.3777914 -0.58172464 -0.7173424 0.4051617 -0.73159796 -0.60369945 0.66342545 -0.11634749 0.031059066 0.15153383 0.21485117 -0.4581859 -0.0141802635 -0.3251976 -0.8359831 -0.29299966 0.27236807 0.2775325 -0.40854803 0.6696759 -0.054453447 -0.75817496 -0.10572981 -0.36532703 0.68572026 0.22130835 -0.63044995 0.38209513
p718 -0.026448729 -0.00734007 0.46736 0.20710747 0.3582979 0.33533788 -0.45301124 -0.17928605 -0.17155565 -0.19222422 -0.7893854 -0.62844056 0.2906768 0.17135273 0.37509704 -0.7576032 -0.30980337 -0.609083 -0.6285363 -0.7338289 0.7919783 0.5559144 -0.51853836 0.5282722 -0.4018671 -0.108095266 0.6102968 0.8117487 -0.43968803 0.12595578 -0.011042374 0.11317403 0.27471215 0.73573303 -0.1495505 -0.3520112 0.27493677 0.32790107 -0.31143725 -0.3854164 0.27745494 0.20924658 0.12720886 -0.031009337 -0.01121947 -0.1355236 -0.5094788 -0.62895995 0.34491453 0.18380298 -0.79819846 0.14505628 -0.14969999 -0.048045013 -0.5017713 0.51166093 0.25460267 -0.37682426 0.31182888 -0.28054056 0.15203337 0.08467734 0.3218587 -0.31562883
p994 -0.41601315 0.3220829 0.20434628 0.29429597 -0.3951639 0.24981232 0.21059859 -0.2372974 0.23320867 -0.17435023 -0.29334664 -0.32868576 0.075859405 0.1481476 0.11559095 -0.0546438 0.1354957 -0.01138938 -0.36110246 -0.18429275 0.07006855 -0.110752076 -0.19495165 0.05824126 -0.42183733 0.18314177 0.118381985 0.41677722 -0.15452754 -0.41289893 0.08304483 -0.5140508 0.18060127 0.104163945 -0.032836203 0.03728137 -0.020467984 0.3736799 -0.084367424 -0.2017255 -0.37188256 0.29963943 -0.066481665 -0.3741247 0.2760655 0.08760641 -0.15281351 -0.34120733 -0.3684773 -0.41792503 -0.20437269 -0.35607272 -0.009221452 0.044895742 -0.27800742 0.25613472 0.22201489 -0.06374775 -0.082275815 0.018617949 0.11444132 -0.26812416 -0.18847421 -0.2926385
p322 -0.47804996 0.3220184 0.5300916 0.7151435 -0.19974343 0.55794805 0.12049151 0.1668627 0.019174367 -0.03520386 -0.48261684 -0.277935 0.12171042 -0.22311983 0.34766617 -0.32425112 -0.20301402 -0.5516036 -0.15059915 -0.49856526 0.44479582 -0.25846753 -0.29146588 0.15312995 -0.10725264 -0.05213906 0.2991158 0.11948703 -0.23773506 -0.5127791 0.20826665 -0.06887178 -0.17779739 0.32465303 -0.39761427 -0.09096688 0.52277017 0.29691154 -0.3599497 0.13889307 -0.300062 0.12226405 0.12450259 -0.42547876 0.18242463 0.5175601 -0.092217915 -0.538808 -0.19144855 -0.2467467 -0.36157826 -0.44687134 -0.57015735 -0.16674484 -0.4965167 0.051554594 0.42601982 0.06101058 0.35038725 0.0127674155 0.23564452 0.0031202708 -0.01622596 -0.07582664
p337 -0.3747748 0.09055681 0.4795178 0.849362 -0.502614 0.6811739 -0.4750923 0.3853689 0.5683953 -0.40977234 -0.5131021 -0.45510563 -0.1538068 -0.3460056 -0.39432544 -0.2747004 0.46724433 -0.13366912 -0.62305474 0.42698842 0.06399075 -0.008224854 0.41614732 -0.59488237 -0.5125268 0.03152162 0.016504314 0.45669097 -0.12832204 -0.80490917 0.07187033 0.24856085 0.5210197 0.56353366 -0.17284176 0.19152659 -0.38402545 -0.44149312 0.243468 0.63965076 -0.16545512 -0.46830258 0.4200286 -0.5204989 -0.70031464 0.23630984 -0.047812194 0.44296023 -0.59143114 -0.8067693 0.682732 0.17672054 -0.16239518 0.6408964 -0.09295814 -0.15361264 0.06439453 -1.2804128 0.0022294014 -0.08918311 -0.35945287 0.53328586 0.5392033 0.40198454
p232 0.54605436 0.10876765 0.5838084 -0.26463476 0.42227834 -0.6455584 -0.34954938 0.19080327 -0.5701386 1.1390023 -0.7011761 -0.05009078 -0.32212466 -0.056091063 -0.39488634 0.3190227 -0.2571272 -0.7828289 -0.5360398 -0.04576063 0.30421442 -0.61849433 0.4888595 0.02906258 -0.13802566 -0.13871978 -0.040048752 -0.23584896 0.35116327 -0.6410795 -0.30834302 -0.1337326 0.92027503 -0.2545752 0.57447106 0.7993933 0.59271026 0.6210168 -0.045283232 0.17991929 -0.83013 0.43016618 0.1905056 -0.84621686 0.43446195 -0.2906772 -0.3932995 0.09997233 0.111550264 -0.8302157 -0.23551728 -0.6298672 0.1330633 -0.56391245 -1.1231564 0.0024492983 0.12538905 0.7146015 0.1337768 0.21191002 0.345477 -0.073823296 -0.96818095 -0.6516923
p171 -0.4126198 -0.37271133 -0.30894014 0.29001498 -1.0486529 0.14354001 -0.9779918 -0.3998528 0.6979278 -0.14083794 0.4613624 0.4471042 0.5066948 -0.22141665 0.2450254 0.17021097 -1.0607529 0.30167463 0.29895073 0.44598672 0.0098538855 0.038267475 0.22773914 -0.2890849 0.11360627 0.13411745 0.47152928 -0.16653202 0.8510781 -0.07500809 0.05637248 -0.53691924 -0.7655764 -0.70770526 0.49609646 0.39059222 -0.66121894 0.35591617 -0.21003333 -0.08947535 -1.1869024 0.13978945 0.49195623 -0.7337373 0.68396455 0.31189388 0.7557905 0.82492924 0.17869738 -0.030123824 -0.9187064 -0.3568687 -0.11784651 -0.70129603 -0.88761806 0.1443897 -1.1785036 -1.1866117 0.59519535 0.4350476 0.6430203 0.24108148 0.6675788 0.7017265
p872 -0.10303959 0.20955525 0.08596683 0.13700108 0.1362639 0.17754644 -0.11204741 -0.01766035 0.22598255 -0.24047063 -0.2763243 -0.3974172 0.3211147 0.019405687 0.25366065 -0.3541889 0.031478386 -0.093879215 -0.065832645 -0.24603212 0.3427187 0.22145379 -0.17591654 0.31419277 -0.21537636 0.21819878 0.37740475 0.4355182 -0.3559447 -0.21285772 -0.008430906 -0.17732818 0.34782797 0.23573346 -0.044024803 0.07637565 0.28661174 0.07326444 -0.26332593 -0.25536075 -0.20851104 0.35633847 0.165061 -0.28059247 0.09050137 0.011533534 -0.34446523 -0.33783844 -0.13783899 -0.13787615 -0.41128242 0.023662422 0.06102265 -0.019221943 -0.3358057 0.20185809 0.23899198 -0.14368281 0.1431953 -0.2512504 0.18801694 0.040032778 0.064561814 -0.36771056
p720 -0.31844577 0.38020188 0.23750025 0.17497747 -0.19078466 0.30002412 0.17536552 -0.027089864 0.12254815 -0.22868995 -0.61261225 -0.5728142 0.36421117 -0.03402125 0.41824597 -0.30776364 0.09435279 0.062379833 -0.3929971 -0.3534596 0.37538573 0.16263959 -0.082550324 0.3220471 -0.29580942 0.22610576 0.45461243 0.43330395 -0.22845641 -0.29168162 0.20986077 -0.5439146 0.22028372 0.3741625 -0.17676373 0.124198765 0.2412544 0.39324677 -0.29524308 -0.30736396 -0.42772517 0.100297965 0.23647249 -0.49008188 0.05155465 0.040681347 -0.24647214 -0.3117133 -0.28287187 -0.48361433 -0.28667217 -0.4809082 -0.19821627 -0.00192398 -0.50380397 0.07217609 0.3800511 -0.010369334 0.10114345 -0.113851465 0.29206803 -0.063878894 0.009695192 -0.5048552
p818 -0.18994948 0.31962085 0.10350424 0.1835338 -0.123754255 0.013080538 0.16107516 -0.07563011 0.30359092 -0.31473425 -0.26572287 -0.33742344 0.3421374 -0.0069546495 0.30327937 -0.35785595 0.08972197 -0.044612743 -0.16535658 -0.13965498 0.12867437 0.23450851 -0.2563417 0.29951224 -0.19950466 0.2292021 0.37947288 0.48466447 -0.21049933 -0.3143471 -0.030950408 -0.4616569 0.19201806 0.13081045 0.044303212 0.11095668 0.326583 0.24101457 -0.20732401 -0.36088648 -0.44466898 0.36398292 0.11757187 -0.39979777 0.19553529 0.05129906 -0.35331038 -0.364677 -0.36700866 -0.4729701 -0.43087777 -0.22392543 0.042655215 -0.020126378 -0.45552707 0.19982927 0.3057425 0.095872425 -0.057985283 -0.21394517 0.23103388 -0.10723412 -0.04321115 -0.50545955
p902 -0.46961746 0.4136071 0.2284568 0.35141587 -0.4323589 0.2672584 0.27438676 -0.23696716 0.20777157 -0.22731285 -0.4157135 -0.31751382 0.09041669 0.10456182 0.24009083 -0.091216505 0.082358316 -0.055282943 -0.3828068 -0.1398197 0.13398433 -0.049481038 -0.20179208 0.049741015 -0.45475075 0.15894707 0.17095211 0.40968132 -0.1450366 -0.40644494 0.13301161 -0.5553481 0.09580173 0.1718929 -0.034017216 0.07236201 0.042536058 0.46383917 -0.1437992 -0.21435097 -0.43908343 0.23859333 -0.056687288 -0.40532273 0.2261519 0.11001578 -0.14911245 -0.35478467 -0.42066914 -0.47011754 -0.20215888 -0.4608352 -0.13608168 0.020671023 -0.39777303 0.23969474 0.2971217 0.0715466 -0.121403344 0.039957263 0.16792732 -0.30339342 -0.1878915 -0.34528285
p59 -0.6118752 0.34447843 0.3485394 0.3879432 -0.39406708 0.18610448 0.26805827 0.033924874 0.33818418 -0.306282 -0.82476056 -0.62959266 0.50347584 0.03734222 0.55554897 -0.46944165 -0.3418877 -0.14116487 -0.7154841 -0.5744361 0.4095801 0.39935136 -0.09379015 0.15103836 -0.4475962 0.27130228 0.5914498 0.34656277 -0.24619834 -0.14574327 0.3341386 -0.74365526 0.61071366 0.5127514 -0.4703541 0.14730974 0.36717895 0.5376249 -0.4572834 -0.3686523 -0.40794387 -0.046524208 0.095476784 -0.6099501 -0.265353 0.16172636 -0.29081705 -0.30881783 -0.01890866 -0.32869935 -0.6493453 -0.9403996 -0.22740825 -0.03095581 -0.6874277 0.21039353 0.24892797 -0.11223043 0.2430081 -0.0038962397 0.6719502 -0.14384156 0.1216646 -0.70588
p496 -0.06353869 0.04486704 0.3648605 0.14558737 0.14145671 0.25231794 -0.30005202 -0.1321708 0.06407006 0.009959011 -0.5020952 -0.32652095 0.1301689 0.14803886 0.16533202 -0.2882523 -0.27834627 -0.3117658 -0.272867 -0.47600576 0.5775869 0.18549971 -0.18557724 0.28206053 -0.27186483 -0.019059535 0.27837837 0.46913046 -0.4615682 0.16184191 0.027417902 -0.06703579 0.40302062 0.41604808 -0.20219864 -0.057897028 0.07788333 0.084970996 -0.11449902 -0.17874607 -0.002316721 0.1583865 0.0030769822 -0.11478039 -0.005374586 0.14562246 -0.23838492 -0.24289401 0.28108338 0.21673161 -0.3465537 0.045990855 0.008118209 -0.17699574 -0.23825349 0.09623511 0.07856773 -0.37152448 0.22827904 -0.13076973 0.022211844 0.10807347 0.19399074 -0.06484816
p833 -0.26870254 0.10948422 0.38348925 0.38317648 0.11690262 0.43879256 -0.14888541 0.0108965915 0.028293377 -0.25712848 -0.735026 -0.6437834 0.20802958 0.06761305 0.49203876 -0.5606295 -0.24241497 -0.27583903 -0.42228585 -0.4274863 0.66531456 0.4120173 -0.21716538 0.3439378 -0.35606834 0.049036752 0.5546745 0.45352152 -0.30500734 -0.11384291 0.21082102 -0.3683304 0.12429876 0.40569413 -0.07747236 -0.19280632 0.26663667 0.44638377 -0.37881997 -0.18450147 -0.106585816 0.19005336 0.25011936 -0.32484868 -0.003919798 0.121092364 -0.43340126 -0.3732443 -0.029338002 -0.012411959 -0.56127 -0.08853406 -0.13457702 -0.00697327 -0.6862201 0.25880966 0.29435095 -0.36911425 0.21273093 -0.2557283 0.27827662 0.008486081 0.096331656 -0.40501967
p576 0.37552246 -0.06187225 0.5485184 -0.30616114 -0.34341523 0.2520234 0.22561072 0.05132282 0.81262857 -0.20437127 0.19181938 0.6232555 0.024345135 0.23197122 0.41870224 0.39707065 -0.6793623 -0.12857212 0.6927434 -0.074983485 -0.1249532 0.5507706 -0.8746356 0.02957173 0.2983561 0.47111812 -0.5135659 0.5843759 -0.93491703 -0.20834534 -0.00046896338 -0.6765755 -0.37380144 -0.27640113 -0.085804686 0.7368575 0.5000605 0.39881018 -0.42826167 -0.3457404 0.50332576 0.5961117 0.4214313 -0.6228586 -0.03527899 -0.21376632 0.8162241 0.27843755 -0.38097546 -0.111376196 -0.105601944 -0.86056685 -0.24656402 -0.15791601 -0.4449267 -0.20111144 0.44248667 0.5404916 -0.34777227 0.48978364 -0.44916114 0.39782184 -0.35637286 0.36754054
p73 -0.010391668 0.107425585 0.1943534 0.06654102 0.26043892 0.062412087 -0.25350183 0.08196288 0.28732637 -0.22142813 -0.13761817 -0.32080397 0.24636152 0.064857535 0.24997176 -0.37303385 -0.044502646 -0.15741745 -0.1103536 -0.3623979 0.36425382 0.34719053 -0.20501094 0.3741681 -0.18690304 0.10538887 0.27107173 0.4507343 -0.44501805 -0.19140173 -0.08750382 -0.060469665 0.30614325 0.35691497 -0.14785257 0.033174396 0.3861895 0.07940476 -0.20440196 -0.32485297 -0.25927463 0.22748825 0.10705519 -0.31407073 0.018334879 0.003754 -0.3427653 -0.35719466 0.11631623 -0.23937699 -0.40273216 -0.21222031 0.033488106 0.03644703 -0.26627213 0.13833052 0.14960346 -0.12748344 0.15112002 -0.24768232 0.3046962 0.109711215 0.19313172 -0.39590618
p179 -0.57750124 0.26514325 0.14174992 0.347579 0.34501457 0.18555656 0.1842706 0.51667404 0.291135 -0.83087474 -0.37576318 0.33445436 0.44903046 -0.6060494 -0.4417847 0.76289344 -0.7665891 -0.17072003 -0.6990317 0.12072283 0.9289439 0.6812822 0.3491369 -0.5643206 -0.38262227 0.579255 0.7247562 0.21489437 0.13928498 0.17273751 -0.028362615 -0.61471456 0.20724751 0.38505027 -0.5200834 -0.30100304 -0.5972726 0.06435935 0.6736017 0.64668065 -0.6194058 0.5888911 -0.33908314 -0.26864406 0.46134543 0.5078765 0.5531414 0.5522771 -0.28410965 0.15947405 0.055757836 1.0129611 0.5377603 0.44180498 0.5136621 -0.7260509 0.22934315 -0.65092564 -0.45064402 0.8003716 0.7414701 0.12442376 -0.26949015 0.30930886
p988 -0.3741846 0.3937987 0.09051957 0.2856061 -0.3031694 0.099213116 0.25055534 -0.09939544 0.33943906 -0.3130865 -0.2830506 -0.37954652 0.3001608 -0.040145233 0.27008855 -0.3216015 0.042605877 -0.133519 -0.22229178 -0.08733202 0.13435876 0.1651072 -0.40076607 0.22007082 -0.39005792 0.2694322 0.3737202 0.4541397 -0.26840064 -0.42959765 -0.053232208 -0.5489027 0.23394737 0.1031904 0.022853177 0.09574473 0.18927488 0.38067958 -0.19685572 -0.33265153 -0.5441406 0.4366573 0.08794144 -0.5402659 0.2927361 0.0583056 -0.28493023 -0.41875842 -0.4705255 -0.5261812 -0.4245166 -0.3566094 -0.1407046 0.056025162 -0.5479326 0.27144682 0.3374729 0.114167936 -0.1212788 -0.13711572 0.29807207 -0.23908159 -0.17944388 -0.5457269
p752 0.01442314 0.06288454 0.19893067 0.110604204 0.3124439 0.30804268 -0.31044367 0.0891465 0.15245633 -0.13210493 -0.27582332 -0.42537397 0.15144517 0.096205086 0.25586712 -0.34695214 -0.120736785 -0.23632191 -0.18838571 -0.26449305 0.54033893 0.32725766 -0.12933536 0.31979728 -0.27597803 0.03332733 0.3133947 0.41517848 -0.39956567 -0.204472 -0.01387852 -0.055230893 0.20972799 0.39022848 -0.07236596 -0.13272789 0.20014001 0.13398439 -0.16197954 -0.31267622 -0.05298046 0.15827514 0.14544174 -0.20597298 0.041937973 0.05658606 -0.11684046 -0.31947532 0.0809726 0.08038943 -0.35454813 0.054666426 0.0064943256 0.049166534 -0.33204305 0.20461844 0.034831636 -0.39949268 0.26089516 -0.22707234 0.317582 0.10188433 0.097738825 -0.3817472
p885 -0.1021393 0.17885004 0.026302423 0.07653263 0.15410185 0.06633478 -0.15060797 -0.052774437 0.23668727 -0.26269776 -0.1265637 -0.310682 0.30480778 0.008355091 0.18451485 -0.4178535 -0.08306719 -0.25865203 -0.09204973 -0.09288649 0.23631664 0.31460026 -0.32007998 0.32201 -0.17106444 0.24166802 0.31516442 0.4774884 -0.41497907 -0.27745983 -0.15732096 -0.21189407 0.277906 0.1835335 0.0075640143 0.03718698 0.26220086 0.082253724 -0.18951274 -0.33191854 -0.2568657 0.38964897 0.16549248 -0.3524075 0.19176845 -0.05126629 -0.27333584 -0.36494341 -0.29039913 -0.18180701 -0.43097225 0.1298521 0.07289327 0.03010454 -0.29403123 0.25328538 0.19315675 -0.120201595 0.004346188 -0.30996004 0.22607435 0.06222538 0.0388234 -0.4317785
p846 -0.36124986 -0.32316244 0.4293265 0.1974016 0.6037311 0.8775773 -0.25386754 0.5825505 0.8449477 -0.3073269 0.50145644 0.6454739 0.3718053 -0.36181042 0.3063812 0.36083925 -0.056120854 -0.41136736 0.35816452 0.59264076 -0.16653356 -0.6233834 -0.2892392 0.14662975 0.6207821 0.36232144 -0.41293654 0.361883 -0.74358827 -0.88080776 -0.18423235 -0.44726995 0.026374744 -0.34371528 -0.18461265 -0.25193653 0.5404845 0.37366366 -0.61676437 0.020494515 0.25897205 0.46283165 0.6572301 -0.4161662 -0.3771658 0.10968704 0.64121276 0.37269247 -0.59350485 -0.37487918 0.227942 -0.9035207 -0.6887136 -0.41594318 -0.4492773 -0.39946273 0.06587897 0.3804888 -0.3538759 0.6445772 -0.07172525 -0.28704605 -0.61236113 0.00582376
p216 0.114297904 -0.504528 0.6200531 0.7561085 -0.41336447 -0.06754594 0.2446992 0.19898309 0.16258696 0.5904121 0.23125795 -0.31148657 0.54160196 -0.24996454 -0.1249909 0.8576635 0.028903466 0.16202922 0.23406696 0.22713806 -0.10141622 0.83335835 0.83120245 0.9580965 -0.54373515 0.94444394 -0.1413562 -0.27348986 -0.96722025 -0.59869576 -0.43828607 0.14848424 0.3601533 -0.10257568 -0.13276729 -0.19784264 0.5870958 -0.53356314 -0.6848318 0.9770425 -0.9527879 0.64326274 0.6034617 -1.094723 0.035283197 -0.00033133954 0.31411695 0.8996887 -0.4503735 0.069286354 -0.020299666 -0.2344013 -0.5281969 0.32100794 0.16117822 0.08414552 0.34316778 0.12926748 0.72098935 0.36235502 -0.120527335 0.2677198 -0.51743335 -1.0965613
p450 -0.22215235 -0.031518105 0.60755444 0.25188163 -0.06777431 0.44373372 -0.3958735 -0.24760105 -0.19291346 -0.05900711 -0.7833503 -0.59180576 0.11956929 0.26565227 0.3280207 -0.48022318 -0.3033895 -0.5012705 -0.78200674 -0.8378464 0.7690467 0.2717631 -0.3934909 0.29612875 -0.2607111 -0.053607576 0.41850415 0.7543425 -0.3912681 0.26475146 0.18177745 -0.1716609 0.49961352 0.6715346 -0.51574224 -0.2288994 0.22759196 0.49013186 -0.13643578 -0.43097147 0.34884378 -0.17555259 0.037866298 -0.13823158 -0.41666958 0.19763555 -0.4649057 -0.42457756 0.36916915 0.34093642 -0.6496539 -0.08629224 -0.23986565 -0.08416135 -0.17571191 0.27583578 0.31416133 -0.55027413 0.32281965 -0.08498891 0.014295392 -0.08904907 0.49613363 0.04123209
p952 -0.20861228 0.3334607 0.24385078 0.34049368 -0.33427033 -0.014103586 0.21341956 -0.12958246 0.22265737 -0.262057 -0.43563285 -0.43835223 0.20332111 0.19164233 0.26150575 -0.11636778 -0.042355966 0.0954019 -0.325997 0.0021019368 0.11669584 -0.16606367 -0.0033345523 0.13507116 -0.30171958 0.15498134 0.13691463 0.42154792 0.02835661 -0.3235399 0.10224999 -0.4652288 0.07728099 -0.009572578 0.011106993 -0.14160393 0.09381986 0.37153864 -0.12963262 -0.16839588 -0.46094424 0.4227418 -0.07823064 -0.15376166 0.2214675 0.22204213 -0.044847395 -0.10409914 -0.367318 -0.2810634 -0.18308635 -0.0696115 0.20838489 0.078910656 -0.17572828 0.25958982 0.2415806 -0.1816107 -0.05006819 0.08263553 0.09732613 -0.32178944 -0.2150092 0.010637974
p5 -0.47810817 0.32776693 0.18630557 0.032496512 -0.5582772 0.35098183 0.15271175 -0.20236072 0.57944703 -0.11936149 -0.11893849 -0.19505528 0.25897115 0.11402383 0.31955963 -0.043051038 0.27777383 0.060672555 -0.19686985 -0.0396266 0.036304984 -0.25281805 -0.3375796 0.22228847 -0.41989407 0.2310161 0.29213148 0.6162206 -0.461876 -0.7138822 0.14073908 -0.69195116 0.433725 0.027915057 -0.16556095 0.058088623 0.24555175 -0.025138482 -0.13805225 -0.3945604 -0.24953167 0.099641 -0.07526833 -0.6859255 0.026350517 0.033495132 -0.329189 -0.3971448 -0.30085874 -0.6480509 -0.37751025 -0.33330843 -0.11040401 0.02857479 -0.47810563 0.42022726 0.4857476 -0.1518211 -0.04452966 0.044846877 0.13633902 -0.23994742 -0.1414978 -0.5075468
p178 0.46084222 0.3007401 0.71222836 0.13059771 0.19796027 0.26919514 0.9235416 -0.37185284 0.65469486 1.0413135 0.27543098 -0.5418423 -0.38098818 0.051513266 -0.08456385 -0.29353297 -0.43541634 0.21131253 0.15887685 -0.1942267 0.036621418 -0.6447467 0.41647503 -0.43580815 0.11656626 -0.07099442 0.23808274 0.50806147 0.040886585 -1.0966657 -0.2093871 1.2395179 0.1110029 -0.07889315 -0.30899343 1.1107918 0.25522116 -0.06268162 -0.1079824 0.6781361 0.925265 -0.07838515 -0.04178718 1.3377728 0.76307833 0.032695554 -0.39368498 0.5220759 0.18482353 -0.16522317 -1.0133657 0.9998368 -1.1400582 0.15643662 -0.59081817 0.07796469 0.37359196 -0.7690572 -0.016104711 0.8474999 -0.11459946 0.40788826 -0.1912384 -0.6627823
p219 -0.19030212 0.32405972 -0.24978848 -0.48867303 -0.55002046 -0.071279384 -0.60564876 -0.066735916 -0.1998069 -0.46016735 -0.3614369 0.4425077 0.445677 -0.15537772 0.5960772 0.41026518 -0.59732467 -0.6783301 0.4210986 -0.22993831 0.24089858 0.31635818 -0.031892586 -0.5986452 0.29257005 0.44714808 0.56836575 -0.07968582 0.12559864 -1.0744423 -0.75742066 -0.2721871 0.3004885 -0.30694932 0.09186441 -0.34322932 0.12582922 -0.18794361 -0.47863817 -0.61485237 -0.8854219 0.86622846 0.689076 -0.0011775268 -0.13279554 0.5757888 0.57447505 -0.4888551 0.48889482 -0.5944878 -0.56098676 -0.5434228 -0.030806275 -0.5487133 -1.0772351 -0.26885962 -0.51055264 -0.5611261 0.6763419 0.32919642 0.669886 -0.1515186 0.15560368 -0.61782306
p1001 -0.10739407 0.28784052 0.24759984 0.40853646 -0.090825565 -0.07478283 0.095789835 -0.031517025 0.0077612055 0.032806963 -0.41500297 -0.42415914 0.28565988 -0.0060484917 0.22141798 -0.27951455 -0.107620224 -0.21932554 -0.2552477 -0.17925757 0.27565077 0.21085332 0.06055688 0.1339999 0.01986553 0.06519575 0.5177963 0.24557555 -0.21226011 -0.18663287 0.14911115 -0.18183649 0.37197128 0.32034335 -0.2622725 0.3033892 0.4152506 0.21447816 -0.17587984 -0.023773491 -0.42858675 0.34377253 0.13522609 -0.3708168 0.15080759 0.2503965 -0.21474229 -0.37188664 -0.15610391 -0.4692946 -0.5791633 -0.35282516 0.0027406467 -0.16945502 -0.41536552 0.120257854 0.19741939 0.11832238 0.08194058 -0.014195635 0.38648757 0.004289422 -0.093646064 -0.599784
p621 0.008775671 0.04722185 0.15155566 0.038876705 0.17454413 0.17965509 -0.31117183 0.03473512 0.08863577 -0.19736297 -0.21293528 -0.26618797 0.3093053 0.006099589 0.16802515 -0.34216428 -0.22032511 -0.20551363 -0.11015099 -0.29862893 0.39486206 0.33599097 -0.31367543 0.32662672 -0.14044689 -0.01719046 0.26605064 0.46167377 -0.47720113 0.029006628 -0.115649365 -0.16567734 0.24180174 0.3152036 -0.056592498 -0.04655802 0.27889585 0.114887916 -0.18791614 -0.38417006 -0.09503444 0.27037165 0.18311316 -0.2659607 0.12185087 0.05882522 -0.25915876 -0.30185795 -0.054976624 -0.0316791 -0.4116448 0.08273281 0.033456195 -0.055071663 -0.3295467 0.20886882 0.13409199 -0.12480719 0.10160494 -0.3415714 0.26148525 0.1553767 0.17870793 -0.29096296
p929 -0.12385428 0.15158492 0.035964105 0.03748564 0.14000918 0.06511669 -0.1565897 -0.008998471 0.28157857 -0.30584028 -0.10424174 -0.28945252 0.3323005 -0.0010269503 0.12856758 -0.3875329 -0.036797658 -0.20774522 -0.08829119 -0.10800549 0.21823584 0.32323885 -0.39399225 0.33657238 -0.22028597 0.23220173 0.2386307 0.5013994 -0.41684178 -0.2470947 -0.1867673 -0.25268525 0.31775597 0.17278041 0.022383016 0.019196307 0.24254102 0.05601843 -0.15904151 -0.35471797 -0.30238554 0.37237367 0.103628464 -0.32614353 0.18827792 -0.1020926 -0.3075424 -0.35572073 -0.2819206 -0.234957 -0.43783423 0.13475919 0.08705573 0.07133138 -0.28141847 0.24679978 0.20668535 -0.073987335 -0.001368971 -0.31144625 0.2764571 0.06324222 0.03976273 -0.37841612
p456 -0.6059887 1.0872042 -0.10036502 0.55878633 -0.005867861 0.12319325 0.6410514 -0.12526919 -0.52038896 -0.19737993 0.23521207 0.29290396 0.012383072 -0.091278575 -0.37271017 -0.43266183 -0.101344906 0.042337228 0.4242655 -0.17634392 0.15076515 0.4846235 -0.63669103 0.52852947 0.5945948 -0.545143 0.4084173 -0.07686054 -0.10176778 -0.4692049 -0.20695129 -1.1286529 -0.6089259 0.22362313 0.3123184 -0.035349965 0.039997607 -0.19376466 0.32517383 0.019057715 -0.3923462 -0.2476533 0.6971973 -1.0057429 -0.09001804 0.3035109 0.5663265 0.2665521 -1.1219267 0.038237188 0.34068444 -0.6173164 -0.47076026 0.47682348 -0.80471456 0.17628531 0.49468818 -0.7012221 0.17445935 0.3247882 -0.577414 0.44697765 -0.42738876 0.21256645
p537 -0.24346958 0.15855321 0.31727925 0.23672944 -0.17536512 0.07851823 -0.20633851 -0.15666647 0.27100348 -0.083877556 -0.37853748 -0.316944 0.33137843 -0.04486333 0.19825299 -0.5047227 0.17297477 -0.18794279 -0.056410845 -0.006049906 0.1311795 0.047713157 -0.23878099 0.45165187 -0.28796202 0.12009733 0.45159277 0.31211385 -0.36872914 -0.4560687 0.17435241 -0.28836066 0.17607145 0.26057002 -0.22132106 0.28503174 0.23147166 -0.0009739526 -0.21228857 -0.29013592 -0.1905811 0.18225396 -0.060947098 -0.63183916 0.29797176 -0.069078505 -0.23483683 -0.5171146 -0.08720955 -0.30857813 -0.4815118 0.10828838 0.16623041 -0.047411907 -0.19514333 0.311574 0.29572815 0.10411239 0.32310516 -0.018961957 0.28238136 0.048776135 -0.057472218 -0.2798535
p559 -0.29353496 0.13411215 0.31214628 0.16096197 -0.29365122 -0.023022896 0.34816375 -0.17676216 0.5310606 0.23403199 -0.29719225 -0.3170794 0.44850042 0.19350626 0.24398494 -0.12411124 0.47179055 -0.0004650604 0.06668183 -0.60173315 0.11147494 -0.2977205 0.011638209 0.59644914 0.0119628515 0.4620305 0.19918942 0.5374457 -0.18668762 -0.5140308 -0.071586505 0.13180397 0.68359154 0.39522582 -0.38910943 0.0006621875 0.06562058 -0.25890878 -0.029501801 -0.28492346 -0.34356973 -0.61315227 -0.043239873 -0.33948335 -0.03882221 0.20719412 -0.34274727 -0.4930521 0.3403486 -0.3100486 -0.22037387 -0.61813927 -0.034793403 0.04454535 0.22238922 0.06987246 0.114894204 -0.47709394 0.107976265 -0.021885626 0.29195964 0.23582375 -0.14146988 -0.49099588
p920 -0.19889468 0.13703091 0.37873968 0.26155066 0.1742555 0.45155782 -0.22766879 -0.09534323 -0.027673356 0.03487796 -0.4923753 -0.35638624 -0.049419217 0.16545653 0.16992515 -0.19207503 -0.16940196 -0.28471592 -0.2884998 -0.43341464 0.581561 0.03645864 -0.052276306 0.18158738 -0.31096742 0.022640757 0.18961425 0.39631608 -0.32534733 -0.19201198 0.22672029 0.054468196 0.3218905 0.49352956 -0.19275182 -0.11226307 0.006340174 0.25329253 -0.12743674 -0.040015057 0.08781236 0.07184744 0.0787527 -0.10841908 -0.10976552 0.16515337 -0.1450134 -0.11064685 0.21660547 0.22876051 -0.25169984 0.011274147 -0.21250395 -0.08012974 -0.16831087 0.07632854 0.07693898 -0.4728827 0.20781998 -0.068164825 0.017348878 0.04372814 0.17589898 -0.10696103
p90 -0.08852841 0.08069342 0.42382205 0.29075438 -0.29793748 0.22439465 0.12140278 -0.088772014 0.15041836 0.27434874 -0.5958577 -0.5410258 0.4564337 0.11040394 0.049626153 -0.18019204 -0.26254812 -0.13166094 -0.3645561 -0.362309 0.39242738 -0.03788375 -0.044255506 0.25655648 0.11336951 -0.30086386 0.48169744 0.18329512 0.15607637 -0.12420726 0.41224223 -0.62027246 0.050116707 0.12845428 -0.43593156 0.22768188 0.27841908 0.4437935 -0.077837884 -0.053292368 -0.18658939 0.25374293 0.13245216 -0.47569486 0.2265454 0.31837985 -0.31003895 0.0047338 -0.050561152 -0.496751 -0.39342284 -0.3579717 -0.0988207 -0.29170156 -0.6951182 0.2710077 0.40284637 -0.1388626 -0.22827019 -0.16844574 0.41965547 -0.17149994 0.18270299 -0.41214627
p951 0.49129698 0.019782295 0.62104934 -0.37167165 -0.46752444 0.36857432 0.30631697 0.19381043 0.6209701 -0.2895078 0.072358124 0.5606381 0.31904817 0.38994324 0.488365 0.45007616 -0.6525044 -0.2894645 0.511171 0.028904429 -0.24900155 0.15013833 -0.742694 0.19687466 0.40048492 0.5136365 -0.44513133 0.42808044 -0.7600603 -0.3987122 -0.12139642 -0.6200797 -0.26746577 -0.14881423 -0.034129333 0.7226715 0.5567868 0.5118852 -0.48064902 -0.30389825 0.31352794 0.3490949 0.27133837 -0.37457994 -0.24133779 -0.010749677 0.8438644 0.05570591 -0.5198341 -0.4598379 0.101922505 -0.7501442 -0.41900253 -0.23094906 -0.32974824 -0.052306063 0.33647504 0.5238353 -0.14226447 0.55615354 -0.21859656 0.6071452 -0.44627666 0.28863388
p403 -0.20662627 -0.10817619 0.119179726 -0.40005934 -0.7228405 -0.31233448 -0.571719 0.65502834 0.9641556 -0.38080102 0.5987094 0.09048369 -0.89980966 0.47871175 -0.49932602 0.535646 0.2701568 0.89496505 0.4919762 -0.22484657 0.94948345 -0.70182824 0.09928184 0.041611783 0.27016088 0.26530892 -0.24425654 -0.19695821 -0.518148 -0.3512736 0.40972707 -0.14268085 0.68670535 -0.2146594 -0.73942775 0.2218531 0.724644 -0.045058895 -0.50010717 -0.2219978 -0.62094086 0.39615867 -0.35242623 -0.7440944 0.16773331 0.22477742 0.72751206 0.29953128 0.15939893 -0.4197821 0.6422694 -0.28303614 0.5912812 0.2877192 -0.4194673 -0.55289036 0.6287107 0.2389227 -0.4959161 0.18436359 -0.076756515 0.51220065 0.017365998 0.5203266
p845 -0.08308028 0.13713105 0.051198468 0.12137974 0.1520808 0.058857314 -0.20258568 -0.0017081407 0.28298202 -0.25285274 -0.12225638 -0.34106672 0.3175483 0.008744368 0.20894444 -0.38731775 -0.0880118 -0.19552825 -0.07354048 -0.103308216 0.22185493 0.29400307 -0.33266407 0.3009117 -0.18760379 0.22174281 0.30404356 0.48772907 -0.41223207 -0.30296043 -0.19913907 -0.19028404 0.31912416 0.18667099 -0.004867928 0.00038797726 0.2721976 0.047494184 -0.16990831 -0.35509217 -0.30129728 0.39885026 0.16935553 -0.2542517 0.20737381 -0.07405533 -0.32922485 -0.3961581 -0.27810204 -0.20425753 -0.42531523 0.13347358 0.09955262 0.038868938 -0.30625457 0.25728604 0.18019243 -0.105415426 0.042110916 -0.2867075 0.24904218 0.07043277 -0.01031346 -0.4202796
p405 -0.31493276 -0.19852416 0.16541839 -0.35409728 -0.31483316 0.10521863 -0.236971 0.6148042 1.0002358 -0.7541126 0.42376593 0.08771242 -0.72245777 0.6571269 -0.62346673 0.045090407 0.18623713 0.57999104 0.45321238 -0.36334988 0.9980058 -0.7085642 0.35495818 -0.10848104 0.74891007 0.34546158 -0.2889507 0.320866 -0.2048827 -0.7142243 0.39037386 -0.3703269 0.61477953 -0.40633392 -1.0110048 -0.023541128 0.9199624 -0.43287835 -0.0009986444 -0.31103766 -0.7714061 0.2631691 -0.4422274 -0.38038883 -0.20600192 0.19899714 0.6661597 0.381406 -0.19064909 -0.569794 0.33386338 0.3931717 0.7179291 0.35566705 -0.6200716 -0.6041718 0.6794929 -0.14433977 -0.329719 0.09321723 0.021773618 0.017725348 -0.030216355 -0.04246557
p857 -0.0323659 0.05880221 0.3459339 0.062087435 0.28466636 0.31788057 -0.3384231 -0.019260615 0.06684114 -0.05639272 -0.44058108 -0.46966314 0.07501184 0.13200556 0.26591873 -0.45596933 -0.25534883 -0.33342898 -0.38086966 -0.5017403 0.54466313 0.3465211 -0.14286254 0.329096 -0.34519574 -0.09292949 0.34186414 0.47968203 -0.47102305 0.01608062 0.061887085 -0.019091992 0.20255786 0.43392146 -0.1548942 -0.13821527 0.19904236 0.23322393 -0.19425225 -0.26568237 0.0060782735 0.10498734 0.16224547 -0.17280105 0.06378149 0.038161606 -0.32191968 -0.29946253 0.2013485 0.08841492 -0.4266146 0.03662366 -0.076223284 -0.04379534 -0.37107062 0.22083467 0.11986782 -0.40040192 0.2623889 -0.22053829 0.15332153 0.11239229 0.17722866 -0.15876435
p905 -0.031463757 0.051244047 0.028437356 0.012265598 0.20899363 -0.011387483 -0.22895905 -0.02548321 0.20950148 -0.2240638 -0.075467676 -0.28027695 0.33924708 0.036169805 0.10798493 -0.3521957 -0.215081 -0.2812479 -0.06939061 -0.28477517 0.21053618 0.37326744 -0.424768 0.31201646 -0.1425375 0.11374554 0.20220834 0.5169275 -0.43224403 -0.1386848 -0.26459092 -0.3226023 0.35075277 0.13431463 -0.005949234 0.01929154 0.28281775 0.08478612 -0.11335377 -0.37292007 -0.3664499 0.3872438 0.12650898 -0.21317227 0.22457513 -0.07349414 -0.33588162 -0.2965954 -0.14425339 -0.21105066 -0.44743857 0.1328375 0.12152027 0.10313267 -0.29799327 0.27433595 0.108226754 -0.06867783 -0.015536756 -0.36345598 0.28340265 0.091368236 0.09335539 -0.36259973
p84 0.0004322668 0.00084088865 0.36595088 0.26348102 0.2981991 0.44059622 -0.25076023 0.04324426 0.16661957 -0.050405353 -0.5187304 -0.44948915 0.1011139 0.15044613 0.31343842 -0.29322857 -0.3809191 -0.14721377 -0.18698254 -0.5678136 0.5575527 0.09588091 -0.35501033 0.22465023 -0.16971187 0.1326973 0.25028342 0.43100747 -0.2456487 0.10940891 0.20899993 -0.17578872 0.23889476 0.42728058 -0.30323967 -0.26013532 0.11829276 0.15378991 -0.14733559 -0.2503124 0.075647764 0.049453866 0.07883205 -0.1019947 -0.24382322 0.051890917 -0.17340562 -0.2799908 0.1159786 0.21325175 -0.2793879 -0.2781934 -0.24460883 0.034256093 -0.21633543 0.05287553 0.107921295 -0.48846337 0.35384113 0.023698002 0.22056396 0.016710417 0.29296046 -0.0027995335
p558 -0.28586915 0.29061615 0.029376611 0.34881413 -0.16760334 0.07981305 0.32100713 -0.08789198 0.20209526 -0.19941372 -0.42446005 -0.5478221 0.45866764 -0.039655674 0.29392704 -0.2763381 0.04201955 -0.16714527 -0.05898072 -0.025085628 0.2653305 0.14248945 -0.2893444 0.2543514 -0.1693832 0.3416726 0.43408626 0.31007296 -0.2896732 -0.5207424 0.11525961 -0.50961673 0.20542482 0.14170453 0.071072794 0.16243778 0.27722043 0.26575452 -0.19246173 -0.14943387 -0.5572317 0.48105317 0.2554439 -0.5784553 0.25859398 0.045455977 -0.28839 -0.42201865 -0.49257538 -0.46305856 -0.44216055 -0.25415212 -0.18442617 0.026196832 -0.60344934 0.16044264 0.40887585 0.08077623 -0.06703022 -0.14583665 0.33007297 -0.18811119 -0.22540121 -0.5378609
p696 -0.12399232 0.17253701 0.09379698 0.12637961 0.07064077 0.051370297 -0.18204229 -0.013554985 0.26028678 -0.23764607 -0.07259577 -0.3253975 0.2828931 0.055272512 0.12438859 -0.293775 0.037549086 -0.1398503 -0.10267869 -0.1625134 0.29551062 0.23890421 -0.23642026 0.29272404 -0.1995666 0.27362946 0.1506368 0.39460814 -0.38270783 -0.29464945 -0.15811093 -0.13772596 0.31021085 0.16621587 -0.09778814 0.07818622 0.15325785 -0.044961594 -0.1357113 -0.36175448 -0.23559262 0.3524079 0.1451551 -0.21228309 0.15091236 -0.010056867 -0.2873866 -0.3540506 -0.031619817 -0.13096757 -0.29910472 0.16719094 0.16218582 0.00058554846 -0.16759501 0.21318026 0.15743968 -0.14389192 0.13353887 -0.25279936 0.22649582 0.08690816 0.009403561 -0.39189985
p786 -0.2893187 0.3113929 0.24191916 0.27824143 -0.16511826 0.03835357 0.10287887 0.0057710567 0.22940175 -0.2928928 -0.47312292 -0.38809177 0.26650786 -0.058981225 0.32263163 -0.46156877 0.034781996 -0.07210141 -0.29560354 -0.3276904 0.22746918 0.33604348 -0.2144738 0.2986861 -0.22887027 0.08612585 0.40374652 0.46127215 -0.20024495 -0.060180943 0.014701667 -0.4917175 0.13084337 0.28701103 -0.1041779 0.14307134 0.3484913 0.3173804 -0.28931466 -0.2870622 -0.29846007 0.17967805 0.15984115 -0.35020694 0.11122078 0.07800535 -0.40828457 -0.3547034 -0.24824613 -0.43232363 -0.38944015 -0.33059603 -0.015072862 -0.0064143017 -0.46459907 0.13494109 0.35136127 0.04247993 0.003876306 -0.20673034 0.21210493 -0.002832825 0.10171917 -0.43565676
p455 -0.70054597 0.46933278 0.4238083 -0.038330704 -0.64124525 -0.34268612 0.0722978 0.46253031 0.40037867 -0.34482285 0.38018203 0.05848956 0.16121846 0.27464733 0.034041464 -0.024447065 -0.69186014 -0.4385829 -0.40408486 -0.2932327 0.63269126 0.75243586 -0.6062839 -0.3774681 0.18073703 -0.14398098 0.5503834 -0.008390118 -0.6398996 0.11576154 -0.28081638 -0.85063493 -0.37845832 0.12853521 -0.61064756 0.5993911 -0.1634616 0.5891735 0.10321588 -0.037672676 -0.081773415 -0.30007097 -0.50108814 -0.23521191 -0.02003772 0.16328311 -0.54091996 0.20507497 -0.32435828 0.31200388 -0.5879095 0.5361937 -0.0909 -0.05288411 0.08300195 -0.07981635 0.13683443 0.42881438 -0.35823122 0.43204734 0.5277155 0.34072036 0.6133964 -0.029594079
p323 0.63695073 -0.13341427 0.54490244 0.051297344 0.12042791 -0.44745436 -0.86159825 0.29550886 0.44920117 0.28711635 -0.0037482153 -0.13783842 -0.41657916 -0.16782047 0.19090424 0.6007063 0.2570119 -1.0583733 -1.1607883 0.289129 0.08478009 -0.4720165 0.16625795 0.114591755 -0.25738072 -0.86161906 0.044436052 -0.3043512 0.16565344 -1.2379059 -0.5926224 -0.6382268 -0.12488004 -0.34462467 0.7118882 0.71954507 0.5474323 0.098277174 -0.24565843 0.48895264 -0.80771565 0.7115219 0.37209734 -0.6066505 0.31160465 -0.6350653 0.343614 0.37028125 -0.21439779 -0.65525484 0.127314 -0.9439228 0.21576062 0.048184168 -1.3258923 -0.023715992 0.26982576 -0.10496223 -0.20172928 -0.14277117 0.05188326 -0.13151602 0.22036564 -0.5598077
p513 0.6925099 -0.006541882 0.633247 0.072635524 -0.7441147 -0.23372036 0.19506915 0.41552112 0.5109753 -0.47063082 0.05192182 0.28734377 0.54066145 0.5269129 0.38300836 0.46127644 -0.41661173 -0.17089057 0.7829166 -0.5295882 -0.08045442 0.4439218 -0.9781416 0.02859107 -0.124584205 0.6383987 -0.72267944 0.3645943 -0.97072923 0.109726876 0.18877229 -0.7878615 -0.4892705 -0.14692049 -0.109603845 1.0314903 0.32903373 0.26555112 -0.6838904 -0.43940285 0.18222915 0.49034902 0.67446566 -0.52294594 -0.2047437 0.15893033 0.6293057 -0.18793629 -0.09888966 0.12314677 -0.15328822 -0.6635272 -0.18799594 -0.12461621 -0.060120143 0.4222998 0.5168422 0.8228669 0.1550757 0.7837977 -0.31685314 0.45516586 -0.18650286 0.88024807
p440 -0.007532785 -0.313453 0.76360106 -0.1923694 0.06316914 0.27002925 0.012306917 0.24109277 1.1457369 0.18272811 0.13945976 0.6240589 -0.6419204 -0.21625677 0.65643746 0.3769959 -0.77475536 0.03102456 0.20599186 0.3708311 -0.20452087 0.5170983 -0.5787245 0.36327815 0.3285608 0.38870153 -0.33831096 0.82670003 -0.87792 -0.08663383 0.26787168 -0.9635743 -0.5267289 -0.23595618 -0.16755702 0.7282976 0.039044477 0.19470924 -0.3350445 -0.30356854 0.51080877 0.51962924 0.35278198 -0.31632894 0.10985798 -0.019899895 1.1356387 0.58075464 -0.34481448 0.20176889 0.029909356 -1.1389879 0.24448283 -0.36527815 -0.37847185 -0.5937644 0.049621586 0.17812432 -0.7409807 0.40710667 -0.44053376 -0.1420513 -0.5982904 -0.40586314
p184 0.66752386 0.12695624 0.42202735 -0.34750366 0.49578524 -0.49815184 -0.15924703 0.3747039 -0.59012157 1.1564379 -1.028995 -0.28928822 -0.054377507 0.16678685 -0.41146064 0.22920468 -0.7197595 -0.8713539 -0.35420075 0.5197273 0.20202318 -0.471154 0.3429171 -0.0618179 -0.126366 -0.9703734 0.04223445 -0.30534092 0.56986 -0.14868468 -0.5079032 0.8491963 0.7226043 -0.10302178 0.43698645 0.90753484 0.4322884 0.5385487 -0.36912346 -0.4030161 -0.2792895 0.6217333 0.09681433 -1.077212 0.12898621 -0.21809722 -0.5801259 -0.4802664 -0.34617776 -0.93978894 -0.6807293 0.26985142 0.49201033 -0.74723804 -1.8608837 0.12185996 0.5282273 1.1515695 0.34353346 0.9019961 0.6145904 -0.24851778 -1.0336223 -0.7850574
p346 -0.25151005 0.010252013 -0.14422098 -0.01078368 -0.5370265 -0.046401367 -0.70085466 -0.47134838 1.0356213 -0.1408208 0.4205992 0.67041713 0.56660855 -0.086424395 0.50999063 0.5590471 -0.9864476 0.07591432 -0.17179741 0.43142182 -0.46361622 0.3109963 0.29363313 0.50553155 0.4301117 0.047430404 0.7594094 -0.25885108 0.5147251 -0.83404094 -0.88234556 -0.64954215 -0.54540807 -0.41342935 0.840913 -0.05718519 -0.94859725 -0.23042844 -0.14172421 -0.4262211 -1.3746886 -0.05146369 0.49238327 -0.81919086 0.52588975 0.48778442 0.6686235 0.47695568 -0.15860248 0.30546165 -0.9789603 -1.0139263 -0.1957421 -0.62667197 -1.1995118 -0.32513744 -0.15195239 -0.9192739 0.3537664 0.87109524 0.09521473 -0.18402731 0.57275504 0.5053616
p356 0.36020052 -0.11474216 -0.25987926 -0.28702143 -0.3176407 0.64480317 0.08219584 0.5068995 0.50632834 -0.019541252 -0.242628 -0.18543789 -0.1966737 0.022259876 -0.52995646 0.9029057 -0.14093345 0.14781581 -0.01690552 -0.120200254 -0.057614937 -0.1227916 -0.24756207 0.2866113 0.7662707 -0.37292337 -0.24565354 -0.5862938 -0.14137045 -0.45445007 0.44090265 -1.1065315 0.30371678 0.38793984 -0.72160345 -0.09544002 0.5416704 -0.33804157 0.14950618 -0.0087824 -1.0679497 1.1632766 -0.14966504 -0.5848736 -0.41433787 0.35131863 0.66503793 0.6972365 -0.83290255 -0.95447946 0.18913299 0.38135615 0.39357245 -0.17544894 -0.9754505 -0.18712144 0.38309956 0.22625686 -0.44373688 -0.680951 -0.016661841 -0.04364761 -0.534721 -0.5303827
p541 -0.17222512 0.13607037 0.46079895 0.2377101 -0.11962392 0.48679888 -0.18360388 -0.1344253 0.1818286 0.07229569 -0.25157142 -0.17550291 -0.032710362 0.090951584 0.20641223 -0.15126263 0.13317941 -0.017361743 -0.33463392 -0.54021686 0.55678743 -0.11848596 0.09267279 0.3758809 -0.16475762 -0.026463993 0.15349308 0.5168305 -0.29305112 0.039748702 0.12659997 -0.13100016 0.43249902 0.48729205 -0.30198362 -0.0019174672 0.16136748 -0.03693791 -0.21391706 -0.17834218 0.24425438 -0.1541608 0.086660326 -0.20013693 -0.10113952 0.15552375 -0.21454164 -0.34098983 0.21364777 0.06932504 -0.24916504 -0.25419536 -0.15692416 -0.12972024 -0.105504684 0.17097728 0.13680127 -0.49597967 0.31818974 -0.1565072 -0.08714985 0.17268184 0.30387643 -0.16785352
