3389 64
2355 -4.0917964 -2.622013 4.1746693 -0.73214144 5.344904 1.9929868 -4.5743246 0.9175703 3.536252 -1.6483835 -3.889803 12.600456 0.9747283 5.1216445 5.9813514 -7.9016476 0.7618929 -3.127121 2.5112548 0.49704564 10.667174 0.12288493 -2.6180317 4.511925 -0.27702042 -2.3636801 6.2285614 -3.3725724 0.7774421 4.9057856 -3.6064425 -9.204077 -3.3029392 -0.051225558 0.03407074 -0.03375476 -3.0648758 -0.299319 -1.2281966 2.0751712 0.653448 -2.6165605 6.7311807 -4.2833757 -1.3370343 -1.1791068 -2.666389 3.902792 2.2970054 -6.798139 -2.7405488 4.2798185 8.303953 1.7510512 -3.6761851 5.6954975 8.044263 -1.2793577 -2.4281242 1.421392 -1.9151745 6.6062565 1.7485117 3.0436814
105 1.5888946 5.0271106 0.50056344 0.18920726 2.4767406 -4.7313495 -2.961982 6.329257 -0.59984225 -1.0256778 -3.1935127 -3.3899639 -4.563252 0.30748677 0.74939495 0.12349776 2.2941594 2.9489071 2.2936113 -2.8359733 -0.72921103 -6.2653127 2.3514223 5.125024 4.869988 2.0200639 -2.593223 5.0501547 -0.013736453 4.976155 -2.4179363 -2.5234962 4.0616355 -2.838597 -1.3005147 2.365256 0.8166833 2.6361432 0.4845422 -2.1287935 -1.0188729 5.234208 -1.8730723 -2.344708 -4.477752 -2.7740083 -2.1630104 -3.001635 -1.2724872 2.6101713 -4.223444 0.10271337 2.4941323 -2.7471936 3.9210277 1.6521223 1.369115 -4.255852 -0.94229746 -2.2017603 -5.1286464 -1.6348135 -5.53091 4.1625795
85 1.2380483 3.5009265 3.0449111 -0.5796325 8.041626 -0.9983485 -0.08061101 -4.861972 -1.302916 -3.3630033 0.98917 -1.4383409 -0.6055126 4.565534 2.5153477 0.4125699 -0.90660363 4.3465767 -2.5475774 0.8720048 -5.202177 -5.715654 0.22850157 0.7856995 -1.9498024 2.7229629 -3.5555918 3.8990052 5.5017686 0.21059656 -0.54277873 0.5047977 1.4305012 1.0100198 -3.659991 -3.830732 -4.22966 0.09191817 -0.7438085 1.9780366 0.83857757 3.734997 -1.5396603 -2.8013792 2.4451609 -3.738854 2.8483875 -2.1973236 0.83342254 -1.6156983 1.0755374 -1.6187804 -4.2460155 -5.8562503 -5.168699 8.293156 2.8964758 1.6796043 -2.8363743 -4.9793134 -1.4283838 1.7387027 -1.7078016 5.342773
2244 2.4722967 -2.9714632 -0.14522448 -0.756108 6.180059 1.4487655 -3.98536 4.1418414 0.76842123 1.3148516 3.754772 0.702757 -1.4358487 1.5686777 -5.8988595 -3.0169234 4.986265 1.5276145 -2.9114995 0.78722376 10.09106 -3.3641737 -2.7607665 -0.95186543 0.49459416 -7.7238345 5.3242273 -2.4517224 2.1272397 -1.2541021 2.8243918 -13.191069 -1.7642412 1.3757291 -1.03646 -6.753423 -3.6983676 -4.912391 -1.1448798 1.9544669 1.2167311 5.600421 -2.0615046 -1.1755747 -0.5426001 2.6937184 0.472162 6.7693605 4.4883013 -1.9453279 -1.6309985 5.4675913 2.406968 -2.4706342 -1.4553379 -5.1545715 -0.89880973 0.58432627 -3.623522 3.584153 -2.4058046 -4.236364 4.136271 -1.9402776
2251 1.0800481 -0.5308946 5.921062 -1.1655861 2.92934 6.73274 -3.3349464 3.703813 -3.9871426 -2.9785624 -2.109933 2.751215 2.8938498 3.079272 -3.5302804 -5.2710643 4.408741 2.4850912 1.6209735 4.0025716 8.742983 -2.0812247 -4.9017024 -0.7958615 -0.41048393 -3.2101753 2.4576805 -1.3001442 3.1520975 -0.21484298 1.6263819 -7.9261975 0.9499018 -2.0536568 -1.4187348 0.4466548 0.7014407 -2.0528123 -2.7928166 4.203491 -0.749439 5.0208583 3.2106903 -1.9090642 0.56349766 -0.15910685 0.37168208 2.8696814 2.7578788 -3.501391 0.68995386 8.523176 0.029689481 1.9657216 -0.37164947 -4.4877043 -1.13503 3.1667252 2.9257984 -3.983297 -4.785269 -4.3364587 7.0730615 -0.6732536
2 3.810937 -0.4757447 -8.086935 -1.3729627 -0.94690293 -3.6073794 4.2402534 2.7786202 1.8675884 2.2448006 1.0132447 -2.0035927 3.580005 -5.81366 2.733638 -2.6967895 3.0447586 3.197636 -1.3897294 0.56292534 -7.508326 0.2594041 0.8780953 1.299656 -3.7517922 0.79818976 0.3045395 -2.7858868 -2.1830304 0.014619332 -0.9418985 4.99029 0.17335305 0.17826144 -1.0810995 0.16766635 -1.159117 4.1368837 -2.5255811 -0.38795787 2.769207 1.3824468 -2.2738042 1.7715267 0.6517403 -2.2578685 -0.18068594 -5.5865555 -2.7374046 1.4621644 1.9776422 1.2420535 -4.3765445 -1.6508684 3.451767 0.57407916 0.35532296 3.3479626 1.9723924 1.8883362 -3.081013 2.2592232 -0.6035644 -1.9822502
1238 -2.3648372 0.17179534 2.043347 0.03856652 -2.3560877 2.2331913 2.9741383 3.7506266 0.9810297 -0.2868187 -0.97820014 -3.60881 2.019622 -3.7440946 0.9545391 -0.4840471 2.2553823 0.017314516 0.4316497 -1.1035445 -2.257714 -5.211224 1.5540432 -2.214212 0.11712198 3.5632439 -2.9634674 -1.7979885 -2.4028857 -0.81773585 2.419968 -1.3934872 -0.45519513 1.2825425 1.8027092 3.203426 -2.1237512 -0.15147421 2.431312 -4.7611504 0.9647566 0.9012975 -2.8317022 -0.5397909 -4.4872913 -3.1424937 -2.1430023 -1.9067479 -0.8300514 1.330444 3.6518044 -3.1234226 0.22846372 7.3772283 0.8631792 5.585572 -0.2925194 -0.37820837 -2.9363675 -3.8337677 1.1194967 0.5434008 -1.3453257 -2.1822896
2860 1.4031967 -3.3513253 5.7330904 -4.3647037 -1.4434171 0.14136755 -0.67936486 5.7992125 0.5491794 -1.9339254 -4.242954 4.0329027 -1.605481 -2.433592 3.0235398 -4.728951 -4.597982 -3.6955626 3.1726496 1.8244323 8.633496 3.3713968 -4.771916 0.61315817 -0.6071372 0.11360272 -2.0348184 -1.7618477 4.8865027 -0.3199366 -3.022525 -1.0254592 -4.627712 -1.9868358 0.6614608 3.5610056 -1.1868255 6.376498 0.27658167 4.036465 -2.764897 -1.5972066 6.4311495 -2.841002 2.2088966 -1.856856 -0.60339725 2.916966 -1.2147318 -2.6690972 -1.5733967 2.0631413 4.779267 1.3156264 1.2894504 5.107114 3.5487165 -4.145349 1.864016 -1.4009318 -3.7583017 4.22055 3.5427227 -3.18474
1865 -7.132209 -0.19428931 4.3143225 -1.8220632 -2.5519204 2.7594302 -2.5891562 -2.819858 0.20162942 -1.7260877 2.1943927 1.813509 -1.6909596 -0.2487328 -1.848737 0.8381935 -0.7909627 -3.022303 -2.5113788 1.5155581 -2.8262882 -0.24943386 1.3552723 3.278751 -3.5269153 1.0007495 2.3608541 3.902227 -1.1753222 -3.4285944 0.92517877 0.8243011 -0.64920527 -0.026811257 1.3606273 -3.461513 -1.9255705 0.5457635 0.92542785 -0.08005323 -2.526013 -1.9079434 2.6583123 0.8187749 4.579576 2.1256914 3.5721688 -0.21099874 -2.9308271 -0.5154449 -1.2028918 1.9000754 1.3169458 -2.400542 1.9532158 -4.217429 0.50866187 -0.6122121 -4.675655 -0.05314792 -3.2462397 -0.9972556 0.82296896 3.139137
1136 -0.8532161 -1.4057539 -1.709482 3.4989035 -1.0941838 -0.8913032 0.86456585 -1.7655913 0.79051656 -0.3800755 1.6857301 2.3394256 -1.6824124 0.000876877 -3.1636481 -1.3282528 -1.0380069 3.811717 -1.6212186 3.596504 -1.4577332 3.2030368 -0.15656361 -2.7747936 0.91102636 -1.6987658 -2.6144066 -0.739467 -4.5250773 0.34576488 1.8434443 3.8261838 -0.50676066 -0.66182494 -2.086702 -4.9727044 1.4340291 1.9483252 -0.57971853 2.6747112 1.1094515 1.982054 0.48099974 5.09539 -2.3178973 -1.5823679 2.801624 -2.3247736 0.6866674 -3.4016414 2.3770797 -0.26120475 -0.28116453 -2.3951397 -1.2191387 2.8254623 4.9640355 2.445473 -0.7611185 -6.8342004 1.3871136 -1.0230962 0.95598567 -0.50294226
125 -5.1080465 1.875341 -1.6096703 2.227064 1.0032887 -2.709428 6.178495 0.9495666 -0.7718665 1.6984178 0.5846168 1.7551322 -3.583424 -1.5646371 1.6815313 0.22482772 -0.715032 0.35776335 -0.90083486 -3.3733294 1.1178124 0.5888655 3.2688181 1.981703 -2.378615 5.6012044 -0.22161095 -1.8732649 -2.0708816 -2.9522517 0.4790537 3.164845 -0.132844 0.6641245 -3.328491 -1.9874036 -0.58768135 3.227621 1.0266348 2.193901 -6.0659094 3.8730345 -6.312966 4.801475 0.21784493 3.8352244 -2.0227442 -0.1923084 2.1933663 3.6351306 1.4411305 -0.5130424 -1.3903524 -3.9412143 1.0450699 2.380082 0.8536416 -0.119305134 5.0455055 2.9973207 4.683658 0.1327311 3.3111014 3.654511
1862 -5.975232 1.5195034 5.6465507 -0.8047556 -3.3813174 0.3833497 -2.2711833 -2.0064464 -1.1878895 -0.5160818 2.0663483 2.6010659 -1.1767267 -0.43113774 -1.8176302 0.77263933 -0.69325507 -1.6709002 -2.971344 1.3417163 -3.64292 -0.2856356 1.2085525 3.0301306 -1.4233245 1.4858775 0.5383114 3.4649737 -1.0758145 -4.509431 -0.04418466 1.4076511 -1.4311337 -0.87783736 1.1229452 -3.5507965 -2.0472896 -2.0069377 1.7693195 0.89831567 -2.87402 -1.5338917 3.0888152 0.82678276 4.15689 1.0326501 2.3889568 -0.49752846 -2.9821966 -0.20030205 0.3948076 1.0989298 1.7897837 -2.950536 2.6156864 -4.3712325 0.41786334 0.2745719 -3.8863091 -0.99555796 -0.91097754 0.02453283 1.6795026 2.3843234
2017 -4.249279 3.4345522 -2.142461 0.5660228 -2.7272794 2.3385541 -2.4038184 -0.030784633 -2.2921364 -0.9665147 4.7505302 3.3183422 -1.7495295 -1.6834733 -3.8195922 -2.871261 1.1743112 3.8921106 1.7867725 -0.44856766 2.0585308 -0.7806654 -3.424049 4.0446334 -5.382822 -6.414827 1.0870384 1.5647912 -1.3159788 -4.6627626 5.7942643 -2.5127494 -2.086926 4.08721 -1.4572426 -6.7012706 -2.5839944 -3.0840578 -0.84293735 3.3585277 -0.49853733 -1.1428981 0.84696084 -4.272394 -2.0017233 8.529715 2.4727795 -0.950728 5.066735 0.62415326 -2.5487478 -3.1676385 -2.0919824 -2.6130724 -3.1757083 -2.6841936 -2.4451156 -0.55195886 -5.174107 0.57953453 -0.06583425 2.84788 2.8203378 0.82612795
2330 -2.9427023 -0.67682165 -3.1535692 4.7775016 1.1652869 -0.9823059 -1.8515131 1.5402482 -1.0812085 -1.7142481 0.71391255 -0.89132565 -4.7117224 3.35365 -1.1329981 0.5146053 -4.295925 1.286595 1.1387018 -1.3980469 1.813148 1.7833135 -8.313629 1.1974411 -3.366407 -5.8932266 6.4088736 -2.0319965 -2.1995487 -4.6154003 2.6705081 -5.5991035 2.015108 4.248061 1.3522744 -4.0419726 1.6825757 -1.1581693 -1.3919384 2.9310894 -0.45287782 0.84941006 -1.261849 -3.7007606 -3.7245271 5.2093954 2.2281513 -0.05662958 -0.9341299 -2.0273428 1.4737767 2.6750026 1.7160244 -3.1850915 -3.6836438 -1.4204413 -3.764373 -5.191619 -2.4607725 3.204585 1.705264 0.46144572 0.77954954 1.5074729
2904 -6.444506 1.4638172 5.79726 0.93348545 0.4673168 1.2409369 -1.3964336 0.3546899 -1.0963511 0.28908184 2.7807798 0.5110383 -2.3264604 -0.6893373 -4.7755413 0.37863412 -0.7512153 -2.9168177 -3.1218553 3.8033652 -2.7193246 0.94289994 -0.14710864 3.423692 -2.0263216 0.92484415 0.53192574 2.2017126 1.4643761 -2.9704618 -0.503275 1.527271 0.28577593 0.72714376 -0.1728837 -3.596413 -2.3548021 -1.7574071 1.225944 0.019552384 -2.0361714 -3.3147776 4.2128158 0.9297804 4.1224575 0.94960743 0.30337712 0.120740235 -3.4541607 -0.20454016 -2.5404031 1.7550265 2.4018555 -2.6552248 2.7521305 -3.4728618 -0.085353516 -0.48782566 -1.9946969 -0.7627353 -0.20442003 -1.903493 1.7294468 0.88130313
1861 -5.5190153 -0.9479495 4.2717347 -0.38888326 -5.0161886 -0.2266035 -4.3231697 -0.47918952 -1.8057752 1.9375165 0.64054215 2.654368 -2.3182783 -3.0297413 -3.2885146 0.36980057 -2.0480037 0.6552242 -1.3238027 0.12626775 -3.222986 -1.6371709 2.3303475 4.101653 -1.4926246 0.9459811 2.031716 3.0122128 1.2195586 -5.613821 -0.29475355 1.9365072 -0.8899468 0.1503007 -0.31721032 -2.1176724 -1.4593887 -2.5495322 1.8273393 1.7313973 -1.6087011 -1.3919687 2.571129 0.4529596 4.3648195 3.5503597 1.8108402 0.7950439 -2.081363 0.4401343 -2.2505803 -0.16046816 0.039219968 -1.7612362 0.49992892 -5.1078444 0.58700955 1.100053 -5.6838574 -1.2279178 -1.890569 -0.53976434 1.0797865 2.872959
26 0.25417897 1.6592727 -1.8917167 0.3350182 1.7029041 1.7557912 3.749509 1.3936595 -3.7118623 -4.325946 -2.2845998 0.38344893 -0.14176613 0.048524633 -0.21667874 0.28584906 -3.0671031 -4.744293 3.031593 4.938918 -1.6132177 0.8925131 -0.7475993 0.33681387 2.9620976 -2.514314 -2.0657194 0.94243747 -3.0363646 1.1881545 1.471678 0.50218225 0.5882774 1.541127 0.11755184 1.3324788 1.080085 -2.596266 -0.63769615 -2.032931 3.8270905 -4.3543544 1.1204057 0.35793537 -0.013327749 -0.90964997 0.86279315 -0.36400852 -2.9448426 -3.0474463 0.20779258 -3.4640465 1.6643991 0.20034559 2.6916718 1.3803023 3.7119842 -2.3177474 -1.6825193 -2.7877805 0.52033556 -4.2184825 -4.041007 1.3287841
2327 -2.0998197 0.4535407 -4.0039964 0.14426197 0.38613304 2.669889 -0.9090532 1.4021494 -3.587434 0.48181623 5.214542 -0.00778425 -0.52610373 1.209103 -3.7693112 -5.671635 2.9005167 5.038114 0.6935546 2.5196483 4.800888 -0.9358765 -4.022977 2.7411258 -1.5663534 -5.4451976 4.8692546 -0.26444575 -4.179632 -2.6645925 4.920643 -7.079279 -0.14310203 3.0244293 1.0050342 -5.821721 -3.225229 -1.763066 -2.5749152 5.703792 2.276426 1.6588227 0.106282845 -4.273865 -3.5627348 6.1906343 1.2878047 -0.424429 6.1963663 -3.2009585 -1.4204677 4.688423 0.07484848 -1.4542357 -1.5969015 0.037213173 -3.5941913 0.18079622 -2.9092653 0.9193888 -1.4508996 0.47267926 4.4663143 -0.4205383
1731 0.5138794 2.5356145 1.7823104 -1.036152 0.8319403 -4.95604 -2.692889 -3.1487687 1.7270079 -2.1050744 1.2775146 3.787757 0.28466338 1.0164135 -0.6005443 3.9295778 -2.0764608 4.236436 0.7747496 0.19926482 -2.4917533 -0.98934686 0.8299903 1.9790444 2.3727806 -3.1958723 0.13692446 4.3227296 0.2979454 -2.3448896 -0.6225843 1.9993865 -2.7431006 -3.470382 -0.72043747 0.08193107 -0.8101185 2.235278 -1.4423892 3.090308 0.42344245 0.83573616 1.5645334 -0.39935204 3.6836984 0.64115196 -3.3622425 3.1420503 2.5901334 -0.83414346 1.3147155 -2.8029134 1.0467167 5.4113603 1.0740288 -2.2007272 -2.9905748 0.22262645 -1.4221722 3.0572824 3.403745 -1.3844639 -1.8702244 0.6855642
2013 -1.643425 -6.280279 1.2459669 2.068508 -3.82264 0.52238584 -6.9400296 2.6384676 -4.17299 3.48596 -3.2502239 -2.98737 -1.0445112 -2.614869 -3.5499563 -0.38518748 -3.5777268 3.4971716 0.6347019 -2.63789 -2.1731274 -0.18512468 7.0610013 1.4027358 6.011906 -0.5122227 5.603933 -2.6883388 0.0817467 -1.6642706 -3.5573108 -0.7631259 -1.3419095 0.6681458 -3.4752138 0.077513166 -1.5099331 0.19362341 0.79146695 0.13901104 2.458842 -0.5728281 0.3484808 -2.5016057 4.4492483 4.403191 1.6103845 3.928754 -3.1449993 -0.48919907 1.3219757 -0.086098425 -3.029097 -1.0323249 -0.05382107 -0.9935951 1.7518715 2.4853015 -2.3009865 -0.53756416 -0.74355626 0.6363659 0.5108686 3.1230123
106 -1.7075487 -2.6687732 0.8133776 2.1400123 -0.97272444 -2.111107 -3.535878 2.2591593 -4.0272055 -4.1654787 -2.0128386 -4.595709 -1.8629172 -0.92354465 2.8658514 -4.194147 4.2610116 0.56147164 1.6852486 1.4527494 -3.1815033 -5.1610694 7.065396 1.2527709 2.1048806 1.3155128 -1.4147278 -0.4550833 1.9353793 3.7243044 0.5032088 -0.91623396 4.7642155 -3.2411535 0.9189178 4.628821 -0.38657025 4.0388694 2.1842513 1.7235655 -1.9067528 6.7920704 -0.78837955 3.154426 -1.5534472 0.8394492 2.2005112 2.3402252 2.392487 0.9265079 -2.4132755 -5.4106984 2.203691 -3.2999053 -0.11000649 -1.2048273 2.3770325 -0.28161684 -0.36875308 3.163944 -5.248031 0.9874777 -2.0991638 2.13998
14 3.6540349 1.4010172 -5.4040747 3.6974623 -2.786754 1.4196156 -2.6651368 0.07501915 -2.15449 3.5373855 2.1103241 3.1560133 -0.8186373 -0.37575796 -1.6035607 -1.0570477 0.38965338 -0.2789787 -1.1841536 2.924037 1.5720466 0.19011994 0.42591307 -1.1898667 0.30339915 0.55422896 -4.6744866 -0.2237976 -3.6487176 1.290343 1.4175866 4.4060745 1.5804484 2.3707273 2.6433477 -1.3611349 0.060496695 -0.70783156 -1.6026255 2.135338 -1.3531908 -3.675398 0.6622718 6.1814075 0.2518662 0.49198633 3.1436086 -3.598253 -2.1724465 -1.5031095 3.338931 -0.003877786 -2.079339 -2.7165613 -1.8724965 -0.8074105 4.81656 3.032772 1.3198689 -4.144771 -3.397744 -1.2315534 -1.7692622 -1.2393216
6 -0.76236427 1.3496876 -5.145377 4.645057 -0.6587155 3.3380337 2.1225364 -1.6719117 0.48545197 2.5582123 5.723943 0.479969 2.8008792 -5.259474 -0.5150205 3.3423102 -1.2427223 -2.8257377 0.8337241 2.3193402 1.4616834 0.18436715 1.9096239 -0.832041 3.8263395 -2.238073 0.1592911 -1.6017684 2.351615 1.6433799 4.772894 3.7036424 0.21596833 0.20199394 -1.4875462 -0.79985315 -1.3701214 -1.4156038 2.6898777 3.2049296 1.9884009 -4.2558503 -0.25882187 0.90224105 -0.7219745 -3.5584912 0.28028697 1.235691 -0.416348 0.17260785 3.1458967 -1.4707538 -0.37964594 -0.114678234 -0.62146074 0.6543981 5.0535145 3.6722975 -0.15704542 -2.2438803 -0.23459096 -0.382354 -5.0841527 1.1401223
2560 -2.0729184 1.0139698 -1.8655603 4.1205573 1.9575585 -0.73393095 -1.0818613 2.4085298 0.83027905 -0.83614564 -0.5354339 -3.0883563 -3.8496077 2.938398 1.142583 -0.024264231 -4.04345 0.44493753 1.3233249 -2.8764155 -1.2663454 1.7512268 -6.3607945 0.30327788 -4.489222 -3.912428 5.891655 -0.86811024 -0.52633554 -2.5152981 -1.53362 -2.5088646 2.873552 1.9837484 0.016369563 0.77121073 2.3442955 0.19234431 -2.7280815 1.5598679 -2.1768715 -0.817344 0.31241003 -2.4730449 -2.2422068 0.6295471 1.678955 1.0380967 -1.0264934 -1.653628 0.8222306 2.3302178 1.2648431 -2.6155767 -2.40185 -0.9554037 -3.591426 -2.8026626 1.0622808 0.75399166 2.5384674 -1.9465559 -0.71225405 1.7110758
2459 -2.6073334 0.19540466 -1.3050888 3.5364065 1.1619823 -2.2426126 -0.39285752 0.054901656 -0.98621917 0.18337025 -2.1182826 -0.65407157 -3.7126205 1.8712889 0.66766435 2.2055795 -4.12611 -1.2172825 1.2229507 -2.8251317 -2.4835203 1.7587931 -7.4457035 -0.15692352 -3.1801536 -2.8068523 4.3628097 -2.0449955 0.032407325 -1.9251127 0.037951525 -1.7711858 1.7955469 0.78701115 2.9848585 -1.200194 3.0648255 -0.9483819 -1.2066593 1.4512736 -0.050156314 2.213511 0.85636127 -2.0930502 -5.2763352 2.3556623 0.3331514 0.5143874 -2.7397714 -3.199566 2.8072846 2.4465358 1.0960859 -2.0574405 -2.9714527 0.049817197 -0.5533606 -4.095131 -0.6619219 0.9736076 2.9462113 1.2446861 0.17617549 1.6912186
195 7.559814 0.7662665 -2.1707015 -1.7904028 -1.8463318 -5.182749 -5.2618313 -3.4661138 5.32683 -0.37919867 3.7009637 2.6628053 -2.2485392 0.6504003 2.2389712 5.731981 1.3968737 5.112774 0.23457952 -2.3221643 -0.9218275 0.8282998 2.9831316 2.6689227 3.150275 -0.32353312 0.121347 10.272728 0.19734004 -6.9365997 -2.8178217 -0.2635099 -2.7984023 -5.145498 1.4242 -1.6843842 -2.9020648 6.3769155 1.6437094 -0.52909356 -3.089454 4.70979 -0.5703973 -1.338219 8.678804 2.717813 -1.671297 3.339928 2.1725454 1.284859 7.7978225 3.838468 0.29698557 7.3112497 -4.4769645 -1.81641 0.8398981 -3.885845 1.4632459 0.20262404 4.131028 0.48814613 1.1429768 1.7804646
2742 -5.1152124 0.71998775 3.7696226 0.4702642 -1.9817867 -0.89229935 -1.8836408 -1.385312 -3.2921689 -0.57442105 1.5029204 1.6944678 -1.9907568 -0.34244674 -2.8324745 1.1089835 1.4243646 -1.5343579 -0.9571507 2.3689642 -4.101908 0.23713946 1.5856493 2.1006522 -2.2104738 1.99938 2.3336825 0.90014756 -0.9919678 -2.4711785 0.22985895 1.7831339 0.39799738 -0.4525341 1.4979714 -0.44938466 -1.7451302 -1.6713243 4.3545547 0.64162666 -2.0520635 -1.5837332 1.6807587 1.1976027 3.8409865 1.3734374 3.661203 -1.3514695 -2.9949446 -0.7667995 -2.5107806 2.3872013 2.160222 -5.1606646 2.9737675 -4.6636815 0.5396113 0.26503065 -2.7626684 -1.6135837 -0.3974762 1.7533915 2.6297002 2.9134285
2641 -0.58237684 -0.5515601 5.225512 -0.9953223 1.1079353 1.6506221 -0.7875132 3.226947 1.7734405 0.32813928 -4.1952343 5.607554 -0.4535419 2.3948388 1.7976086 -2.8863137 -1.0952735 0.07694307 1.3335373 -0.54229635 4.638865 5.7899866 -3.405326 3.2921374 -0.8115173 -1.5145258 -0.001468915 -1.1933943 2.5961792 -0.24505045 -2.2493596 -0.5190303 -2.3506725 -1.5888373 0.19263767 0.84465045 -0.4443357 2.798788 2.2531543 1.9661345 -0.04073093 -0.9051809 2.1982696 0.24270509 1.383557 0.2028043 0.4550055 3.06314 1.2332565 -3.0865424 -1.1412697 1.5415863 3.593531 -0.5566307 -2.328253 5.4130306 3.022323 -1.8099717 0.033693146 -0.08972963 -3.6192474 3.6480763 1.0223734 0.22350757
25 -1.2221428 1.258387 -4.4839764 1.9324204 2.6670642 -0.8513392 0.76391965 0.30315346 1.6707146 1.1762239 2.4484875 -1.1069568 -2.9756868 -3.321035 -2.7823346 2.9394476 -1.6228151 0.1551094 -0.364881 -1.9109212 -3.4034882 -1.4683217 1.5840926 1.1055862 -2.3375185 0.2209476 -4.1341586 1.2517244 -1.1287125 -1.3321625 0.18779527 1.5457429 -1.8329016 -4.35463 0.45559904 -1.0159546 1.5070751 -2.919252 0.024987618 -1.4267645 0.12678616 -1.451451 0.95190996 3.644953 1.0875044 -1.8074042 2.3509748 -1.6727312 -2.0198746 3.5847125 -1.0328333 -1.163593 5.093419 1.8213973 2.897754 3.2000835 3.1509268 2.5431228 3.78822 -2.2367387 -0.45064363 -1.192511 -1.035476 -0.15760309
161 -0.01654225 0.9708308 -0.38605672 1.254525 1.9818528 3.6078684 5.024283 0.7774161 1.848251 -0.121633224 2.356747 0.8033824 4.067524 0.06635008 -1.5538164 4.6787724 1.8705143 -1.9743767 -1.5614105 0.624758 -1.3418887 -2.1599393 -2.0090833 0.7047433 -0.278156 1.4304209 -2.428922 -0.86592615 -5.3722987 2.1544688 6.413413 0.7062741 1.7309072 3.060861 -0.0868916 0.6095585 -0.6269147 2.9345446 1.8492846 -2.1351144 2.243602 -0.08757784 0.1853683 6.1213636 1.4187263 -0.84458447 -1.5884686 1.8804284 0.9788818 3.7545629 -3.0641313 -3.209029 0.12805526 1.7667214 2.6475208 -1.8617979 4.0610027 1.3564094 -2.4695003 -3.0479124 3.429306 -3.077336 -1.3817058 -0.00596644
2989 0.5132265 -1.5828102 5.88264 0.052444525 0.18366402 1.814235 0.88442296 3.5437284 0.70742106 -0.20934841 -5.448815 5.8817225 0.35175186 3.0599356 1.5301058 -2.8016646 -2.7525072 0.4158961 3.7293224 -0.32892796 4.955291 3.9513507 -3.1235924 2.623576 -0.60903203 -0.92107755 -0.40414536 -1.4156033 1.1674215 -0.03916551 -1.5536239 -0.08499755 -2.2407815 -2.4610522 0.14168212 0.49584308 -1.5669434 3.466386 0.8207176 1.5868853 0.32686064 0.20860828 0.73774374 -1.2633978 0.021879112 -0.29049364 -0.5682264 3.1196964 0.58221513 -2.282553 0.27024233 2.0234528 3.80258 0.7635744 -1.6431322 5.186414 2.1759806 -3.3792768 0.08109334 -0.43036327 -3.518555 4.4085584 1.986128 0.1560193
2559 -2.2073643 1.3380084 -1.2241144 2.8076873 2.3678985 -1.2966516 -1.6711912 0.4205572 0.6494742 -1.3613377 -0.29253075 -2.0667748 -3.8042762 1.5220523 1.7702324 0.7981388 -3.277014 -0.2684151 1.6371756 -3.2447226 -2.4167776 2.683215 -5.3536053 -0.58889365 -4.771174 -3.5050986 5.2317524 -1.1371821 -0.08055772 -1.8643261 -1.1838082 -1.159177 3.2123282 1.0376166 0.06872482 0.59337693 1.7038637 -0.016801339 -2.5550976 1.2763051 -2.362057 -0.8772969 1.089817 -2.6319096 -2.6154015 -0.070486285 2.2493312 0.8590915 -1.4636134 -2.0841784 1.7090955 2.1760097 1.0674582 -2.1736453 -2.7640557 -0.73880297 -1.7305136 -2.694795 1.3736573 0.7399434 1.678434 -0.679976 -0.83645576 2.125953
1670 -1.042581 2.670227 3.1585097 -0.6315284 2.0654676 -1.7312316 -1.9537714 -2.7848048 2.2739797 -2.016694 1.1772342 3.13179 0.1368481 0.74232876 0.3626228 4.1183133 -2.0803034 1.2411239 2.0967908 1.2239276 -3.123697 -0.6696393 0.83501434 0.80348027 2.3591976 -2.1913953 0.4565235 5.8433537 -1.2977933 -4.463263 -0.9372724 3.9023151 -1.3663558 -3.6727145 0.6088819 -1.6044601 -0.22461496 1.0772023 0.07572056 0.8201876 -1.9595866 -0.16061305 4.11398 0.19147639 3.8237183 -1.4689554 -4.0035353 0.11184034 1.1776747 -0.49517554 1.4688104 -1.0708429 2.8561778 4.4657555 1.3440348 -2.8587863 -0.7925706 -0.6598104 -2.936417 1.4807731 1.1924775 -2.9414642 1.5390583 0.7003333
2381 -0.4701459 0.25720957 -2.266603 3.9980974 2.2017438 -1.958331 0.28167033 0.64088935 -0.037973225 -1.4990506 -0.83581764 -1.7531796 -3.2279236 2.2287967 2.477925 0.92018855 -4.272614 -0.650092 0.5276195 -1.8318747 -2.1950634 2.498035 -5.402413 -0.41542882 -1.6575302 -1.8665649 4.6751246 -1.5662194 -0.7033252 -1.858464 1.4839551 -1.0974271 4.1953607 0.94064355 1.7695391 0.77157146 0.90603745 -0.45743647 -0.3811486 -0.55754507 -2.888443 -0.08783588 -0.95620215 -1.9928943 -2.3164258 0.99676377 2.4597373 0.40673923 -1.9316028 -2.0073538 0.89890516 1.9314942 0.6231877 -1.7267236 -2.7275891 -0.4419482 -1.2967716 -2.9981616 0.45141155 1.1418524 2.353687 0.118617825 -0.040403657 2.3557377
2925 -0.44760182 -0.9577507 1.1998839 -4.4184175 -0.522974 2.2470973 -2.1854491 4.393511 5.6352916 -3.1403515 -3.4975889 1.2065523 -3.5497994 -4.2667856 2.6506624 -5.045735 -7.090392 -3.3207104 2.1013548 5.3462415 8.258888 0.9141926 -2.8670006 -0.19883585 2.6408775 0.86766326 -2.9810526 -4.1964016 5.6265287 -0.68584824 1.3079903 -0.4952245 -0.5677422 -0.34682387 -1.5399566 4.686412 -2.9772003 5.400538 1.395182 2.0641809 -4.1238756 1.2179418 5.5780993 -3.4710853 3.3486023 -0.42464942 -1.4307196 -0.74808055 0.04250817 -0.839686 -0.5265181 2.962374 0.7383362 0.667465 5.2400637 -0.40941295 0.43716502 -2.4747944 2.1424847 -3.4633954 1.643048 1.3023452 4.7307076 -6.6695523
2583 -3.9348845 3.0561137 0.08447563 -5.0366974 4.2823024 4.815769 -3.8849893 0.48267272 2.4117095 -0.81258184 -5.2231007 -1.6833097 1.1119055 -2.629676 0.31184235 -4.2647696 -2.5394678 -1.1834421 -0.8432544 3.8438454 9.156794 -1.5658659 -1.7008166 2.5913222 5.2657323 -1.8526089 1.0851526 -2.83529 -0.5291774 1.1405332 4.31355 -5.234663 0.5105801 -3.4189186 -1.7163074 2.1429424 -4.998898 -1.9016877 0.4975166 -3.0065868 -1.7721702 6.6398916 2.012847 -3.2224858 1.8494638 -0.8650045 -2.3940167 0.69320065 3.8958144 -1.930046 1.4223822 3.45575 0.815401 -3.2700121 -0.6219076 -5.7272663 -1.8079517 3.6704633 -1.9369643 -0.915844 0.6777756 -1.7940865 6.3735905 -5.9420314
1750 2.1488087 0.24711658 0.038836017 0.14237571 0.09026454 -1.695962 -2.3690348 -3.5173845 2.4020853 -4.5680323 2.4908023 4.1395397 -2.2309818 -0.27549666 0.07694181 2.5608084 0.51068527 1.0941069 2.2967331 1.3049505 -1.3675947 -0.814212 1.0446947 1.9726813 1.0232704 -3.5773406 0.4698393 6.255145 0.2435712 -4.11172 -1.7202672 3.1256735 -0.5333148 -2.5619814 0.45515925 -0.7466709 -2.0540006 2.3957975 0.24628226 0.91034985 -1.9763532 1.07448 2.1987922 -0.62953186 3.9574063 2.1524353 -3.1400776 2.5545645 3.0384145 -0.4828224 3.4065523 -1.5580037 -0.6462098 4.437958 -1.1517057 -1.3212618 -0.59028196 -1.9184045 -2.4922862 1.3685505 2.3612015 -0.9233143 -0.32218963 2.1426697
1752 1.3186677 3.033858 0.70251733 -0.4694807 0.20439588 -2.0102584 -3.9197571 -3.4628499 0.6814423 -2.4474945 1.8378285 3.1269438 -1.1625158 1.7053889 -1.6740632 3.4402003 -0.41287056 3.1489384 0.3203749 1.1880249 -1.5313985 -0.21865007 -0.7147206 1.2104299 1.7672364 -2.0526462 0.27667737 4.1026907 -0.9555799 -3.250363 -1.148223 4.0637536 -2.2068202 -2.1019473 1.8675798 -2.251021 -1.3883134 1.699306 -0.46190122 2.6987665 -1.4962924 -0.22924812 2.8227732 -1.176332 4.11032 0.64343244 -4.945965 3.2943075 0.2999863 0.7154901 2.0261111 0.06195338 0.4547928 4.2736053 0.8256448 -1.9003057 -1.5430183 -2.3884077 -2.5826945 0.82116985 3.1019893 0.6518452 -2.684247 2.475178
1671 -0.90845686 2.3174493 3.3059843 -0.28203407 2.5629833 -1.7358096 -1.8491066 -2.348514 2.8678675 -2.2393236 1.0403316 3.284346 -0.041262403 0.09991011 0.39392307 4.12193 -1.3704118 1.1804125 2.4539142 1.2601278 -3.181657 -0.44684356 0.8917489 0.68833965 1.9759165 -2.174077 0.14941664 5.70743 -1.427884 -4.83122 -1.2955347 3.6370666 -0.97314876 -3.5336952 1.0902364 -1.6575551 -0.14642064 1.1926732 0.3296027 0.8069797 -2.462299 -0.17269348 3.8110492 0.28628388 3.1152933 -1.6092408 -3.9928403 -0.10494381 1.6387721 -0.546632 1.6351038 -1.6679105 2.638442 4.514431 1.5513383 -2.4900978 -0.5584175 -0.9234396 -2.9853666 1.5077859 0.7268714 -3.0040774 1.563117 0.63479125
1704 1.7388048 2.3015866 0.25196928 0.107408695 0.99983823 -1.5482752 -2.3291225 -2.7376873 1.4087545 -3.659548 1.362744 4.4578094 -1.740566 -0.67981386 -0.26419953 3.1597345 0.5351355 2.889736 0.36678466 1.9445813 -2.2487705 0.58766705 1.4983262 2.489264 -0.6497154 -3.2208407 -0.111599475 7.303815 0.12094475 -4.92963 -1.8524845 2.6204014 -0.55359185 -2.5834558 0.7472113 -0.6953252 -2.0222166 0.6758501 0.2366125 0.86748415 -1.8490232 0.71242285 2.233405 -0.1908884 4.596305 0.5368097 -3.3418736 -0.0737669 1.5512748 -1.150895 2.0477314 0.31240642 0.8930761 2.631263 0.9543139 -3.9352121 -0.37765786 -0.99148005 -1.5933727 0.9825113 2.7200675 -0.8240047 -2.4211667 2.501334
2558 -2.103254 0.89687914 3.187827 5.869445 -2.2603033 2.7715683 -1.8034223 3.359628 3.4096336 -0.9420326 -5.1183248 0.8287117 -3.3895352 4.274594 3.453856 -3.1559188 0.44627485 -0.5691739 0.53185284 -3.335937 6.8700395 1.0957533 -6.5785904 1.9836471 -6.152364 -1.1824793 3.5575957 -3.088092 0.57140654 -1.8960322 -5.987137 -2.4047186 -1.0298111 -0.44773766 -1.9261298 0.6425884 8.3664255 2.609594 -4.6381736 6.8170686 -1.3317893 0.34536517 2.1869519 -3.1327267 6.234014 -1.6221999 -2.1226907 1.7508659 0.8167297 -3.2731605 -1.156087 0.97280157 1.5701205 -2.9066045 -0.63480276 2.546716 -3.1300025 0.02050497 0.84039056 -6.2244925 -0.2880335 -3.8168135 1.7475222 -0.58828163
1788 -1.8994977 -4.554466 4.8628917 2.5896544 -4.9691353 -0.80495995 -2.1107857 -0.27398363 -1.8246773 -2.3764307 0.998145 -1.0107455 -0.36798677 -0.16733278 -0.058673475 -0.4592986 0.92247343 -2.1361547 1.806037 2.0180619 -3.4095764 -3.523489 2.9023252 2.5119643 0.6437983 1.3870455 0.33710697 -1.5844846 -0.44564235 1.7740408 2.72652 4.8326216 0.8219855 0.19412743 -1.3613284 1.269694 -0.65314156 -2.0020456 3.4024942 -1.8445458 0.33956546 2.7283943 0.38366997 1.5874774 2.888984 3.1443307 3.0316403 1.3458987 -0.27415344 -1.9375932 2.738557 -2.2001338 2.6606522 -3.0418963 1.4618908 -2.1074922 1.4470537 0.7806201 0.59163815 1.7297611 -4.814992 1.7179167 2.1005979 1.7096099
2016 -6.8840637 2.4267106 1.1253948 0.08556699 -3.378403 2.7627578 -2.4273024 -0.6743285 -1.7906837 -0.07654527 3.6653697 2.9160368 -1.5848905 -0.2533963 -4.1602073 -1.5991522 0.40811598 0.72798973 0.67396986 2.98647 -1.9193286 -0.5652092 0.021302009 3.7153046 -3.6605864 0.44220218 1.1791176 2.045907 -0.75287294 -6.422036 1.5241297 2.2103088 -0.6739485 0.65942335 0.34926504 -3.3121428 -1.3623785 -3.9685206 2.2992258 1.1154152 -1.2633111 -3.4434009 2.1520264 -0.010227728 2.055669 3.6894455 1.9186486 -0.2472113 -1.5018035 0.83485013 -2.6004987 0.07703041 0.40738994 -2.1598709 -0.3199829 -4.44549 -0.22497985 -0.73480237 -4.0255313 -1.4029652 -0.46459454 0.7905513 1.0087489 1.7117282
170 -1.7259612 6.0524826 0.37727284 -1.5076934 -3.4879646 1.2136452 4.3259864 -6.2935033 -4.6430383 -5.9279637 4.483188 -2.4771485 -0.14698315 5.7522388 -1.3939415 0.9022757 -2.3431342 2.4491513 -1.0731932 0.6568682 -3.1384273 -0.13740297 -2.5236301 0.83383524 1.8698636 -0.47796643 -1.3502816 -3.0689085 -1.5752207 3.5882847 0.5212919 4.709131 -1.8070921 0.57401156 1.5679195 1.5495725 2.07946 0.593297 -0.7380384 -5.5298924 3.0361822 1.2517235 -4.6535645 1.7114902 -1.1144245 -3.357929 -1.611733 5.203711 -0.1631286 1.7477361 -5.1512427 2.6528425 -1.4691716 0.89428633 3.356059 0.7782172 3.5645537 0.37056655 -1.4644022 0.95572746 0.7725902 0.09378282 -4.338222 -2.6584787
2202 -1.4090362 -1.7613053 0.75134987 1.5524602 -1.6051295 1.1187894 -4.8173366 1.0434697 -7.585593 1.7777368 -2.36589 -2.811901 0.43506142 -4.29922 -4.568188 -0.7991565 -2.7179847 1.6962827 0.11019657 -1.3586192 -1.911962 0.9919773 5.427523 -1.9816457 3.765616 -0.95358366 5.2048526 -1.3005047 0.09685264 1.3444269 -2.9809382 -0.3352452 -2.0953708 1.7695323 -2.800848 -0.8820608 -1.7913604 2.3022516 -1.3430872 -1.2317754 2.3168838 0.6468726 0.7419685 -2.3583858 3.4071279 2.1569426 1.5932289 7.463464 -0.6510849 1.2020571 -0.8790184 0.7976886 -4.869261 -0.83800626 0.40779293 3.4380555 1.5594536 -2.04765 -1.620163 -0.8276701 5.207123 2.141855 -1.6783514 2.341325
1751 1.5409114 1.4107676 0.32632887 -0.92972124 0.6558942 -2.8562193 -2.705613 -2.697001 1.928699 -2.2291136 2.1526148 2.9779663 -0.85328174 0.44875973 0.72138995 3.2469685 -0.61379004 2.7829182 1.3199503 -0.086833544 -1.504888 -0.5909228 0.9075036 1.1826788 2.3029206 -2.5353808 -0.12760328 5.476414 -0.5677266 -3.1687982 -0.41709483 3.1954331 -1.3414767 -3.1126585 0.067288205 -0.80488575 -1.1900609 1.1023415 -0.1887 1.3788522 -1.8596505 1.2650412 2.0262773 0.14340553 4.888822 -0.1801808 -3.6025715 1.0839753 1.7792999 0.5825624 2.4125423 -0.8123108 2.603883 4.1720695 -0.39622933 -1.9102759 -0.20480631 -1.509297 -1.4412235 1.3815223 1.837309 -1.1444728 -0.42562944 1.8311524
18 3.3956904 2.5341072 -0.75976366 -1.4277595 2.213755 2.2347443 -1.4537952 3.9351962 1.5144523 -1.3390583 1.3473663 3.395357 1.2951529 -0.34289765 -0.13118322 2.2597678 -2.4506564 -2.2576206 -0.06900152 -0.9886399 -0.5153328 1.5112555 3.390003 -3.3767934 -1.4245154 1.8101712 -4.895879 -3.8708355 -4.1192036 -0.3271129 1.1416391 0.41472858 -0.2603513 3.1875496 2.3116226 0.13642395 3.123185 0.11930273 0.36162424 0.3125896 -2.2354853 -3.8651025 0.10243759 4.0760503 -3.5398273 -0.21012112 3.4374459 -2.5893784 -2.2344086 -0.4747654 1.548778 -1.8210281 -3.4275236 -1.0652986 -0.5725734 -1.6460394 4.4072776 2.4162076 1.0380483 2.4010837 -0.47024038 -2.4716659 -2.7610695 2.7612302
2370 -0.2722609 0.6533731 0.13485937 5.177041 1.9497689 -2.2027962 0.39027256 1.1651027 -0.3190667 0.27812994 -1.1829377 -1.9019886 -2.8150113 1.1517066 3.11639 0.62359786 -7.538215 0.6193776 -1.3725232 -0.32278252 -0.6408299 4.031648 -7.379917 -0.858524 -1.8270156 -2.6834643 4.441539 -2.167321 0.26403758 -0.377268 1.1435983 -0.48874152 2.200703 -1.9522581 1.5050204 3.4411018 0.12583873 -0.0009886341 -2.1498663 0.089752525 -1.7940885 -0.6707302 0.8571272 -2.1983325 -2.8599005 3.4830725 3.0096447 2.4857 -1.9445727 -2.9296129 -1.3992126 2.2948852 2.369461 -1.7613376 -2.3107376 -1.5480974 1.2052394 -2.4885366 1.0881016 1.6026175 2.6267068 -0.5255479 -1.5350441 3.1162553
2497 -5.731155 1.4396832 4.224704 -0.6510279 -1.7470614 3.325038 -2.5677464 -0.024820542 -1.6878995 -1.7413099 0.6138631 1.0647075 -1.3377182 -1.7281226 -1.7978833 0.37487426 -0.6261412 -0.8805361 -3.9337058 2.049079 -2.7170012 0.31228238 2.3011022 2.3825681 -1.5980829 2.5304031 0.83660203 3.2790432 0.16151385 -3.975496 -0.29985836 1.406987 0.87667465 0.57427627 1.5284966 -3.537205 -0.91663367 -4.043359 1.5968682 0.18853778 -1.5121869 -1.9600531 1.9819484 0.56459975 2.1972818 0.34249035 1.1334596 0.08532597 -3.5850103 0.62168825 -3.1896303 3.0132592 0.8725169 -1.7208511 2.3861997 -4.759506 0.33034402 -0.97431403 -3.068528 -1.3807672 0.12282034 0.99402606 0.883911 2.745902
1134 -0.9087628 -1.2740711 0.64613706 1.9524803 0.500329 -1.1000499 1.156759 -1.5082328 0.6078512 -1.5061196 0.66189986 0.2559096 -1.7502816 2.129763 -1.5838621 -0.99543834 -1.3631973 3.389279 -1.6494069 2.6387706 -3.8118083 1.5153518 -0.7228773 -1.8895377 0.40649837 -1.1072996 -3.2870471 1.8528253 -2.7041166 0.21848439 1.0531855 2.1058612 -0.91933465 -1.1854932 -2.6235774 -3.4869974 -0.8626032 1.4456116 -0.5244768 1.9393826 1.4475209 0.6789976 -0.6702592 3.4701817 -2.1815727 -1.9580684 1.7616976 -3.2295883 0.46148047 -2.2134404 1.8798907 -0.5628002 -0.85113966 -1.7832241 -2.112504 4.2223134 2.0058734 0.8423676 -1.604688 -5.8978224 0.7511923 -0.75068194 1.1107606 0.20503353
1328 -1.9610014 -4.46831 3.155846 2.559438 -3.426491 -1.7621553 -2.238528 -0.006383191 -2.7163794 -4.0699687 0.3598126 -2.534726 -0.7263901 -0.74438184 1.4085397 -1.931302 2.5954897 -0.6731811 0.82072806 2.4664578 -2.7117214 -2.9221256 4.6032224 0.01227615 1.3841085 0.6053424 -0.26434582 -1.3436215 0.995837 2.143118 0.7723212 2.539353 1.2955971 -1.8241878 -0.68983763 2.519108 -1.662697 0.6378429 4.0925035 0.45910078 -0.5921588 4.1840124 0.5232085 2.263469 1.145677 2.6391878 2.686174 3.3169744 2.4680398 -1.766067 2.1976166 -3.8185446 1.6799673 -2.8843107 0.68131655 -1.5850582 2.723993 0.50432545 -0.020301018 3.5257692 -3.0584908 1.8954587 1.0269611 2.027099
1732 0.20398061 1.7449507 2.0707593 -0.3233441 0.18678685 -4.4668713 -2.6584878 -3.3652315 2.1133068 -3.1605945 1.3693457 4.566335 0.04360638 0.48219928 0.22958562 3.4577305 -1.532349 3.0339978 1.2150335 1.3450197 -2.1782389 -1.1977813 -0.007842514 2.2753484 1.5909986 -3.115834 0.47904614 3.9659083 0.6142019 -3.0899808 -1.1322911 2.4601831 -2.9951885 -2.870208 -0.2406825 0.6292586 -0.60922074 1.9935094 -1.4278044 3.2125907 1.2091191 0.68655604 0.86669844 -0.70328 3.0290515 1.6849202 -3.2943032 3.0930877 2.6315403 -0.7290354 0.7813534 -3.1719818 0.33704636 4.410268 0.774851 -2.8425689 -3.2960596 0.4155414 -1.3920617 1.980578 3.111761 -0.9870855 -2.3038294 1.9736248
68 -2.102387 0.8678306 -0.730544 1.1043332 -0.7541359 -0.055474874 3.8568146 -0.33384076 -3.339706 -0.78975475 -0.2727289 0.6143995 3.5462399 -0.70027953 2.801084 3.1603022 0.81113803 0.010145408 2.2859266 -0.2564023 2.8388767 -1.498319 2.0192056 1.0386813 -2.959594 -3.4428792 0.16313748 3.2633922 -3.2594604 -2.876009 0.58679277 2.2539175 -1.0352058 0.5484515 -1.7404188 0.27609625 2.4923718 3.1183434 2.1041439 1.667259 2.7237604 0.9903142 -4.247879 -0.81681764 -1.786105 -4.117571 2.1486394 2.4696448 -3.0006125 -0.04325045 -4.254151 0.5337244 -1.2065012 1.699133 -1.4136213 3.9571612 1.4327587 0.018148763 -0.8818245 0.3516392 -0.6940223 -1.6865017 -2.051724 -1.9810541
17 -1.5459594 -0.3586056 0.50265515 2.9747741 -0.07994656 -0.85278887 4.1377664 -1.627329 -1.1637126 -3.4718578 0.6198075 -5.1331663 -2.6135852 -2.2946742 -0.9315685 -2.2066717 -0.6937979 -1.6417611 1.4202529 0.64253163 0.5851114 -1.5711101 -3.606974 -1.82914 -1.2765822 1.7904512 1.9413831 2.1253166 -1.632524 0.2529424 3.4431193 0.06828174 -1.3280021 -1.6427604 1.966526 -1.9324325 -0.22402287 -0.5582186 2.8005674 -3.277051 -1.1291729 -3.9997873 -0.003273966 4.1894107 0.0091741085 -3.7781801 -0.9623822 0.28212634 2.6447566 1.9554096 -0.53140384 0.93303865 1.0783451 3.8467476 -1.9699904 0.94101125 -0.40581352 2.6611702 0.7024512 -3.6743345 0.8848673 1.6353009 -2.2528389 2.687199
2587 -2.5171332 0.15844268 -1.703204 3.9684248 1.0887961 -0.78569454 -0.5128455 -1.2634073 1.1525244 -1.8132207 -1.139838 -0.3776753 -3.8010476 3.544517 3.1743484 0.45148557 -6.1634154 -0.41211265 0.9792337 -2.4671342 -1.9715009 2.7141109 -5.150774 0.8592503 -2.3350146 -2.8803077 4.8168907 -0.563879 -0.7548914 -1.3786726 -1.4925524 -1.6239892 3.7264693 1.4424444 1.9996135 -0.08512825 2.3761744 0.19974008 -1.8345743 1.4416674 0.3701818 -0.20974213 -2.3418033 -2.19877 -2.2356026 3.233172 3.5991814 1.6358527 0.287301 -1.7772474 1.3919289 2.5588677 0.25577146 -2.9644785 -1.6795781 -1.8659282 -4.740068 -2.13301 0.23522617 0.1734573 -0.79773307 -2.5857522 -1.585314 1.9189639
1753 2.1861918 1.6386392 0.818204 -0.73529345 0.32501432 -2.832126 -3.1656318 -2.096826 1.8005884 -2.1692007 1.7206963 2.7501974 -0.7052648 0.12683049 0.4689004 2.9712226 -0.5530395 2.637769 1.0613983 0.4589172 -1.6429099 -0.5638163 1.9869571 1.1088215 1.9341717 -2.3153667 -0.10879611 5.524559 -0.37022367 -3.40027 -0.82309 3.0253446 -1.1923339 -3.4162247 0.23670898 -0.7716299 -1.1301339 1.2911776 -0.51674676 0.7209078 -1.2482882 1.2758732 2.1462147 0.075596966 5.2220984 -0.27125567 -3.3893127 1.3098786 1.7944973 -0.09662754 2.4588652 -0.82249254 2.7090693 4.1161723 -0.26405582 -1.4348485 -0.602903 -1.5774692 -1.7512426 2.0010986 1.9367927 -1.0062097 -0.3900453 1.5035207
3254 -1.0955639 -0.92920125 3.8931258 -1.3407413 -0.6517878 0.978495 -1.5437044 -1.483593 -3.977095 3.0913107 -2.5820127 2.9044511 0.6958327 -1.80012 -1.717493 -1.1741182 1.4754919 -4.1611176 -1.4923083 -5.4950275 -1.3800004 -5.398591 -1.8456789 -0.29284954 -0.1776022 -0.50534636 4.5162416 -0.21520914 -1.9362428 2.9055789 4.2694116 2.7437305 1.0800017 1.799547 0.6637762 2.012472 0.47490925 -3.174755 0.5839156 0.850197 -3.6390593 -1.83657 -0.14923042 -3.5953877 0.23776968 -4.1562004 4.700761 -0.7523836 1.647147 -2.472708 -5.2921233 3.4096913 -5.6701975 4.7639585 -1.7850888 0.59880704 0.073246256 6.1379695 4.959449 0.0062799463 5.909817 -5.247715 2.9729166 -1.0161121
2108 -4.439066 2.2745132 2.9338245 -0.08479595 -2.418102 1.8844072 -1.6362344 -1.1388962 -0.8867301 2.2978208 1.2818424 1.6913548 -2.2360663 0.58429044 -2.5894575 2.144774 -1.1147822 -0.81704754 -0.6267343 0.7544209 -2.748964 -0.72777265 -0.5431038 2.6958432 -1.57206 2.548691 2.853745 1.3967603 -1.1434253 -2.44678 1.3902295 2.3399546 -0.35159272 2.1545963 1.724004 -3.9589062 -0.96688557 -1.8486384 1.8237811 0.9279029 -2.785801 -1.6689192 4.3351 2.579289 2.5778878 1.9604002 2.0890062 0.048294876 -5.3077974 0.34087965 -1.8708625 0.9828792 0.369062 -2.6715605 0.8659366 -5.4401717 0.26384407 -0.27529877 -1.5460341 -1.4968228 -0.57956487 1.5968324 1.5548211 2.6960583
2749 -6.636228 3.0183282 3.9803526 1.7957273 -2.1191187 1.0036327 -2.2026277 1.1429448 -2.3110886 0.6625257 0.7070851 -0.3608825 -1.4572703 2.1807442 -3.674003 -0.56509084 -1.3352265 -4.3322787 -1.2723312 2.4594076 -3.1406481 0.064264305 -2.0011017 3.8286219 -0.5998823 2.7720706 2.8999987 2.5479527 -2.45831 -2.9509656 0.7392775 1.3190011 0.04219214 -0.032205913 -0.035951152 -2.8158338 -1.3432909 -0.8708299 1.9099925 -0.49491063 -0.9895293 -4.2180243 4.331907 2.1006181 3.1856003 1.2086974 1.7769293 -2.2164078 -2.811586 0.96241283 -1.5475504 0.7616717 0.8095995 -2.0667555 1.9995008 -2.149105 -0.11843113 -1.7450876 -2.3288789 -0.3941569 -0.45669696 -1.0067666 1.4753965 0.20947108
2612 -0.091824055 -1.2159168 5.683358 0.8118251 1.843533 1.3061925 -0.18194062 2.590206 0.7991709 -1.3513973 -3.8137264 2.7678764 -1.3136231 1.4388462 2.8306644 -1.5989115 -1.7193998 0.41032845 1.2738544 -1.9905218 5.892325 2.7878885 -3.2715707 1.4363152 -2.63618 -1.7112325 0.6907088 -1.0766835 0.07616957 0.6746592 -2.7251003 -0.75857776 -3.147514 -2.1705625 0.1654234 2.305841 1.735713 2.16253 -1.4322634 1.3463053 -0.22494403 -0.2380306 2.7729936 -0.8454245 1.9640497 -0.78855485 0.1011489 3.6181972 1.14457 -2.9847043 -1.9477152 1.8544651 2.924178 -1.531764 -1.5363435 3.2032576 3.67532 -1.8628207 0.81175965 -2.0892599 -3.4638884 1.4932216 1.662432 1.1887116
2484 -3.6650174 0.76456505 5.293553 1.2278966 -3.423853 1.765503 -3.1248438 -0.16666603 -1.238187 -0.9271317 0.9907995 0.3867903 -2.2962518 -0.49732494 -1.154495 -0.17673352 -0.8005045 -1.645877 -2.0747213 0.5037952 -3.1175845 1.4166139 -2.2898834 2.9974718 -3.8579593 0.71362305 3.2819736 1.3404737 1.3993394 -4.864414 0.083676174 1.3007525 0.1011035 0.9996695 -0.5132569 -2.2130039 -2.056904 -2.8388574 3.5515263 0.34177393 -1.2753992 -2.2482293 1.6036878 2.3575604 1.5616764 1.9145819 3.2510934 -0.40395042 -3.6134243 -0.70249474 -0.53576136 -0.0838253 1.5267646 -2.8222315 0.8240799 -5.3656783 1.9224794 -0.83874714 -1.7927899 -0.77838576 1.5941838 1.1381923 2.3756702 2.8438978
1623 -0.4380318 4.526113 1.5686156 1.1081976 -4.0911937 0.14707541 -0.4671391 -4.4019084 -5.143183 -4.4631114 0.7641289 -1.4485416 -1.35973 1.7483516 -1.9562931 -0.29445043 0.06903307 0.9724953 -2.0506241 0.3909018 -0.6885508 -0.6750128 0.46160015 0.25379467 2.8162286 -1.5538459 0.5230559 0.9568804 1.5643407 1.6147318 -4.488332 4.038555 -3.7266772 1.5448897 0.05983365 -1.7221892 -2.3399894 1.9113367 -1.3441794 -1.435066 -0.19834141 -0.23812784 -0.62421346 0.75637877 2.4336505 -0.30472785 -2.2424073 5.5301995 2.008884 0.27856022 0.9777054 1.569479 -1.0108263 1.2812701 2.1064174 1.1385136 0.34499982 -2.0520868 0.5532745 3.233923 1.3927826 0.9069545 -0.4485474 0.008860918
1833 -0.5662183 -1.9192075 0.89940745 1.6149971 -1.672568 1.0100609 -2.9748795 1.0988172 -5.1988173 1.7995311 -2.1769483 -0.40331343 -0.58629054 -3.0658069 -2.2624621 0.9495967 -1.5330447 2.1440141 0.3924359 -1.6318421 -2.1325593 0.6117918 4.688141 -0.5373859 4.0765676 -0.35074756 2.5493362 -0.97695297 0.06577559 2.7847617 -2.6014202 0.6925434 -1.6283429 0.35887176 -3.4709845 -0.7312417 -2.3102782 1.0013719 -1.0205023 0.96146137 4.6525383 0.6789768 0.86158824 -1.2680345 2.674326 3.4220562 1.2836256 4.8141503 -1.6601765 2.5709658 0.6236029 1.0441642 -1.703006 -1.1154864 -0.2376004 1.253068 0.6946843 0.654392 -0.19990125 -0.08464122 2.212314 -0.08007558 -0.23802198 2.1570594
2014 -2.1214595 -6.4555626 3.2875848 2.6122887 -4.863233 -1.7743773 -3.7370012 0.4942302 -2.4659836 -0.6561007 0.39138752 -3.634225 -0.21376914 -0.010240556 -0.92769957 -0.52610034 -0.58237284 0.7271098 0.52219474 0.3291465 -2.5755446 -2.3878086 5.498351 1.5008477 5.505016 0.35688218 1.813645 -2.849232 -0.44610286 0.1917512 -0.4957048 2.4655118 -0.83541924 -0.63228256 -0.55530554 1.5985518 0.23975629 -0.39119706 3.0491507 -0.9404767 0.0028254604 1.3373023 0.47775745 -0.7754541 4.942628 4.1507483 0.8091937 2.1869118 0.27035728 -3.4864836 4.798375 -2.0544016 0.5270418 -2.4245632 0.39550942 0.04809707 3.5096703 2.3467207 0.4746641 1.5106032 -3.481554 1.767783 0.6126675 1.847745
2637 -1.7041166 0.26932883 -0.9361183 2.0193565 1.370083 -1.8062618 -0.54699343 0.95484036 -0.45953003 -2.7074573 -0.70416915 0.6961536 -2.67237 2.9035752 1.991926 -0.8324617 -4.4436827 -0.9541812 1.8705018 -2.4524581 -0.4180999 1.9548309 -5.8988457 0.5813117 -1.7892654 -2.4839683 6.2078795 -0.99772805 -0.4948683 -2.5328941 -0.743222 -1.7770246 2.8460484 0.79470915 1.9360179 0.9123421 0.36217472 -1.3157985 -0.84442383 1.621629 -0.7143852 -0.9801878 0.44547963 -2.4892793 -3.9757648 -0.1781378 2.0195253 -0.3186897 -1.9574245 -2.2605507 2.4992173 2.2510881 2.9382372 -2.3489156 -2.1666236 0.39128304 -1.1162907 -2.3275366 -0.26656708 0.9565059 1.1393449 1.0716312 -1.3658599 2.5178201
1659 -1.7063748 -1.3988844 -3.285097 -4.7338457 -5.921967 2.8087327 -0.76105726 0.19329129 2.3822381 2.1791244 3.8853726 -2.7227073 -1.9556276 3.5602694 -0.106715515 5.8937473 -0.4208284 1.4498398 -6.2635283 -6.305232 -1.3612632 -0.4762348 -1.400751 3.5023081 -3.5214016 1.2573935 0.060904033 1.6986854 3.1308196 -3.499388 0.3241662 -3.422549 3.7420871 0.5559415 2.4246747 1.276447 -0.033142384 5.3310914 1.5913342 2.9272475 -3.7970278 2.5553112 -2.9416122 -0.29803416 2.535854 2.9898336 5.34986 -0.31130257 0.8673423 -2.6954548 6.455211 0.16225713 -2.2486694 0.735321 -0.2790093 3.7392201 -4.1038146 1.2171365 0.95657444 -1.5730675 2.6813328 -0.044220414 3.2598033 -1.7836603
2638 -1.3567193 0.1253378 -0.7110083 2.001157 0.7001007 -1.2945552 -1.1145866 0.5404424 -0.49921578 -2.295393 -1.0592539 0.60573065 -3.3639512 2.9589882 2.2204828 -0.0428479 -4.7878714 -1.4000195 1.698803 -2.7176898 -0.57890713 2.0903912 -5.5699635 0.2819564 -1.6941661 -2.0790756 6.7071104 -1.1280603 -0.22355077 -2.162112 -1.3538303 -1.5097332 3.0869215 0.573836 1.4293883 0.53385097 1.2113926 -1.3293638 -0.71645576 1.9748896 -0.36852744 -1.0094168 0.90250725 -1.8802825 -2.7534242 -0.25513563 1.7374613 -0.018283004 -1.8495069 -2.450835 2.8692098 1.6107516 2.9545836 -2.4046397 -2.4567907 0.75870097 -1.2459257 -2.4625645 -0.31344786 0.5607356 1.7016324 1.1035956 -1.638874 2.1231966
1808 -0.31055987 -1.2762836 0.0779495 0.75955874 -0.2517993 1.2966969 -2.8512712 1.3677927 -6.2226086 2.2229054 -3.3613145 -1.9001187 0.0652026 -2.0338657 -3.9354432 1.3493775 -2.2149918 3.7514212 1.556609 -0.31593895 -1.0010136 2.8831394 5.654587 -1.8498726 2.568528 -1.69311 5.21164 -0.8347013 -0.61149985 3.5646431 -1.0137273 -0.69878644 -1.9309742 0.837625 -2.7712212 -0.66868895 -2.5785384 1.8560525 0.2708369 1.2951438 2.7010305 -0.022893827 1.3088067 -1.7389778 3.4054863 2.3069718 0.9786895 3.9261987 -1.7107877 1.4374769 -0.62111956 0.6987787 -5.0785637 -1.012014 1.6991044 2.574812 1.3347851 0.018043986 -0.94598573 -0.20697352 4.1355553 0.81861407 -0.8388168 2.2074828
428 -2.8012261 -0.63414484 -0.6309003 2.8318696 -3.3894877 -0.21855378 -1.6692113 2.3642995 3.1705172 5.5634575 -3.1203191 4.138691 -7.9603653 9.620923 1.1860936 5.2280107 -2.0376909 -2.8093224 0.12610173 -1.2326803 -1.2897398 0.36055315 -7.902045 1.3133687 -0.52816415 -2.4447775 2.0608382 -5.2191668 0.9410533 -3.773602 -3.1181958 -6.137293 1.3017669 1.8095163 1.0135132 0.88372695 4.685762 3.8780808 1.5349782 -0.10110526 -3.233721 0.97721624 -0.8806212 -1.8622289 -3.5420823 6.0431857 -2.183115 -0.8279214 -6.717279 -2.8349457 3.0848806 0.31336313 1.3829395 0.6421614 -2.8157003 6.119224 -1.8736724 -7.5152974 -2.287187 4.1299567 1.6912936 6.6242523 1.9492449 3.4109433
3 0.8796603 -1.3182629 0.82781374 -1.041256 3.0126286 1.5505677 1.9188147 4.6646914 -2.957473 1.0834087 1.2851695 -1.9881322 2.3760233 -2.8088322 0.29478115 1.9432832 0.6047059 -1.7726163 3.9241796 2.0195985 1.8763434 -0.67154 1.5090154 -2.4218829 -3.8655548 -3.0424876 -2.2554777 -0.52974075 1.4850682 2.1404314 -0.027569054 2.9174685 -1.0491451 2.1812763 2.1671886 0.59636104 0.81063634 -1.4485841 -0.5304327 2.3971567 2.8445778 -1.3630801 -3.1953228 -0.042385485 -3.4334173 -2.8711033 0.5064629 -3.0928237 -0.5790358 2.2878006 2.1466556 -1.5376834 -0.052837186 1.9299753 -1.35453 0.6696946 -3.5576322 1.3135701 -0.2539455 3.0542123 0.07362758 2.6379354 1.3084698 0.8674655
2546 0.6523143 -2.1822226 3.6600654 -1.796027 2.2713082 1.0639153 1.4420259 4.301843 0.058195204 -0.5820666 -1.8131865 2.8988273 -0.31688043 1.8556194 1.0515947 -2.7508063 1.5050904 1.2390984 3.8457277 0.19110735 2.5699124 4.290157 -1.1027964 3.0546894 -1.4256185 -2.473745 0.86847377 -1.1774715 0.5139132 1.4768493 -1.4128349 -1.8749644 -3.4958627 -1.6213152 1.5551648 3.7236054 -1.4991542 3.2893512 -0.6348794 1.6320739 0.48086485 -0.44579574 3.7992148 -0.48022273 0.6574073 -0.5154214 1.1543523 2.8104768 2.1647325 -4.596472 -2.2527077 4.1167145 3.5452287 -0.71734 -1.2449472 4.977153 1.2646372 -1.0908085 1.6403426 -0.33163863 -3.838195 4.3908916 4.8238516 1.0620856
1730 0.31103525 1.1822616 1.9764118 0.05614499 -0.42544022 -2.9612777 -3.4486635 -2.6080496 1.2733727 -2.275531 0.6342002 4.02059 -0.8292621 0.011080005 -0.93044585 3.403812 0.03620081 2.6116998 0.76387876 0.83913326 -1.5928198 -1.4298679 0.48904845 1.609918 0.4324209 -2.522772 -0.19991422 4.343846 -0.041089118 -3.0484395 -1.0452554 3.1598682 -1.5226312 -1.836081 0.54565746 -0.3195063 -1.0581946 2.4083257 -0.7859961 2.4955475 0.525836 0.57376224 1.7982032 0.19900714 3.3887613 1.4784398 -3.3429224 1.8748792 2.1519165 -0.06509864 0.7024867 -1.9455117 0.58687675 4.158372 0.41178071 -2.4969804 -1.903007 -0.77764595 -2.380008 2.2698004 2.1991017 -0.13636035 -1.2016801 1.3637267
2740 -1.1597153 0.1622522 -0.33929992 -0.2683935 0.3530228 -3.7310798 1.4317646 -1.8122886 -4.679763 -1.2431529 1.5734724 0.72722715 -1.6654439 -0.09108628 -2.0356357 1.5261196 3.8815413 0.96626896 2.1535606 1.8297578 -3.0062919 0.6683668 1.8521347 -0.34194335 -0.06336652 0.5001906 1.639991 -0.5371493 0.11984476 1.1469417 0.50129104 -0.93271744 0.62021065 -1.3124746 1.8166466 1.8499082 -1.2860633 1.4698323 4.880808 -0.21470118 -2.002991 0.4032645 -0.1793731 -0.31895244 3.1536095 0.50457823 2.3217359 -1.9857634 -1.6586536 -2.7993498 -0.7265628 2.3491178 1.3047748 -3.5916305 2.2734096 -1.7292876 0.9801095 0.12794587 -0.19411603 -0.9180587 -1.28966 4.3409414 3.6969745 1.7176268
1697 -5.9050384 1.3483571 5.58632 1.1530306 -0.6822448 2.3492434 -1.251097 0.7915103 -1.6722637 0.7129099 0.45577472 1.5608993 -0.25313565 -1.7417538 -2.6650736 2.0763707 -0.57926244 -1.3410096 -2.2401688 1.0937723 -2.7890918 2.4012077 3.1618927 0.59665394 -0.6847576 3.8539689 1.1946404 4.7385855 -2.035417 -3.6980588 -0.44059235 0.55464023 -0.20402089 0.2933868 2.2686276 -2.8579366 -1.2861476 -0.51961946 0.4310858 0.27236414 -1.6106553 -1.8664719 0.8940997 0.7672226 4.9710393 -0.3166122 0.2406612 1.7388753 -1.2915089 0.4250436 -1.2722353 1.1707829 -0.29635617 -3.2117321 4.396706 -1.9398609 1.220062 -0.66113806 -2.7375925 -1.3476422 1.5754659 -0.5966796 0.80074614 3.118868
2289 0.64412326 1.6513493 -2.2475789 -0.13298592 0.2378359 -4.265631 1.7296602 -1.6989156 -6.61013 -1.0201571 1.1640624 1.3541538 -2.4533648 2.1596477 -2.1658127 2.8084629 3.934173 2.901324 3.2296906 0.72677517 -1.0994425 1.641788 1.1645497 -1.3903699 0.85789794 0.9376039 -0.10787806 0.42334664 -2.615206 1.1635988 0.3388012 -2.2597141 1.4873538 -0.06383776 1.9302075 -1.1359664 -0.8629091 2.6131997 3.887091 -1.4925759 -0.68479735 -0.9589275 0.115155034 -0.17322914 2.0934517 1.7935201 1.2050369 -0.72293264 -1.6436747 -3.071256 0.43363762 2.7733183 0.34197745 -3.3496706 1.4480871 -1.7981774 -0.81993234 0.7292138 1.3981941 1.301801 -1.3518337 5.0608635 2.466751 0.38866168
2930 0.055272255 -1.882392 4.343206 -1.323924 2.1323097 0.11670022 -0.9191459 3.468176 1.478374 -2.449585 -2.8373404 2.9580834 -0.25050515 1.5635866 2.0737715 -3.9637377 -1.1389415 0.95759475 1.5008852 -0.33108574 3.9018974 3.4413478 -4.635945 1.3467878 -0.17379136 -1.3011413 1.149279 -1.2856371 1.1967772 0.30518144 -2.105476 -1.5347105 -3.2715132 -2.1880693 3.2926667 3.4114897 0.24038988 3.9194014 1.3611991 1.8546609 0.9252029 -0.39585173 3.0466425 0.18787658 -0.8739292 -0.56819504 1.0607791 2.8978372 0.086146444 -3.3087626 -0.730393 2.7552543 3.0904682 -0.88813686 -0.04766118 4.2516375 2.9011283 -2.962728 1.1580508 0.52850634 -2.786847 1.2959974 2.8963203 0.3737517
2271 0.7082082 1.2846754 -1.3164461 -0.6352106 2.7166119 -4.023118 2.9837258 -2.6649315 -3.524905 -1.3362172 3.3951342 2.20684 -1.8111897 0.6239493 -1.4688698 2.673994 4.2642455 1.7924917 2.0174885 0.7061114 -1.932411 1.2213537 0.8195087 -2.2231936 0.04732513 -1.2276416 1.5037837 -0.33052728 0.09719 1.7748504 1.4158283 -3.1495495 0.120105825 -0.99895704 2.1477623 0.19166788 -1.2262961 1.1166234 2.7451181 -0.40701586 -2.0468533 -0.048301738 -1.1029468 -0.64699 3.1006117 -0.85015965 1.1495214 -1.23633 -1.9804002 -3.0230527 -1.5537102 0.47991046 2.2172127 -2.709362 2.5841112 -1.5026711 0.8177476 0.5567902 -0.22450031 -1.2701291 -0.41425353 3.8675659 3.1560643 0.91084427
217 2.0330038 0.59974796 1.150592 1.1580381 -8.577608 -3.4798565 -2.8944972 -5.2634034 -7.22496 -0.4165074 -0.86938137 1.2937444 -3.063456 -0.6859432 -0.041998252 -1.5251389 -3.066727 0.568985 0.1667546 -3.151149 -4.10821 -2.1237667 5.554604 1.3730319 6.1541133 -0.30150247 0.76746255 1.3732007 2.4456782 6.736861 -0.90277773 4.405923 -2.9803286 -1.0045881 -5.9916506 -0.8321444 -3.38259 -0.9920546 -1.8661414 2.4117095 5.9151354 2.9652753 -0.9872009 -1.5891485 5.18877 6.5251384 -1.3663265 11.048473 -0.04288759 5.334117 -0.48211005 4.818766 0.8835724 -5.003182 -1.5630716 -0.3035542 2.213388 -0.14605276 0.6138888 3.351308 0.9326883 -0.30469885 0.95301396 -0.084168464
16 3.2348166 0.7047068 -5.2469563 2.9399233 2.8184533 6.6467133 2.2718332 2.0562077 0.8727065 0.106549665 -1.2186173 1.1184702 2.8728678 -0.18680507 -3.6836267 2.262908 -3.4709659 -3.3862765 -2.43183 2.1875744 -2.762669 -0.38227886 2.2829778 -2.7187417 2.8233366 -3.182505 1.1383502 -3.8624759 -0.80220056 0.41990808 2.5297866 4.056141 0.27005798 0.9427113 -0.3729281 -2.553495 3.8649843 -1.1315751 0.84358686 -0.00075796095 -1.4390416 -3.744542 0.45585927 4.2994637 -1.756336 -3.248988 0.5473094 -0.94976604 0.83806336 2.6456034 4.1143966 0.00526286 -1.6402966 -3.4688427 -3.7625353 1.534578 1.0139652 4.094156 -0.48125353 1.688747 -3.3111124 -0.5829612 -2.3031654 2.4677484
114 1.1487966 1.0301319 -1.2551054 1.5049356 -3.9876988 0.6931343 0.058649268 5.272722 -1.800382 1.6353652 -0.54309994 -0.80170727 -0.15589954 -1.0589561 -0.327578 0.07202752 0.6520163 -4.7002163 0.8080106 1.7461932 -1.8568149 1.6855348 0.15209444 3.2314835 3.1202068 2.4327648 -2.257475 2.5644531 1.3638872 5.4495034 0.53389966 -1.7454304 -0.046715498 -0.19107361 1.9679297 -1.6151366 3.5149906 1.4840785 0.86649793 -0.36984274 2.2710757 1.1265265 -4.1195264 0.31809476 -1.9586861 -6.7186923 -3.8992999 1.304087 0.1425331 -0.033230286 -7.3095145 -1.276646 0.14394592 -0.33360463 0.5864162 -0.4036903 1.0134176 1.3409656 2.355477 -2.231179 -1.9994439 -0.5600822 -4.8749943 1.9787972
2670 0.9242632 0.92574716 -2.654004 -0.90938807 1.976579 -3.2413538 1.9736633 -2.67574 -5.1733656 -1.4675511 1.8793014 1.5843602 -0.60287696 -0.10791257 -0.82956815 1.5660877 2.7323878 0.22043297 2.744677 1.0056647 -2.4396138 0.9909877 1.3433379 -1.388351 -0.60537463 -0.13058066 -0.0391527 -0.4695638 -0.42441678 2.2295735 0.99989706 -1.8418967 0.72409755 -1.1370573 2.4046607 1.9032001 -0.45423746 1.9298404 3.662151 -0.14488426 -1.6505647 0.1595819 -0.7240306 -0.85195404 2.2092583 -0.42266148 1.0029303 -2.4526145 -2.0464296 -2.6393144 -1.5890399 2.356831 1.2304455 -2.7415836 1.5454943 -0.62400985 0.7528607 0.91405475 1.1190256 -0.8849993 -0.2062493 4.9956617 2.4146342 0.75868624
2285 -0.96661294 -3.4407609 -1.5689272 2.3310003 0.14653039 0.13281342 -3.3991294 2.494968 -6.0375576 1.6254917 -2.5057948 -0.8067484 -0.89907444 -1.8200847 -3.9149523 1.256371 -1.8701596 3.2808213 1.9882858 -2.5214803 0.16008016 1.0715597 2.3621159 -1.1460556 5.1685014 -0.65050936 3.285454 0.6229126 -1.454246 3.3803453 -1.1363735 -1.1193242 -0.3432539 1.4695948 -3.4755323 0.45253864 -2.1172094 0.6138934 -0.977558 2.071566 4.931202 -0.9087608 -0.58264935 -1.0787282 3.3781252 4.141628 0.91271204 5.7546353 -1.0847487 0.7281301 1.3126397 -1.1760612 -2.5588596 -1.7239512 0.34208176 0.108738214 0.5458354 0.3660892 0.06801131 2.2377214 2.458327 0.61440593 -0.3961866 1.9198599
182 6.755426 -1.1487757 0.14996997 -1.1207297 4.7779756 1.3868159 -3.9908586 2.6639998 -4.6979747 0.7143145 -4.2107263 -1.8079545 -0.5459065 -5.078481 -1.7848519 0.9434113 -2.1190279 4.7180033 3.496529 -3.7887485 0.92248106 2.46423 5.53871 -4.3251414 4.9479237 -1.956816 0.5580264 -1.3214626 -1.4442264 -0.77629316 -3.575108 -0.21445969 -1.0639687 1.8574458 -1.8061535 -1.6856289 0.24748023 -0.6829938 -5.1299224 1.7436415 1.9981004 0.15033385 -4.8339324 -0.18068762 2.944966 -1.778004 -1.0909652 5.535437 2.9469976 -1.5814724 -0.6219181 -1.916315 -4.762814 -1.8287224 2.8449492 4.972712 0.865597 0.9736715 -2.2717378 1.5430382 2.4500756 -0.98388714 4.283734 2.429005
123 -5.843647 2.2990708 1.9161627 -0.7390189 3.6056986 -3.4833856 4.5117054 -0.42119202 -1.4601728 -1.8808094 0.8796218 -0.12698652 -2.2729414 -0.86618304 3.3331394 -1.0391564 -0.100580096 -1.7005702 4.511748 1.4490807 0.19701655 -2.4447186 1.584087 -2.0506737 -1.502843 -0.23164748 -1.9715935 -0.92003995 -0.8990115 -3.1683197 -1.3816619 3.266161 0.060943812 -1.4601736 -4.483689 0.46722245 0.89940596 -1.7341541 -2.1361406 2.9394386 -0.41493416 2.664057 -5.5270963 0.3128223 -5.4077673 2.0933573 -1.455281 -2.4474745 -0.71314096 0.9396822 0.23962916 1.7772388 -0.6290112 -3.1375062 0.23576997 1.1613125 4.1011133 1.4339833 0.3404782 1.713633 1.8459432 0.34782818 0.7893887 2.0762057
1625 -0.5596988 6.142824 2.2111347 1.1107823 -3.9043972 0.014654211 0.21272652 -3.5561738 -5.606732 -5.017052 -0.053225253 -2.100602 -2.1999245 2.0542257 -2.8290768 -1.0933849 0.8007977 0.0968506 -1.0199431 1.618369 -0.7601251 -0.29380873 -0.565484 1.2313255 2.3224983 -1.1423911 -0.36801705 2.2926686 2.130739 1.6222591 -4.629244 5.2050166 -2.4165404 1.530249 -1.4433618 -2.804333 -2.8497345 1.8940808 -0.82777023 -1.6531855 0.5767136 -1.309181 0.47830522 1.6286266 0.53577757 -0.08732471 -3.2174442 3.6660879 0.90691143 0.14448339 0.8792571 1.7375305 -0.679723 1.0820915 1.7958368 1.666903 -0.37647086 -1.2855569 0.42477882 4.83543 1.2945585 -1.1091696 0.19333403 -0.9382024
1986 -2.5540686 2.5008318 2.599841 2.3023555 0.507473 -0.61886024 1.9854039 2.6117566 -0.653112 2.599434 0.5682666 -4.1496825 -2.0140443 1.7604269 -2.8789988 -1.2630216 -0.9796554 -0.9444666 2.8375242 2.7191854 -3.403576 -1.2469808 -3.5370786 2.8308506 -0.62622434 1.2628782 1.7478733 2.9351604 2.3680727 1.4727901 2.3605673 1.3955507 4.8784075 -1.0435132 -2.659866 -1.4035318 -1.0693264 -0.08097659 0.66113615 -2.6791956 2.0074887 -1.3558807 2.1423202 2.5216863 -0.8151137 0.86130667 -3.1498408 -0.7717863 -2.0532632 0.13942626 0.18901856 0.12355641 -3.73276 0.8961885 0.83053946 0.73827064 -1.706047 -1.4662814 2.929768 3.6566944 -2.6557825 -1.6776906 0.9394047 -3.3632252
415 -1.5138409 -3.1052582 0.37932423 -1.0707328 -1.4339684 0.54597163 -3.1099265 0.11797997 -2.4863937 2.5899725 -3.239324 0.50005466 -3.223891 5.6914144 1.9674888 -1.5312673 -1.7163821 -0.048647903 -6.1224866 -3.9753165 0.71339154 5.109223 -8.689282 2.542938 -6.1190515 -1.472326 0.9356243 -1.6925161 2.9003158 -2.2615118 -4.855661 -2.2296278 2.0195136 -0.9607916 -0.93119794 0.79982835 7.1430583 4.078019 1.8577344 7.820451 -7.383312 1.8570873 -2.0694752 -5.1493797 4.257958 6.0344143 2.761084 2.268424 0.636163 -7.806952 3.2227292 3.5330284 4.744938 2.0313227 -6.5270853 4.415538 -3.1767445 -0.6328432 -0.6132022 -0.4054157 -0.4044879 -4.636167 0.19629902 -1.4168186
1987 -1.5402868 2.3829274 2.3516278 2.7668288 0.9872714 -0.6949728 0.94132525 1.5410261 0.0530105 2.3455672 0.42887968 -4.0904117 -1.1265521 1.0733274 -2.7482843 -1.8272291 -2.303952 -1.124625 0.5875122 4.0263925 -2.3902617 -1.6839364 -3.7107115 3.131333 -2.0747106 2.450237 3.1546211 3.356046 3.057307 2.6454103 2.988731 1.6595556 3.2123585 -0.8733378 -2.1326592 -1.5519357 -1.6973203 0.17282777 0.6909781 -1.8400944 2.6267657 -0.064126424 1.9704745 1.2123691 -2.0488622 1.1081356 -2.2627168 -0.9354848 -3.6489735 -1.8755845 -0.8401876 -0.43353713 -2.6206927 3.659776 -0.2068739 -0.22274332 -1.972008 -1.3421152 4.481925 2.228567 -2.5957437 -1.3135037 -1.5203347 -2.6645799
1829 -0.22570854 3.4180148 0.023777828 1.0922989 -4.2838697 0.17099698 0.15467808 -3.9743907 -6.0923123 -1.9793236 -0.7888297 -0.6496173 -1.696478 0.9009309 -1.6484945 0.035995595 -0.3074542 0.7125955 -2.3554904 -1.0507493 -1.6041044 -1.1352963 1.1203573 -0.62722564 3.4070282 -1.1213858 0.76572996 -1.1092871 1.7377372 2.9439678 -4.1184497 3.2877326 -2.566912 1.4376693 -1.3381177 -2.1260478 -2.43224 1.2322134 -1.8816767 0.3079097 1.3005277 0.57843894 -1.0631503 0.6756512 1.5523001 0.4518529 -2.2187996 6.083971 0.93255085 2.053084 0.67214304 3.1115608 -1.6002449 -0.3239165 0.13445538 1.994418 0.7391388 -2.4938047 1.3858786 1.6639221 2.3570786 0.6419683 -0.5414568 -0.79668194
3025 -0.55951506 0.23896143 2.8283803 -0.03960057 2.245096 0.83347183 -0.57844573 0.5235283 4.3847275 -1.9497888 -1.322222 2.8230717 -4.5938773 -1.3965406 0.42098293 -2.7720141 -3.9655435 -1.3172148 -2.8652458 3.7696283 5.7069297 0.16865814 1.6351652 -1.8842002 0.980205 -0.46032172 -3.3997495 -2.268796 5.093095 1.4917287 3.2420433 2.4413686 1.3299083 1.0521148 -1.9288485 2.8887873 0.6015188 3.7145772 0.20598122 -0.43388304 0.46035287 -1.7863415 1.1516663 -2.4013932 2.679173 2.766261 -0.8561946 0.38430953 1.3253834 -1.4365358 -3.4444537 5.4785023 -0.80172396 2.5806377 1.8641773 -0.39923295 3.0069132 -0.5850172 2.3798077 -2.9147797 1.30683 0.6766896 1.2790997 -3.8797143
1830 0.080265656 -1.6203614 -0.12875336 0.90816253 -0.5853305 0.2969252 -2.5393417 0.7101185 -5.8055735 1.1284019 -1.5610965 -1.4153149 -0.42546543 -2.2780824 -2.5650527 -0.1185702 -2.5836093 1.9255261 1.0515801 -1.972264 -1.1459193 1.1887168 4.478296 -0.625816 4.424284 -1.2552612 2.2247293 -0.3770621 -0.3680933 2.4336188 -1.0617579 0.3839202 -1.4491659 0.36489728 -3.3692286 -1.3554636 -2.3000338 0.122483276 -1.3714764 0.87107664 3.2758248 0.23242338 -0.5188087 -1.0442375 2.923324 2.9931142 0.86995757 5.115033 -1.1334786 1.7553426 0.44451633 1.372963 -2.018424 -2.1666436 0.76155365 1.0354427 1.5162486 0.5172835 -0.8664793 0.25688508 2.292006 0.012476923 0.032606967 2.3398209
2020 1.3593812 -3.832944 4.1494145 2.4098687 -5.381777 -1.3071898 -3.005687 -1.1215246 0.11391797 -5.501487 1.6247338 -2.229106 -0.6098059 -0.7095388 1.3295745 -0.19658561 2.801421 -2.4526253 0.38248122 1.2361516 0.17704561 -1.5829188 2.9211912 0.82057023 -0.7544494 -0.57041067 2.3190703 -1.2872796 2.6332283 2.40461 -0.22698928 5.0482516 0.6388485 -0.34652913 -2.0205076 3.2591271 -1.8546538 0.20402868 7.603897 -3.4935079 -0.06966041 3.628714 -0.8021903 1.9835798 -0.091357805 6.894743 3.1894817 2.9716651 2.0702994 -4.6510234 4.368481 -2.3292227 -0.5526314 -3.6060488 0.5947862 -1.2271681 0.8110573 -0.11617984 1.1625448 2.7947302 -2.5381737 1.320328 1.8199167 3.5584238
3331 -0.6530617 3.9248166 0.36527464 1.3171507 -3.4897459 0.3457306 2.7828352 -3.6475654 -5.4456205 -2.8877387 -0.4911258 -2.1559412 -1.352592 1.740472 -0.550585 1.0134908 -1.1837376 1.0962677 -2.356625 -0.76748806 -1.4067177 -0.6458494 1.1845413 0.00078762823 1.86008 -2.308032 0.035697065 -1.3632455 1.3973358 2.1803706 -4.6077228 2.4414296 -2.9012625 1.7166669 0.031892408 -1.5178502 -0.6029516 0.6725759 -0.739669 -0.6694384 -0.83819854 -0.23817603 -0.96404994 1.8408543 0.11510375 -1.0569377 -2.1373308 4.7611475 1.7079662 1.4318324 0.55524766 3.028319 -1.763106 1.3794365 1.7784083 2.1106036 1.5709028 -1.8847057 0.85460514 1.8437984 0.8654851 -0.8701665 -0.40142906 -2.5617194
165 2.9844317 1.951562 0.35175243 -0.107001334 2.2545583 0.8260868 1.1598754 -1.6503627 -2.3070226 1.5280166 2.8937628 -2.3994396 1.6299835 -3.52345 4.879824 -0.6188359 -1.4954501 -0.08418058 -1.352586 2.9193075 -2.306038 -2.5101526 -1.1237365 2.6204343 0.38324967 -1.6781458 -1.9319335 -1.8061124 2.940218 -2.552615 0.51596326 1.6684586 -0.6360387 2.0006251 2.6137576 0.9026947 2.558363 -1.1947857 -1.8539914 1.7478406 1.1395048 1.9230673 -1.6918418 4.4128914 -2.827272 0.6560269 -2.4262462 -1.6000805 -4.4693403 -1.5499294 1.1676768 1.9308882 3.1352625 -2.7339613 3.4838433 2.8395176 -1.4489995 4.503869 4.6308103 -0.88934296 0.5211647 -1.3213309 -1.5230862 0.9235136
135 -2.8131986 -4.2351727 -1.2269415 -0.7816938 -3.301642 -0.9582646 -1.7549425 2.6756558 -3.1582904 2.499123 -3.2232919 -4.9908614 -1.9207898 -4.1087475 0.41243967 2.6781948 -2.2576456 2.5095801 0.5427634 -2.4424505 -0.50815374 2.2896714 0.47519657 -1.2837948 3.78196 -0.75985163 2.6439703 0.5403959 -3.5473082 4.5950904 -2.4677882 0.7672937 -1.7550219 2.982951 -4.8010616 1.3345098 -1.4699492 2.0183022 -0.045371134 4.5253325 -0.28238615 -2.464628 1.5512346 -2.0098543 1.0793153 -0.6444698 -1.7289257 4.503931 -0.051181547 3.2876854 -2.0753007 3.2062192 -3.411059 -1.912504 -1.5095172 1.2954062 2.2768133 2.5798051 -2.9175198 0.74496865 -0.0939002 3.0528753 -1.4368513 1.7594752
149 1.0665163 -1.0916654 -0.66525066 -0.76683706 -3.5069077 0.8573064 -2.1490252 2.814814 -6.232303 -0.93490154 -8.292915 -1.5927032 0.48992854 3.2249782 -3.6747894 5.7602897 -2.254462 5.4879827 -1.7690223 -2.0908103 1.5087422 3.9098535 5.1632032 -1.999417 3.8662627 1.2245243 -0.8782161 0.56151825 0.6185295 -1.4026537 -4.538878 -0.069529615 -1.0205429 -2.357669 1.0678585 -0.86291057 -1.089878 3.1721017 -2.4258304 -3.51605 5.955359 -2.2428963 -1.493564 2.6246915 3.9709995 -3.1517372 0.5367272 6.7053757 -1.6934952 -3.5888295 4.7885895 2.4662685 -4.087918 2.4337037 2.3835557 0.7182241 -1.3961866 -0.14199471 1.603021 0.22741055 7.312671 -1.014649 -0.8642506 3.6820683
2299 -0.14181815 -6.13012 4.456324 2.4192145 -3.5915391 0.76839334 -1.6610658 -1.0441911 1.17218 -4.408907 0.8584046 0.034936335 -2.3789551 -2.101447 2.1664274 0.10710545 2.0408907 -2.8341544 2.5736191 1.117886 -2.537685 -1.6883419 2.180478 0.14801146 -0.32410532 -0.29438975 1.8744352 -2.4484527 0.69176817 1.1949632 -0.95615673 3.742228 0.7100849 0.35956228 -3.7646258 2.5044575 -3.0672476 0.5828504 7.287883 -3.1181297 -0.31981587 5.168649 0.54357445 0.80437154 -0.15837464 4.953691 4.8162827 1.2290496 2.9815354 -4.168745 3.8132324 -2.9626298 -1.8431233 -3.8277068 -0.29324 -1.7360493 1.9657458 1.1370982 1.4785382 1.3785766 -3.6848316 0.7104761 2.6001475 3.0896392
1781 -0.5766637 -4.7963448 2.6794968 2.957581 -3.5171502 -1.6088346 -2.0247374 -0.42664286 -0.7712548 -2.1210668 0.64870536 -1.4997883 -0.44240406 -1.363374 0.90538514 -1.031968 1.057909 -3.589891 0.12747045 1.4199785 -2.9594707 -3.483344 2.12639 1.3778255 1.4810927 1.4638917 0.41436574 -1.3064282 -0.63711715 1.9773787 1.1038105 3.9173353 0.838115 -1.3811072 -1.5241547 3.6557152 -0.63120365 -0.8297878 3.5757148 -0.44513288 1.9821067 3.5769985 -1.317175 2.0584538 1.1614202 5.2787943 2.664972 2.7986453 1.539498 -3.0170448 3.5277302 -1.8406173 1.9456526 -4.2888703 0.30341655 -1.1986601 1.0662535 0.9747527 1.6555411 2.4107738 -3.47797 1.1606816 0.86147106 1.207425
1858 -2.1712136 -3.7072568 4.586355 -0.038404074 -5.4579287 -2.3928554 -2.8614006 -1.636997 -1.4448152 -1.8748178 2.5513787 0.10558425 -0.5710484 -1.4401755 0.82202375 -0.6218997 0.53932554 -0.8012728 -1.0628947 1.8412868 -2.7973335 -3.802866 3.1738138 2.3437712 1.5412519 0.911063 -0.6067955 1.0110077 0.3595016 -0.46766528 1.1134818 3.3822193 -0.994324 -2.0662966 -0.6504911 0.4729884 -0.88065606 -0.6902833 2.4048362 0.8696181 -1.3659705 3.139068 1.2425715 0.47162613 5.0236545 3.1708066 2.3380573 2.1554449 0.95950514 -1.8528087 4.1177053 -1.4428611 2.4948857 -2.5194914 1.7327186 -1.5995871 1.929733 0.6716718 -2.102258 2.4485362 -3.5349743 0.8319137 0.9382259 1.9477454
159 1.0409698 -5.015502 -5.7780533 -6.656653 -4.129435 -0.2606389 -2.4283469 -1.1455246 1.9425532 -0.22885144 -1.5029311 0.8849125 -1.3494009 3.342569 -3.9972932 0.6953257 -1.2377398 -1.8909051 -4.5432873 -3.070118 -2.867813 1.1021873 0.32445827 2.16372 -1.3407108 -1.9550979 -0.91053885 2.4709547 3.3342748 2.552621 -1.7084974 -1.3600968 1.2836728 1.8774712 -0.6698066 1.0884753 -4.236238 6.1355004 2.7774408 2.9717798 -0.12980723 -0.50031185 -3.659239 -0.3632935 1.7243782 2.9998953 4.163229 -0.31639445 0.9692958 -0.033637278 3.6011515 -0.88101906 -1.2966346 6.5078416 -1.1738167 0.04024575 -0.119111076 1.0149649 -3.7880933 -3.4562733 3.4440334 0.58650506 4.2565837 0.56661224
1979 1.7126895 2.6018548 0.066269875 0.78487635 -4.310275 -0.36286718 -1.144514 -0.21565486 -0.8505617 -3.0455332 1.3755485 2.3728004 -1.0116997 -2.9306397 -1.036338 -0.3565772 0.28551683 -0.46290308 1.6220956 -1.1883532 0.001929062 -0.15778686 -0.13951135 1.5968107 -4.344478 -1.9242313 -1.2690518 1.1322145 2.1894124 1.439945 3.0839722 2.1724777 -0.793913 1.7356434 -2.0225527 -3.0917735 -1.2053597 -1.260452 0.70504314 1.2457913 -0.5435428 0.8442525 0.3875767 -1.6797746 -1.2849299 5.5028152 1.6779708 0.86441535 3.0035114 1.0509157 -2.3004618 -3.5654302 -2.1569197 -1.0671927 -2.4836056 -1.0785642 -1.0265589 1.1085055 -1.8883476 -0.79633415 1.3837926 2.3400655 0.8314542 1.0529774
1268 1.1715314 2.7425277 1.3678961 -2.5681515 2.0672772 -2.2705104 1.2514908 0.5399972 -1.632351 -0.35795233 -1.6626505 -2.9697185 -1.2899108 0.0795957 3.1783886 1.2980789 -0.42257956 0.2420306 -0.041670967 0.4276398 -3.2983985 -4.0735903 0.66397905 2.188887 -3.1300583 4.1903906 -3.178098 2.939252 3.3320956 1.7807727 -0.6023498 -2.7723935 0.3732729 -1.2045085 -3.9679642 -0.86100084 -2.4958222 2.6636646 -1.3667704 -0.8404532 1.1983838 1.9003812 -1.8644264 -2.6592174 -0.5754554 -3.311858 -0.20540616 -0.4426733 -0.7053548 -1.2409785 -0.783114 -1.0412525 -1.3823892 -1.5309694 -2.3118956 2.9259171 -0.72167915 -1.4586911 -0.76641756 -2.9553103 -0.012450324 0.6091707 -0.6679127 3.9741874
1734 1.0780376 2.49908 -0.6171366 0.7090547 -4.557061 0.9639171 -1.2773479 1.5601838 0.68360645 -3.336376 1.2685437 2.8985589 -3.1380534 -2.2806666 -1.8831064 0.19465412 1.055209 0.34985036 1.7081575 -0.8357586 -0.5896993 -0.720832 1.154123 3.093635 -3.7042217 -1.3788632 -1.302535 2.165007 2.2668412 -0.34156555 2.4901934 0.1776718 -0.42235476 1.3651522 -0.6620892 -3.5023234 -1.180107 0.7072541 1.0706991 1.4242901 -3.2670739 0.71685517 0.47658283 -0.6497384 -2.0520012 4.3974323 1.3681774 0.4928749 4.132054 1.1925572 -2.3512638 -4.885558 -3.9172578 -0.5117982 -1.8829331 -2.446834 0.07934266 -0.509939 -2.5819576 0.41419578 0.43045378 2.5972352 1.0974305 1.2479575
2718 0.22892909 -2.338763 7.6122723 -0.13349277 3.1836524 0.02949441 0.89400285 3.0552025 0.19003876 -1.5414999 -1.1034523 3.4005919 -2.5918198 -0.031425443 0.94860333 -3.2739859 -0.94213426 1.7805574 0.23377486 -0.26386285 3.9143593 3.4822779 -1.9001744 0.77198076 -0.84380454 -0.5951049 -1.0190405 -0.7805232 0.6399522 1.037362 -1.6959579 -0.059001092 -1.5368847 0.21921177 0.5016208 1.4283786 0.31887928 2.2144578 1.2316315 1.5399479 0.35530514 -1.2932562 2.3830674 -1.6927854 1.1217473 0.084634736 -1.0178474 2.6225016 2.466229 -2.8857455 -1.9562626 3.1738641 1.7776794 1.0142658 -1.9800851 3.8289382 3.2239864 -3.7637484 1.0345818 -0.2233221 -4.412469 3.7044034 1.617841 -0.3089326
1828 -0.47938904 3.8146815 0.37223884 0.48716742 -4.8402495 0.10729597 1.2838901 -3.9686296 -6.4350877 -2.5927565 -0.5924053 -0.6806856 -2.1471279 1.2444742 -1.8752184 -0.19297591 -0.7635028 0.59887207 -2.1194851 -1.4193752 -1.6811446 -0.65853536 0.77399254 0.24919151 3.3749444 -1.8323989 0.7344832 -0.51105195 2.1749673 3.413261 -3.8945181 3.020886 -2.5478709 0.8207612 -2.329313 -1.5966192 -2.4491773 1.365306 -1.7034353 0.71317255 1.7430215 0.08121195 -1.5298754 0.7447606 1.0548419 0.7945963 -2.0686324 4.92781 0.8336035 2.1008415 -0.13866091 2.8710487 -1.3955401 -0.24927774 0.16045515 1.3016667 0.99823487 -1.3006419 1.3301498 1.8842738 1.6704232 -0.27550206 -0.17485899 -1.238687
2264 0.8252895 -2.4232156 -0.63940966 -1.8242141 4.0515656 0.63591397 0.118298635 3.192422 0.050128732 -0.26454893 3.8081512 0.5945468 -2.166299 3.1738453 -1.4864607 -1.3786504 3.347236 2.5671985 -1.9635425 -0.22124934 3.398259 -3.3451085 0.41697124 0.9464099 1.0426997 -2.9775357 3.635487 -0.45162576 -0.27403936 -2.1352646 0.047242645 -5.001398 -1.4918067 1.6382905 0.111808285 -3.7206457 -4.2935443 -3.4837584 -1.6083423 1.9834793 0.055189203 1.4976609 0.6345294 2.608785 -0.7996325 0.25738773 -0.41831294 1.9939988 2.927363 -3.7787821 -2.7847257 1.149501 1.2405785 -0.8114398 -0.5357679 -1.0681977 -1.0784252 0.28755477 -1.479077 -0.446746 -0.6886231 -2.3647335 2.0308774 -0.818547
1614 0.24975258 2.4210076 0.68338764 2.0234036 -1.8006853 1.5359606 -2.3107827 2.6669557 -0.9114523 -2.4583063 0.97262955 0.9774092 -0.05464922 -3.6711738 -2.1660697 0.22287114 0.045518547 1.3508166 1.0559031 -0.55932087 1.2677028 1.0632918 -0.4702446 1.1193292 -3.2286675 -1.7464927 -0.29788306 -0.16246298 1.4640433 -1.0790454 2.263249 0.45799303 -1.4131789 2.5424197 -1.2079039 -3.8446383 -1.1704328 -2.4127688 0.8538243 0.072762236 -0.68813026 0.2408708 0.797903 -1.416372 -2.0706074 3.6936693 2.0066438 1.2559505 3.041312 0.5860645 -3.092047 -5.341226 -3.59317 -0.97820604 -0.32715514 0.042222384 0.06643025 0.4658653 -2.1191552 -1.8397844 4.498708 3.600054 1.4005982 1.4131236
923 -2.0566452 -2.513421 0.58179337 -5.0997086 1.7791044 -2.7824273 -2.8110564 -0.61322576 -2.2620294 2.4046867 -0.9217514 3.4329216 -0.17164649 -0.84853965 -0.32300326 -2.769159 3.1498418 -2.2844777 -1.3835013 -4.5750904 -3.2184381 -4.855849 -3.6020272 -2.029955 -2.6867075 0.36774966 3.7902644 1.3427444 -1.8956188 2.3759563 2.8997006 3.4978483 1.1754853 2.4357297 0.91785276 -0.7732834 1.532231 -5.296555 2.8620858 -3.8415787 -3.740005 -2.7355344 -0.42342833 -7.384446 -1.2072798 -1.4066395 0.25056478 1.6874428 1.7252926 -0.5074056 -2.035133 1.8255595 -5.653611 1.8110822 2.459547 2.9372845 2.5139322 6.4497213 4.460183 2.3643553 5.398237 -3.808688 1.3334739 -2.7875588
2041 -2.0377126 0.980035 -2.0864434 1.5747753 0.06835751 -0.2550378 -1.3734367 1.4602231 -0.5058657 0.9020849 1.0053777 -2.3132634 -3.1247802 3.481887 2.004992 2.7098117 -5.244911 0.42205438 -1.4999774 -3.7539523 -1.3764828 1.8214892 -6.506443 0.81443584 -1.6866088 -1.4784559 5.163101 -1.8325697 -0.738848 -3.3049915 1.3156503 -2.0742972 5.343072 0.2862596 1.5921952 1.0831393 2.3445816 0.08277715 -1.2872349 0.22821954 -0.43639687 0.1447789 -0.25927812 -2.4368746 -1.3539503 0.8019944 3.9528248 0.008316906 -0.8471611 -0.85219264 4.053983 2.779656 0.03964884 -2.4536943 -1.8167193 1.3467546 -3.7276785 -1.6756265 0.8942903 1.250635 2.2340665 -0.49723542 -1.1965386 0.7468523
1898 0.38274646 3.2072818 1.6613475 0.64072096 -2.7474356 -1.1714101 -1.985635 0.79850024 1.3567839 -2.9453127 2.4539995 3.073492 0.33340743 -3.1140647 -0.58652574 2.1233556 -0.00029058428 2.2600708 1.0967715 -0.2017708 -0.009947869 0.2163327 -1.436501 2.2654474 -2.7919233 -1.9377484 -1.711689 1.0940166 2.6539776 0.959389 3.5975962 1.089421 -2.0375435 0.7978564 -0.9329004 -3.2044194 -0.034944363 -2.5113976 -0.2084279 1.1196322 -0.69497174 0.9577661 0.61058193 -2.3700411 -1.5409518 4.7002964 3.2253377 1.7991095 2.0728753 0.09235192 -3.0056336 -6.6938753 -2.2308152 1.3210918 -1.8927345 -2.350243 -2.9388568 1.8679953 -2.8373618 0.30996913 0.9856048 3.395121 1.0610318 0.9498273
62 -0.0897769 1.0402061 -2.480461 2.268088 2.450583 -0.042804815 1.3515011 -0.9964356 1.8343678 -1.0487136 1.2284349 -2.6970983 -1.0564158 -2.3728867 -2.5116045 2.384355 -0.7856906 0.57723683 1.3398654 0.012194912 -2.4768775 -1.840185 0.60189545 0.8891621 -2.400548 0.2565868 -4.28035 0.6905132 -2.2069325 -1.791876 -0.7487128 1.9042803 -1.3677894 -4.0006824 -0.30671552 -0.73252255 0.5496828 -2.581451 0.42532474 -0.49737862 0.5364533 -1.980571 -0.24518463 2.8489037 2.5092983 -0.79706377 2.0848587 -1.8641119 -1.1073004 3.344791 -1.4853573 0.25719878 4.1390343 1.739022 2.1384456 3.081975 2.3214395 2.4204822 2.9496512 -1.4385937 -0.51831996 0.2485037 -0.100195915 0.75546676
57 1.0626498 -2.6983297 -0.55881953 1.461949 -1.7699037 -2.3227508 -0.33326483 -0.5987233 2.273517 -5.1492887 -1.6087433 -1.825352 1.4487506 2.8056698 -3.880088 0.4484927 -2.5726535 -0.7136815 1.1893806 5.349103 -3.6757534 -3.2866528 -0.95804656 -1.2776892 0.0035068193 1.2393728 -3.0351634 -0.7436051 -5.2763853 -2.8881142 -2.6193624 3.1573877 1.8494524 0.7105551 2.6123207 0.96589774 -2.646756 -1.7863485 0.97189975 5.3629656 0.32923678 -2.8643785 0.5133177 3.4739475 -0.6841617 -3.105007 2.639958 -2.0283973 -0.14112242 0.5916253 -3.6614704 -0.52197343 -3.0342546 -1.593897 -2.094321 3.9646683 0.69391763 3.5223432 0.35857856 -2.9011846 0.8251897 3.5961668 0.71894133 1.8148668
2186 -2.5396821 -3.4228528 3.9227777 2.6104505 -4.3645897 -1.8990964 -2.6995888 1.2026964 -0.006468708 -2.588764 1.0828172 -2.9282525 -1.5091321 -0.44651666 -0.98651475 -0.7652336 2.011778 -1.7972153 0.26438162 2.8218224 -3.0003428 -1.7144467 2.2057362 2.910712 1.6117179 2.0562973 1.581135 -2.6782527 2.0210748 2.3568585 1.7988238 3.5232072 -0.44338137 -1.1793541 -2.877286 1.9210564 -1.6691723 -0.4830004 3.298725 -0.818457 -0.37385294 3.905891 0.7339162 1.7109154 0.93662643 3.7290325 3.5819323 2.8790166 1.2353119 -2.8065715 3.9646015 -3.0694716 1.2046899 -1.9649255 0.105680026 0.4129655 0.9323544 0.7672401 2.2849708 2.7442725 -3.2651894 0.20833144 1.5266367 0.22712734
437 0.5064222 0.34593725 7.2624764 2.5031269 -6.509378 3.0845814 -6.8368125 -0.29067668 1.3987238 -4.8466754 0.7234054 2.2733984 -2.9621284 0.176131 3.2032523 -0.83400756 -1.9396831 -2.7840335 -0.65324986 -4.5394063 -6.0340943 4.7933187 -8.311345 3.652476 -5.684464 -3.9140813 7.4007072 -1.797631 6.9737744 -5.8608937 -1.885394 0.783214 0.77713287 1.8419595 -1.1851324 0.7363038 -1.1658516 -1.84521 7.5111303 0.56308395 -1.4719882 1.0168582 1.335038 -0.7766369 -1.8204081 6.0559864 5.76086 0.13937597 -4.3358665 -3.0637352 2.468374 -3.6047955 0.23599172 -5.3037047 -1.0644141 -6.3791404 2.2512324 -3.729797 -1.1461957 0.19857441 5.2329845 3.1396134 4.0345354 3.9255366
2333 0.117759936 -1.1645839 4.647496 -0.2522827 2.96964 0.12783433 -0.43821275 2.3766844 0.59602237 -0.8469604 -2.805193 2.9648345 -0.77802104 0.2450493 1.7024568 -1.1176463 -2.0071056 -0.009524814 0.85540676 -0.8262842 4.471948 3.3943844 -2.590237 -0.15310985 -1.5072182 -1.6995692 0.21816249 -1.3241681 0.5071898 0.8967853 -1.610185 0.4360766 -2.002263 -1.597675 0.35327333 1.3286154 -0.14744009 3.2225242 -0.89817995 0.5153467 -0.27925703 -0.39244318 2.834564 -0.5009403 0.28915223 0.3201817 1.2376977 2.9332888 0.5274948 -2.5579238 -1.2688936 1.9559692 3.975473 -0.72151273 -1.8354931 3.891862 3.6884146 -3.7804632 1.7495315 -0.3998593 -3.0692122 3.2595189 0.5711378 0.24789193
2342 -2.2074842 3.5794635 2.0436137 1.222418 -1.0842749 -0.57879317 1.3834217 2.0015435 -1.615612 2.2959273 1.1763352 -2.3399396 0.07948868 0.25636175 -2.4469943 -0.9566732 0.45250636 0.60832036 1.853547 3.276233 -1.7894739 -0.04010784 -3.6292593 1.8378661 -0.45455372 2.6468892 2.9113665 3.81288 0.6946256 2.3238192 2.6012108 1.6519629 3.1454306 1.4655643 -1.0231887 -2.57218 -1.9793147 0.36281514 1.0916114 0.27203825 1.5587168 -0.8418051 3.8641899 3.123269 -1.2304002 2.4837575 -2.7373996 -0.12645753 -4.0483713 -0.28184664 0.8766486 -1.0301547 -4.537647 0.36662284 1.1162604 1.7503872 -1.8828421 -1.7980971 4.7241044 2.6534526 0.036069043 0.5323706 1.4767253 -3.676823
2231 -2.7777627 -3.9230201 2.9433515 2.2340806 -4.2542415 0.6264798 -2.4456182 -0.5269619 -3.6478522 -2.540111 2.511443 -2.562435 1.5675538 -1.3363332 -0.35304973 -0.39732033 -0.25051364 -0.23881218 1.3902391 0.5685475 -1.519624 -3.3919542 2.048093 0.45168105 3.4903302 1.0182644 0.69885737 -1.29725 0.0929364 1.5319575 0.7421634 3.8312235 1.0188137 -0.2392381 0.4429965 2.251814 0.576854 -0.77593154 0.80708104 -2.5908873 0.19185998 2.4004335 0.11545524 0.21817638 5.094488 2.111207 2.0799484 3.0906546 1.2338786 -2.1842217 2.9450634 -2.0214043 2.6056647 -1.7095602 0.2556571 0.9003233 1.9810485 -0.7048232 1.3079542 3.0541642 -2.1628296 1.6376219 0.1686818 0.21340479
1932 -1.1358626 4.6602783 -0.34203032 0.24547222 -4.344834 0.20636894 1.5817585 -4.496144 -4.152479 -3.1573765 0.10967329 -1.285779 -2.7057817 2.3838966 -1.6325219 1.028306 0.7960294 0.40928254 -2.6597426 -0.9390462 -0.8461312 -0.8876327 -0.96330255 0.4940602 2.486572 -1.4139563 -0.71501446 -0.49044988 1.8070459 1.5233485 -3.518185 2.4762125 -2.245154 1.4081337 -0.50525963 -1.3671944 -1.1914186 2.1091406 -0.8752134 0.14709775 -0.5263735 -0.3575898 -2.1133916 1.3148445 0.38242325 -0.34365043 -2.1020017 3.5674648 0.3739561 0.572405 0.4262357 1.990467 -1.0871316 1.6279726 -0.22960357 1.476617 2.087077 -1.7589875 0.80610645 2.179397 2.283819 0.19552545 -0.15793486 -1.9954057
1832 0.58633536 -2.2543929 -0.38645613 0.6955197 -1.0437548 0.59743035 -2.1297455 1.5341408 -4.4438224 1.4577779 -2.030971 -1.4695857 -0.101826206 -2.5078814 -2.3893032 0.1812823 -2.4922187 2.2640007 1.0787014 -2.4417882 -0.5108974 0.97236305 3.4840899 -0.30916706 3.9448988 -1.5472008 2.648253 -0.04004533 0.17632324 2.144439 -1.1727171 -0.28254545 -1.632528 0.09039886 -3.7213285 -0.82105935 -1.9786918 0.40429866 -1.1859097 1.1007664 3.3727713 0.6003171 -0.82148105 -1.1274726 2.786544 2.0059319 0.2642033 5.0961785 -1.7935815 2.440176 -0.06526609 1.367811 -2.0241466 -1.3608947 0.48874667 0.9838373 1.6365199 0.6767713 -0.37393463 -0.44829217 2.3915212 0.3921768 0.031119639 2.090836
1831 0.31059772 -1.5182835 -0.2034867 0.25965047 -1.9305431 0.18745017 -2.7641177 1.1005934 -3.903607 1.621547 -1.8993695 -0.44895992 -0.8353764 -1.3372062 -2.4654543 1.1264504 -1.9707298 2.549855 0.5869775 -2.1083713 -1.4292873 0.82598615 3.5346906 0.26809585 3.8901577 -1.1654805 2.3560133 -0.39668834 0.42773345 2.607879 -1.5944157 0.025372673 -1.4323096 -0.3927342 -3.7215092 -1.4532354 -2.3372734 0.6675021 -1.117148 0.9455468 4.46141 0.15107122 1.0419295 -1.1650001 2.7758234 2.5391982 0.6453206 4.510642 -2.9906554 2.9166718 0.56802136 1.5142843 -1.3766255 -0.027294835 -0.3143443 0.16584682 0.5917764 0.7358307 -0.90059924 0.15556678 1.4258959 -0.6779932 0.043053813 1.6354662
1796 0.43197277 3.3147287 2.7941244 0.6492368 0.542089 -1.9263711 -2.9401026 -1.7081904 -1.0730674 -2.8259156 1.1390873 1.0108474 -0.08646381 0.85033035 -1.6393421 1.4186862 -0.31032875 2.407805 1.6974509 1.7228292 -0.23759593 -0.12620957 3.245864 0.40353346 3.560945 -2.5665555 -0.33333674 5.0021114 -1.0037366 -2.4809055 -0.76509595 4.28593 -2.2356105 -2.990577 -0.066310495 -1.2627239 -0.76454085 1.6925626 0.09230936 -0.3384319 -1.313948 -0.6981257 2.8707538 1.1134977 5.2487235 -1.1201851 -3.4538462 2.00951 2.692571 -0.867828 2.1703756 -0.9822408 2.150654 3.2133765 1.499341 -0.3200372 -0.18132311 -0.89982724 -1.3909707 4.074699 2.5761764 -1.6461471 0.06295849 1.1230402
2331 -0.3040934 -1.3817148 4.502375 -1.1109711 3.3284943 -0.088589996 -1.0018004 2.240596 0.26608753 -1.2935232 -2.3630586 3.4714088 -0.61152506 0.26866582 2.0020409 -1.3141278 -1.594629 0.3117643 1.62748 -1.6070924 3.8028057 2.8871393 -1.8417631 0.78098136 -1.2553413 -1.4856315 0.70887506 -0.3259457 0.08111737 0.654514 -1.0941329 0.1542916 -1.7780306 0.110162616 0.30099356 0.7564965 -0.08876167 2.418762 -0.30293244 0.5627361 0.6896892 -0.5631067 2.242171 0.19554414 -0.05222398 -0.73845977 1.7072053 2.2462738 0.11980272 -2.871045 -0.59458303 1.8819311 3.8181686 -0.06329303 -2.0433736 3.8570244 2.7156713 -4.344552 2.0003352 0.26686925 -2.7908492 3.1968997 1.3156754 0.22868234
66 -0.025153881 0.49062178 2.8277056 -2.0451891 -2.4401982 2.5704944 4.603035 3.33823 1.4411781 -1.0471365 -0.18685919 -1.0902365 -1.0353366 -1.2618688 -0.029083932 1.9312154 -1.1640013 0.7706697 -2.1413655 0.009577327 0.9942341 -2.1346493 -1.9942437 -0.86209714 1.1493579 -3.333977 -0.41208363 1.9217685 -1.1079322 -3.5409608 -0.6591875 2.1263323 1.5868579 -1.5453598 -2.431082 0.99443465 -2.2449977 -2.1724412 -2.033548 -2.417627 4.119696 2.3539655 -3.5765834 -1.4735181 0.5410874 -1.2202208 2.0443351 -0.47219193 0.73570025 1.2229904 -3.2664611 -1.1263084 3.44365 1.6779447 2.21891 0.7626352 2.4713354 -1.4204409 0.8165613 -2.3495145 -2.9715116 -1.6006566 2.3379176 2.2319014
1727 -4.1059365 -2.835503 -0.66043407 2.2250829 -1.0139431 1.5324183 -4.6713557 3.1022198 0.5429026 1.8900471 -0.82800555 5.047375 0.15288036 -2.280544 -2.4231632 8.733178 0.89784896 5.8051915 0.07572899 -1.9422101 0.027449146 -1.1192251 -2.0111692 3.279391 6.72977 -0.6604007 -0.8852584 -2.343375 2.61888 2.0581386 -0.63268596 -1.5742316 -3.719339 1.1076033 -0.43456414 1.8284245 0.8903921 0.85012776 -4.17514 2.492044 7.6450434 0.93211377 2.5099342 -1.4698263 2.9838088 6.4167404 2.9262717 3.9301698 -2.3101869 0.112204306 1.8718094 -8.322732 -2.6831462 5.11591 -2.416844 -3.64857 -4.8381324 1.3553824 -0.94230324 4.1281962 -0.5367745 3.9337885 0.775196 0.18625835
2427 -1.5597062 -0.23866855 -2.1109471 1.7726268 1.1462361 -1.2385565 -1.3080939 -0.07255613 -2.0894036 0.83697146 -1.6942544 -2.0683749 -3.407246 2.507578 2.0343275 0.82628924 -3.0078402 -0.03628281 -1.0885092 -2.183527 -2.3065982 3.9829504 -6.326595 0.3797066 -2.4269323 -2.856248 3.3414419 -1.6319098 0.28513405 -2.183422 0.6503864 -1.0914079 4.027563 -0.18238305 0.91905135 -0.4733525 3.8357077 -0.81925815 -0.4749129 1.278889 -2.6762478 0.6627786 -0.6826662 -3.290405 -0.28597832 2.6832254 2.5361192 0.5968921 -0.66120535 -3.4890952 3.6247652 2.4750762 1.084867 -1.001432 -3.930747 0.55864966 -1.961633 -0.5337827 0.123480044 1.056927 0.5224549 -2.0632815 -1.6328585 0.69933105
2438 0.49244973 -3.4640477 0.39985842 -0.18709111 3.5776203 0.35620663 0.094025664 4.3156977 1.5078572 -0.2510544 4.413371 -3.9079092 -2.3617578 2.2866864 -1.873697 -1.4514929 2.8751688 1.3760345 -2.9141307 0.16262794 3.6900187 -4.647968 0.16136695 -1.5364556 -0.8673454 -4.8390017 5.299017 -0.65060884 1.7981187 -0.9790309 -2.0498486 -2.3177838 -0.51883554 3.0778542 -2.2273223 -2.276347 -3.3462358 -3.4104526 1.8396947 1.2321033 0.02430317 3.4260843 0.19846042 1.4180939 -1.3811284 1.8362848 -1.0144341 1.9904413 3.319037 -3.837528 -3.5060742 -0.5597368 1.9215022 -3.9108777 0.23817512 -2.064977 -2.205353 0.81812626 -1.0750526 0.7770609 -0.36038527 -3.939834 -0.013056492 0.5994015
137 0.5968605 -1.4235471 1.6844281 5.0787535 4.769179 3.214033 0.17564458 4.5201573 1.7303941 -0.5615104 0.116589576 1.036267 1.6249484 -0.33903155 -1.4584212 1.0086588 -1.04105 1.4282875 0.24733101 0.82519156 1.9475932 -1.6819048 2.4596298 -1.8607441 2.214593 4.951857 -0.78067243 2.9241786 -1.9431552 -1.6721805 -4.003088 -1.2632746 -2.5899954 1.3698616 4.1657424 -1.2300909 -2.8415225 2.5481474 1.7809677 -2.007008 0.7816086 1.6161009 0.92548484 0.7354586 1.6213317 -5.47597 -3.1362665 6.10021 -0.9287396 3.6377487 -0.6833173 0.08550461 -4.8090487 1.3410766 1.4760916 3.1335266 0.15130566 -0.92195565 3.2296922 -0.9017233 8.312614 1.2839082 0.48606476 4.9383636
2646 1.7998204 -1.7631754 6.7183247 0.045977585 0.50301623 2.3995793 -0.53823674 4.4344387 -1.5130397 -0.95255405 -4.579677 5.4266644 -0.13112143 3.5264914 0.89084905 -2.1643374 -0.12992483 0.38465405 3.197102 0.94204086 3.3861868 3.2624257 -3.6012936 2.0538266 -1.2974612 -1.4211875 0.39855283 -0.6903463 1.6746721 -0.6608291 -1.3382914 -2.7489529 -1.3756404 -1.2881976 0.606894 0.7003577 0.4566135 0.33386564 0.68648064 1.738808 0.8294072 0.66610724 1.960047 -0.17212723 -0.8174002 -0.7788471 0.5229504 2.1109724 0.27892506 -2.0293908 0.61387223 2.6447423 2.542976 1.916495 -0.60092884 4.5560083 1.5515137 -2.1622915 0.6193922 -0.61135596 -4.188617 3.3252516 3.1695929 1.0218483
1549 6.533382 2.0913248 -1.9000825 -0.5880486 -1.8140286 -4.8270793 -3.813708 -0.44506785 -1.4160186 0.07811496 -0.2507203 2.0164914 1.3753597 -1.3483305 1.9420284 -0.52895796 -0.9734122 -2.0022008 -1.1430595 1.2050307 -1.7459354 -1.1377652 2.9386892 0.20814851 0.19736718 1.8042514 0.199295 4.9894185 0.99222106 0.52732235 1.0123235 -0.77076006 -3.2095084 -2.7672968 -0.5453053 -2.3170745 -0.3620862 -0.001667938 -0.067091525 -0.9805726 0.8693305 1.6696345 0.4699022 -0.35403898 3.316962 2.7120032 0.14873853 6.521754 0.14221004 2.2801428 1.5052632 5.160129 -0.8379298 1.4553809 -0.7196158 -1.1311768 -1.0007434 -2.3994062 -1.3392395 0.1565824 3.2689428 -0.4819366 0.6428934 0.58083975
2103 -0.1358796 0.5317528 -1.689443 -0.3906091 1.31527 -2.6653793 3.7358694 -3.6670475 -4.3173 -2.9532144 1.3914971 3.421969 -2.407924 -0.33925572 -0.67709583 0.514762 3.824594 0.43275115 4.078939 1.5192629 -2.1507926 2.2072554 2.6767106 -2.3641205 -1.2288119 -0.63852394 2.4935222 0.7688609 -0.17913549 1.9485539 -0.24905093 -1.6884551 0.63238484 -1.8840535 1.2175573 2.6011374 -2.2045016 2.3427808 4.6583977 -0.7731859 -1.6174355 0.42384267 -0.83383435 -0.9159174 2.340893 1.7894785 1.668631 -1.536868 -0.1838457 -3.27232 0.39498952 0.95831245 -1.5676485 -2.459928 1.4420936 -0.0077804946 1.2267023 0.08601327 1.5021774 -1.4908988 -1.1975598 2.4611719 3.6484716 0.18871126
169 3.4144564 5.6917806 3.9030097 -1.9481746 -6.8111095 -2.4771914 -3.5740352 -5.752819 -2.4913242 -8.820162 1.8085377 0.7848468 -1.9658271 1.9168513 1.3617741 -1.3394487 0.2973646 1.0674912 -1.7025231 2.4427927 -0.9323431 -0.8941702 0.44217795 2.4520712 -1.9934449 -2.6329322 0.7011437 4.192372 2.894815 -0.8935816 -6.3762107 2.8955173 -3.4642782 1.6027586 1.3871255 -4.767667 -4.5397267 1.8622671 -2.9797673 -4.083592 -0.5760079 0.00046373214 0.31421834 -0.24618122 -0.3023129 4.064906 -3.2756715 7.7211914 2.163259 -1.2564584 2.4800894 1.2763987 -2.5448256 1.6252098 2.4810376 -0.5017237 -5.3754764 -3.8711748 -0.40470082 4.6235685 1.4885123 2.0754323 0.10713453 1.5803926
3024 -0.47799683 0.20132929 1.1849866 0.12609108 1.9036707 0.60012186 -0.9752567 0.6179361 4.3231707 -2.5063307 -0.83540887 2.801021 -4.2829866 -1.6655519 1.324247 -2.7049644 -4.2865925 -1.4623462 -1.5320028 2.94607 4.9076476 0.62747586 2.0221076 -2.0960708 1.053954 -0.47407958 -3.0706956 -1.4504111 5.0402584 1.5130532 3.3316238 2.5690832 0.7469072 1.1799866 -2.1904936 2.8045266 0.14007111 3.7270517 0.14385974 -0.2987886 1.1022457 -1.910192 1.4509293 -1.2918843 2.0046356 1.5486037 -0.76630676 0.11434628 0.67318344 -1.812836 -3.035711 5.0721707 -0.9379566 1.8780551 2.144102 -0.5115233 2.0978668 -0.5314183 1.8558111 -2.3065133 1.5180534 0.20610791 1.094217 -3.7272942
2743 -1.2365772 -0.06563197 0.7017517 -0.5026503 0.99384654 -3.024867 0.604773 -1.9537971 -4.7931423 -1.2591149 1.2384764 1.0510054 -0.8154383 -0.55485004 -1.5894283 0.78249085 3.5079575 0.84047556 1.7059866 2.4101527 -2.9694586 0.70023537 2.207399 -0.30717376 -0.614003 0.8091256 1.2655985 0.00068841985 -0.2859692 1.5569513 0.47728857 -0.21108653 0.28555351 -1.2717927 1.5384718 1.8750465 -0.8779703 0.7325018 5.1702647 0.17222 -1.4752065 0.39364603 0.09777723 0.19858836 3.1393256 0.2112975 1.9437543 -2.2917476 -1.9428623 -2.3563447 -0.98281753 2.692301 1.4243518 -3.3545325 3.1790605 -1.7790449 1.0362188 0.63968307 0.4488919 -1.1242242 -1.2857918 3.6304402 2.8006685 1.2647768
191 -1.4623765 -2.0145895 1.2576445 -1.3242753 -1.565949 -3.019911 -3.7039084 -4.7811136 2.775995 0.9965813 -1.7286614 6.5307837 -2.743824 2.822014 -4.4600186 6.6239457 -1.1067568 5.052053 -0.00666967 -1.8757639 -3.9449759 -5.0485682 -0.45307055 2.9199483 2.8319683 -2.0758262 0.3078719 4.3189116 0.96498454 -1.9598789 -2.9475725 2.6161113 -1.8833117 -1.4515218 -0.44753727 3.6492293 -0.87357354 7.730251 -1.8476381 4.429317 6.70236 0.46249202 -1.6311123 0.93498594 5.9985533 3.1597025 -4.285473 3.785749 2.8875108 -2.6986392 -0.5995276 -4.612247 2.1034496 7.059862 -1.4434255 -4.899274 -2.079226 -0.3379902 -1.6172456 4.9989014 2.5165386 -0.41195744 -2.087035 -0.8515058
1163 -2.0955663 -2.3818707 -4.3107524 6.574668 3.0407774 1.9188302 1.3037312 -0.11404264 0.52187735 -2.8428047 -0.25791505 1.2879164 3.0674188 2.1103685 -1.3103634 0.23304392 -0.043092787 -0.0048478697 -1.8357233 3.694204 -4.581742 2.246144 -1.600483 -4.667408 1.1828858 -4.316333 -1.896096 3.2228014 1.574603 -1.0039574 2.7312584 3.6547058 -0.023744883 0.29520085 -3.0924633 -2.5231879 1.990202 -0.17662565 0.7996497 -1.0356553 -0.47755086 0.23679036 -1.4905711 2.283392 2.1359186 -2.1965315 0.42271817 -2.2023916 2.0695782 0.79435134 0.14721833 -1.1513808 -1.8037324 -2.0848784 -1.5965338 4.0535855 -1.6774871 3.9173965 -1.2961725 -1.1877307 -0.75169444 2.1669123 -0.48314837 2.0557265
2329 0.2371601 -2.6523185 -1.9277772 -0.6657669 3.7613192 0.94119793 -0.97528136 3.441906 -1.0051755 -1.7160596 3.3674607 0.13874163 -3.079717 3.8866606 -1.2442951 -1.2815521 3.8972142 2.488977 -0.63425195 0.00046449562 4.0102553 -3.2034655 -0.20380636 0.90328246 0.7632451 -3.4296772 3.2739851 -1.1542768 -1.1627898 -2.8558457 0.51687884 -5.023754 -1.1337385 3.0515757 -0.9532125 -3.9512827 -3.9060416 -3.806262 -1.9649334 2.087295 0.27220768 1.3189887 0.94992197 2.7499433 -0.96466804 1.4747616 -0.23333253 1.3293399 3.1273248 -4.0328307 -1.6277696 1.158214 1.3991137 -2.0204272 -2.1138074 -1.0160403 -0.4574594 -0.4422579 -0.9940844 0.5170441 -0.052697577 -1.418408 1.4304627 -1.1334761
12 -0.9080091 3.419004 -1.7698066 2.5662456 1.9689399 -2.3681831 3.1258266 -0.4140939 0.7275536 -2.4173367 3.2420359 -1.1012646 -0.60991013 -0.1088123 1.0707577 -1.402241 -2.7873023 1.2356905 0.5283428 -0.39939797 1.2406868 0.20949292 1.170736 -1.7219335 0.69446373 3.9188797 2.3896673 3.8669913 -1.9617673 -1.2148217 -0.69479465 -0.98736763 -1.5548744 -0.43252483 1.2910045 0.12489719 0.6305297 -1.7439281 -0.78011113 -3.0597112 0.79370254 -1.0927979 -2.1896749 1.1356193 0.23830634 -2.1111796 -4.4192367 -2.4037924 -1.7175326 -1.0544368 -0.22282797 -1.6002665 0.7877902 0.6121319 1.2593092 0.74480927 3.5000956 4.9894686 -1.450488 -4.2611094 -0.6431001 -2.3659513 -3.0154867 -1.251764
2774 1.3570801 2.5474703 -1.0301977 0.18407992 0.2938972 -2.8533263 2.5692093 -2.1941376 -4.1695113 -0.8525411 0.98682547 2.5140681 -1.5969502 1.4308916 -0.6882438 1.5816443 3.892346 1.6917421 2.8211298 1.7507015 -1.3792007 2.5708878 1.1555691 -2.2348568 -0.4934787 -0.23002797 1.2543423 -1.8641258 -0.35125035 1.6487721 0.95224935 -0.49582857 0.39652508 -3.712224 1.6601661 2.048461 -0.81960624 1.2114176 2.9779768 -0.32774547 -0.97005767 -0.44617668 -0.17297198 -2.19392 3.5447338 1.6633176 0.63098216 -1.1385697 -2.5002801 -2.367827 -0.1497041 0.9147202 0.32992345 -2.9192305 2.1840243 1.1263095 1.1338847 1.4754865 2.1956606 -1.3494847 -0.43345827 4.661016 1.3363103 -0.6832736
21 3.792911 -0.49170837 -5.7628393 -0.42153966 1.8911825 -3.6237113 -0.62662596 0.061804086 -1.6458424 3.1496406 1.2819213 -1.5712208 -0.10785514 0.4847388 3.7174997 0.1556016 -0.016787525 -1.6998153 -0.339602 1.9636549 -3.4748545 -1.0386405 -0.8815729 0.92348474 -2.368715 -0.2675603 -1.7435364 -1.6990979 -0.85058254 1.9690721 3.245782 5.2459955 -3.0555532 -1.3480731 -1.0229633 0.86541504 -0.23677252 3.4412465 0.42109507 0.14740108 0.70144993 -0.5756758 -1.5764089 -0.16411595 -2.2770956 -1.2691331 1.1570936 -1.2617248 -2.1888225 1.045345 1.3088444 -1.0405626 -2.3204358 2.3575876 0.6589532 4.0764055 1.2232697 2.5032983 -0.77957743 0.38947663 -0.3025756 0.19125623 0.29935467 -2.5090816
141 -4.9443846 -1.0583917 1.3868229 -2.9648883 0.63518715 -2.4565237 1.1525211 0.85724056 -0.9749383 2.7274117 0.399463 0.47523654 -0.1830408 -1.6068605 0.34675422 -0.40803072 -3.0840757 0.8210394 -0.06846688 1.4318833 -2.8211043 -2.2795005 0.72573113 -2.4464982 1.2231491 0.32905182 0.4869885 -0.6448531 4.1258063 1.2814137 1.1720372 1.2779346 1.0145135 4.611438 -1.6056244 -1.4297639 1.7648448 1.3336868 0.060722392 -2.7083156 1.4752743 1.895027 -3.871098 4.5446587 -3.3429348 -3.1220734 -2.9218698 -0.26869228 -1.8507186 6.237024 -1.3673075 0.3548284 0.9498273 2.811543 -0.34630156 0.95096576 -0.6048126 0.3052793 -1.269678 -4.9538913 3.4905787 -0.5245036 -0.8657036 -0.76639956
3240 -0.9026243 4.4144115 -0.21755163 -0.17267515 -3.4795818 0.52807295 2.167709 -3.9493601 -5.216785 -3.4342723 -0.97089404 -1.2025647 -2.3554401 2.496309 -1.3896701 0.60124445 -0.6086892 1.0405265 -1.7165167 -1.4291223 -2.019118 -0.12181092 -0.49811396 -0.6731997 3.1007264 -1.0661112 0.3506145 -0.82289934 1.3057759 2.2674627 -4.0641446 2.9903564 -1.3380435 1.0531663 -1.5266616 -1.6786628 -1.8711377 1.1278896 -0.97224945 0.2816361 -0.18221374 -0.7993112 -0.86361456 1.1633188 0.45964545 -1.274197 -2.5259683 4.239159 -0.19266832 1.4465281 0.061429854 3.3649578 -0.8217203 0.8458288 1.0255513 1.0391817 1.6672206 -1.1274312 0.36116955 1.7279158 1.8836827 -0.99042636 0.2964532 -0.7514141
1884 -0.8518075 -3.145883 -4.3223457 -0.6319331 -2.0243099 2.5854907 0.5777041 2.0356495 -0.88565695 2.400837 -1.7857893 3.600438 3.0694804 0.894427 -0.7711477 6.177059 -0.088985905 3.057578 -3.3710625 -2.723028 1.1229827 -1.1656208 -2.3116274 1.2823706 4.799051 1.7346597 -0.090334505 -0.28551763 3.1113265 -0.76393074 -1.0648458 -3.1390793 -5.305255 -0.51465005 3.605576 1.1839931 0.8546885 3.3436992 -1.4650506 0.42493367 5.5645323 -0.4146261 -2.8555703 2.5374937 5.0835958 5.1095824 1.8452284 2.5142193 1.1738349 -1.1985848 3.8554916 -3.7955775 -4.0074477 3.8333573 -2.2397313 -5.586115 -2.821231 -2.2913024 2.469603 -1.7574093 1.1645147 2.058825 -0.56366503 4.3191714
22 3.7041328 -0.3835867 -5.298916 -0.06210634 1.9425726 -3.135754 -1.7542706 -0.1819521 -2.395398 3.0761876 1.3022269 -1.1274741 -0.9253422 1.4832398 3.2640126 0.6495557 -0.40432248 -2.4305975 -0.14008626 2.3154724 -2.1242914 -1.1851554 -0.7459061 0.59832716 -1.9905357 -0.20888837 -2.4528797 -1.1946335 -0.7402045 2.246416 3.7662601 4.841001 -3.1618562 -1.1390644 -0.35198388 0.8171928 -0.16207553 2.5019841 0.6603834 0.19988005 0.037615657 -1.3015507 -1.2750658 0.22576307 -2.6789582 -0.9169699 1.5067601 -0.9273821 -2.1302514 0.5822597 1.205347 -1.4459429 -1.9897223 2.3852103 -0.004251535 4.259608 1.7435442 2.6783357 -0.7391643 -0.16532092 -0.29057857 -0.52010566 -0.10120918 -2.2294478
2145 -2.904969 2.1690109 1.7741996 1.9315857 1.5288517 -0.0010815047 1.5518572 4.8400373 -1.5808959 1.9550408 1.226861 -3.930479 0.5361311 -0.37636596 -3.896791 -2.3706038 -0.20434658 0.113095 1.3465756 2.7811906 -1.002516 0.029126171 -2.747494 3.0947936 -0.90941095 2.1715398 2.0507143 4.5704737 3.0817382 1.1721569 1.5089958 0.84447944 2.9184415 -0.65225446 -1.9787116 -1.7551082 -1.3572193 0.5028259 -0.14690125 0.53220147 1.1089941 -0.6225101 2.333586 2.2765737 -0.17073716 1.4952675 -3.581692 0.5160292 -1.1155027 0.74210274 -0.40154064 0.2928873 -2.3063705 1.19507 1.2005901 2.2973866 -1.295925 -2.0697155 2.7923996 3.683131 -0.075407825 -1.5765535 0.9014849 -1.3910065
76 -1.6914932 0.66889215 -1.4873637 -0.40848017 -0.98465407 0.77581286 4.4982905 1.0216683 -2.0675097 0.62197506 0.549286 -5.294658 -1.4328488 -1.9168687 -1.134365 -1.8453296 4.1403165 0.94043374 -0.49693388 2.9660537 -1.1210788 -0.717885 1.2613364 -4.2856636 -1.0411743 2.105115 -2.9697468 0.9494004 -3.179058 1.6143028 3.0152087 2.7328596 -3.192045 1.3181466 2.240323 -2.7594528 -0.08447144 1.6295681 -2.1351113 1.9111533 0.29971242 -0.6742046 -4.595324 -0.5154839 2.2349105 -1.4216195 0.37151527 -1.8977594 -1.8881568 4.3045654 -1.6894735 2.2231412 -0.846769 1.0738273 -0.5249603 2.472404 -1.2628642 3.182375 -1.3219208 -0.36302483 -0.93974036 -2.4350283 -4.197528 0.09451111
7 -3.398973 0.58327174 -0.74429417 0.6336151 1.0792725 1.1338031 4.1878977 1.5736427 1.4513551 -3.5649843 2.4250658 0.6651195 -2.4546442 -3.991236 3.3616724 0.5482437 -3.1401079 -1.6782192 0.055994842 -0.6808816 -1.8930118 4.0425267 3.3097386 -0.6076893 0.46295658 -0.84642464 2.998584 1.7411696 -1.0651789 -0.2808881 2.7379112 1.8264749 0.6814166 0.32828814 1.7497121 -0.24321197 -1.1928829 -2.7645323 -2.34 -3.8909907 0.8508767 0.9204587 -0.23796293 2.263239 -0.8167838 -2.756834 1.3940517 0.4968703 0.0864257 3.1702878 2.3544474 2.515149 0.63241374 -2.5246403 -0.3521317 0.73733544 3.3590567 -1.161914 -0.9931651 0.74145263 -0.6891395 1.3448209 -3.6490202 -1.5930767
1859 -0.07356903 0.79924506 3.1065266 -1.4758134 -2.2225041 -2.4830208 -3.8768604 -3.613162 0.96857107 -3.0094836 2.3195512 3.8879597 -1.1190599 -1.7533057 0.1279084 1.6608554 -0.5638916 1.4096067 -0.050254382 2.1314652 -2.4480193 -1.9733497 0.98680085 2.9289627 -0.35669434 -1.903485 -0.67736125 5.2900853 0.06992306 -4.3513656 0.51800406 3.2888727 -1.7622133 -3.0455244 0.5350451 -1.4138833 -0.5024078 1.0664665 -0.7516299 3.439637 -2.1462274 1.5153292 2.6162715 -0.72614104 4.7208147 2.2114556 -2.5148535 1.7134217 1.8106219 0.05337625 2.062887 -1.6582676 1.1247385 2.902147 0.74220115 -2.1241064 -1.1729909 -0.7959371 -4.705137 1.9019512 0.8813122 -0.32445428 -1.9170825 2.8673503
