3389 64
p1 0.07774247 0.1787243 0.1607839 0.21104398 -0.20606314 -0.1967094 0.2646542 0.14215532 0.10699319 -0.10222275 -0.23182863 -0.21218897 0.22087763 0.21828878 0.22264498 -0.34669188 -0.16071971 0.21153253 -0.18551889 0.15565772 0.40784526 -0.19242072 -0.27475157 -0.19113946 0.15134436 -0.14514409 0.08946025 0.15377223 0.2364826 0.2973722 0.21354224 -0.18404682 0.20026837 0.037641935 0.21618694 0.15718621 -0.35252574 0.29848534 0.29485446 -0.0881096 0.16773397 0.07330323 -0.27590495 -0.09955502 0.25462294 -0.26231813 0.08347198 -0.09976747 -0.1356031 -0.23408848 0.17907949 0.29300636 0.17188084 0.16987976 0.2768356 -0.23905565 -0.25278988 -0.22124074 -0.1733064 0.11283154 0.33137015 -0.2003353 -0.33005562 -0.047849674
l1018 0.07084047 0.057173323 0.013431466 -0.05232673 -0.20681147 -0.073114365 0.1613634 0.08768791 0.1386889 -0.0894754 -0.21005414 -0.20839201 0.07295192 0.19306959 0.09343136 -0.12856364 -0.17932348 0.07947534 -0.2100474 0.08386763 0.20411563 -0.20581251 -0.12715244 -0.086288944 0.0669567 -0.10818233 0.08535048 0.17347707 0.11902303 0.13171242 0.11369336 -0.19097841 0.21158211 -0.083749734 0.09596203 0.09238598 -0.18805858 0.15405741 0.21240003 -0.09201557 0.10202918 0.17125872 -0.17794114 -0.18494894 0.19745953 -0.094539076 -0.118573114 0.028813967 -0.19667247 -0.17145354 0.078597985 0.10563354 0.09762918 0.18790813 0.10902595 -0.084803425 -0.19405329 -0.20084856 -0.20029427 0.2017792 0.12385534 -0.18220015 -0.21199615 0.0795569
l1021 0.08929811 0.11333023 0.07708847 -0.004640377 -0.19135797 -0.07950439 0.15536606 0.079677105 0.03649724 -0.09531393 -0.19620764 -0.18789664 0.104622796 0.20833059 0.07982271 -0.13350022 -0.18418916 0.09463779 -0.1937321 0.11505542 0.20457605 -0.19063342 -0.1449793 -0.13506366 0.087959975 0.0034133636 -0.043312456 0.18276681 0.11657855 0.128899 0.12704687 -0.19833222 0.21378596 -0.06852685 0.091344535 0.13029417 -0.19525714 0.17268309 0.21053539 -0.022727065 0.09624737 0.15211976 -0.18534711 -0.19927005 0.20260303 -0.071662955 -0.09129795 -0.017912896 -0.20918183 -0.090964906 0.08995973 0.12930591 0.12075233 0.20132183 0.12639157 -0.103348926 -0.20288041 -0.21308298 -0.2140086 0.16674756 0.12992656 -0.18935007 -0.21222608 0.06496209
l1020 0.08538441 0.1751646 0.13882321 0.10096578 -0.1957847 -0.11372274 0.19305204 0.095372364 -0.03606007 -0.097484514 -0.19392534 -0.20027249 0.10620192 0.21522515 0.1046196 -0.116317965 -0.181717 0.11928094 -0.21383025 0.08583102 0.21655151 -0.19746964 -0.17955586 -0.17787838 0.0989285 0.095733546 -0.098456874 -0.032895435 0.10837275 0.10558519 0.0038913016 -0.15799266 0.19555925 0.092062406 0.09807507 0.17573881 -0.20055865 0.17764485 0.19122119 0.10191419 0.09576225 0.1248788 -0.20161499 -0.08863064 0.20961712 -0.08893409 0.0020515502 -0.17883603 -0.20560855 0.028198231 0.099441245 0.13381983 0.10301081 0.16763322 0.12950355 -0.10004284 -0.04777138 -0.196127 -0.20549653 0.031977374 0.18948564 0.0015346179 -0.19500202 0.0900011
p13 0.09178586 0.19059128 0.14476168 0.12910807 -0.12854178 -0.13631448 0.22067566 0.10403723 -0.09437246 -0.108401895 -0.21250118 -0.123464525 0.10573599 0.21337779 0.067105554 -0.0351169 -0.19066596 0.08644723 -0.22332114 0.08303261 0.21447718 -0.20022336 -0.19280954 -0.19200069 0.039577607 0.11547486 -0.11505906 -0.09621021 0.15011641 0.10694119 -0.22484085 -0.08131492 0.19704325 0.16108766 0.020714873 0.187531 -0.2101177 0.1917751 0.22118875 0.18810654 -0.055198964 0.06676476 -0.22401848 0.018930452 0.21883753 -0.10433108 0.16756956 -0.22197919 -0.21041372 0.1126116 0.10848252 0.085437834 0.11528822 0.03439499 0.15141805 -0.023630068 0.08644832 -0.19761845 -0.22159398 -0.04059636 0.2235073 0.084398836 -0.17412992 0.08792407
l1071 0.1179245 0.20197566 0.15352222 0.114524625 -0.13671233 -0.094197236 0.20390908 0.11289768 -0.07936295 -0.11039784 -0.19193812 -0.123865604 0.09706984 0.20649485 0.05730526 -0.037055645 -0.20888394 0.09268718 -0.2004122 0.1081893 0.19710329 -0.19789346 -0.20224349 -0.19995028 0.040952716 0.09072534 -0.09233456 -0.08923543 0.122797966 0.12505129 -0.20938939 -0.05093456 0.21415691 0.14162476 0.03072275 0.19717287 -0.20762755 0.21027175 0.21474117 0.1728735 -0.074098915 0.09031999 -0.20476623 0.0152012855 0.20917715 -0.10071953 0.19005398 -0.206521 -0.2181504 0.09746867 0.103734136 0.07911287 0.10882123 0.051935885 0.1130235 -0.046194546 0.06782986 -0.21524462 -0.1907523 -0.04968912 0.21186005 0.05451062 -0.13925739 0.09303237
l1070 0.1034914 0.19490255 0.14378466 0.10295448 -0.08473571 -0.10686044 0.20558605 0.07949007 -0.07293921 -0.11723472 -0.21330138 -0.15279397 0.08304049 0.17676154 0.092848256 -0.063614696 -0.18026042 0.094629094 -0.21439682 0.038535487 0.18099013 -0.19725531 -0.20847957 -0.18558842 0.06722273 0.11507084 -0.10982683 -0.07977463 0.12948051 0.12732644 -0.20386288 -0.061450258 0.18844633 0.15446204 0.047649227 0.18510224 -0.19144468 0.187351 0.21557276 0.17256059 -0.10620695 0.1328662 -0.20392682 -0.0041234605 0.20266122 -0.11601917 0.17693591 -0.20470855 -0.20545882 0.08339383 0.114763856 0.03552648 0.10888787 0.020191317 0.12079275 -0.07428402 0.06405382 -0.1908064 -0.21167265 -0.08047691 0.21396631 0.05938529 -0.16608693 0.02909445
l1072 0.0929666 0.18982175 0.19670105 0.0830461 -0.103313774 -0.11545881 0.19470616 0.067428 -0.094885014 -0.10523118 -0.19230972 -0.10330926 0.10019998 0.2069272 0.05221279 -0.069300815 -0.18096091 0.053336237 -0.19613045 0.0687619 0.19233604 -0.19956315 -0.20560196 -0.19933382 0.037092846 0.09122101 -0.09838424 -0.088474065 0.111580916 0.12806089 -0.20494817 -0.09628744 0.19654435 0.18047047 0.0011952305 0.19372468 -0.18299153 0.21405321 0.19048268 0.16479442 -0.06957947 0.017930474 -0.18920447 0.046532407 0.21270537 -0.10458189 0.160081 -0.19938567 -0.20394015 0.10338014 0.09553165 0.07902176 0.09816772 0.04546781 0.11601149 -0.03684342 0.11495237 -0.18020649 -0.19018409 -0.0756853 0.20932072 0.07972896 -0.15681061 0.09515814
l1047 0.08861153 0.17464706 0.20383254 0.20146184 -0.18229909 -0.11929465 0.18334894 0.09778094 -0.08175202 -0.10388076 -0.21223837 -0.18484573 0.09894047 0.1771719 0.020931503 0.014455476 -0.009146404 0.010945785 -0.21170636 0.11564598 -0.007731733 -0.19136669 -0.19669805 -0.19150248 -0.019708319 0.09105006 -0.0981647 -0.094075374 0.097432286 0.119092524 -0.215721 -0.17966545 0.20878291 0.21699049 -0.12117581 0.20600863 -0.013840723 0.19786096 0.20896006 0.2148638 0.068361916 -0.009230283 -0.21365143 0.111975424 0.17435695 -0.112228155 0.009068393 -0.2124646 -0.20776261 0.104584485 0.12093533 0.10454189 0.10474745 0.09965727 0.11280503 0.12823226 0.094942585 -0.18192971 -0.2095205 -0.07380542 0.1933565 0.09242568 -0.20191509 0.11276324
l1073 0.11056413 0.20041803 0.18117672 0.1253771 -0.12153402 -0.11941421 0.20072612 0.09094208 -0.11206215 -0.089952655 -0.21331339 -0.11082178 0.088752076 0.19498225 0.066848025 -0.029637508 -0.1959632 0.06912093 -0.1889803 0.06375985 0.21114266 -0.18752232 -0.20357862 -0.17981698 0.04520279 0.102352984 -0.11195321 -0.09226878 0.11733672 0.119084306 -0.19182128 -0.04500028 0.20040233 0.15588218 0.022229595 0.20206927 -0.21082343 0.17703909 0.20696016 0.18559994 -0.08461574 0.1383382 -0.18930824 0.016813245 0.20366755 -0.10861132 0.1962174 -0.21150172 -0.2070389 0.112847745 0.10540592 0.06190917 0.09357019 -0.006663808 0.13413589 -0.03156792 0.09783003 -0.18111181 -0.2038552 -0.0488833 0.20193173 0.049338836 -0.15224664 0.08528299
p6 0.14733005 0.10492873 0.277932 0.2804563 -0.20454895 -0.16728799 0.095238596 0.10666871 -0.047604557 -0.1728656 -0.19704325 -0.21713543 0.06340708 0.03612301 -0.15207893 0.23138814 0.016402433 -0.17681044 -0.2123245 0.120100535 -0.05917244 -0.22481577 -0.2328609 -0.2580588 -0.18450405 0.14926265 -0.13700645 -0.14601882 0.09756873 0.038399216 -0.23289388 -0.22411089 0.26010504 0.2686263 -0.25140435 0.19881842 0.078997724 0.25743642 0.27909178 0.2350076 0.11122446 -0.10088469 -0.21412537 0.19133006 0.11314551 -0.097524315 -0.07678532 -0.17700237 -0.2546076 0.03582558 0.12216856 0.13900991 0.17047095 0.22725372 0.072477125 0.18590091 0.14207157 -0.09748542 -0.24056306 -0.12778163 0.22646695 0.12889768 -0.23870507 0.18085738
l1048 0.107754275 0.07645669 0.20245989 0.21166395 -0.20847578 -0.11526155 0.09320731 0.057622217 -0.016480895 -0.11736872 -0.20173633 -0.18771452 0.058186058 0.012581092 -0.17215453 0.2014583 0.061187983 -0.16818483 -0.19535966 0.090600654 -0.09076894 -0.21211904 -0.19983567 -0.21294148 -0.20300733 0.11776249 -0.10169856 -0.08840853 0.091345936 0.053049125 -0.20852144 -0.19100872 0.196839 0.21687536 -0.195012 0.18177564 0.10055772 0.20973113 0.19799714 0.21328929 0.088659465 -0.08947257 -0.13316123 0.13056888 0.08552808 -0.08756859 -0.054082092 -0.10642627 -0.17670278 -0.00021887964 0.10288125 0.081336655 0.09769114 0.15776083 0.08696415 0.21326178 0.10214729 -0.069457956 -0.20518081 -0.07799583 0.20214008 0.0920813 -0.21576868 0.10335972
l1044 0.09064832 0.052524254 0.20013686 0.19877304 -0.1804506 -0.08680591 0.09989285 0.073446326 -0.055153962 -0.094809875 -0.17996687 -0.19582407 0.091418035 -0.0005195927 -0.17171727 0.18325442 0.022779962 -0.17402548 -0.18348986 0.096002996 -0.07000104 -0.18941754 -0.2029438 -0.18678942 -0.19999757 0.10662363 -0.09071118 -0.10865807 0.094174504 0.052544143 -0.19383103 -0.20764981 0.1906447 0.19947214 -0.2040302 0.20319091 0.05955654 0.20225021 0.19075912 0.18265526 0.10092327 -0.10295238 -0.13334523 0.108485095 0.07439623 -0.086622484 -0.048649903 -0.12606397 -0.18488431 0.0394164 0.10695018 0.110483386 0.095314436 0.15950508 0.073515885 0.19804803 0.0917181 -0.046721965 -0.20776503 -0.05658191 0.19423272 0.07716609 -0.21225049 0.08506979
l1046 0.11232548 0.07530882 0.20374243 0.20371713 -0.21516946 -0.11388365 0.09710334 0.05529124 -0.0365273 -0.11203576 -0.2015187 -0.18543787 0.07789159 0.014504258 -0.1728267 0.20587574 0.03808966 -0.15702324 -0.18629277 0.109365195 -0.09412423 -0.19228147 -0.2052437 -0.2058702 -0.19324827 0.09960756 -0.1155667 -0.0900985 0.061978072 0.04636428 -0.20376576 -0.20637442 0.19743723 0.20538749 -0.21119949 0.20804022 0.110066436 0.21580797 0.21612829 0.21377058 0.0884249 -0.08111039 -0.12272011 0.10497768 0.07291015 -0.09502185 -0.027779378 -0.115207635 -0.20294327 0.04836209 0.11972848 0.09802732 0.11014834 0.14293535 0.07703261 0.19399281 0.08238067 -0.061120637 -0.20780405 -0.0630441 0.19980608 0.07721832 -0.20648788 0.09609311
l1045 0.11158102 0.094058715 0.20737103 0.21196379 -0.19568259 -0.10233938 0.10499258 0.07721184 -0.06719582 -0.10076417 -0.20764334 -0.15513234 0.06403431 0.014295032 -0.16735084 0.19495969 0.033057358 -0.1509467 -0.18421851 0.11758153 -0.011589444 -0.1947509 -0.20376806 -0.19912924 -0.17107205 0.10082745 -0.09371421 -0.115279034 0.10835294 0.06943004 -0.2107712 -0.19780697 0.19236992 0.21324971 -0.20209402 0.17693269 0.09154008 0.21162711 0.210496 0.20852332 0.070930056 -0.09538942 -0.11952523 0.124272786 0.07307626 -0.103227 -0.0460881 -0.12242192 -0.21226135 0.011973709 0.11263171 0.09917913 0.10453433 0.1763382 0.066169284 0.21193117 0.09722371 -0.04374198 -0.19831093 -0.042562675 0.20382985 0.102817334 -0.20832586 0.10079563
l1049 0.1061096 0.06785317 0.2086489 0.20996366 -0.18658832 -0.114750914 0.0950322 0.048258927 -0.07290624 -0.10525672 -0.21136226 -0.1762455 0.058868084 0.01000424 -0.17322044 0.1989288 0.07222461 -0.1306958 -0.19256575 0.108685516 -0.09152391 -0.19332108 -0.19889209 -0.21502312 -0.20692518 0.092420146 -0.10934572 -0.10190989 0.0738167 0.031297497 -0.19251157 -0.21097727 0.21515618 0.21575283 -0.19645695 0.19887376 0.0793505 0.20365529 0.21680516 0.21440655 0.098513134 -0.07794762 -0.15278845 0.1298789 0.06478449 -0.07610007 -0.073605545 -0.12160922 -0.17903063 -0.004949054 0.099052295 0.101398945 0.10444522 0.18872838 0.062897824 0.21058753 0.095934555 -0.037120417 -0.21094513 -0.07386027 0.2133026 0.0959017 -0.2045341 0.122352675
l1050 0.11452519 0.07690316 0.2002153 0.19702731 -0.18982808 -0.09193282 0.09074323 0.05452035 -0.006634607 -0.120836005 -0.19929786 -0.20171787 0.04214465 0.016393045 -0.18791182 0.18717098 0.085287385 -0.19170266 -0.19615483 0.081530094 -0.108638465 -0.19716954 -0.21428919 -0.19624466 -0.20401376 0.107782006 -0.11427964 -0.101300076 0.060316063 0.014154186 -0.20027043 -0.20230487 0.19974574 0.20427014 -0.20828517 0.1810303 0.11270711 0.20509577 0.20481332 0.18567555 0.12635645 -0.10755011 -0.14379242 0.12518997 0.05141318 -0.09487021 -0.10113675 -0.110876136 -0.17856446 -0.004767636 0.099916816 0.09938948 0.10171211 0.17019652 0.04761864 0.16881147 0.080824114 -0.032052375 -0.21087638 -0.06447165 0.18471205 0.0866101 -0.21182689 0.117713146
l1019 0.07460848 0.06635557 0.002149737 -0.052949373 -0.21278189 -0.06701672 0.17681132 0.09538994 0.14570682 -0.0917444 -0.19548029 -0.20401944 0.09811349 0.19644979 0.07341534 -0.13074459 -0.16922334 0.07678636 -0.20568484 0.09138476 0.21253468 -0.19007136 -0.14138028 -0.11233086 0.08013449 -0.09056856 0.07275585 0.1853335 0.11887507 0.13283156 0.10337111 -0.17232849 0.19186659 -0.078658365 0.07064248 0.0733576 -0.1943359 0.14193292 0.20609866 -0.09343493 0.11190969 0.15054365 -0.15640704 -0.19908483 0.20543265 -0.0698207 -0.07382135 0.03617322 -0.20982248 -0.15402107 0.09225135 0.1182857 0.10393128 0.18825226 0.11847078 -0.07150307 -0.17486903 -0.21310155 -0.19868454 0.17364751 0.12430183 -0.19055304 -0.19046316 0.072295874
l1022 0.070326634 0.09840194 0.044475716 -0.005498688 -0.19234893 -0.074064344 0.16013515 0.08589877 0.07617815 -0.08839622 -0.2152569 -0.20405635 0.10450804 0.20249738 0.08738825 -0.13504843 -0.18496719 0.07454522 -0.19821978 0.09755725 0.21094356 -0.19402814 -0.13164504 -0.089797236 0.07791354 -0.046000753 0.016588269 0.16245556 0.12671244 0.10877348 0.12841131 -0.1989031 0.20063691 -0.083565965 0.09043484 0.109575495 -0.20526145 0.14988469 0.1869207 -0.065427326 0.117710985 0.15536708 -0.18627602 -0.1749492 0.20555758 -0.070359066 -0.09472237 -0.018036913 -0.18481821 -0.16438043 0.094048545 0.13197653 0.1001769 0.20383692 0.12153306 -0.09162735 -0.17789438 -0.1997832 -0.1987075 0.1922396 0.1488897 -0.1882219 -0.19410816 0.081371
l1043 0.10524813 0.06056896 0.21078974 0.1980121 -0.20504032 -0.102013774 0.070804596 0.061521105 0.004432905 -0.108416684 -0.1917398 -0.17832534 0.067635804 -0.0034618785 -0.1796445 0.20026846 0.03833924 -0.17000453 -0.19552417 0.09854786 -0.08307721 -0.19171147 -0.21701857 -0.2186216 -0.19837187 0.11617677 -0.10636894 -0.111493036 0.078816466 0.038412437 -0.1921625 -0.20181182 0.21503888 0.20782912 -0.18877077 0.20331688 0.089131065 0.21691298 0.21258065 0.20228757 0.078088894 -0.100322686 -0.11426282 0.11479963 0.05998702 -0.1177599 -0.055667136 -0.12467485 -0.18058501 0.012317852 0.09289011 0.082686074 0.09997259 0.16910602 0.037389774 0.19326752 0.10679254 -0.051026177 -0.19217794 -0.08860386 0.191267 0.1001569 -0.19098623 0.101021975
p10 -0.07408847 0.10209617 0.024908043 0.06638012 -0.03203956 0.059575856 0.026108377 -0.08994072 -0.04193118 0.05335029 -0.09760257 -0.006692307 -0.013366995 0.02813889 -0.07807025 0.06960962 -0.014910467 -0.014751427 -0.07671676 -0.073540606 0.006391839 -0.011066829 -0.0769542 -0.084766746 -0.009911154 -0.041034643 0.08891623 0.07190495 0.045155447 -0.022662286 -0.0055038566 0.06513947 -0.005360467 -0.0028164769 -0.01980778 -0.0059724646 -0.091312036 0.09303713 0.09205535 -0.0054594423 -0.0848484 0.07753537 -0.005536126 -0.062295437 -0.004586294 0.055205047 -0.03461963 -0.026538396 -0.018270776 -0.012800842 -0.0017684111 -0.102373354 -0.09843047 0.06637665 -0.08783296 0.0017033672 -0.07785573 -0.026026467 0.026108384 0.048081793 -0.00218658 -0.09603598 0.02253857 -0.07475711
l1062 -0.08579489 0.09321482 -0.013621132 0.087711364 -0.0022687784 0.030281797 0.004865904 -0.10041059 -0.04360913 0.031887032 -0.0870116 0.0016675293 -0.010967796 0.009326132 -0.085518956 0.10968778 -0.080488816 -0.0070590973 -0.10142054 -0.09523746 -0.013353396 0.018532416 -0.095252395 -0.10872497 0.002001501 0.00079004996 0.088440135 0.09933851 0.042775806 -0.027912594 -0.02232646 0.037874453 -0.020264503 -0.018939875 -0.011421671 -0.02682273 -0.0853141 0.09650136 0.09989591 -0.015910804 -0.06383372 0.087286405 -0.0034221623 -0.09303962 0.013242127 0.08181878 -0.052315813 0.009801447 -0.032218155 -0.0043616393 0.0103123095 -0.11015791 -0.09268344 0.10602888 -0.103148855 -0.012905032 -0.10482641 -0.0020297295 0.0364529 0.04278577 0.0030911681 -0.09610522 0.049333286 -0.10416043
p9 -0.08734528 0.100885265 -0.005741779 0.11155988 0.00801039 0.05354377 0.0007427695 -0.0972603 -0.056119364 0.054396063 -0.10586653 0.015316411 0.020613877 0.005020346 -0.10566304 0.11210249 -0.08344406 0.031267196 -0.08935861 -0.1137362 -0.02120073 0.021650882 -0.11044583 -0.10994255 0.015083637 0.018717408 0.104259506 0.10915281 0.050135344 -0.01732966 -0.023942564 0.039965767 -0.018063784 -0.00537974 0.008979825 -0.029831128 -0.08531425 0.09267471 0.10733394 -0.009221989 -0.08277763 0.095492974 0.014727057 -0.103360094 0.052744538 0.10873742 -0.050838023 0.00483481 -0.028440047 -0.0327304 0.007110298 -0.11376888 -0.08580564 0.108352445 -0.10492999 -0.019911623 -0.10605154 0.015367556 0.04442993 0.039063502 -0.032255277 -0.106467985 0.03953927 -0.11295035
l1058 -0.09938691 0.085051656 -0.012385813 0.110636495 0.0025078813 0.03747542 -0.011679543 -0.093476094 -0.029789407 0.023841485 -0.08739958 0.002936369 0.016756874 -0.016863946 -0.08993377 0.09946856 -0.108578764 0.008948536 -0.10940704 -0.084696606 -0.0034281868 -0.008798427 -0.10348543 -0.09246837 0.01768059 0.007634459 0.077715546 0.07578623 0.034705926 -0.0068992004 -0.0042197974 0.041716274 -0.024605934 -0.0051292083 0.008516417 -0.02452036 -0.09077018 0.09584074 0.09848536 0.006610515 -0.055866044 0.10777604 0.005320309 -0.09639748 0.04179536 0.10221778 -0.05296393 -0.006024709 -0.018275632 -0.020025793 0.010729317 -0.09663467 -0.09514726 0.08565768 -0.09330964 -0.0055918833 -0.092352465 0.011527408 0.041585945 0.08198763 -0.01069071 -0.105736956 0.032450493 -0.09250068
l1060 -0.11090589 0.105951406 -0.009501876 0.09443635 0.005604081 0.043814108 0.00089533307 -0.10205951 -0.036716063 0.024469273 -0.1029076 0.0149398185 0.0057718093 -0.017802032 -0.10156648 0.08451873 -0.1015844 0.01951828 -0.0803568 -0.06794718 0.0065057124 0.01489256 -0.0820749 -0.09854983 0.007051362 0.017644037 0.09758221 0.09643512 0.029283656 -0.031044332 -0.0120014995 0.024168763 -0.01892741 -0.0040938114 0.014403807 -0.02658436 -0.08699001 0.09570292 0.100855604 -0.01849394 -0.07154352 0.09099104 0.018181002 -0.1074547 0.03271315 0.10621461 -0.048504215 0.014407451 -0.0052232593 -0.032447908 -0.000409884 -0.107834704 -0.1098104 0.08839797 -0.096509196 -0.018480988 -0.10117394 -0.0043576267 0.018375212 0.051352687 0.006680609 -0.08510285 0.039092243 -0.11078902
l1059 -0.081506625 0.10687756 0.00606795 0.09881629 -0.0022226623 0.022836424 0.008819425 -0.10634905 -0.047614805 0.004489607 -0.083826855 0.00039094157 -0.0037484157 -0.01874366 -0.09071562 0.093886994 -0.110302866 0.009223464 -0.10673083 -0.098538645 0.00060041633 0.008046165 -0.101398334 -0.087770276 0.0064037857 -0.009758779 0.095273204 0.075236246 0.037228685 -0.0081011215 -0.011050002 0.019044586 -0.02423424 -0.015713701 0.015744632 -0.020973926 -0.1083851 0.10568545 0.084158614 -0.011561919 -0.061047107 0.09725856 0.013255498 -0.07438416 0.040479686 0.08552132 -0.039880943 0.013624069 -0.023260118 -0.02678954 -0.009467549 -0.09858943 -0.104455486 0.07313366 -0.09703287 -0.01717044 -0.085827395 0.003721823 0.013529984 0.058372185 -0.018520048 -0.10851129 0.032411523 -0.08525266
l1061 -0.106195904 0.09286532 0.010888871 0.08445196 0.009007525 0.053859867 -0.0020763213 -0.098290816 -0.03350143 0.029565686 -0.10348626 0.015952464 0.013662962 0.003492156 -0.10927782 0.10473361 -0.102293655 0.010404389 -0.09961869 -0.08333339 -0.0095579885 0.01383249 -0.09318737 -0.10746843 0.0032623254 0.017052472 0.09044464 0.0761205 0.021862745 -0.0070527913 -0.009901842 0.043230724 -0.027605185 0.010403579 0.014230153 -0.018421784 -0.10724719 0.10030132 0.09953796 -0.0015806251 -0.043119576 0.1053894 0.005201558 -0.10953851 0.026506707 0.10325375 -0.044901606 0.018783437 0.017295325 -0.025035543 0.019487768 -0.09702613 -0.10230093 0.08912462 -0.10775922 -0.027778758 -0.07952117 0.015207209 0.017812211 0.023702163 -0.0067154514 -0.107368 0.021818986 -0.088422574
p11 -0.11598885 0.11055544 0.006683049 0.11113689 -0.0069634663 -0.007159159 -0.025861839 -0.14483075 -0.05092869 -0.01226255 -0.11598309 0.004045644 0.00873033 -0.0033010445 -0.058672167 0.14126714 -0.06884966 0.010262497 -0.109441824 -0.03410605 -0.005957052 0.008434502 -0.10019882 -0.10720306 0.007307148 0.0060809157 0.105751574 0.064941004 0.0019890608 -0.013835522 0.0004629936 0.009679178 -0.011808961 0.008802525 -0.015727123 -0.012264778 -0.11069744 0.11528534 0.11647151 0.0065659597 -0.05972389 0.070097625 0.01122981 -0.08268507 0.014265906 0.11890188 -0.048728406 -0.009758774 0.030118706 0.018177595 0.01214175 -0.11456699 -0.080923535 0.09805669 -0.059707206 -0.010031833 -0.11102759 -0.006242751 0.022869961 0.035236906 -0.001678259 -0.124891445 0.02074224 -0.08820585
l1057 -0.09491492 0.107226 -0.0011341055 0.09398195 0.010464943 0.018715514 -0.016864166 -0.10658832 -0.07169693 0.011865436 -0.09696734 0.0073771784 0.013532416 0.01061501 -0.0745006 0.0964403 -0.10643572 0.02077602 -0.10556171 -0.089128494 0.0004510881 0.009146406 -0.10071232 -0.10742385 0.0010124806 -0.011256461 0.093151 0.090680405 0.037706673 -0.041852865 -0.014848006 0.037700795 -0.016687838 0.0064432793 -0.001413681 -0.005247538 -0.10887757 0.10851668 0.110468805 -0.030058945 -0.06666463 0.09995378 0.010826682 -0.10076802 0.04488442 0.088122174 -0.053904444 -0.0004623375 0.017689671 -0.03320792 -0.00066363084 -0.0990453 -0.0902067 0.099691086 -0.097313575 -0.020220902 -0.10935049 -0.01137531 0.03714348 0.067413956 -0.011479132 -0.09386519 0.03130832 -0.10070475
l1064 -0.08831045 0.08518369 -8.4762345e-05 0.09229614 -0.022258785 0.01107308 -0.015676705 -0.10693145 -0.047073763 0.014839888 -0.09119774 -0.00063823315 -0.0045102984 -0.004936247 -0.074575245 0.109519646 -0.10930001 0.0012829645 -0.08632655 -0.09458447 -0.013786394 -0.007642742 -0.102249056 -0.105487026 0.019669177 -0.0020883477 0.085233256 0.06572111 0.020084392 -0.030280668 -0.005711166 0.027271662 -0.021351548 -0.015830515 -0.026037151 -0.01989256 -0.09381744 0.08548263 0.081356436 -0.010509182 -0.05938534 0.10687194 0.002882127 -0.094939336 0.04535675 0.09422008 -0.034624863 -0.014875099 -0.02092937 -0.015893148 -0.01504148 -0.10700731 -0.10244152 0.09335 -0.06525728 -0.021719323 -0.081057586 -0.0008135085 0.024849376 0.04747633 -0.019822897 -0.093149304 0.04431595 -0.09189124
l1063 -0.104326054 0.09678054 -0.01836098 0.09473515 0.005587416 0.032605954 -0.0030555062 -0.10627881 -0.04406943 -0.007049559 -0.09398871 0.0063705645 0.011215276 0.009624884 -0.09732545 0.09948142 -0.0928337 -0.0052269953 -0.08737009 -0.10061091 0.002385106 -0.0027487592 -0.10428926 -0.096231505 0.00068176514 0.009330135 0.07969132 0.059798554 0.04069505 -0.028379198 -0.024527567 0.013545883 -0.03512261 -0.013064455 0.0016109993 -0.029864622 -0.09627806 0.101567715 0.09450504 -0.006269524 -0.057546664 0.09115401 0.0041488255 -0.08496741 0.04415932 0.10666149 -0.039035358 -0.007091173 -0.027063588 -0.012664686 -0.009614055 -0.09929619 -0.08386726 0.087408595 -0.088920146 -0.0219572 -0.09382359 -0.0076537686 0.015449103 0.07065823 -0.020069921 -0.097214565 0.04397615 -0.10156153
p100 -0.023813466 0.019735735 0.009635533 0.02254189 0.0058779637 0.0148133915 0.0039998186 -0.005494024 -0.01838139 0.015364694 -0.00059912977 -0.0025239636 -0.018589705 -0.004247362 -0.018939238 -0.004166798 -0.0221271 -0.0021841922 0.000595528 -0.0065726135 0.013178786 -0.021068366 -0.009359662 -0.0014795216 -0.016496303 -0.015762025 0.006961412 0.02367587 -0.019480923 -0.020862352 0.0036357562 -0.0061193216 0.002377032 0.0068704314 -0.017600155 -0.0027266652 -0.007594498 0.012490171 0.0025269075 0.0032146482 0.003957025 -0.01837527 -0.009493998 -0.019115454 0.0003489425 0.007887838 0.003621322 -0.0074957865 -0.016620595 -0.0037572992 -4.0654657e-05 -0.021242509 0.0019184379 0.0134104015 0.0004947694 0.022945171 -0.014328355 -0.011373659 0.0069518825 0.008334627 0.006561652 0.0021587205 -0.013583452 -0.019762132
l1300 0.003578026 -0.0049589532 -0.0052012787 0.017603416 0.005303054 0.021619849 0.008752369 -0.009747537 -0.013432786 0.013556517 -0.019896116 0.0048604426 -0.0067281653 0.011479503 0.004073829 0.003351297 -0.0021866409 -0.023011731 -0.010333556 -0.023217462 -0.0065873866 -0.007477791 -0.02393973 -0.01452758 -0.01860935 0.0024525854 0.014513523 0.0015602505 0.0009682984 -0.016735073 0.008711793 0.005684319 -0.00338329 0.012827143 -0.009242435 0.013279264 -0.015460696 0.0066407872 0.0018814376 -0.004545612 0.0039907424 -0.0025113116 -0.0038020194 -0.01194923 0.018464666 0.008931974 -0.0045438795 0.0025021522 -0.014457418 -0.0022042491 -0.022264533 -0.0058561023 -0.016443554 -0.0045491834 -0.015035719 -0.001653011 -0.0006937444 -0.007003027 -0.0023949328 -0.0034204822 0.016109832 -0.00918743 -0.017289998 0.0013899524
p99 0.0048382822 0.018549949 0.022663614 -0.0050015873 -0.010964797 -0.0033764618 0.0015284059 -0.005178374 -0.01367912 -0.0067123035 0.0058300425 -0.019334532 -0.010398509 0.010481277 -0.0045299414 -0.0025975076 -0.02122845 -0.022316072 0.0010701221 -0.01831177 0.011454522 0.0055855694 -0.010252254 -0.018522983 -0.0046711187 -0.0018656215 -0.0034383626 0.012860868 -0.01645957 -0.017325131 0.0007863165 0.0023389515 0.0036539722 0.01034792 -0.001993869 0.0224225 -0.008733564 -0.0025153854 0.013703257 0.019376546 -0.0011470983 -0.013720778 -0.017266488 -0.019162498 0.009552292 -0.0008832442 0.012308601 -0.016375815 -0.004208639 0.0019115421 -0.015509605 -0.023680085 -0.0070180497 0.020797992 0.00051224354 0.019303735 -0.017564317 -0.014749981 -0.007109761 -0.0010727373 -0.0043221135 0.0064941393 -0.011840919 0.0062915594
p1000 -0.062285267 0.04590913 0.035435412 0.058485188 -0.04119876 0.033287816 0.041776475 -0.04268193 0.03784011 0.034396235 -0.047042154 -0.05444306 -0.043978896 0.051998883 -0.038143855 0.042727616 -0.049014226 -0.04677774 -0.038027283 -0.05591803 0.0436328 -0.063480675 -0.043730613 -0.056432217 -0.037343446 -0.036731556 0.04545774 0.044363655 -0.036292788 -0.04232969 -0.029945096 -0.030202447 0.051073816 0.05700821 -0.05554028 0.041437827 -0.045371078 0.063545264 0.04633134 0.034766022 -0.056420222 0.03554438 -0.054715093 -0.032100067 0.039500028 0.036209755 0.020558199 -0.034446813 -0.03699187 -0.04355776 -0.050944988 -0.045846038 -0.042370945 0.049969178 -0.051788334 0.05350758 -0.04526458 -0.05740004 -0.048738796 0.054529175 0.03812858 -0.048135005 -0.033842366 -0.041099656
l3385 -0.041748967 0.04544938 0.057920277 0.05216617 -0.040386584 0.041495178 0.028777316 -0.051655766 0.03561692 0.056084298 -0.040068865 -0.06456119 -0.058545932 0.035643335 -0.062111024 0.05122777 -0.042344186 -0.05562586 -0.046658434 -0.04866718 0.05107438 -0.059550915 -0.059745755 -0.054436047 -0.06091013 -0.045285325 0.040049504 0.061783414 -0.024025565 -0.042781893 -0.043884885 -0.03482619 0.035065155 0.051734738 -0.05103818 0.038462713 -0.054563466 0.050599072 0.047779232 0.040309932 -0.030882895 0.04327602 -0.04689052 -0.02714029 0.031610273 0.04257454 0.030200647 -0.06056492 -0.024024475 -0.029905496 -0.046681125 -0.05768589 -0.026805578 0.043688234 -0.026421713 0.058076248 -0.05247592 -0.036508758 -0.056072943 0.043870717 0.043623712 -0.054985415 -0.036903672 -0.05140595
l3384 -0.050850723 0.060081977 0.04543898 0.05840013 -0.049383573 0.03600791 0.03669636 -0.060695253 0.054650445 0.03765727 -0.061057944 -0.05901378 -0.057269704 0.04928798 -0.047414187 0.027073057 -0.031949624 -0.050619137 -0.05788102 -0.05334794 0.043942004 -0.04705359 -0.061525956 -0.0369101 -0.054514863 -0.043050688 0.053007945 0.0642362 -0.03408047 -0.038791496 -0.04194169 -0.02808343 0.05615885 0.05911349 -0.04226643 0.04466458 -0.034122482 0.04117753 0.051380455 0.04849825 -0.050491463 0.037873853 -0.034279395 -0.039670978 0.035674185 0.04674617 0.026698856 -0.034611072 -0.047203045 -0.033079073 -0.057115603 -0.025210906 -0.03587087 0.056436084 -0.01915281 0.056773603 -0.04290446 -0.06136431 -0.039679248 0.032933637 0.040712815 -0.043129727 -0.05785009 -0.041946277
p1001 -0.036919124 0.038707327 0.05218977 0.057225566 -0.045401912 0.04700574 0.028629662 -0.042030282 0.051432397 0.055202704 -0.04252322 -0.06360861 -0.047805984 0.061823443 -0.04905638 0.022124268 -0.03369668 -0.03544307 -0.050298024 -0.05347989 0.055483304 -0.055566553 -0.050117403 -0.038285546 -0.05122341 -0.041590273 0.04723537 0.039671615 -0.021790225 -0.02240619 -0.034623705 -0.053334832 0.05638485 0.055448726 -0.06165874 0.049865857 -0.052792005 0.045494884 0.061403364 0.03753773 -0.024399405 0.021549646 -0.060037497 -0.053349666 0.03954835 0.044801768 0.021819413 -0.035056997 -0.024281807 -0.026562523 -0.050667543 -0.02360036 -0.028458754 0.06395027 -0.016167954 0.048297673 -0.057613127 -0.03558791 -0.028493755 0.056842726 0.03822789 -0.04772888 -0.05612715 -0.05455457
l3386 -0.035283852 0.04455012 0.051498156 0.034343224 -0.061057605 0.03842775 0.026639482 -0.037061315 0.03161674 0.050836757 -0.04274853 -0.04370277 -0.03731723 0.036923133 -0.044459853 0.04155018 -0.06050198 -0.03401357 -0.04483497 -0.052012313 0.044001862 -0.033180848 -0.06029463 -0.050297786 -0.054494873 -0.0355728 0.035789102 0.053218104 -0.037528098 -0.023019109 -0.02208969 -0.05365264 0.03956939 0.04771511 -0.06304366 0.039592996 -0.061037462 0.057121664 0.06077914 0.041992154 -0.047472358 0.029075043 -0.05934344 -0.054506935 0.05425283 0.036710136 0.021466343 -0.06320342 -0.03375253 -0.019396773 -0.041841514 -0.02527923 -0.049818926 0.051986687 -0.014366536 0.046973035 -0.058557376 -0.06196956 -0.035767645 0.036715228 0.040452663 -0.044342082 -0.058998913 -0.044686932
p1002 -0.046245046 0.058674105 0.038634606 0.06120705 -0.059252147 0.037759196 0.03621058 -0.05438241 0.048689555 0.05800274 -0.05951401 -0.06376713 -0.06259632 0.052484266 -0.060354516 0.03528931 -0.035798833 -0.06245684 -0.06240934 -0.04439887 0.037087575 -0.044558324 -0.05205938 -0.06337838 -0.04798045 -0.03295303 0.046184592 0.055433284 -0.040516227 -0.022518696 -0.025939217 -0.04172806 0.047851983 0.041319545 -0.034988277 0.056048706 -0.03666439 0.04669954 0.035996266 0.05337348 -0.03292571 0.017233143 -0.05444249 -0.061560374 0.053767744 0.06426384 0.037749294 -0.034236033 -0.024523329 -0.021356648 -0.042482045 -0.03546572 -0.034410127 0.04425399 -0.01602058 0.060609397 -0.037465405 -0.0366133 -0.034975536 0.03700202 0.035649803 -0.041563623 -0.042685494 -0.035451736
l3387 -0.06466222 0.05691436 0.046390537 0.04622367 -0.058018867 0.03840043 0.02598262 -0.06377073 0.052849833 0.0588867 -0.057555344 -0.053636413 -0.057101563 0.052135654 -0.04713839 0.043500185 -0.054047544 -0.038224123 -0.048748698 -0.038620498 0.04624183 -0.05851048 -0.050452903 -0.06011451 -0.040272582 -0.03546747 0.047042083 0.043741796 -0.05566079 -0.035201002 -0.03909915 -0.03404371 0.037763502 0.05513973 -0.052379884 0.055932865 -0.04174262 0.056779154 0.03665625 0.060152415 -0.027181987 0.033841114 -0.051013384 -0.05308716 0.040325746 0.040754586 0.042957958 -0.05130423 -0.02228116 -0.031870548 -0.055592135 -0.03831645 -0.042527065 0.041001603 -0.005343244 0.04808763 -0.05244339 -0.050339837 -0.031654373 0.059474196 0.05290161 -0.034094293 -0.048363075 -0.036119483
p1003 -0.020136727 0.02761148 0.009133003 0.009454734 -0.0046605365 0.018492727 -0.00058186264 -0.019210627 -0.00402499 0.011884235 -0.010685833 -0.0075172223 -0.028718889 0.022603324 -0.017643271 0.012681771 -0.0131208515 -0.01657256 -0.020807888 -0.032588106 0.012624367 -0.021001091 -0.006806508 -0.01724895 -0.019988392 -0.019176558 0.003504616 0.016748626 -0.032676045 -0.0177442 -0.011722036 -0.014345043 0.01945876 0.012382574 -0.022083152 0.031260945 -0.004408693 0.024934618 0.019842448 0.011160234 -0.016246576 0.0038766188 -0.009671602 -0.020864489 0.022370912 0.014536719 0.019618927 -0.006772474 -0.012614891 -0.02563427 -0.021588547 -0.02158351 -0.010360488 0.0142392935 -0.01956608 0.027649194 -0.03279716 -0.024170076 -0.031251024 0.030261114 0.026484715 -0.026522066 -0.031638876 -0.01583253
l3388 -0.019561224 0.010469142 0.011865834 0.003611746 -0.029192492 0.004329939 0.0072289407 -0.011580742 0.0022463403 0.010485492 -0.00964746 -0.006785634 -0.007984543 0.013013793 -0.027333431 0.0030411065 -0.015379214 -0.024330983 -0.003965386 -0.03339253 0.033030193 -0.02076282 -0.007806889 -0.019138902 -0.015697256 -0.027576273 0.018560687 0.019065896 -0.014070742 -0.0076461835 -0.0031584492 -0.017644497 0.012242979 0.031800054 -0.010073981 0.014426671 -0.0036399483 0.028526016 0.004708995 0.02960657 -0.004021102 0.03107145 -0.01767933 -0.006689744 0.026337536 0.013846388 -0.0016242424 -0.012710362 -0.006417983 -0.0134848 -0.014716804 -0.012187885 -0.014050211 0.0033495526 -0.009695771 0.027512183 -0.02588011 -0.022284314 -0.009736382 0.024204707 0.023298416 -0.02262258 -0.02148126 -0.019419573
p1004 -0.04025789 0.055276085 0.057531063 0.035977915 -0.061693706 0.04682763 0.037919864 -0.03132956 0.016072726 0.05014382 -0.04157506 -0.039151523 -0.036837384 0.03748417 -0.047869626 0.03284437 -0.03949315 -0.060482528 -0.03809882 -0.061007805 0.057401694 -0.055462245 -0.062414728 -0.03689745 -0.04958465 -0.037531268 0.035549615 0.056705784 -0.053900424 -0.048453946 -0.048391797 -0.03440129 0.061610356 0.034811538 -0.034875628 0.048969187 -0.034448504 0.06010927 0.03550911 0.040193263 -0.03135487 0.019457117 -0.05334385 -0.04275718 0.056515846 0.062279724 0.02021945 -0.048790462 -0.03188656 -0.010215842 -0.04657883 -0.0346219 -0.053178973 0.05601395 -0.039916094 0.050998718 -0.05151603 -0.058969725 -0.05842944 0.05153822 0.04917421 -0.048165727 -0.0458768 -0.04991127
l3389 -0.062097415 0.040236004 0.054045796 0.049963288 -0.045220617 0.05448969 0.030273018 -0.04261566 0.0024399674 0.059543196 -0.030656239 -0.04691193 -0.03950588 0.058491085 -0.04390259 0.032349676 -0.04081379 -0.036302958 -0.032089736 -0.053017594 0.051435813 -0.051427443 -0.03360875 -0.060769714 -0.052842997 -0.029317418 0.060915753 0.041657403 -0.054415133 -0.032974854 -0.043691847 -0.050374962 0.058163993 0.044346455 -0.049773194 0.04840402 -0.045697097 0.03562349 0.047692448 0.057178766 -0.04756173 0.017460855 -0.044903398 -0.030048745 0.05848935 0.04100765 0.035585567 -0.056628127 -0.040867932 -0.016607475 -0.04322751 -0.035686564 -0.046147812 0.03311119 -0.05937892 0.05483739 -0.046977967 -0.03880565 -0.05088129 0.054756798 0.05780922 -0.0583685 -0.05457017 -0.028995888
p1005 -0.0487084 0.07208044 0.04331242 0.048442077 -0.045126066 0.068521425 0.054876987 -0.04679294 0.041430306 0.071665846 -0.069099955 -0.058861848 -0.06264748 0.055645704 -0.067960486 0.050590824 -0.04629702 -0.043548174 -0.07186748 -0.046954926 0.04522845 -0.045204144 -0.059902433 -0.042994335 -0.06235747 -0.046232935 0.043922763 0.056018654 -0.06909779 -0.05393349 -0.0466011 -0.056187775 0.04710885 0.058523715 -0.05211831 0.05963257 -0.060308762 0.06693303 0.051275484 0.06340574 -0.042514477 0.06287484 -0.044033565 -0.045243323 0.066576935 0.06554672 0.04818622 -0.0706621 -0.046606366 -0.053763147 -0.06425063 -0.03907552 -0.072039746 0.050075836 -0.031627234 0.05570617 -0.05233023 -0.0720851 -0.041310105 0.042369124 0.06723059 -0.044591293 -0.042254455 -0.060154475
l3390 -0.048048623 0.060087968 0.058263924 0.06118234 -0.04839974 0.04590203 0.06696044 -0.06315543 0.037629433 0.050857306 -0.05538863 -0.046091355 -0.04519064 0.057078145 -0.04208636 0.07184679 -0.055297066 -0.062205285 -0.045207713 -0.04441875 0.054954052 -0.07195184 -0.065041736 -0.048447087 -0.06977281 -0.054799244 0.054121606 0.065903924 -0.06810777 -0.05157326 -0.033470646 -0.065236755 0.054185826 0.056601524 -0.059821922 0.057363655 -0.062601335 0.06858891 0.07025582 0.06694796 -0.060871094 0.06787849 -0.046696004 -0.053857405 0.058650367 0.047316503 0.047004104 -0.06890852 -0.04825737 -0.034452416 -0.07059206 -0.0479634 -0.056253232 0.059260093 -0.05294212 0.05000579 -0.058559436 -0.07179228 -0.06526858 0.05078029 0.049502943 -0.056181632 -0.058089342 -0.06864969
p1006 -0.051096268 0.06464878 0.03514044 0.05419838 -0.059136406 0.052175917 0.06398658 -0.04501848 0.06194294 0.05977247 -0.046392765 -0.06065264 -0.05172867 0.041661054 -0.049061418 0.051061675 -0.060828906 -0.060502797 -0.05316005 -0.057320256 0.040015094 -0.06067746 -0.0405007 -0.06396938 -0.047475345 -0.048502445 0.063933164 0.041995056 -0.06310127 -0.04998635 -0.062636316 -0.040608283 0.055613708 0.04752255 -0.03471716 0.053667855 -0.04802727 0.04912746 0.05640683 0.038317703 -0.065216534 0.029214857 -0.03681387 -0.03699701 0.044771258 0.056841083 0.0385586 -0.047361713 -0.038432065 -0.03744901 -0.039090265 -0.033303957 -0.04812886 0.04271455 -0.06287729 0.055671826 -0.055552322 -0.044612825 -0.025940109 0.04410679 0.06303959 -0.04632976 -0.04193811 -0.050711006
l3392 -0.059939362 0.036570266 0.04396734 0.057427187 -0.063283816 0.047199305 0.061833628 -0.036834747 0.0437088 0.051919073 -0.060430203 -0.05444465 -0.046341635 0.03866769 -0.037560605 0.031920344 -0.056785498 -0.036224738 -0.053624216 -0.055853177 0.063643984 -0.04350041 -0.06282588 -0.061917428 -0.064680256 -0.044179734 0.056361943 0.04234651 -0.039705265 -0.037243936 -0.06000759 -0.025235908 0.056655027 0.058667667 -0.036982737 0.036673114 -0.04480211 0.048305854 0.06488654 0.036671788 -0.06221408 0.050885208 -0.054431822 -0.05400204 0.06337908 0.04014895 0.046456963 -0.059178784 -0.030469548 -0.04489843 -0.054086555 -0.03785717 -0.057063922 0.06314087 -0.039770752 0.06382503 -0.046033308 -0.059732355 -0.034479067 0.06204533 0.054007974 -0.049745 -0.039760865 -0.055208042
l3391 -0.048032943 0.041050855 0.04829023 0.063625716 -0.06042777 0.037031904 0.05805562 -0.06360281 0.059479676 0.041102715 -0.056496706 -0.052344684 -0.06152516 0.049343903 -0.050953865 0.030143373 -0.035918202 -0.04713931 -0.04786988 -0.06007282 0.065691635 -0.054180015 -0.06391054 -0.04680579 -0.06095849 -0.054379784 0.045991614 0.035214502 -0.052444905 -0.061936833 -0.041704167 -0.04326648 0.064921685 0.0357991 -0.04417258 0.054392293 -0.061316434 0.035243418 0.040052727 0.058553122 -0.047489494 0.028447652 -0.054753643 -0.03038612 0.036046606 0.036851227 0.056899384 -0.046125256 -0.023463633 -0.04295518 -0.04132286 -0.03507809 -0.058785878 0.053237658 -0.049749274 0.056094844 -0.05909831 -0.056381505 -0.054066725 0.06319983 0.044332393 -0.050037924 -0.044759553 -0.051091667
p1010 -0.060416266 0.047938533 0.06385744 0.038084853 -0.052315526 0.035089027 0.052524608 -0.06159553 0.03607226 0.041519698 -0.062010556 -0.049096975 -0.044527188 0.05740968 -0.03645649 0.034602735 -0.06439091 -0.05871069 -0.062965214 -0.058002695 0.041540757 -0.06551911 -0.044969216 -0.037833467 -0.048116658 -0.06387193 0.052451566 0.045908812 -0.044180356 -0.059533183 -0.056090597 -0.034430742 0.03519381 0.048127867 -0.04390362 0.054778192 -0.061190873 0.0387638 0.04033374 0.052343246 -0.06287084 0.044307932 -0.06313942 -0.02957802 0.06192158 0.03581102 0.06574137 -0.051710974 -0.023212716 -0.062004026 -0.04169564 -0.029080842 -0.053250335 0.059402913 -0.05759817 0.058718305 -0.042861562 -0.05409804 -0.027426768 0.055341754 0.058860082 -0.064996906 -0.031779636 -0.041200563
p1007 -0.06437448 0.039114717 0.039431293 0.06286298 -0.055716056 0.063308164 0.044127334 -0.05680666 0.041196365 0.06344524 -0.043944873 -0.057428833 -0.06273406 0.05759286 -0.053468473 0.031849675 -0.056698978 -0.059487704 -0.03335561 -0.037554894 0.04462309 -0.0640166 -0.05967965 -0.048760932 -0.043713573 -0.036715575 0.036792617 0.06341423 -0.055545434 -0.04536981 -0.045662943 -0.062037893 0.042874083 0.06176561 -0.039246287 0.03734802 -0.03439806 0.058769036 0.06258789 0.051455498 -0.04701191 0.029023547 -0.050334886 -0.032638077 0.038745258 0.055999655 0.02812519 -0.044958204 -0.055324625 -0.046041667 -0.062714875 -0.04652877 -0.04865499 0.06376093 -0.06381675 0.057225574 -0.04421757 -0.060724884 -0.048810363 0.056208394 0.040304888 -0.061671026 -0.062825784 -0.044735003
l3394 -0.058893923 0.06302868 0.053535834 0.050734926 -0.046545196 0.035452742 0.04280529 -0.04508392 0.04274578 0.04769215 -0.033529624 -0.043629225 -0.06315534 0.05840888 -0.038918287 0.03580857 -0.055651374 -0.050196514 -0.054422326 -0.058057696 0.03856771 -0.044072382 -0.06134093 -0.041586287 -0.054601725 -0.03686581 0.063512266 0.060746115 -0.04989684 -0.062342748 -0.058038384 -0.051830504 0.056604505 0.045748785 -0.057665274 0.062311232 -0.051751964 0.04893241 0.034817662 0.0633018 -0.03042013 0.033123598 -0.047936656 -0.024229463 0.050683983 0.048045445 0.05116776 -0.058896013 -0.040057905 -0.039202403 -0.04456013 -0.037213754 -0.051907755 0.054205623 -0.03675732 0.043690242 -0.033864774 -0.034420256 -0.060375974 0.051666904 0.041792195 -0.04101318 -0.044525314 -0.046087798
l3393 -0.054636993 0.056284305 0.0551814 0.04342455 -0.05480503 0.055249117 0.036240112 -0.04786881 0.024969187 0.055235628 -0.039475776 -0.03465537 -0.046819918 0.057709306 -0.033262484 0.0487122 -0.039006267 -0.048004795 -0.04758133 -0.06257951 0.055445418 -0.063630976 -0.048084576 -0.06040238 -0.05718893 -0.051969584 0.06385263 0.05900998 -0.062493138 -0.026834909 -0.049015343 -0.056581207 0.0458127 0.047573198 -0.04103702 0.048208155 -0.0388541 0.053277597 0.03316306 0.038881622 -0.035343096 0.055080835 -0.059611376 -0.05457337 0.04873089 0.059547786 0.03635462 -0.05842675 -0.060028534 -0.04049 -0.05584211 -0.025632601 -0.044198256 0.04411839 -0.056290198 0.0429913 -0.056549158 -0.037901867 -0.06287143 0.063843995 0.046367195 -0.06326057 -0.06308113 -0.06302107
p1009 -0.07778158 0.07813893 0.05770602 0.05810053 -0.07812852 0.056784127 0.07203364 -0.08186362 0.019851431 0.033004384 -0.04477127 -0.0716216 -0.04006713 0.03498208 -0.03547637 0.0452021 -0.06667799 -0.06129115 -0.056148898 -0.07383472 0.036937065 -0.07113892 -0.07540365 -0.034142595 -0.032492623 -0.03819623 0.06153 0.06138953 -0.0721257 -0.069555685 -0.07895325 -0.07399726 0.03707202 0.055520024 -0.07508695 0.031652823 -0.046324953 0.07706126 0.074111275 0.04721789 -0.06964872 0.040570952 -0.064824626 -0.031119768 0.076253496 0.037947807 0.026886081 -0.08314643 -0.07467864 -0.07148417 -0.056247655 -0.07286279 -0.060721517 0.08195304 -0.06072984 0.0786819 -0.07512781 -0.041221432 -0.034752004 0.079649426 0.040071588 -0.039515406 -0.08268003 -0.075114176
l3374 -0.03548423 0.0780053 0.04787044 0.06295161 -0.07132415 0.040706266 0.08163807 -0.07991929 0.014377995 0.0469142 -0.056038883 -0.06631008 -0.043956265 0.06060816 -0.03565966 0.023449933 -0.059362344 -0.038776077 -0.060681067 -0.07333087 0.059746813 -0.06453697 -0.06227821 -0.045332868 -0.05607773 -0.052572943 0.07094448 0.08284075 -0.059450798 -0.060636327 -0.058358077 -0.058596995 0.038260397 0.057614304 -0.06487757 0.0436359 -0.0437643 0.06237246 0.07129904 0.04649888 -0.08114598 0.02069973 -0.081993 -0.04342171 0.05684388 0.047274414 0.0413634 -0.074905515 -0.07919707 -0.08269961 -0.08275353 -0.072800085 -0.080969594 0.035598245 -0.06734828 0.08154011 -0.07766908 -0.049128275 -0.048844844 0.058348067 0.039603338 -0.05411299 -0.07577226 -0.073394574
p993 -0.057928555 0.0794673 0.045556497 0.044493284 -0.06440553 0.036904592 0.07739809 -0.072485864 0.026210709 0.062154606 -0.049614027 -0.07245587 -0.046703495 0.04028779 -0.040592548 0.02087703 -0.045247916 -0.032343123 -0.07914803 -0.057231903 0.032850422 -0.0665163 -0.08172709 -0.041286428 -0.046575885 -0.072560124 0.08014661 0.068720646 -0.040052097 -0.070769645 -0.061856642 -0.079590835 0.041341126 0.033512432 -0.07315867 0.0558548 -0.046360124 0.06900606 0.0760783 0.0512836 -0.07434115 0.02573506 -0.081452325 -0.024401102 0.07467622 0.03573868 0.081041515 -0.0540366 -0.055567067 -0.07817711 -0.072554626 -0.078947894 -0.07311621 0.0449975 -0.07047464 0.065177985 -0.081621595 -0.046043605 -0.034316555 0.08017694 0.0578454 -0.05301801 -0.056448366 -0.062481117
l3375 -0.03607872 0.069770694 0.03521591 0.041511584 -0.067931674 0.03146769 0.062428147 -0.055888657 0.028542005 0.03263811 -0.035803847 -0.07395406 -0.058532424 0.0370684 -0.05789232 0.039026808 -0.037685845 -0.03302225 -0.082774654 -0.07536904 0.041042484 -0.05117948 -0.07553373 -0.0532066 -0.035790354 -0.07899004 0.07980303 0.06535367 -0.044582754 -0.07404616 -0.059507716 -0.076779306 0.033589832 0.05066519 -0.076045774 0.043839123 -0.048757344 0.07698556 0.07648772 0.06994187 -0.052604683 0.033408076 -0.062534146 -0.030503312 0.08138025 0.050118167 0.07476761 -0.08220477 -0.069669135 -0.052557528 -0.076635376 -0.072583824 -0.07891788 0.03334776 -0.07244178 0.05860535 -0.05253935 -0.032825604 -0.03830994 0.07155691 0.04758858 -0.07350737 -0.081079066 -0.069837295
l3395 -0.071359426 0.07119179 0.03773297 0.077066205 -0.07986346 0.034448743 0.055593085 -0.05431812 0.04066858 0.058908403 -0.034528196 -0.070912525 -0.038914718 0.03724604 -0.058785453 0.027533045 -0.067013875 -0.039496854 -0.08210872 -0.07389281 0.048690327 -0.08100829 -0.06168519 -0.048662387 -0.057371087 -0.043841157 0.06709167 0.06778849 -0.055858884 -0.074296385 -0.081909865 -0.07068237 0.05220249 0.032619152 -0.06131953 0.0319955 -0.04725151 0.06530243 0.057437368 0.065867655 -0.08143796 0.029212594 -0.08298839 -0.030545954 0.058042914 0.039029635 0.06259964 -0.07868593 -0.0781015 -0.05233715 -0.08072738 -0.06991165 -0.06236609 0.075846195 -0.07581561 0.07141908 -0.056742787 -0.05525352 -0.029399205 0.078121185 0.037756212 -0.03486074 -0.054235294 -0.06324292
p101 -0.0025945578 -0.003070228 0.15154205 0.15467186 -0.014137689 0.049283408 -0.0068817553 -0.1426357 0.15310238 -0.0033061542 0.00030514444 -0.018458953 -0.023296386 -0.004641464 -0.044149138 -0.006235618 -0.00041530776 -0.15514578 -0.0035990442 -0.02371374 -0.008444753 -0.036294743 -0.11958282 -0.1517433 -0.020531772 -0.1505107 0.029732628 0.020999668 -0.097768374 -0.03649228 -0.11582536 0.016792506 0.14272597 -0.003456886 -0.06756195 0.0037434627 -0.0074273744 0.10267204 0.031216027 0.0005717246 -0.15071289 -0.014883066 -0.15293387 -0.06098474 0.021437885 0.02446852 -0.030758433 -0.008650612 -0.024379823 -0.005911451 0.008756933 -0.093943745 -0.10624221 0.11224165 -0.15435596 0.024337756 0.0070430273 -0.15043545 -0.012208381 0.011702281 -0.0013040542 -0.0037154225 -0.0018354962 -0.022900825
l1304 -0.0040917094 -0.0015817855 0.14169398 0.12677732 -0.018455524 0.041574758 0.016391655 -0.14652099 0.1316214 0.013944093 -0.01576726 -0.0060121897 -0.017451119 -0.006287217 -0.054917578 0.01344212 -0.01381318 -0.13688141 -0.017261988 -0.012138414 -0.0025791796 -0.020194313 -0.14569041 -0.15190879 -0.01790869 -0.1518209 0.03410647 0.023273544 -0.07484488 -0.026250457 -0.117711715 0.028418092 0.12717123 0.014529439 -0.085911766 0.02825792 -0.010947066 0.09633569 0.037800584 0.023904523 -0.15138158 -0.0074957246 -0.14206046 -0.08162999 0.0139102945 0.021782462 -0.03150292 0.0025788136 -0.0074949977 -0.008827035 -0.010738592 -0.12315418 -0.13696934 0.11220052 -0.1347896 0.0005511825 -0.008233156 -0.14943026 -0.025968233 0.018594664 0.005142276 -0.015876383 -0.022568863 0.002356367
l1303 -0.020477246 0.011795138 0.13850933 0.14081681 -0.02344363 0.034995914 0.014164368 -0.14172406 0.14976858 0.019682758 -0.017079772 -0.004370612 -0.009238891 0.0025226763 -0.03572186 0.0004700637 -0.010261211 -0.13876446 -0.002450944 -0.026957547 0.0032139423 -0.032061573 -0.139128 -0.15271795 -0.009568415 -0.1456698 0.016992519 0.027074123 -0.1163005 -0.007888139 -0.12739813 0.010311627 0.13983195 0.010460235 -0.11055404 0.027372617 0.0047998945 0.121090844 0.03663448 0.01724765 -0.14043479 -0.01281916 -0.13905208 -0.08705256 0.0054865526 0.020576764 -0.027821146 -0.0044990233 -0.011913898 -0.0013726453 0.0075080465 -0.09060262 -0.107509986 0.091261506 -0.13582018 0.001203748 0.0085869 -0.14959462 -0.02855876 0.00497705 0.023582904 -0.01218635 -0.027180633 0.0032465078
l1302 -0.00018977844 0.011551023 0.12998764 0.12824462 0.010521132 0.02840566 -0.0056756916 -0.13898548 0.11767368 0.0021890802 -0.00042670796 -0.0038675074 0.008843858 -0.0010714574 -0.029889239 -0.00280756 0.012781404 -0.12910664 -0.011068223 0.0040218793 -0.012551761 -0.015884878 -0.14368059 -0.122633256 -0.0049605127 -0.13500206 0.031243289 0.006239413 -0.0828388 -0.036878522 -0.10878767 0.035448503 0.14388345 0.0115843015 -0.03851443 0.015850166 -4.4805347e-08 0.13623501 0.009542224 0.0005759655 -0.14290129 -0.025973238 -0.12954487 -0.061471473 -0.003974666 0.005066846 -0.0036018607 0.0005570249 -0.0043812376 -0.014680691 0.014180334 -0.09100901 -0.13982002 0.13390808 -0.13789827 0.016186576 -0.008235373 -0.12958838 0.0033994562 0.012348665 0.0058543636 0.0039403187 -0.0051527573 0.013862307
p104 -0.0065304944 0.025275996 0.1531853 0.14347073 -0.011693009 0.008145782 0.00811902 -0.1355919 0.15121995 -0.0055461116 -0.004578443 0.0036884171 -0.017001394 -0.0016522451 -0.0063213524 0.032279287 -0.013966116 -0.14895979 -0.008579904 -0.010916045 0.018200256 -0.08901802 -0.12166839 -0.15163152 0.0044257757 -0.15044783 0.07648361 0.010105558 -0.06743844 -0.07004185 -0.15267746 0.014027674 0.15614237 0.01337606 -0.014500545 0.014162246 -0.020515233 0.12809837 0.0063867536 0.025781235 -0.14592351 -0.016365254 -0.14667754 -0.038054895 0.013831658 0.0047665336 -0.0038473192 -0.007074985 -0.013247198 -0.029151568 -0.005014462 -0.09360543 -0.1242437 0.11652578 -0.14052062 0.025669703 -0.014178766 -0.14752543 -0.022545073 0.005914855 0.011669829 0.0017090444 0.0006381761 -0.001033762
l1267 -0.0031881381 -0.007137745 0.12904966 0.11967263 -0.024828585 0.047332443 0.02208635 -0.14689796 0.15172759 0.020959979 -0.020424884 -0.027684053 -0.017003778 0.012090132 -0.02858369 0.06442965 -0.019565377 -0.1455063 0.002376708 0.0030121454 0.0063798893 -0.0804248 -0.07548424 -0.11484172 -0.013776138 -0.11638035 0.080495276 0.009049932 -0.046565328 -0.03147701 -0.10431546 0.0006079104 0.14930585 -0.005765856 -0.023144646 0.013139356 0.0056355107 0.11435132 -0.0011898667 0.003611533 -0.15585752 -0.008089923 -0.12791783 -0.055923972 0.029359361 -0.00023248071 -0.0127491 -0.020339957 0.00084529247 -0.022649413 0.0026438844 -0.06064396 -0.093021765 0.12549351 -0.15077654 0.01841297 0.0024697352 -0.15601587 -0.02705216 0.011371093 0.028472535 -0.0012520422 7.07183e-05 -0.024736725
p85 -0.011337485 0.0012480933 0.11398518 0.035976354 -0.030693794 0.02489039 -0.004811985 -0.13105647 0.13270676 0.0116103245 -0.0005874558 -0.027422572 0.0007192554 0.1238416 -0.028202616 0.15387596 -0.12500158 -0.12608556 -0.039788246 -0.03384007 -0.0038683107 -0.0876984 -0.026702095 -0.06834595 -0.012043565 -0.0041041146 0.031235484 0.00072890107 -0.0020727585 -0.034673043 -0.049252816 -0.0101933805 0.11870976 -0.005198166 -0.0011278935 0.07813141 -0.0037870973 0.006170136 0.061337832 -0.0018606805 -0.024981152 0.06222024 -0.06094044 -0.11730745 0.1270461 -0.0072179018 -0.034258857 -0.0030980497 -0.013768311 -0.037746016 -0.013743044 0.013689691 -0.021917727 0.117694356 -0.05701017 0.09164411 -0.033783525 -0.12478844 -0.13043213 0.028162494 0.08525376 -0.019809235 -0.00027676398 -0.0011251369
l1276 -0.000687575 0.015941393 0.10539715 0.04247935 -0.018692128 0.035258 0.010127558 -0.11349721 0.1434425 0.024131602 -0.020497918 -0.018980777 -0.0015030312 0.12255823 -0.010895843 0.1314633 -0.09937872 -0.112763345 -0.036118288 -0.032887068 0.020742305 -0.10018168 -0.017182954 -0.07674201 0.004724795 0.0030349134 0.017641569 0.024642067 -0.007865341 -0.0394216 -0.053339593 -0.005814219 0.09608356 0.013888272 -0.013031338 0.07413143 -0.011468599 0.014111038 0.018244954 0.008919083 -0.009332072 0.08627883 -0.08861536 -0.11042159 0.1259632 -0.0016396046 -0.020123934 -0.017139414 -0.030288275 -0.037735987 -0.008615096 0.0075361826 -0.016052883 0.11731911 -0.051810794 0.09881619 -0.024403017 -0.09737997 -0.13560627 0.04062249 0.059220128 -0.012857523 -0.02339127 0.00016693343
l1274 0.00023006869 0.020932322 0.11017938 0.052918963 -0.023865785 0.031957816 0.006761059 -0.12225665 0.14119355 0.009222731 -0.0023703785 -3.9785253e-05 -0.0026151875 0.12144559 -0.050282963 0.14212772 -0.10796998 -0.099153616 -0.042335484 -0.024066526 0.0075264857 -0.096314386 -0.018975249 -0.077063374 -0.0011934267 -0.003121432 0.024291769 0.016225606 -0.020006638 -0.021303711 -0.06318524 -0.013743939 0.12372786 0.01385203 -0.0008454369 0.072633095 -0.0133205615 0.015093785 0.047034655 -0.0056843013 -0.05838906 0.052614182 -0.1022386 -0.11541373 0.1214962 0.021671243 -0.02637008 -0.014198836 -0.020929622 -0.03306221 -0.00069884234 -0.009050426 -0.026789822 0.09936303 -0.06120285 0.091635466 -0.010473989 -0.104736805 -0.11171372 0.006736969 0.07132408 0.003718105 -0.013913141 0.003965978
l1262 -0.011147285 0.00976846 0.107470326 0.008336883 -0.033158008 0.002205756 -0.005623308 -0.12011481 0.12468553 0.020408388 -0.0048849764 -0.0104589835 -0.012510489 0.09972138 -0.023736928 0.1438887 -0.11434656 -0.13099284 -0.04873943 -0.0027572464 0.014522906 -0.10406289 -0.0045001507 -0.075836584 -0.0011819793 -0.026260335 0.01751854 -0.002644017 -0.009903012 -0.003594862 -0.048604812 0.0032487034 0.113482974 0.0047561163 -0.017822277 0.093347006 -0.0018340042 0.023209292 0.068206094 0.004679365 -0.029527668 0.06503134 -0.08886049 -0.1184627 0.123349026 0.015966019 -0.025216524 -0.009816822 -0.025628153 -0.02529419 -0.009912954 -0.010495115 -0.008162649 0.11699107 -0.04391992 0.093509965 -0.039442793 -0.12785694 -0.120466486 0.024942128 0.09801156 -0.008045521 -0.00013282784 -0.024690302
l1277 -0.024782643 0.03511838 0.08402769 0.02681124 -0.035088554 0.046760418 0.020141767 -0.10855982 0.09593551 0.021053663 -0.032520678 -0.045806773 -0.024745815 0.099359125 -0.017271267 0.10193806 -0.07320035 -0.11067336 -0.020310204 -0.032900564 0.029074078 -0.086644165 -0.037446912 -0.0488669 -0.011297355 -0.019618046 0.034062643 0.018106814 -0.020560862 -0.026335623 -0.050237797 -0.02845682 0.08286579 0.0103982985 -0.03781026 0.06725117 -0.028601903 0.024494762 0.030416451 0.013324596 -0.040311277 0.05656926 -0.054697238 -0.089436896 0.085165426 0.023432411 -0.024018124 -0.022125114 -0.035847854 -0.028051142 -0.03222327 -0.021756625 -0.03544659 0.09232878 -0.04474377 0.069390535 -0.058997616 -0.1019579 -0.08188124 0.03437475 0.07807543 -0.013500103 -0.011225544 -0.022423295
l1268 0.005005858 0.006404437 0.14661032 0.11096684 -0.026122577 0.026678137 0.0023450032 -0.14931479 0.1406267 0.0016233183 -0.0035256427 -0.008077514 -0.016847184 0.00407675 -0.026867623 0.06434599 -0.013609522 -0.14882664 0.0011625119 -0.005481286 0.0035269153 -0.07106529 -0.0926386 -0.1123697 -0.00990574 -0.1078203 0.06230609 0.0007574173 -0.05345802 -0.050361868 -0.08155958 -0.00011827063 0.12501864 0.023722788 -0.024318844 0.01853342 0.006274288 0.087692395 0.02899013 0.014006963 -0.12798493 -0.0010676158 -0.15395933 -0.108920194 0.022280559 0.0058404123 -0.010629493 -0.0145481145 -0.010806218 -0.0018757338 -0.0041459776 -0.061455075 -0.064266175 0.12584254 -0.13679214 0.0149052385 -0.0032611073 -0.14905015 -0.05193269 0.008877804 0.003977729 -0.017999759 -0.015013804 0.0037619767
l1301 0.006194229 -0.002532119 0.15454948 0.1547831 -0.014582296 0.04363054 0.021357164 -0.13442954 0.15433252 0.016123144 -0.011029456 -0.027544608 -0.040581435 0.0041954047 -0.0612738 -0.004623109 -0.014331816 -0.14555445 -0.0039142184 -0.021996226 0.00093306106 -0.05233394 -0.15033525 -0.13261317 -0.010060221 -0.15634738 0.027449206 0.018931236 -0.09360989 -0.027666843 -0.09002159 0.028787727 0.14048333 0.0036763907 -0.1036608 0.0051524104 -0.0025828027 0.12993072 0.04080023 0.012683217 -0.14164273 -0.016720518 -0.15048316 -0.086150035 0.016406167 0.007104255 -0.02891667 -0.004964175 -0.0015802437 -0.017740568 0.0028234762 -0.14284359 -0.13270041 0.102770835 -0.09819694 -0.00038396404 0.0046136077 -0.14938363 -0.008278328 0.027404284 0.016808713 -0.023116956 -0.020639092 -0.023708418
l1278 -0.015702685 0.01628672 0.11793803 0.0019893672 -0.03876592 0.0042250743 0.0008640518 -0.13223094 0.12685192 0.019359684 -0.00082286133 -0.017882476 -0.0111326175 0.11799442 -0.013282067 0.15129685 -0.12531641 -0.115169644 -0.015513107 -0.043635543 0.0051703355 -0.096556515 -0.006078097 -0.062755466 -0.0034731997 -0.021903535 0.03862875 0.011560759 0.0005093003 -0.019118017 -0.04835311 -0.019068321 0.111681856 -0.0036455095 -0.018807454 0.06501785 0.0037886444 0.0055276263 0.026374187 -7.856537e-05 -0.043455254 0.06768068 -0.07115579 -0.09120528 0.114122175 0.01516541 -0.04116703 -0.012665347 -0.033848867 -0.020323057 -0.0209221 0.004589305 -0.028253123 0.11953384 -0.05560972 0.11579759 -0.04097207 -0.107163005 -0.11553034 0.02607045 0.07232043 -0.00017294352 -0.02081488 -0.009141789
l1279 -0.017768998 -0.00675204 0.10882436 0.052544836 -0.017051961 0.04853086 0.0050055906 -0.13100547 0.14480409 0.009800838 -0.02033478 -0.018704839 -0.000608517 0.11953926 -0.033556 0.14598954 -0.116523154 -0.102162115 -0.02976541 -0.023435425 0.014831046 -0.07268093 -0.02257764 -0.065384276 -0.013655882 -0.010952964 0.036353085 0.0050083324 -0.0072569163 -0.041582618 -0.047963705 -0.019569358 0.09720031 -0.0008477152 -0.013438134 0.060543556 -0.014886642 0.020998165 0.02970975 0.0039021708 -0.034260783 0.06999315 -0.073435396 -0.11147991 0.11717189 0.007309192 -0.034904025 -0.007938692 -0.035011396 -0.026506253 -0.004635972 -0.01040537 -0.020247709 0.12074507 -0.056329094 0.084058076 -0.036860023 -0.09829418 -0.14163302 0.013268847 0.055086024 -0.0037426136 -0.007688621 -0.006745859
l1266 -0.024512038 0.011529944 0.08645993 0.027551003 -0.044485245 0.04054373 0.003447515 -0.11807202 0.14856671 -0.002713619 -0.017790094 -0.026859699 -0.0051475577 0.10084591 -0.02217393 0.13498896 -0.09858918 -0.11015976 -0.024943596 -0.027454877 0.01174221 -0.0753062 -0.035892528 -0.06844562 0.0003927267 -0.01942708 0.03285821 0.011110174 0.0003724512 -0.014738081 -0.04267045 -0.0010331634 0.106139235 0.017064793 -0.019291595 0.028157488 -0.0042036898 0.032127485 0.02201318 0.01949952 -0.027068267 0.05464089 -0.0411623 -0.09744238 0.1163623 0.015226909 -0.024642508 -0.028608965 -0.027506586 -0.023645226 -0.0025259492 0.013300768 -0.026966922 0.11942831 -0.064343505 0.08119809 -0.037874572 -0.11660026 -0.13578792 0.04066882 0.045737185 -0.024532199 -0.013946523 -0.012567035
l1263 0.0033305795 -0.002033555 0.10156673 0.020913286 -0.033786673 0.029430708 0.018491264 -0.12632796 0.14750256 0.023053102 -0.016328953 -0.01363063 -0.022606594 0.11408969 -0.034266915 0.13627811 -0.120657414 -0.11677667 -0.02651684 -0.02756954 -0.0076096146 -0.10261268 -0.014745938 -0.034970734 0.0015416754 0.0038646474 0.020650135 0.020825613 -0.0054310523 -0.033708356 -0.05451804 -0.006656391 0.10562114 0.018482648 -0.015546711 0.08371584 -0.0048975507 0.01666157 0.01713959 0.02089061 -0.031400267 0.059944466 -0.06534435 -0.120697916 0.124383256 -0.0060031856 -0.017599255 -0.01278818 -0.035457682 -0.029672118 -0.023094129 0.0057636243 -0.014099443 0.100461036 -0.037811764 0.10311132 -0.06062021 -0.116971664 -0.12570767 0.035413016 0.055254042 -0.0071771354 -0.002293387 -0.016437704
l1271 -0.014422526 0.007562332 0.10264168 0.026007658 -0.03068966 0.049120314 0.0067199864 -0.114877105 0.12088599 0.031928584 -0.033314303 -0.044939294 -0.029465843 0.108100116 -0.025265161 0.12211596 -0.07207629 -0.10245401 -0.03476183 -0.020967515 -0.011420018 -0.0586961 -0.02709895 -0.067408316 -0.0295515 -0.018073222 0.036945272 0.011707587 -0.029071199 -0.024801096 -0.03409301 -0.010565248 0.076634444 0.03342758 -0.010501937 0.042216875 -0.014238517 0.04064764 0.038313087 0.036152102 -0.04796449 0.04390479 -0.057841513 -0.055323906 0.08940329 0.013428054 -0.018387357 -0.025541319 -0.04905427 -0.047018833 -0.020142253 -0.013857463 -0.025974333 0.11202584 -0.041118894 0.073340155 -0.039665136 -0.0965813 -0.11426278 0.03170323 0.037502855 -0.03038037 -0.016772177 -0.033584658
l1264 -0.019131094 0.010907636 0.10744122 0.043145098 -0.017592907 0.027069101 0.015525938 -0.11189477 0.14981875 0.01587718 -0.024540905 -0.0406679 -0.00063788827 0.108392105 -0.018771445 0.13307236 -0.097407855 -0.11615059 -0.019074494 -0.021196514 -0.007286656 -0.07821599 -0.017047582 -0.076375216 -0.0031024013 0.0015767567 0.027569989 0.01492767 -0.018965468 -0.029733274 -0.05934184 -0.007181828 0.11000607 -0.0009988195 -0.020020211 0.06746115 0.0029438373 0.0075507695 0.05931866 0.021761388 -0.03455793 0.055003647 -0.06146621 -0.12732412 0.095778175 0.0022751028 -0.030294811 -0.021403177 -0.012752266 -0.039836388 -0.0032682046 -0.010039962 -0.02684962 0.0905444 -0.08183019 0.105975665 -0.03457966 -0.12353085 -0.105976835 0.036974184 0.07512477 -0.008112594 -0.02469537 -0.019935952
l1275 -0.018600143 -0.0011473525 0.12053156 0.020511491 -0.031039773 0.004389049 -0.0030054986 -0.1472876 0.143467 0.002292394 -0.02264617 -0.007343206 0.007928596 0.12456579 -0.021865036 0.12292528 -0.11673692 -0.12110122 -0.03498132 -0.0142864175 0.004124321 -0.11184837 0.0025449495 -0.07204224 -0.01147547 -0.008836051 0.01819169 0.022219704 -0.024829293 -0.014969751 -0.07097543 -0.0008311254 0.10372536 0.0013092179 0.006389768 0.08135053 0.005672219 0.007288666 0.035125937 0.019397406 -0.03696659 0.07840891 -0.08671157 -0.1377707 0.1069747 -0.008391408 -0.013160616 -0.007143591 -0.023441872 -0.008558055 0.0060407533 -0.0047081895 -0.009557401 0.13455129 -0.06882609 0.093024805 -0.01592814 -0.13259234 -0.124248676 0.034633677 0.10662478 0.0008807088 -0.009184076 -0.015774103
l1265 -0.0015715703 0.0027442526 0.103884846 0.03608464 -0.035857275 0.02582715 0.0077449055 -0.114939585 0.14905494 0.00039967155 -0.0013501706 -0.03852295 -0.015255061 0.10865808 -0.029475752 0.14332779 -0.11993689 -0.10968912 -0.012388954 -0.016832849 -0.0045581916 -0.10486683 -0.031005442 -0.0909046 0.0018907588 -0.013628999 0.023920659 0.009470365 -0.022986945 -0.0446945 -0.041147307 -0.023079913 0.11970318 0.011927777 -0.014615047 0.029758358 -0.012649779 0.002490328 0.017145688 0.0042109494 -0.029673949 0.045924056 -0.08020904 -0.10039536 0.09858098 0.01522862 -0.010089867 -0.014322365 -0.027970197 -0.03260491 0.0035910239 0.013292384 -0.021650113 0.10617932 -0.057170466 0.114449814 -0.02680337 -0.10231254 -0.13008554 0.041978795 0.081224665 -0.010016059 -0.021962646 -0.014558588
l1273 -0.018908402 0.021140441 0.09766284 0.014371364 -0.030832792 0.019631056 0.0008783425 -0.12536092 0.14351153 -0.0009401217 -0.024903364 -0.038647454 -0.015771795 0.11181851 -0.02127011 0.12348328 -0.124558784 -0.12646441 -0.018694777 -0.013590141 0.017737463 -0.0721914 -0.012716375 -0.07240695 -0.01708579 -0.015903557 0.023665939 0.0253736 0.0012285195 -0.02881604 -0.037615117 -0.002954738 0.09890406 0.004586871 0.0023710069 0.07306246 -0.020007482 0.020552121 0.03776045 0.0123870475 -0.03482156 0.053956266 -0.07853396 -0.118771225 0.12323384 -0.0054431967 -0.034887735 -0.03597385 -0.013958671 -0.032667745 0.0029920356 0.0056287 -0.024921756 0.10979257 -0.04775553 0.09028084 -0.040132355 -0.12755118 -0.12176664 0.030749176 0.065915085 -0.010350204 -0.014137231 -0.009106632
l1309 -0.0016910747 0.008280055 0.14778037 0.14316721 -0.025138022 0.023895985 0.009162179 -0.15716062 0.12666617 -0.0028649245 -0.0046701487 -0.0244101 -0.0005092479 0.014257508 -0.010668565 0.04210991 -0.0028714302 -0.1280492 -0.013368885 -0.0011637148 0.019444581 -0.047850937 -0.14670768 -0.1364138 -0.021611284 -0.12582496 0.14434081 0.022452017 -0.10884786 -0.0535836 -0.12633036 -0.008476856 0.15380009 0.01656831 -0.006712524 0.027093494 -0.006065868 0.13073447 0.0017343321 0.03144844 -0.13905576 -0.006279053 -0.13022065 -0.072375305 -0.000702472 0.02100879 -0.01288294 -0.008877403 0.0008737943 -0.025567634 -0.014825609 -0.09805494 -0.15570827 0.14205015 -0.14943942 0.0012719601 -0.008868669 -0.1474418 -0.014329291 0.0034585362 0.017057914 -0.017122231 -0.021391112 -0.021095347
l1270 -0.0050866823 0.023694962 0.09071947 0.023544572 -0.014511556 0.0380904 0.0041562496 -0.10952645 0.1395509 0.0016272402 -0.013901054 -0.02733195 -0.0095895985 0.110511065 -0.023993393 0.14293733 -0.11107497 -0.11149845 -0.03333899 -0.040223893 0.011345994 -0.108199485 -0.021101011 -0.038604997 -0.0034895486 -0.010093053 0.011760842 0.008409046 -0.00037277502 -0.0068610953 -0.041459806 -0.020352265 0.10051956 0.014679465 -0.023477884 0.053231936 -0.008105061 0.0007808174 0.03261327 0.012230877 -0.030875914 0.07244668 -0.06641605 -0.14494978 0.13031678 0.006253252 -0.03150538 -0.027449481 -0.030982878 -0.026145475 0.00022206326 0.013808539 -0.03417764 0.12545642 -0.06848592 0.096253954 -0.041493863 -0.106055126 -0.132541 0.039366506 0.06084194 -0.019352872 -0.012103636 -0.0013543445
l1269 0.0035216687 0.0076716226 0.102674454 0.0365687 -0.03310584 0.030830834 -0.0047893724 -0.12565283 0.12597209 0.010369477 -0.008157986 -0.06143662 -0.0039787437 0.10601242 -0.04406606 0.145843 -0.11696081 -0.123337194 -0.04009949 -0.017538661 -0.0068334956 -0.090432994 -0.05901914 -0.0689266 -0.00768068 -0.024372825 0.035014648 0.0043037315 -0.017493952 -0.013903632 -0.03510372 -0.019536385 0.10926531 -0.002651234 -0.0048551215 0.07246453 -0.0044816053 0.0045868717 0.041835636 -0.007627823 -0.02357581 0.078577824 -0.06314325 -0.11902408 0.10473077 0.0021751355 -0.005036251 -0.026364496 -0.02452354 -0.037438367 -0.019479524 -0.0038865437 -0.022413604 0.09877349 -0.035075307 0.075808026 -0.044213 -0.105854146 -0.1375549 0.042796332 0.065315425 -0.023163838 -0.020820228 -6.701407e-05
l1272 -0.0077832323 0.018191453 0.09469415 0.003204972 -0.04671847 0.018053776 -0.0010994034 -0.10981098 0.12843692 0.0077395816 -0.013590465 -0.020168345 -0.016411996 0.10979675 -0.0072958358 0.14413776 -0.12163098 -0.10092594 -0.035305165 -0.015073896 -0.0053150365 -0.09474994 -0.02292786 -0.07571762 -0.0033126872 -0.023920882 0.010495197 0.010207261 -0.0059734094 -0.010592374 -0.036256727 -0.00096632825 0.1107815 0.014935006 -0.009802994 0.10341311 0.001100584 0.008506142 0.062221196 0.023692703 -0.029540278 0.09119263 -0.045097146 -0.09636231 0.12865576 -0.0023259507 -0.03974929 -0.017847056 -0.028522944 -0.03948078 -0.00011914069 -0.0040026424 -0.01763722 0.11396909 -0.046403855 0.107891604 -0.053502444 -0.12200261 -0.12405382 0.01863788 0.10708536 -0.028976817 -0.018068984 -0.008878307
p1011 -0.09201083 0.10909854 0.08960185 0.092359066 -0.0893493 0.029894954 0.0098737 -0.10084758 0.013525308 0.1149835 -0.10474999 -0.0597567 -0.030659944 0.09710356 -0.10374217 0.0027813716 -0.1035011 -0.015336371 -0.09710061 -0.087461896 0.013779015 -0.11171484 -0.102981746 -0.1129918 -0.016637478 -0.008340688 0.05983283 0.10751608 0.007888224 -0.004244402 0.013147293 -0.10966408 0.094100595 0.08543399 -0.11374717 0.08992251 -0.10938457 0.09494487 0.11308452 0.094989 0.007790906 0.107037604 -0.11299692 0.013771377 0.0058148117 0.005605501 0.10238224 -0.060313795 -0.006187728 -0.108535 -0.03684653 -0.0009641871 -0.09767355 0.10341599 -0.0989977 0.11181794 -0.10661626 -0.09540804 -0.006881221 0.11180501 0.07198259 -0.11513869 0.0032971485 -0.089134246
l3396 -0.114562646 0.11084671 0.10906217 0.10974188 -0.10987925 0.01860245 0.01882883 -0.093931556 -0.01053246 0.10611645 -0.11208497 -0.015593565 -0.015859103 0.1040368 -0.105050005 -0.01346794 -0.10553874 -0.02426786 -0.100054756 -0.10936153 0.014537417 -0.10707455 -0.116453566 -0.10375926 -0.024504662 -0.030626984 0.013877304 0.09174221 0.007899154 -0.014732505 0.0032730573 -0.10599109 0.10681926 0.11424374 -0.0963171 0.10166948 -0.09604087 0.11432185 0.08660167 0.09827153 0.0018124587 0.088133626 -0.10110568 0.0076335575 0.010992383 0.02335035 0.10695036 -0.06786887 -0.0027045135 -0.113252066 -0.005128038 0.01392683 -0.11448238 0.09751929 -0.10350262 0.115268886 -0.11611936 -0.10035053 -0.0070007555 0.09410403 0.069434196 -0.09554888 0.0029666696 -0.11574356
p1012 -0.11464479 0.09353468 0.11357158 0.11295997 -0.105135664 0.018463904 0.01384533 -0.073080555 -0.013389113 0.10867656 -0.11489117 -0.015930677 -0.02498409 0.11011374 -0.10856976 -0.0019388512 -0.11031087 -0.021518169 -0.10707875 -0.10171279 0.03799938 -0.10986612 -0.113563195 -0.09847384 -0.01691533 -0.0033014244 0.01709467 0.06714279 -0.0035669117 -0.02943656 -0.002623782 -0.11416981 0.10215248 0.10906224 -0.096202396 0.11242549 -0.09736535 0.10892404 0.10062062 0.10732324 -0.005002069 0.11664046 -0.098872595 -0.005399743 -0.0047899825 0.023243824 0.101762965 -0.0755964 0.012413557 -0.111794725 -0.012204524 0.01114868 -0.10007443 0.10132192 -0.08615663 0.102326654 -0.10681455 -0.10909668 -0.012701301 0.09970337 0.05901734 -0.098489076 -0.008806744 -0.11190452
p1013 -0.10697615 0.025370596 0.059434395 0.10358385 -0.10401508 0.10479832 0.040290985 -0.09994203 0.060976554 0.10101987 -0.084219925 -0.0387361 -0.027556764 0.10170383 -0.08596618 0.026479576 -0.08636905 -0.034191653 -0.10028768 -0.031230332 0.055188388 -0.032711152 -0.027103823 -0.09458124 -0.09784747 -0.024207916 0.09664277 0.03248805 -0.035627436 0.010860895 -0.0067238477 -0.026422566 0.107041344 0.05905301 -0.09681491 0.09938518 -0.06569766 0.09565165 0.027581971 0.028746676 -0.048050016 -0.006658642 -0.029135637 -0.028523257 0.049523927 0.09550211 0.07240991 -0.028800193 -0.076403044 -0.08069621 -0.102434054 0.017545318 -0.081475295 0.041247647 -0.08275375 0.041544963 -0.085757546 -0.09019092 -0.024192123 0.102387324 0.106858306 -0.102622494 -0.024974672 -0.09491151
l3399 -0.09637744 0.03493844 0.046924006 0.100102834 -0.09635303 0.076959066 0.028394924 -0.09845279 0.031911097 0.10637778 -0.07193895 -0.03859806 -0.04589112 0.086986564 -0.10103376 0.03187392 -0.06781087 -0.044948872 -0.10087606 -0.026501445 0.029778562 -0.038659446 -0.054147623 -0.10284161 -0.08624301 -0.050990462 0.081167266 0.050187554 -0.05001856 0.012558107 0.012333883 -0.02593816 0.10391657 0.03734047 -0.08798373 0.09046674 -0.025860703 0.084434666 0.042671323 0.035583094 -0.04008287 -0.025176765 -0.036437746 -0.038288213 0.051860593 0.10026482 0.04513748 -0.044872954 -0.030868739 -0.0789512 -0.09118815 0.01582418 -0.10261944 0.049669508 -0.07916459 0.027623158 -0.10316096 -0.107854 -0.038408525 0.088012934 0.09296002 -0.10615818 -0.055424858 -0.10615063
l3397 -0.08369446 0.035450265 0.03543882 0.08235946 -0.10601342 0.08545238 0.026681384 -0.092513315 0.050410517 0.10249952 -0.053719673 -0.046504185 -0.04779769 0.087894335 -0.101407185 0.028259099 -0.086295284 -0.042967454 -0.08884101 -0.045685634 0.055539496 -0.026704479 -0.028935209 -0.106577225 -0.10350929 -0.04879763 0.08861528 0.049339958 -0.046703774 0.018055063 -0.001336836 -0.062337723 0.10759167 0.032667834 -0.08329191 0.08476675 -0.04513356 0.09814016 0.046182577 0.05144448 -0.058918595 -0.015365923 -0.03952077 -0.026461577 0.03910104 0.088358074 0.093630336 -0.04291893 -0.03974392 -0.069504134 -0.08627535 0.01345691 -0.09965579 0.04680594 -0.08411113 0.04071279 -0.09181104 -0.098940685 -0.028447136 0.10340739 0.09393714 -0.0995662 -0.054831337 -0.0940527
l3398 -0.08587341 0.049238402 0.08336068 0.07742947 -0.0852327 0.0929029 0.032372724 -0.1038262 0.077322155 0.0830822 -0.08572645 -0.053619903 -0.02829676 0.0921057 -0.10253948 0.025783885 -0.08027044 -0.07018895 -0.094802305 -0.051728245 0.05881084 -0.06453427 -0.08513985 -0.0828927 -0.083125755 -0.026271336 0.10449173 0.037564285 -0.030997768 0.018822888 0.010575431 -0.02947124 0.0865524 0.08080632 -0.10407137 0.0982171 -0.06519891 0.09112074 0.045002855 0.03120305 -0.03576194 -0.00089588703 -0.032505117 -0.024755571 0.029572215 0.092171244 0.04883876 -0.041192595 -0.042598568 -0.06683349 -0.0927758 0.007189218 -0.10454572 0.04702708 -0.07744221 0.058043346 -0.106115684 -0.099340044 -0.036756065 0.081617855 0.08253997 -0.1007171 -0.07844921 -0.07870933
p1014 -0.03079225 0.065967925 0.03258329 0.043254506 -0.06203392 0.027001651 0.05761786 -0.044631932 0.050620858 0.050104074 -0.05196289 -0.044388216 -0.053143706 0.0461283 -0.022823563 0.027812898 -0.033269353 -0.030297937 -0.06525009 -0.063806124 0.06347299 -0.039192196 -0.039441757 -0.020939564 -0.051537804 -0.05167436 0.059712633 0.06334452 -0.055004396 -0.055179 -0.019999584 -0.057979632 0.054629993 0.054614402 -0.066516854 0.02646315 -0.06608317 0.025286166 0.022331554 0.027840344 -0.021711858 0.047377236 -0.06343473 -0.04665603 0.06925983 0.062516265 0.060738962 -0.029959261 -0.06886322 -0.06924776 -0.037099387 -0.0599117 -0.06402465 0.06075363 -0.05958998 0.063216984 -0.06802569 -0.058453336 -0.03277129 0.027750196 0.04786839 -0.024005184 -0.022336511 -0.06487667
l3400 -0.019647876 0.0622752 0.019711971 0.065781824 -0.061114907 0.048504904 0.051093083 -0.064693 0.064801514 0.068440676 -0.055721696 -0.055203043 -0.056629624 0.06347758 -0.022237219 0.030973613 -0.018343115 -0.047258213 -0.063545555 -0.068684906 0.042495176 -0.065607935 -0.03906508 -0.028012518 -0.05375549 -0.048688747 0.060587194 0.04713042 -0.06745817 -0.059803613 -0.037496425 -0.0496281 0.049017444 0.057758022 -0.04984847 0.027346224 -0.04212327 0.023204125 0.026523823 0.04936013 -0.035464514 0.050261166 -0.050315343 -0.06394475 0.04761919 0.056286104 0.06678196 -0.046977554 -0.04254736 -0.06514782 -0.043727394 -0.05708947 -0.059436224 0.05149285 -0.044469923 0.046569914 -0.047993187 -0.055410974 -0.022925531 0.025651257 0.063351616 -0.02287063 -0.026212774 -0.05326549
p1015 -0.12713595 0.101607025 0.104768254 0.107687145 -0.03244913 0.11536307 0.10846161 -0.12472267 0.004212488 0.11795239 -0.12622067 -0.021917244 -0.122157045 0.102057725 -0.11597953 -0.004212366 -0.12602441 -0.115231134 -0.12261401 -0.0452906 0.11256366 -0.11542152 -0.13096786 -0.025062818 -0.12587373 -0.030484725 0.042257916 0.11190315 -0.03552328 -0.12622562 -0.12760673 -0.103665 0.12535395 0.03185543 -0.1289032 0.11713318 -0.03425739 0.027835635 0.12824488 0.10908588 0.0031096959 0.012086417 -0.044274256 0.026501406 0.122193895 0.13051298 -0.0072051343 -0.050750718 0.023625841 -0.114360616 -0.041953262 -0.1193799 -0.12723128 0.115713954 0.02777654 0.11001713 -0.1177639 -0.1215429 -0.030560054 0.12004151 0.08007139 -0.12495952 -0.0361858 -0.12448102
l3402 -0.11577569 0.09611991 0.13240667 0.12177168 -0.030418167 0.11878288 0.12342506 -0.11636015 0.0048401933 0.12599729 -0.13105327 -0.022114124 -0.12799986 0.08564233 -0.13173094 -0.027881695 -0.12961274 -0.12024933 -0.109448805 -0.04104255 0.12298378 -0.13140234 -0.11080811 -0.018548097 -0.11401846 -0.03762138 0.024123214 0.13200557 -0.04442132 -0.12378567 -0.11257665 -0.114895314 0.10995261 0.061635315 -0.10812215 0.12059028 -0.05801023 0.049004637 0.13222398 0.06469579 -0.0026407978 0.028805124 -0.035748456 0.008362225 0.096887186 0.11318431 -0.019504122 -0.046679236 0.024613552 -0.12605721 -0.044379942 -0.10425413 -0.11409198 0.13147295 0.028150566 0.08676661 -0.12720661 -0.11848465 -0.012180661 0.11579119 0.05800834 -0.114012085 -0.024856795 -0.11111097
l3401 -0.10464139 0.12221547 0.12787643 0.12365208 -0.054110423 0.11597842 0.123199515 -0.102323465 0.01806528 0.11473464 -0.10903108 -0.023112772 -0.11761274 0.12659377 -0.12145339 -0.018669076 -0.10577698 -0.11060475 -0.12529986 -0.02818601 0.11871743 -0.09962569 -0.10697921 -0.03814647 -0.12423098 -0.05086369 0.029432034 0.11540184 -0.03401636 -0.12641002 -0.10308697 -0.09723535 0.10727403 0.051005814 -0.1266876 0.10765329 -0.027621228 0.045201384 0.10037031 0.09710186 -0.0046597295 0.016584653 -0.03459034 0.026896426 0.10520269 0.12674141 -0.009122157 -0.058170184 0.006072963 -0.122995876 -0.029308762 -0.100211106 -0.11877392 0.1290783 0.00700326 0.11658466 -0.10848013 -0.11214893 -0.039762776 0.10439692 0.036142737 -0.12295156 -0.03699712 -0.10910414
p1016 -0.023818986 0.11879992 0.009009762 0.018967615 0.0030040222 0.12471973 -0.018141981 -0.12624921 0.12739651 0.12251776 -0.13031171 -0.117787935 -0.0014305473 0.11671698 -0.10236891 -0.015996238 -0.11067705 -0.004140635 -0.080562994 -0.121548764 0.02471254 -0.07137331 -0.12857439 -0.12043528 -0.10352558 -0.11249923 -0.0016902998 -0.0046479553 0.012434689 -0.10910656 0.0022371463 0.009754779 0.109788895 0.12618235 -0.109232195 0.008087688 -0.00035196653 -0.0056715594 0.034651715 -0.0072135055 0.014859413 -0.004123541 -0.118784994 -0.11476826 0.12925461 -0.0007817316 0.12219182 -0.021490047 -0.1257362 -0.033082936 -0.12420679 -0.12820369 -0.13022731 0.10839475 -0.10247458 0.10672222 -0.1264487 -0.02547531 0.018590769 0.0057748286 0.13136385 -0.022627704 -0.120428465 0.0062665953
l3403 -0.004661041 0.11189233 0.0054680007 -0.005081344 0.0045988187 0.12336599 0.006782926 -0.11910906 0.12521474 0.11736323 -0.12650979 -0.12553772 -0.0027593062 0.1190314 -0.13025567 0.0024691506 -0.123275444 0.0041423156 -0.12785584 -0.12590162 0.0012330429 -0.059152823 -0.118183285 -0.120391674 -0.08899671 -0.12638275 0.00490686 0.0034231027 0.014170092 -0.13069367 0.0075172656 0.017690884 0.12720205 0.123418905 -0.1306221 -0.00047485874 0.0061904876 -0.0044910754 0.00456464 -0.001765077 0.009517607 -0.015867706 -0.12327275 -0.11647102 0.113383695 0.0013886607 0.114616506 -0.06669471 -0.11180769 0.005056095 -0.11245833 -0.12944044 -0.12296378 0.12965989 -0.13006268 0.12733507 -0.11111136 -0.0054337136 -0.005192413 -0.0051515405 0.10454316 -0.04228488 -0.13108131 -0.000116427575
p1017 -0.06655665 0.050451268 0.019838383 0.07037236 -0.068845235 0.06732854 0.04714613 -0.06426067 0.022929072 0.071059495 -0.055557538 -0.069261335 -0.065721355 0.03178273 -0.06960319 0.048966855 -0.040093485 -0.067174986 -0.042760674 -0.009937721 0.008292154 -0.014628434 -0.010489827 -0.06227974 -0.067692354 -0.058331124 0.065720074 0.05878882 -0.065094575 -0.014648399 -0.010689302 -0.031313896 0.042292453 0.048353013 -0.06693131 0.058343854 -0.05019845 0.064692244 0.02211881 0.0489735 -0.009711732 0.06251778 -0.0619467 -0.02467357 0.0117638875 0.029698133 0.058983207 -0.021101568 -0.07056512 -0.06952139 -0.028992124 -0.055125706 -0.016838659 0.008708027 -0.012119021 0.02412734 -0.0629736 -0.03334913 -0.064159825 0.063842215 0.06055706 -0.0246954 -0.009171388 -0.06709693
l3404 -0.06058723 0.068463534 0.014150489 0.06491667 -0.06134764 0.04580069 0.025008563 -0.048357744 0.010924973 0.058893837 -0.054388832 -0.050983034 -0.06997946 0.034225293 -0.06953775 0.06525531 -0.065768726 -0.06496566 -0.029377192 -0.012203779 0.012340859 -0.0141555695 -0.013152473 -0.059947126 -0.05291585 -0.062499426 0.04825159 0.056944553 -0.05966462 -0.0121987555 -0.026302278 -0.030458849 0.026974004 0.06823719 -0.062333506 0.06772913 -0.06496397 0.06970947 0.013085767 0.055503022 -0.020894933 0.055936936 -0.048136506 -0.01713718 0.022549722 0.025972297 0.06594547 -0.03882791 -0.06495415 -0.061395008 -0.04230908 -0.06870486 -0.0121839745 0.03311215 -0.008939087 0.009621294 -0.06674975 -0.042876717 -0.06878113 0.06030478 0.04668934 -0.050265227 -0.017650692 -0.055481717
l3405 -0.05255203 0.050142195 0.03342443 0.052346293 -0.065352894 0.07061465 0.027686134 -0.053113066 0.025495728 0.055125047 -0.068640575 -0.06427568 -0.058191303 0.03743893 -0.065167546 0.059119888 -0.06742599 -0.05784698 -0.02611772 -0.033298533 0.043715533 -0.040886045 -0.013264582 -0.052551996 -0.056914654 -0.05114693 0.031336922 0.052803453 -0.04104022 -0.044267602 -0.010552528 -0.04518382 0.030155694 0.06302154 -0.055856586 0.041649822 -0.054068133 0.06440696 0.02909027 0.06753078 -0.018732157 0.04870279 -0.0707497 -0.007325998 0.014162754 0.05097904 0.06831859 -0.04244427 -0.044544738 -0.060702756 -0.036824517 -0.059836898 -0.016939607 0.020507228 -0.018182166 0.030983817 -0.046686903 -0.023428112 -0.04907667 0.05022939 0.05947845 -0.032402284 -0.048655532 -0.043712534
p102 -0.037274342 0.053714484 0.119935 0.082719 -0.101739086 0.10705081 0.11285515 -0.06333826 0.09060779 0.1156518 -0.041112915 -0.04294067 -0.021396542 0.043514147 -0.03532788 0.010405249 -0.016403757 -0.11669904 -0.10729914 -0.060226385 0.057320897 -0.061286993 -0.079193234 -0.04793676 -0.07965331 -0.03960958 0.09767812 0.11887317 -0.011516856 0.031288184 -0.08165662 -0.045048684 0.048273668 0.11205202 -0.05157069 0.11920586 -0.04511173 0.09490956 0.10195456 0.11169748 -0.09495981 -0.039259154 -0.027325824 -0.015739277 0.015178612 0.025165984 0.116421364 -0.041190453 -0.1041302 -0.06558876 -0.09252983 -0.041675612 -0.0357246 0.041475084 -0.03555195 0.08670877 -0.09321475 -0.039815936 -0.054812007 0.10049764 0.048598453 -0.032024514 -0.07983956 -0.03539045
l1306 -0.027608154 0.03614147 0.09455437 0.097602956 -0.080424786 0.08404267 0.10714626 -0.011208869 0.08820521 0.12047891 -0.014411886 -0.026404 -0.021549787 0.016325817 -0.04411776 0.047304254 -0.022156829 -0.11984144 -0.10263551 -0.03214845 0.008468636 -0.028156625 -0.09603227 -0.02902057 -0.11950006 -0.030681036 0.08824864 0.11478812 -0.02936155 0.035500895 -0.05540795 -0.040209617 0.03930163 0.11761794 -0.018134654 0.1084817 -0.019293841 0.083296485 0.09484365 0.10120437 -0.091243856 -0.013540125 -0.034562822 -0.011787093 0.005167323 0.021313159 0.12323122 -0.06298691 -0.11639261 -0.07551014 -0.081894 -0.045095745 -0.05976738 0.05120932 -0.008675163 0.081790976 -0.08697467 -0.04355552 -0.081378505 0.0941334 0.050646894 -0.012203599 -0.08027206 -0.016888352
l1307 -0.054178357 0.033794433 0.06726404 0.069120616 -0.069791615 0.06612792 0.069298245 -0.047672715 0.04976654 0.07166644 -0.064277455 -0.063159406 -0.06795897 0.033312228 -0.04036267 0.030905835 -0.033963937 -0.058673725 -0.049596503 -0.049921382 0.042254247 -0.044189975 -0.07140698 -0.03190718 -0.062422268 -0.06581402 0.04629925 0.05673884 -0.035691198 -0.014741204 -0.04866037 -0.038682446 0.06532522 0.048055556 -0.06466661 0.06620221 -0.038243305 0.052088745 0.054887667 0.05033178 -0.04828494 0.00748536 -0.044456214 -0.034111444 0.036978006 0.043998472 0.06554446 -0.05608894 -0.0494587 -0.046279382 -0.042102315 -0.044547502 -0.06331771 0.04096405 -0.03978005 0.04792086 -0.046993636 -0.06695701 -0.066077575 0.06633116 0.05420104 -0.032254115 -0.054474935 -0.04533857
l1305 -0.031829778 0.032897044 0.06920651 0.04726274 -0.050242744 0.04666059 0.06080338 -0.030561913 0.038765114 0.06809282 -0.054033235 -0.051972717 -0.061691828 0.035338994 -0.049703628 0.050621375 -0.047377568 -0.06218442 -0.054861233 -0.053826723 0.062016577 -0.038756616 -0.06915177 -0.051951468 -0.07087081 -0.04254159 0.046097465 0.05597365 -0.051136218 -0.002643696 -0.056767754 -0.057840846 0.06608047 0.05412826 -0.031472 0.059872005 -0.04564776 0.064293034 0.057890598 0.068068385 -0.06465415 0.021657234 -0.043614946 -0.04196966 0.03588417 0.049697712 0.05945029 -0.032276645 -0.05598051 -0.054009058 -0.0673381 -0.032389447 -0.06734092 0.03100708 -0.02354877 0.061126072 -0.05644422 -0.04757524 -0.06322873 0.06786782 0.06410979 -0.047996055 -0.056966238 -0.043424368
p103 0.037164744 0.14135477 0.14341015 0.14688484 -0.031834662 0.002869726 0.13448258 -0.14770995 0.14035848 0.14139925 -0.14808638 -0.14853525 0.0119813215 0.1473634 0.03469001 -0.036699265 -0.010664692 -0.13119797 -0.1492887 -0.0017545705 0.024527803 -0.15348287 -0.13975121 0.0051589618 -0.14319153 -0.13365903 0.14270982 0.15175568 -0.13892348 -0.13826546 -0.15250477 0.045256533 -0.010545057 0.15394686 -0.13879259 -0.037725963 -0.14942148 0.006100137 0.127945 0.010909742 -0.13629052 -0.039140716 -0.13088042 -0.13746622 0.13496815 0.022846453 -0.039154712 0.038478233 -0.14313729 -0.006836119 -0.14588772 -0.011462601 -0.13406679 -0.005946799 -0.13935943 -0.038435332 -0.12940934 -0.14858848 -0.1449734 -0.04078385 0.021789227 -0.15398431 -0.017296918 -0.15316923
l1308 0.024654508 0.13668747 0.1451898 0.13985647 -0.013986652 0.018121999 0.15329444 -0.15407388 0.15248173 0.15478398 -0.13804993 -0.13080397 -0.0009681655 0.1380202 0.010206055 -0.047998272 0.007579528 -0.15054742 -0.1492667 0.0053752773 0.009632346 -0.12446771 -0.14363445 0.010903109 -0.1424637 -0.15096073 0.13751054 0.12973602 -0.14730918 -0.13965395 -0.14191556 0.049253307 -0.009954536 0.137857 -0.15444466 -0.033806037 -0.14467883 0.025248062 0.15448472 0.0036710172 -0.14367186 -0.039672706 -0.15452386 -0.134523 0.14307135 0.0020160533 -0.032248214 0.038281184 -0.14122266 0.012550875 -0.1334395 0.005360611 -0.1482929 -0.00096591853 -0.14895758 -0.03968311 -0.15289903 -0.14568892 -0.14282037 -0.0074555664 0.005843303 -0.12759817 -0.009520833 -0.15184699
p105 -0.29497913 -0.1742989 0.40390596 0.22622302 -0.44624773 -0.18556932 0.43716606 -0.3893468 -0.30167326 0.4545877 -0.45591018 -0.43968967 -0.4539615 0.4621883 -0.4639331 -0.22126125 0.26379314 -0.39191583 -0.4511202 -0.023251038 0.23257504 0.16301319 0.17429894 -0.45374167 0.18943754 -0.18993607 0.16390288 0.42804816 -0.44991946 -0.44599333 -0.4418401 0.27299735 -0.15681662 0.44722357 -0.4630757 0.32321534 -0.03536741 -0.11261078 -0.11085406 0.4540174 -0.42901465 0.10113184 -0.35214007 -0.16513962 0.42539397 0.4491738 0.44542757 -0.39171693 -0.44643432 -0.21663313 -0.44540086 -0.44205305 -0.34386712 0.43042433 0.29311883 -0.15795489 -0.46319547 -0.46012765 -0.44732094 -0.16072528 -0.1604049 -0.3187118 0.2655362 0.14920591
l1314 -0.25111184 -0.16324009 0.41806358 0.2904602 -0.4118221 -0.14729692 0.4365312 -0.34668097 -0.28151 0.4229974 -0.42682716 -0.4243347 -0.43161404 0.43194345 -0.42557728 -0.14510627 0.24204676 -0.40670526 -0.43021914 -0.012181676 0.29915327 0.16361845 0.15633246 -0.4166219 0.15108387 -0.23134701 0.15315591 0.39987528 -0.4156057 -0.42195985 -0.43049058 0.2780298 -0.17509347 0.4369796 -0.41769695 0.3158513 -0.056862712 -0.097704455 -0.076564476 0.43340388 -0.4194873 0.13253926 -0.38929614 -0.2190739 0.41894913 0.41102675 0.43454605 -0.41862068 -0.41390643 -0.24841096 -0.41400447 -0.40278286 -0.3220852 0.40705228 0.30597124 -0.17279075 -0.43063223 -0.41676307 -0.4089223 -0.116748065 -0.12765768 -0.37881088 0.26469406 0.13507962
l1326 -0.2944195 -0.18574385 0.42298636 0.18088324 -0.43292728 -0.16492212 0.44059402 -0.3950165 -0.28042454 0.43979213 -0.43820778 -0.41744775 -0.43993098 0.4372503 -0.424129 -0.22693871 0.23964591 -0.38170686 -0.43065727 0.07275451 0.18384671 0.1670958 0.15117273 -0.42468488 0.17849292 -0.18470833 0.064959176 0.38256627 -0.4197238 -0.42238948 -0.44125593 0.25668713 -0.16240433 0.4173231 -0.44710046 0.32960987 0.027533682 -0.14381574 -0.13369529 0.45022312 -0.36741942 0.09929281 -0.37267235 -0.19129117 0.4104233 0.44083807 0.4240706 -0.38698113 -0.43045747 -0.3045707 -0.43571004 -0.34823626 -0.3923993 0.40727234 0.28837824 -0.16970381 -0.45294285 -0.4463968 -0.4345626 -0.14047016 -0.13781868 -0.32489994 0.24925259 0.15277176
l1316 -0.27355096 -0.14623861 0.39943674 0.2397413 -0.4282018 -0.16478056 0.44065654 -0.36718032 -0.26790392 0.44683424 -0.4370483 -0.4445454 -0.43688425 0.43137848 -0.43872726 -0.19247733 0.21516827 -0.3919808 -0.43289617 0.012314562 0.30280408 0.12879264 0.14262427 -0.42120525 0.16217871 -0.15880397 0.20937072 0.4168689 -0.42834133 -0.4247699 -0.42148855 0.2265932 -0.1378475 0.43773645 -0.42613345 0.39290622 -0.013200629 -0.052803304 -0.093397185 0.4398442 -0.41404215 0.16352175 -0.36756766 -0.23868656 0.40114954 0.42246607 0.44233897 -0.43037835 -0.4365449 -0.25971535 -0.41747618 -0.4130578 -0.38894475 0.41678265 0.27113757 -0.1414886 -0.44287407 -0.43343672 -0.43638828 -0.12035717 -0.1469577 -0.38105685 0.23054704 0.1402939
l1315 -0.2499544 -0.16317753 0.38453528 0.21458384 -0.42651647 -0.17992638 0.4273768 -0.41506866 -0.2882293 0.4519651 -0.43149486 -0.4141011 -0.42318422 0.43855745 -0.4503469 -0.21612531 0.24864063 -0.37478176 -0.41688895 0.067169674 0.31817758 0.14692238 0.14710124 -0.43864822 0.17129195 -0.20762518 0.18104525 0.44600794 -0.43978807 -0.41119844 -0.42628053 0.27487573 -0.15922101 0.4409405 -0.45216092 0.4048642 0.066227645 -0.11953966 -0.110581376 0.44090787 -0.42688572 0.19020802 -0.34601524 -0.32336584 0.36014017 0.41938117 0.42779684 -0.4144967 -0.44565406 -0.31448388 -0.43201965 -0.4045474 -0.4371595 0.41000238 0.30074453 -0.16062234 -0.4332465 -0.44570658 -0.42274457 -0.17279083 -0.16286379 -0.4077307 0.23543951 0.16669835
l1320 -0.26766464 -0.15607135 0.39506763 0.10416208 -0.43409267 -0.08555853 0.4255844 -0.30517054 -0.26049438 0.44833642 -0.4501543 -0.43076637 -0.45238838 0.44246426 -0.4413525 -0.24014443 0.2522545 -0.42291164 -0.38661894 0.09875995 0.010243234 0.16743045 0.071143135 -0.42936635 0.16854525 0.12991117 0.26993334 0.3890242 -0.42558634 -0.42102087 -0.4343768 0.26368013 -0.15588175 0.4409688 -0.4331937 0.25625148 -0.22964437 -0.10223641 -0.08671642 0.4300834 -0.31558064 -0.009377342 -0.27519122 -0.29470256 0.41515744 0.4368721 0.41085374 -0.30716825 -0.45793533 -0.28328082 -0.4476962 -0.3848069 -0.31808496 0.4180569 0.28663382 -0.1452947 -0.44641438 -0.45173475 -0.43815273 0.05534003 -0.1060387 -0.3722278 0.20085108 0.22606671
p108 -0.43096507 -0.17070085 0.42932358 -0.06323801 -0.4382212 0.10546892 0.3588318 -0.45443678 -0.23744732 0.45179224 -0.4289036 -0.4384597 -0.45519388 0.42314225 -0.45123458 -0.28903586 0.25839216 -0.44461432 -0.35872838 0.09905038 -0.16482729 0.17609514 -0.103872426 -0.450831 0.06996985 0.18060677 0.36303812 0.4190851 -0.44187608 -0.43601865 -0.4435078 0.25218365 -0.16277866 0.4276691 -0.4396849 0.39055774 -0.3082515 -0.08466562 0.1188332 0.44336134 -0.3902064 -0.08643008 0.031983443 -0.325416 0.4419063 0.40710735 0.24832848 -0.27781424 -0.44299823 -0.339796 -0.45238096 -0.42456013 -0.38368613 0.43364775 0.30239263 -0.12623909 -0.42280817 -0.423768 -0.42293355 0.17626308 -0.003717659 -0.4162464 0.07303103 0.26619384
l1310 -0.18507081 -0.13916713 0.38768932 0.22429784 -0.41316342 -0.12767854 0.4285002 -0.35497156 -0.24624752 0.4185912 -0.43145463 -0.40840206 -0.42291358 0.43346134 -0.42445484 -0.19512019 0.22809698 -0.3863752 -0.40070117 0.07391807 0.286208 0.11179833 0.12585998 -0.43154404 0.13511708 -0.13946413 0.14767165 0.3976274 -0.42759928 -0.4143848 -0.4116177 0.24411485 -0.1356598 0.41369316 -0.4233537 0.37465188 -0.019889131 -0.07844779 -0.063630745 0.41988355 -0.4302018 0.25537404 -0.3407325 -0.3125867 0.40804052 0.40292102 0.4205687 -0.37883946 -0.42678925 -0.33576244 -0.42650354 -0.41027007 -0.36659068 0.39736548 0.2652816 -0.13352792 -0.4057657 -0.40217677 -0.43002486 -0.1208239 -0.10836231 -0.38895246 0.22456937 0.1338332
l1319 -0.39463487 -0.17941184 0.41153157 0.09161316 -0.42123726 -0.041252114 0.42545494 -0.41803074 -0.2799519 0.45843777 -0.4549865 -0.4479438 -0.4355419 0.44298348 -0.44255576 -0.27787793 0.26293907 -0.41931114 -0.42113826 0.097436115 -0.025486952 0.16779579 0.058619916 -0.45021632 0.15535419 0.15301012 0.31769374 0.4182199 -0.4440792 -0.43889996 -0.44594845 0.27875963 -0.17292969 0.44597852 -0.436442 0.3171303 -0.24044858 -0.12152513 -0.055072047 0.44251713 -0.3764912 0.02396293 -0.23151127 -0.29658216 0.42336562 0.416018 0.40600738 -0.34094337 -0.447148 -0.30062217 -0.45225072 -0.39041758 -0.35097682 0.41471443 0.30130416 -0.15430228 -0.42885625 -0.4211565 -0.43279666 0.07418047 -0.10472552 -0.37033507 0.1588535 0.20413281
l1344 -0.40063465 -0.1695937 0.42103258 -0.027917402 -0.41039446 0.15801302 0.34121656 -0.4388423 -0.17436793 0.42523536 -0.43580487 -0.4388825 -0.4512761 0.43000832 -0.43894657 -0.2756251 0.26446685 -0.4110828 -0.34298044 0.14358293 -0.17591177 0.17055409 -0.134601 -0.44046268 0.021563761 0.19063546 0.40294227 0.4142902 -0.43969873 -0.41755012 -0.4278681 0.2705203 -0.15588345 0.42259437 -0.42209685 0.41899723 -0.37851018 -0.035806306 0.14833413 0.42676955 -0.41175354 -0.13439491 0.0972918 -0.4254937 0.39086977 0.39062873 0.15460926 -0.07226605 -0.43534252 -0.42106706 -0.42244726 -0.42952102 -0.43601018 0.41534483 0.2784153 -0.010867072 -0.43521878 -0.43209827 -0.39403865 0.20845589 0.039198097 -0.41981512 -0.02932901 0.28410032
l1325 -0.30772448 -0.16976817 0.42594245 0.34263462 -0.41905463 -0.057850115 0.43926647 -0.30523482 -0.30229872 0.43686238 -0.44580472 -0.44314256 -0.42672172 0.4400807 -0.44301906 0.16495943 0.17416307 -0.43821713 -0.44197908 -0.23471111 -0.0073295115 0.16747892 0.10976892 -0.45044795 0.09153133 -0.28037697 0.26054585 0.42088956 -0.43756855 -0.4237486 -0.44344786 0.25682467 -0.17851622 0.4329011 -0.42655858 0.1597034 -0.21750209 0.20356272 0.13886254 0.45110145 -0.17445563 -0.25477725 -0.41933572 0.23590025 0.4113335 0.42775384 0.44204974 -0.43363312 -0.456852 0.25143918 -0.44329298 -0.3520696 -0.041563854 0.41974744 0.2721035 -0.17152913 -0.44062185 -0.43632755 -0.4390813 0.17907472 0.21459723 0.06413554 0.2612425 -0.05604734
p111 -0.3429703 0.050023366 0.42518982 0.3847679 -0.45351928 0.058826987 0.44197887 -0.3623895 -0.30227298 0.45231843 -0.45738012 -0.46406245 -0.4372921 0.4534345 -0.46156234 0.2921338 0.2326492 -0.4464043 -0.45780247 -0.30124882 -0.18527128 0.040495142 0.04667819 -0.45129144 0.15905066 -0.37895265 0.23128265 0.120241456 -0.44220114 -0.45525938 -0.4667714 0.17976475 -0.18905193 0.42459196 -0.4576256 0.12099578 -0.294675 0.3121367 0.23629548 0.45716825 -0.194689 -0.27701366 -0.43242478 0.2485473 0.4525838 0.44273362 0.44740275 -0.21033852 -0.43966705 0.14896238 -0.442473 0.1509866 -0.31073028 0.43418857 0.15060903 0.036703937 -0.46307307 -0.44469702 -0.44019747 0.29285753 0.30472648 0.18108405 0.2968608 -0.24678273
l1346 -0.42889553 0.09139931 0.45060292 0.40317145 -0.43652752 0.19078371 0.42787215 -0.4441628 -0.297063 0.46362332 -0.45913714 -0.43818378 -0.42773438 0.4624024 -0.44908905 0.32226467 0.20142342 -0.4516277 -0.44307652 -0.37140593 -0.20268069 0.0113713695 -0.071838826 -0.462057 0.16696082 -0.41805303 0.21377245 -0.14008547 -0.4422033 -0.44559947 -0.46365213 -0.019500554 -0.19699144 0.42315203 -0.44807148 -0.010769366 -0.3318062 0.31137833 0.3219209 0.4492519 0.035498474 -0.30247706 -0.4400441 0.2773396 0.44621202 0.4373006 0.430626 -0.046200987 -0.4353581 0.0073552234 -0.46449804 0.20630603 -0.39440522 0.4378299 -0.0016754346 0.13655593 -0.45552737 -0.44216016 -0.44242176 0.3172 0.39091974 0.17449544 0.3052549 -0.31363392
p109 -0.43588376 0.17144622 0.43419462 0.41375068 -0.4378522 0.26937798 0.41842717 -0.43744847 -0.28416675 0.4513457 -0.45360819 -0.43479943 -0.4329998 0.4498106 -0.43253142 0.38069463 0.18001366 -0.4262982 -0.4543787 -0.37241235 -0.21424772 -0.06334003 -0.1426007 -0.44878286 0.17065974 -0.42886713 0.18188614 -0.16538839 -0.44387555 -0.43878222 -0.44496688 -0.20606801 -0.19242169 0.43627545 -0.42687768 -0.117243476 -0.3676347 0.36032617 0.36867404 0.44143867 0.18942395 -0.28253716 -0.43034956 0.28973404 0.43950963 0.4264449 0.4581482 0.1314242 -0.4109635 -0.095239975 -0.44856128 0.11526636 -0.35666826 0.40527776 -0.12604909 0.21202274 -0.4225207 -0.42319873 -0.44394025 0.34737056 0.42858136 0.19155283 0.29553694 -0.38363245
l1347 -0.43285754 0.18702714 0.40617633 0.40676808 -0.42646402 0.29773384 0.42964137 -0.3980821 -0.2913426 0.43084082 -0.4313105 -0.42427012 -0.42817724 0.4478632 -0.4118494 0.40535358 0.17662767 -0.4113878 -0.43690988 -0.42086843 -0.21235496 -0.090491906 -0.14133698 -0.43819612 0.15540831 -0.42167747 0.15204108 -0.16273369 -0.42139697 -0.4301217 -0.43151036 -0.24741247 -0.17829756 0.42803907 -0.4119287 -0.14298807 -0.42867038 0.39273772 0.43186456 0.4175707 0.20746598 -0.27255732 -0.43174368 0.2835178 0.4075853 0.41128948 0.44071618 0.12942983 -0.41383097 -0.16393548 -0.42478845 0.08033036 -0.37762207 0.36803666 -0.21173328 0.27103078 -0.41081825 -0.41992933 -0.43291265 0.41577607 0.43603033 0.17700648 0.2790384 -0.4179237
p107 -0.08779176 -0.17204835 0.36137852 0.36258057 -0.4048329 0.22092731 0.43926823 0.13136129 -0.27229854 0.43110693 -0.43115887 -0.43614265 -0.43845055 0.4375069 -0.43036908 0.36481053 0.16186431 -0.32495987 -0.41230166 -0.31031016 0.19217426 0.17521288 -0.07207449 -0.41947258 -0.14783123 -0.24359445 0.34450468 0.39428857 -0.40510502 -0.4130899 -0.38133946 0.25069275 -0.15141405 0.40408027 -0.4394241 -0.10187204 -0.32202035 0.31267345 0.23706242 0.41664025 0.117210686 -0.26861793 -0.41974807 0.2880972 0.39917603 0.43949106 0.36338767 -0.37066793 -0.42458197 0.26929545 -0.41315347 -0.37567762 0.25078547 0.4176885 0.28704274 -0.16809809 -0.4017648 -0.43020573 -0.40095988 0.29350173 0.30804405 -0.2566589 0.28997695 -0.1413091
l1340 0.008322152 -0.1446613 0.39897278 0.368006 -0.40678757 0.19874732 0.4195774 0.15169929 -0.27437186 0.4162358 -0.40267777 -0.41536865 -0.413676 0.40690634 -0.4286653 0.3364859 0.14192002 -0.24463645 -0.4094864 -0.28044328 0.21129061 0.15747091 -0.13700478 -0.40151727 -0.14766632 -0.22355162 0.35055727 0.3984717 -0.41146994 -0.39295357 -0.41501567 0.24287954 -0.13856833 0.40434775 -0.39563695 -0.085662834 -0.33942553 0.29192463 0.2098688 0.42685506 0.12897143 -0.2610982 -0.3963461 0.2732198 0.40354055 0.42101958 0.39117274 -0.40582138 -0.42247134 0.23912765 -0.41312817 -0.4121312 0.23482874 0.37624514 0.2667658 -0.15961699 -0.41397294 -0.41502538 -0.422015 0.32337153 0.31655234 -0.24187028 0.2804643 -0.113708295
l1339 -0.044211153 -0.1373576 0.39454108 0.35828355 -0.40131366 0.26958457 0.43185326 0.094627455 -0.2785208 0.4323258 -0.40397385 -0.41418988 -0.40969205 0.4237049 -0.41124654 0.32347724 0.14203465 -0.3007059 -0.40894356 -0.298061 0.25593892 0.14315385 -0.14809091 -0.4217673 -0.22753197 -0.23016357 0.31931102 0.39291385 -0.39148617 -0.40830997 -0.42420694 0.2494481 -0.13865162 0.3953188 -0.38589728 -0.11513347 -0.2982839 0.28140417 0.27531517 0.41514727 0.13237461 -0.26597053 -0.34996477 0.2542765 0.38276312 0.4081889 0.379823 -0.3727916 -0.42660928 0.25045264 -0.40875202 -0.37865978 0.24123368 0.4107728 0.2628663 -0.14609423 -0.41144598 -0.4038617 -0.40013435 0.31024668 0.29231536 -0.2879638 0.25200817 -0.23522028
l1341 -0.06286944 -0.16292205 0.31806156 0.33649305 -0.403416 0.2917281 0.41868258 0.14488775 -0.26625618 0.41221622 -0.42995575 -0.40500063 -0.42226836 0.4202009 -0.42606533 0.3903058 0.1397558 -0.30117962 -0.37771305 -0.31882972 0.25251335 0.15170102 -0.115485206 -0.3681397 -0.18670975 -0.18280187 0.34372368 0.3461955 -0.41101703 -0.38502628 -0.37304863 0.24160282 -0.14356789 0.3834308 -0.3749676 -0.09377337 -0.38909048 0.3586724 0.22014281 0.39479688 0.15331385 -0.26680493 -0.37852952 0.28227955 0.40297866 0.41086248 0.344778 -0.33278462 -0.40506363 0.2577769 -0.37283844 -0.37965718 0.23674169 0.38296765 0.2706202 -0.14226194 -0.39010155 -0.41517472 -0.35694274 0.31926963 0.4095989 -0.254944 0.28779086 -0.16160247
l1321 -0.2754362 -0.16542813 0.39196837 0.2351938 -0.38564494 -0.14542231 0.42599815 -0.32379526 -0.27821374 0.43279704 -0.43083957 -0.39611107 -0.3953617 0.4346064 -0.43966356 -0.20811889 0.23295026 -0.38607344 -0.41559544 0.016348824 0.26533237 0.12630726 0.124821335 -0.4324619 0.14411865 -0.19766045 0.16829239 0.42573613 -0.42350736 -0.42972818 -0.42927808 0.27061358 -0.14911748 0.40872225 -0.4422058 0.29563263 -0.01554095 -0.08382235 -0.052580327 0.43911982 -0.41077054 0.16196992 -0.3545063 -0.19662857 0.37626237 0.41368315 0.43539727 -0.3934293 -0.42249912 -0.22739416 -0.41309255 -0.38718203 -0.35090372 0.39844802 0.29104787 -0.14582379 -0.43199122 -0.41033116 -0.42493865 -0.13697205 -0.11893606 -0.29560426 0.2554925 0.1382414
l1322 -0.27559108 -0.13446687 0.41836864 0.23516165 -0.42142564 -0.1691849 0.43308866 -0.3531556 -0.2527862 0.43879 -0.43401644 -0.4282413 -0.43078434 0.42668444 -0.42580527 -0.18304807 0.22819677 -0.37699965 -0.39566505 0.027698392 0.27766287 0.11587928 0.12023897 -0.43676943 0.14897871 -0.15913446 0.23580496 0.40196994 -0.41243058 -0.4129454 -0.42044815 0.24579766 -0.14165081 0.41879836 -0.44147635 0.3509815 0.004348672 -0.08584689 -0.11151762 0.43650255 -0.39413145 0.15061352 -0.35148025 -0.17751868 0.4112399 0.41894004 0.4286019 -0.39177182 -0.41859788 -0.22633453 -0.42441857 -0.40037045 -0.33162543 0.41895536 0.26852176 -0.13749619 -0.44351253 -0.40620264 -0.40857366 -0.13067698 -0.12400215 -0.37222856 0.20876376 0.15902492
