4154 64
p1 -0.048080858 0.14698127 -0.09318331 -0.28020844 0.07862408 0.09465762 -0.0062321257 -0.06676181 -0.023304963 -0.098961964 -0.017854676 0.14550877 0.07275352 -0.024761267 -0.0085215345 0.029327534 0.054347456 0.0380811 0.20088151 0.20118949 0.13293457 -0.025404945 -0.11752422 -0.17163986 0.07084607 -0.23087405 -0.069401786 0.058637746 0.09604551 -0.17129351 0.18636714 -0.106237635 0.11273551 0.049150504 0.11883057 0.08582749 -0.23372212 -0.015549846 -0.062759034 0.19481583 0.04018974 -0.06376406 -0.013964119 0.25582343 0.13965318 -0.22662848 -0.23760015 -0.096213534 0.10437682 0.09500468 -0.24285215 0.08542372 0.14416909 0.039080586 0.089884154 -0.10917117 0.100669734 0.06473723 -0.041896828 0.038273115 -0.113887034 -0.105226494 0.08393209 0.3377005
l2002 -0.1294978 0.11080993 0.20411183 -0.17583084 -0.0593428 0.21931314 0.13217364 -0.14339346 -0.077567354 -0.09948748 0.18328574 0.2112421 0.10576026 -0.1838769 -0.13779117 0.055630393 0.15161762 -0.20768708 0.0994977 0.19707954 0.13940807 -0.14520319 -0.13288209 -0.0013095953 0.20325486 -0.27178904 -0.067500986 0.17730102 0.078734934 -0.15620887 0.23585622 -0.1870889 0.16686058 0.14068308 0.09060913 0.19605312 -0.124346405 0.107478835 -0.13414076 0.105710976 0.13521491 -0.089530185 -0.14662078 0.085536405 0.1158036 0.07786208 -0.21065222 -0.11015156 0.0988318 0.17948346 0.12636247 -0.012801889 -0.0045992243 -0.13814357 0.22742231 -0.12181659 0.25745904 0.12041898 -0.083250165 0.22920917 -0.29639032 -0.051523156 0.19553754 0.2826809
p13 0.012493461 -0.01909788 0.10637137 -0.032377202 -0.050653074 0.06095472 0.0038983675 -0.219767 -0.09144462 -0.09860346 0.13332216 -0.10660149 -0.028942179 -0.042624135 -0.035188954 0.057177644 0.10635304 -0.16065878 -0.0052832444 0.22325476 -0.04433213 -0.086765826 0.009576096 0.07512857 0.1347052 -0.1185437 0.01557083 0.117895044 -0.02011879 -0.10786473 0.105503395 -0.14722225 0.19337212 0.18676578 -0.12842388 0.0032319406 0.0042985235 0.077794015 -0.052245684 0.087128 0.04516 0.073281765 -0.037090465 0.028418196 -0.041096546 0.16966419 -0.06766288 -0.0639725 -0.0607613 0.09043822 0.1750411 0.08992271 -0.033572663 -0.07826944 0.14809129 -0.07868517 0.22014889 0.03290623 -0.032600388 0.09146426 -0.1509835 -0.18831797 0.10160523 0.26238817
l2033 -0.14424627 0.12916131 0.21628265 -0.13747026 -0.13546926 0.21081159 0.1100847 -0.1290639 -0.088736996 -0.10336622 0.19987024 0.18936901 -0.0028663366 -0.18066731 -0.13226396 0.13804683 0.2127708 -0.2279014 0.07661221 0.21438639 0.14016932 -0.13435858 -0.14057797 0.12187512 0.18372753 -0.23996603 -0.07760739 0.22607729 0.021528564 -0.22718218 0.23061225 -0.1772721 0.19760396 0.11504203 0.03374021 0.17847213 -0.13774334 0.07085476 -0.13093352 0.09200625 0.13424203 0.0566212 -0.15082334 0.05504131 0.07786807 0.18100075 -0.23920073 -0.10181459 -0.060184292 0.20949112 0.108068764 -0.045964986 -0.111546256 -0.1571979 0.24456744 -0.13450365 0.24028647 0.12362191 -0.016180955 0.21846525 -0.26497298 -0.058992404 0.20708491 0.25662783
l2017 -0.15153098 0.13761811 0.20702581 -0.049778968 -0.13630876 0.20335326 0.1589675 -0.13549499 -0.094107434 -0.13872412 0.18814479 0.2152247 -0.034340754 -0.12313479 -0.14505091 0.1328097 0.19229698 -0.22965413 -0.036964256 0.20642316 0.14049827 -0.14061846 -0.16136608 0.15012412 0.2072926 -0.23769665 -0.18694663 0.23497447 -0.010358324 -0.19910775 0.21803038 -0.21739097 0.10953452 0.14200339 -0.07885147 0.06272953 -0.14366418 -0.055531073 -0.12986456 0.14003548 0.12616564 -0.06256261 -0.15083532 0.13177262 0.12732859 0.20903821 -0.18865627 -0.1408676 -0.04566633 0.18963522 0.13892159 -0.098214276 -0.09440593 -0.17924331 0.20700276 -0.116000704 0.22086819 0.14156118 0.11571771 0.20771232 -0.2660005 -0.06146082 0.20273969 0.24137019
p6 -0.13172041 0.10721305 0.21226287 0.03154286 -0.13247538 0.210058 0.124141335 -0.11748036 -0.05042486 -0.11708187 0.12960407 0.19321397 -0.087216705 -0.040199384 -0.15107073 0.13426688 0.2206691 -0.22674109 -0.1449069 0.21273775 0.1574455 -0.13117188 -0.13008523 0.15116727 0.21205199 -0.23144735 -0.20500965 0.22490236 -0.07802408 -0.21044537 0.22479753 -0.22680876 0.047587343 0.1434308 -0.15885438 0.01038221 -0.14078811 -0.17295268 -0.11561101 0.085827105 0.0953911 -0.07533432 -0.14672552 0.18597987 0.116953276 0.22000559 -0.17625283 -0.19810578 -0.096278295 0.13008252 0.13114995 -0.08671728 -0.052506473 -0.13662754 0.20450333 -0.105375946 0.17206323 0.13094027 0.2053449 0.1786402 -0.27532217 -0.046617262 0.22047098 0.2514491
l2016 -0.13688779 0.11339512 0.19187185 0.0488086 -0.12879251 0.22247007 0.12647223 -0.10595938 -0.059593543 -0.1166999 0.15785474 0.19244531 -0.10421201 0.015774902 -0.12354526 0.108069405 0.22376885 -0.23570064 -0.12959716 0.22492297 0.14442052 -0.11052304 -0.12954582 0.11873173 0.20433353 -0.23786318 -0.20712222 0.250767 -0.103272624 -0.23200442 0.22025833 -0.22537383 0.034249164 0.11233158 -0.15518004 -0.03642204 -0.13376574 -0.1748604 -0.12142983 0.09901341 0.08926619 -0.09691409 -0.13437316 0.18543048 0.11651411 0.23802091 -0.1573579 -0.20072801 -0.115746036 0.13852878 0.10612459 -0.10805484 -0.034753025 -0.15647991 0.20218106 -0.0862042 0.20864163 0.13467966 0.20142774 0.18009964 -0.2530817 -0.06859038 0.21957888 0.22445543
l2014 -0.14170957 0.1313361 0.21528974 0.032070756 -0.15324976 0.22550133 0.102859065 -0.12263748 -0.058833152 -0.10112365 0.114084244 0.21649024 -0.11481296 0.014280082 -0.15244079 0.10766928 0.21006043 -0.23048319 -0.13211845 0.22402523 0.14793052 -0.1129157 -0.1300598 0.15338552 0.23161672 -0.24006625 -0.2061343 0.2445007 -0.08749875 -0.19545409 0.21358235 -0.23236302 0.026369654 0.1162251 -0.15318906 -0.025489401 -0.14766125 -0.15914267 -0.107045196 0.08339678 0.07275455 -0.089359716 -0.13706937 0.18077569 0.116431594 0.24332112 -0.18821894 -0.19094658 -0.09899961 0.13407686 0.09685714 -0.11296919 -0.0047507766 -0.16112849 0.20751125 -0.080083415 0.21736099 0.14806694 0.20627202 0.17169742 -0.27226374 -0.039072458 0.23620754 0.23276141
l2015 -0.13266939 0.111710444 0.23356086 0.06044409 -0.12611991 0.24681872 0.112260945 -0.12409159 -0.05435459 -0.13181026 0.16384086 0.22117546 -0.11046216 0.03833871 -0.13710245 0.12582406 0.22792576 -0.24148093 -0.1083286 0.2231167 0.15607305 -0.13023084 -0.14260927 0.14280288 0.25032791 -0.2646414 -0.23407775 0.27300194 -0.094125606 -0.22960046 0.2465531 -0.25789776 -0.021626487 0.12059396 -0.17102367 -0.028452547 -0.12082002 -0.1437255 -0.14389375 0.11997512 0.09389915 -0.08071388 -0.13545023 0.19405861 0.13358581 0.26070195 -0.19656764 -0.2152868 -0.10118667 0.17284057 0.13038291 -0.0882024 0.0041334783 -0.18106647 0.24937357 -0.11102925 0.23229945 0.15222903 0.20673035 0.18768093 -0.26860845 -0.08091487 0.24555874 0.2532696
l2032 -0.14368385 0.10482097 0.22229606 -0.19181393 -0.123864025 0.20355915 0.11508076 -0.12595038 -0.09148476 -0.11494213 0.23439491 0.20755051 -0.0016525539 -0.208197 -0.13948594 0.115329504 0.21054594 -0.24614742 0.096961856 0.20866545 0.14463899 -0.1297232 -0.12464581 0.11068223 0.18161897 -0.24126767 -0.104425825 0.19857186 0.05313702 -0.2279592 0.2522477 -0.18316984 0.19709022 0.12430171 0.042629976 0.19475663 -0.11564343 0.07960114 -0.11915989 0.10939237 0.11642171 0.03728178 -0.13816395 0.06342168 0.07260563 0.18517156 -0.24939074 -0.13328172 -0.025570132 0.24600685 0.11311981 -0.060821485 -0.120295644 -0.17471 0.2334771 -0.13617165 0.25407416 0.11224315 -0.053386863 0.23163278 -0.25123847 -0.08554434 0.1846959 0.25192803
l2001 -0.1363277 0.057065524 0.2291802 -0.2336972 0.10033573 0.22615708 0.1766148 -0.16939323 -0.10131853 -0.12827083 0.15589492 0.21783443 0.1514294 -0.2202081 -0.1691014 -0.07385684 0.13586777 -0.14713599 0.104319215 0.23246065 0.16238704 -0.1547372 -0.16793646 -0.12777758 0.24921528 -0.25296932 -0.021723345 0.15546203 0.08426232 -0.15137807 0.23087429 -0.22438039 0.21773769 0.1516502 0.10812476 0.22218262 -0.13657966 0.17265059 -0.14970894 0.10540898 0.17942873 -0.13138618 -0.17865767 0.091457255 0.13161437 -0.04520121 -0.21593745 -0.1324094 0.18262169 0.14060883 0.07219029 0.019032072 0.097269416 -0.11137341 0.20511314 -0.14133959 0.2584574 0.11361615 -0.12949176 0.24626032 -0.27859563 -0.019712506 0.19394006 0.26151386
p10 0.21581545 0.07174361 -0.19288188 -0.2556825 0.26394492 -0.17400423 0.12492352 0.3326507 0.26553473 0.15203708 -0.05170668 0.26510507 0.2860398 -0.28531778 0.11777411 -0.3043108 -0.08570254 0.09888989 0.14936 0.19822374 0.19942676 0.11306586 -0.098171316 0.13388778 -0.13962176 -0.21174158 -0.29167002 -0.14082474 0.2532608 -0.29739764 0.20712349 0.10664835 -0.089223176 0.045445148 -0.18820524 -0.14760615 -0.19672175 0.12837385 -0.055488486 0.18585438 0.1571867 -0.19448204 0.14609174 -0.0977157 0.20578462 -0.16404778 -0.2728075 -0.31260392 -0.08333738 0.22759198 -0.3229932 0.28226748 0.14512035 0.058844622 0.0013130285 -0.15165605 0.28349212 -0.27519372 0.28808945 0.09533089 0.16151744 -0.087547176 -0.096076325 0.304604
l2024 0.24445961 0.082051285 -0.1997607 -0.21751375 0.24890815 -0.21483362 0.11091864 0.32137448 0.28175232 0.19403175 0.024082247 0.28624958 0.24829337 -0.2388566 0.15894811 -0.34180412 -0.026501905 0.103961 0.124927096 0.27170128 0.18119597 0.15605292 -0.112173125 0.13323359 -0.19904163 -0.22157483 -0.31733403 -0.19353326 0.31101826 -0.31800234 0.2251234 0.13335088 -0.11953366 0.052903835 -0.25490764 -0.1126994 -0.17593096 0.14852512 -0.06839217 0.15872334 0.2089385 -0.14303613 0.1922621 -0.10720349 0.19907114 -0.20881869 -0.2257539 -0.29742974 -0.07982374 0.24062006 -0.32651678 0.23073694 0.1364445 0.110536784 -0.030035136 -0.12873958 0.3267217 -0.2874636 0.2967933 0.13226168 0.19414255 -0.09602786 -0.058658496 0.30070585
l2022 0.26018393 0.096968964 -0.2044554 -0.22991599 0.13668899 -0.16225469 0.11697615 0.25839242 0.26757413 0.08173998 -0.038467944 0.21825139 0.34959918 -0.27220467 0.2734867 -0.31614053 -0.05057295 0.104571246 0.14638479 0.31082663 0.17700292 0.019140547 -0.079903886 0.0630376 -0.118272215 -0.2954733 -0.2579528 -0.18298188 0.3121961 -0.32272527 0.32100567 0.059318054 -0.055610843 0.095663115 -0.06866268 -0.1417868 -0.16392912 0.12799594 -0.07039808 0.14824732 0.1479342 -0.15638211 0.077440694 -0.105161846 0.17134233 -0.19990051 -0.15115191 -0.33522677 -0.058366537 0.27145478 -0.2827375 0.33430123 0.19654019 0.050053433 0.040239178 -0.18564565 0.33966148 -0.27564025 0.117126465 0.17586812 0.0832868 -0.12250706 -0.049283713 0.32613835
p9 0.24670117 0.08280198 -0.18730405 -0.19412385 0.23030896 -0.17051183 0.117503926 0.3337852 0.24509914 0.15227248 0.012841567 0.28056312 0.2082207 -0.23703039 0.11291559 -0.33249953 -0.08210778 0.11026426 0.14181307 0.27866712 0.15931976 0.19287714 -0.09577262 0.0997982 -0.16092025 -0.17587218 -0.32527584 -0.15684909 0.31313753 -0.31834286 0.17865592 0.11349264 -0.100386836 0.067963086 -0.25427613 -0.15319039 -0.1736586 0.12208636 -0.089787684 0.15974756 0.17312782 -0.14466886 0.16047467 -0.12247746 0.18647799 -0.17879711 -0.2180864 -0.33103195 -0.084380254 0.2197518 -0.2989239 0.20616762 0.11678646 0.0734711 0.009173315 -0.14662181 0.33497056 -0.320913 0.32969585 0.10894251 0.16097568 -0.04129478 -0.07491512 0.31174734
p11 0.23489946 0.06770723 -0.28502524 -0.30528703 0.14438954 -0.21230376 0.113416724 0.24096617 0.33994368 0.10645122 0.020078424 0.25714236 0.2475144 -0.2681834 0.1640336 -0.2926838 -0.075274214 0.122060135 0.186765 0.25243646 0.24305998 -0.006609701 -0.069741845 0.1272756 -0.12545452 -0.27004692 -0.2864046 -0.14035803 0.26394373 -0.23793814 0.2647861 0.044195954 -0.028473955 0.022797355 -0.044488925 -0.19159976 -0.21016566 0.16320597 -0.09825112 0.1479644 0.15231408 -0.21790186 0.14781372 -0.071366824 0.19588472 -0.24963358 -0.21043019 -0.24572793 0.06260903 0.23522365 -0.29491532 0.28793398 0.24559756 0.01194368 0.008299236 -0.21733119 0.3227591 -0.19740249 0.12800214 0.13675272 0.13221413 -0.04445162 -0.054823913 0.27959383
l2023 0.2613268 0.10872154 -0.20345563 -0.17102888 0.19841088 -0.21858111 0.07226716 0.33198488 0.2748867 0.1465151 0.022817874 0.2767143 0.20718405 -0.21316622 0.10529777 -0.31301382 -0.03230447 0.08411709 0.1224385 0.26043427 0.17711823 0.14250837 -0.1151986 0.14036243 -0.17717956 -0.17257744 -0.3030887 -0.17702784 0.29858053 -0.30323523 0.16209768 0.1427447 -0.09678314 0.027562259 -0.23287879 -0.13641596 -0.18246445 0.12484199 -0.057124786 0.16939564 0.17524733 -0.15509865 0.15456018 -0.09111908 0.21785034 -0.19321059 -0.22664322 -0.31252077 -0.11535118 0.21585791 -0.29840058 0.22278991 0.122515656 0.09441082 -0.01389619 -0.13598885 0.3096146 -0.3085368 0.28972414 0.12192648 0.16852382 -0.03933763 -0.03638025 0.3011268
l2025 0.25056982 0.06582206 -0.17565927 -0.27609062 0.2063737 -0.18468076 0.13583682 0.27248228 0.26961935 0.17789508 -0.053621404 0.22566329 0.29594296 -0.30261174 0.20735508 -0.3162191 -0.103295326 0.094457455 0.15360954 0.25486773 0.18079172 0.02278368 -0.078124344 0.07915477 -0.13360777 -0.28838536 -0.3068449 -0.12956561 0.2783349 -0.26715657 0.30314118 0.10221633 -0.07936656 0.066296265 -0.10316505 -0.13165334 -0.17740649 0.16778804 -0.0945473 0.14748059 0.16397308 -0.17450479 0.13959247 -0.14883463 0.18550736 -0.1685093 -0.2921698 -0.30109844 -0.02056704 0.2796292 -0.2981771 0.28368592 0.17064929 0.09966085 -0.020486843 -0.13776737 0.3320432 -0.2225145 0.18630894 0.15780969 0.13628925 -0.07029878 -0.10250617 0.29198715
l2026 0.25114992 0.08439661 -0.21156423 -0.24989094 0.13505301 -0.12032258 0.07414946 0.21335706 0.331861 0.1003057 -0.0063674967 0.250385 0.41097078 -0.27705604 0.21931943 -0.3079733 -0.10563658 0.11964178 0.12591466 0.34847066 0.15955709 -0.033413976 -0.0792142 0.07679472 -0.12033195 -0.32343584 -0.24827765 -0.16902414 0.26165083 -0.25173384 0.3641933 0.08031704 -0.0749098 0.04807539 -0.041942224 -0.13576987 -0.13109004 0.11474632 -0.08383927 0.09808575 0.12823537 -0.1357671 0.08536227 -0.11106564 0.16153175 -0.21307784 -0.18785712 -0.2564585 0.00590304 0.30029872 -0.29511377 0.36898744 0.16595744 0.040164422 0.0010425888 -0.17182668 0.37120157 -0.19861317 0.1290233 0.19623016 0.08382497 -0.1371288 -0.08792606 0.29731178
p100 0.0034256943 -0.016895873 0.0006126876 -0.016318714 0.011317899 2.954901e-05 0.009787891 0.004622662 0.0036131027 0.014328014 -0.012345765 0.0040870197 0.018449187 -0.007505919 -0.008926221 -0.012479454 0.0073011015 0.0019753445 0.008287122 0.0066805384 -0.01202721 0.016546426 0.01599123 0.0028973995 0.007963646 -0.01718363 -0.008677855 -0.0047779176 0.012220471 0.008322213 0.0024999306 -0.019837866 -0.0013898559 -0.013047756 -0.0088889105 0.005606766 0.020376867 0.009883326 0.013637396 -0.0027714795 -0.019451005 0.012840385 0.006519432 0.015465093 0.012791846 0.015018917 -0.01040997 -0.016508816 0.004509208 0.0004150233 0.0007838018 -0.0049138726 -0.014710688 -0.0003836449 -0.005497285 0.0015471133 0.014761653 0.0014712736 0.01649367 0.02096986 -0.017445868 0.004205733 -0.0061017093 0.003586249
l2192 0.018696498 -0.0060627037 0.00904558 0.003364748 -0.0007067246 0.0039912304 -0.006814292 0.0063323164 0.0049709263 0.008675843 -0.017841933 0.004882957 0.011375517 0.0067056823 0.0046451977 -0.003723559 0.0005220239 0.0021669567 0.000830701 0.0109768845 -0.00620849 0.0006149215 0.016306534 -0.0046377564 0.018365484 -0.020576483 0.007106346 -0.002745647 0.002331994 -0.017025612 0.011882719 -0.004657533 0.011156222 0.008518411 -0.016004816 -0.016118603 0.0062498352 0.008890925 0.016451543 -0.012732084 0.0031364292 -0.007578289 0.009101347 -0.0025269114 0.008517413 0.011646103 -0.009837258 0.008000861 0.0011661246 -0.003967833 0.011170583 0.017204473 0.0053550587 -0.010439158 -0.004840422 0.011082835 0.007159423 -0.010661843 0.0056515457 -0.009093129 -0.0016514976 0.020072013 0.01749202 0.016985668
p99 0.007181531 -0.0012958224 -0.0031103522 0.007692428 -0.00066890544 0.0032763456 0.0039978423 0.0007571844 0.010988437 0.01254041 -0.020250287 0.010110396 -0.002321722 -0.0048426883 0.014054787 -0.012855132 0.01964082 0.00064089696 -0.0014243101 0.020414906 0.0009083397 0.013928406 0.01576641 -0.016685002 0.00037076886 -0.009012032 -0.016388243 0.019160802 0.019835409 0.0008523806 0.004726256 -0.01859909 0.016848253 0.0069462634 -0.014110526 -0.011762048 0.017247772 -0.0038068434 -0.009176016 -0.01807309 -0.016015736 -0.006836946 -0.0075202836 0.0013907052 0.014418061 0.016409297 -0.018124053 -0.010651014 -0.0026114814 0.0020453504 0.005124385 0.0045616957 -0.01880014 -0.011723234 -0.006562789 -0.0072117527 -0.0062681385 -0.0038563476 -0.0014982647 -0.008998901 -0.016946275 0.0025776797 0.01122894 0.0149815725
p1000 0.03632807 -0.023028692 0.01755548 -0.033864014 0.025198814 0.005925081 -0.008398747 0.017585957 0.022712333 0.036136564 0.019512495 0.03780703 0.010351442 -0.013122629 0.009273509 -0.01713395 0.032879 -0.036310293 -0.013814248 0.03744643 -0.029240696 0.035933826 0.016989416 -0.035389375 0.021862583 -0.023570476 0.0020509933 0.034073927 0.016812282 -0.012364488 0.016384276 -0.019068103 0.012089496 -0.02045788 -0.025192758 0.026150262 0.01074969 -0.0136933215 0.009084304 -0.0140293315 -0.010072663 0.009394937 0.008297794 0.014712082 -0.018134633 0.02667985 -0.009449071 -0.016311461 0.034417704 0.007500468 -0.022558885 0.020171197 -0.036116406 -0.011439772 0.031877093 0.035761558 0.0100511 -0.03396826 0.016479226 0.031753607 -0.028492859 0.02347236 0.029589584 0.015546424
l3996 0.036900286 -0.01568835 0.025294164 -0.016457098 0.03608361 0.008219197 -0.032868348 0.0027946571 0.016446384 0.032989874 0.019810349 0.032182585 0.014094922 -0.0357115 0.035768736 -0.03431953 0.031181851 -0.011461725 -0.016427446 0.01849605 -0.02719659 0.021858485 0.018260906 -0.028476994 0.019896358 -0.034746043 -0.003568681 0.017829701 0.033286076 -0.03694045 0.030259768 -0.037551224 0.011038354 -0.035275523 -0.037146434 0.027921015 0.023842046 0.0009839559 0.016866641 -0.013773754 -0.03531783 0.016969899 0.01956638 0.02597521 -0.0044775074 0.02494737 -0.014296437 -0.008269932 0.036664616 0.008922678 -0.019906426 0.01955253 -0.01852441 -0.015304187 0.008161245 0.021398226 0.013918956 -0.025754692 0.032552317 0.025381943 -0.022098882 0.006378498 0.011135148 0.038765024
l3997 0.038431864 -0.016850913 0.028723994 -0.03248578 0.019827286 -1.7234015e-05 -0.032427434 0.02254232 0.02031365 0.030457979 0.01484343 0.026613051 0.038937517 -0.035390854 0.011634903 -0.010775767 0.015092531 -0.014964525 -0.012896543 0.028849302 -0.009719608 0.036447607 0.014128353 -0.023551205 0.010971477 -0.011916282 -0.001908787 0.03443932 0.036470164 -0.01627628 0.013422402 -0.012345087 0.021018146 -0.020478887 -0.016396264 0.010184387 0.018482959 0.0012599456 0.03116993 -0.03834903 -0.024850227 0.01912273 0.028750045 0.026604405 -0.023818308 0.024064934 -0.018754402 -0.015883962 0.010092893 0.01002951 0.0048371064 0.009635886 -0.03717012 -0.032988638 0.03291106 0.019861786 0.012631392 -0.032677513 0.017054053 0.016325919 -0.009142196 -0.0017574648 0.013844163 0.011912538
p1001 0.04338372 -0.030939763 0.045893643 -0.034323156 0.025772579 0.028064132 -0.025137149 0.03242627 0.02640258 0.045664635 0.028459579 0.032583613 0.047532454 -0.021340812 0.040696934 -0.032423515 0.041136574 -0.02378735 -0.041853055 0.01730614 -0.033473685 0.020080961 0.025504842 -0.022189666 0.047075007 -0.042661402 -0.023474414 0.043425485 0.042098362 -0.03634775 0.04544148 -0.02772175 0.019717898 -0.01769367 -0.02642151 0.029738514 0.045582402 -0.00963686 0.024766872 -0.043262012 -0.041996818 0.034953553 0.047325466 0.04143157 -0.037812937 0.025998661 -0.017923253 -0.043745626 0.04731663 0.010347478 -0.045484003 0.035895634 -0.029353809 -0.041855495 0.028678529 0.030168679 0.034575798 -0.033413433 0.035563663 0.027551968 -0.03045498 0.034215953 0.019659447 0.04476767
l3999 0.037460808 -0.018513426 0.040402092 -0.046353873 0.017044295 0.026676552 -0.044137623 0.020914782 0.042036764 0.0396642 0.0221232 0.03705992 0.023710549 -0.025937594 0.029144859 -0.024381777 0.03740734 -0.043395817 -0.029360749 0.028083619 -0.034031674 0.03657047 0.021513863 -0.024613403 0.04391401 -0.03734565 -0.0050240536 0.038492423 0.021598114 -0.035568275 0.037491173 -0.023334404 0.043705005 -0.025676567 -0.04254253 0.034462694 0.037186783 -0.015360944 0.022266058 -0.030503454 -0.029405484 0.019546332 0.01969798 0.027076108 -0.035428446 0.025602028 -0.020358646 -0.038655132 0.042349175 0.030170787 -0.017458918 0.017649362 -0.03346124 -0.03315941 0.03727937 0.036817025 0.017627537 -0.01667831 0.016683348 0.035147004 -0.035839297 0.034701046 0.045608103 0.043411672
l3998 0.026639294 -0.026289616 0.029861897 -0.019660903 0.03297102 0.004186786 -0.016834583 0.021327708 0.019031752 0.024578828 0.014545828 0.016023489 0.018242886 -0.0138677275 0.022309743 -0.031831026 0.015947262 -0.025252132 -0.016790643 0.022845313 -0.031696815 0.042571064 0.015913067 -0.044050306 0.029539654 -0.039751913 -0.026147967 0.027230145 0.023621576 -0.035715725 0.037936147 -0.018240124 0.033575688 -0.028831169 -0.040324077 0.019482197 0.04094896 -0.038904548 0.037922062 -0.018438756 -0.027187964 0.03309435 0.021544334 0.019872984 -0.022946555 0.031735364 -0.033805832 -0.04022285 0.02721331 0.038422924 -0.021328425 0.0337644 -0.04452089 -0.04064168 0.034604236 0.02203883 0.021138873 -0.032147825 0.022717148 0.024550358 -0.018617714 0.026284022 0.020024508 0.034190636
p1002 0.037946027 -0.024553511 0.03799805 -0.044443578 0.03411362 0.026144952 -0.04339257 0.04418359 0.0406721 0.0532228 0.032689855 0.03725787 0.027490664 -0.05287993 0.022462726 -0.043942425 0.041456465 -0.03833044 -0.035056878 0.025651181 -0.043443948 0.043617126 0.052741148 -0.04041746 0.05305197 -0.03463894 -0.022158917 0.033812646 0.027153194 -0.028791903 0.028505377 -0.037371386 0.02756147 -0.043347582 -0.03251757 0.047041304 0.03782132 -0.052278675 0.030997332 -0.025628204 -0.037339572 0.03675775 0.04414062 0.04323002 -0.05199169 0.0384456 -0.022339487 -0.05296512 0.026717665 0.038480733 -0.017526826 0.050650485 -0.034745708 -0.02535492 0.030762613 0.023963029 0.041090004 -0.05005638 0.052734196 0.03111602 -0.048814386 0.041667506 0.025240185 0.042452514
l4000 0.042990983 -0.0289344 0.03133255 -0.042054888 0.024570381 0.022499133 -0.040231235 0.021027826 0.03806196 0.0451161 0.034478746 0.039855953 0.030387972 -0.051084537 0.05299225 -0.03351415 0.03642175 -0.051963832 -0.049580127 0.038180355 -0.02681431 0.047302395 0.035366572 -0.04814819 0.04685838 -0.030189231 -0.015202654 0.041368444 0.026427116 -0.053236246 0.046650022 -0.04992196 0.0525472 -0.051121667 -0.051956505 0.02235876 0.032670505 -0.026403178 0.045774926 -0.028227264 -0.03156509 0.01212224 0.026120009 0.05015844 -0.02138924 0.045507908 -0.04436933 -0.026568577 0.04297362 0.04047414 -0.034367405 0.03395907 -0.052018404 -0.023994854 0.04281384 0.038233623 0.029252699 -0.024291798 0.03742762 0.045775723 -0.044838984 0.030330352 0.030321224 0.0508997
l4001 0.045341738 -0.024677724 0.02651582 -0.03273315 0.024478188 0.028126657 -0.04041501 0.045328323 0.042423457 0.051042713 0.027428854 0.044698767 0.035812534 -0.026337048 0.042099275 -0.037123017 0.032010943 -0.026018528 -0.03258659 0.052178178 -0.035575032 0.02351716 0.049253605 -0.039093178 0.047879793 -0.031926397 -0.013063524 0.043121733 0.03304208 -0.02641802 0.03482376 -0.036312994 0.046852518 -0.037725832 -0.044932924 0.043053497 0.031344507 -0.04865891 0.048716884 -0.0259128 -0.048700187 0.026829595 0.05084779 0.043633413 -0.024422282 0.023550153 -0.024136247 -0.043752108 0.025949096 0.03801186 -0.025786277 0.0381319 -0.036885727 -0.04749299 0.042432018 0.031376984 0.045190647 -0.026895124 0.023745984 0.02701781 -0.039872646 0.05158876 0.044731796 0.03505895
p1003 0.038190264 -0.038217053 0.032334 -0.020850586 0.019536735 0.0116483355 -0.025580302 0.0071563395 0.0042380127 0.02221509 0.024150163 0.02383614 0.0121962195 -0.026334535 0.023771387 -0.008224485 0.01054495 -0.03234003 -0.023444436 0.02075873 -0.00983248 0.01549441 0.022852559 -0.027774619 0.0321988 -0.018333588 -0.018510696 0.027851019 0.026259497 -0.012883467 0.036437035 -0.022424176 0.014346722 -0.012956589 -0.013591011 0.035741325 0.017564178 -0.027762521 0.030748174 0.00059609744 -0.022169597 0.023407467 0.019955441 0.038631182 -0.0087657375 0.021954792 -0.02800022 -0.03320173 0.023557357 0.023184296 -0.023290334 0.01910768 -0.036211375 -0.037125606 0.033027727 0.02065213 0.019756341 -0.012845543 0.032742575 0.037627023 -0.018614624 0.03479042 0.024902433 0.0117068095
l4002 0.01609015 -0.020429295 0.024557509 -0.026584528 0.024190357 0.02558415 -0.03332537 -0.005451314 0.00057248 0.019912697 0.0038954818 0.014843438 0.021719571 -0.013994503 0.028287929 -0.022970915 0.010718703 -0.026485685 0.0014004686 0.01617808 -0.016983418 0.015670119 0.029222652 -0.018288516 0.025326302 -0.016115196 -0.012528964 0.027959563 0.01794774 -0.01620668 0.03170233 -0.009982129 0.037954133 -0.033522297 -0.02768647 0.036836904 0.019281039 -0.032454636 0.03722046 -0.0004474796 -0.018083956 0.01736772 0.03046589 0.03651771 0.00011444252 0.031336382 -0.03485017 -0.02884249 0.01382569 0.023716731 -0.016363934 0.033685688 -0.018423531 -0.021165693 0.026015095 0.022133142 0.009653228 -0.025294129 0.035538487 0.013900833 -0.009216382 0.013949342 0.03742981 0.032002505
p1004 0.00021835904 -0.023160176 -0.0013256159 0.03349441 -0.0040188152 -0.01441239 -0.012592274 -0.0105907675 -0.004518995 0.032392792 -0.025386408 0.044908103 -0.021540893 -0.008471192 -0.041868005 -0.044431612 0.018049218 -0.027406823 0.0032779563 -0.0015398512 -0.018386688 0.02934465 -0.0031782193 0.00059824303 -0.033738717 0.009799925 0.04208977 -0.036976323 -0.025806205 0.03360773 0.054864552 -0.010365431 -0.021636216 0.01384458 -0.0021173588 0.012730406 0.04355324 -0.014570892 0.02689384 -0.07664311 -0.003612557 -0.011900845 -0.01953186 0.027800402 0.018983338 -0.0039098086 -0.022173801 -0.0070563382 0.0032314444 0.046140578 -0.030592427 0.0013378889 0.0055471854 0.017501777 -0.0061252583 0.049101174 0.017291589 0.016982725 0.011530873 -0.022604296 0.051316142 0.030079536 0.017989801 0.01854994
l4005 -0.0042499225 0.003282933 -0.007650161 0.013912616 -0.003307961 -0.0026585702 -0.028643496 -0.037760906 0.007937361 0.02629505 -0.025821397 0.034609582 -0.020454276 -0.027762422 -0.045012694 -0.037894826 0.016138228 -0.026068555 0.010822532 0.020045651 -0.009022078 0.019489506 0.004966298 -0.00048632163 -0.036125638 0.0055848756 0.038938068 -0.01616282 -0.020791609 0.046810165 0.06691567 -0.005809707 -0.004646916 0.041253332 0.0021587056 0.026999855 0.05909774 -0.010010412 0.035090484 -0.090350755 0.018487366 -0.011276934 -0.014341387 0.04480367 0.025155012 -0.02127673 -0.013679729 0.0027484945 0.015171328 0.055319034 -0.02987769 0.004999273 0.028033111 0.010672176 -0.002518902 0.04784586 0.03528941 0.032091644 0.019189797 -0.024531389 0.056785 0.035232734 0.024376307 -0.0010004345
l4003 -0.014319319 0.0004573514 0.00783558 0.017971147 -0.0152672 -0.0039667445 -0.027250443 -0.031700905 0.0032697828 0.03410054 -0.02429891 0.04678682 -0.01932479 -0.01451623 -0.030468863 -0.047310453 0.026029155 -0.029564105 0.011097515 0.011351754 -0.0009483269 0.011240558 0.013486624 0.027929226 -0.030180346 -0.006822713 0.026654286 -0.031021338 -0.034972336 0.04753356 0.05942728 -0.0055730627 -0.0030207976 0.026048867 -0.0070144185 0.009895981 0.049475178 -0.028491676 0.025798582 -0.060435932 0.0067831012 0.00028543113 -0.009285495 0.034694526 0.020064969 -0.0038820854 -0.013212432 0.0066992305 0.017968945 0.029317185 -0.024822835 0.01294387 0.02143977 0.008728491 -0.007862592 0.027080296 0.021040915 0.026175445 0.017263256 -0.020698152 0.058457855 0.034675274 0.031642407 0.00063290214
l4006 -0.014995361 -0.01828564 0.010819292 0.024556441 -0.012854193 3.5143526e-05 -0.0040409607 -0.022289854 0.0057888096 0.028393134 -0.021433758 0.026962213 -0.017053507 -0.030418394 -0.04239969 -0.042725284 0.000236994 -0.04167422 0.017241672 -0.006137093 -0.0051910067 0.0112313405 -0.007867815 0.022251362 -0.018203398 0.014235775 0.030169087 -0.036756303 -0.02098544 0.042126246 0.058916237 -0.010132772 -0.009507291 0.022204338 -0.023163978 0.0065009766 0.057461914 -0.02859944 0.019511467 -0.059482384 0.010334553 -0.0016716584 -0.007575778 0.020002063 0.016530432 -0.012283776 -0.0028714933 -0.01651511 0.018586788 0.038934167 -0.024162743 0.0032405474 0.033215314 -0.00017066198 0.01274755 0.028107548 0.035967924 0.022299364 -0.0031581798 -0.004019421 0.0639059 0.043226458 0.039468795 0.0097616175
l4004 0.0038610748 -0.0034921486 0.019109497 0.017729377 -0.033540644 -0.0103349015 -0.027753737 -0.025197513 0.017702479 0.03355966 -0.038695116 0.034405563 -0.03520213 -0.026646918 -0.05102215 -0.039929956 0.017758358 -0.021055082 -0.0014430946 0.011068479 -0.0020143976 0.024959313 0.013476127 0.0037979386 -0.022187078 -0.0025324451 0.039249945 -0.047721155 -0.047482383 0.04606184 0.05095749 -0.010664747 -0.025175536 0.043555293 -0.014323714 0.025974946 0.06434547 -0.02302744 0.045309376 -0.080914035 0.016738694 -0.00085988187 -0.012468996 0.03267827 0.01583461 -0.004247458 -0.02062024 0.003106737 0.015984898 0.04847633 -0.043251973 0.0020252238 0.028397344 0.024664972 0.006057248 0.028930418 0.042206883 0.034992747 0.014551374 -0.017480787 0.04655034 0.04555909 0.03125141 0.015059989
l3511 0.00024185164 -0.004498219 0.012615158 0.005128393 -0.009269563 -0.030917214 -0.016061284 0.018542418 0.045251038 0.030581193 -0.023749195 0.043273605 -0.00053565676 0.0048566638 -0.038710006 -0.03323127 -0.00094285386 -0.019495837 0.0123886885 0.0025801365 -0.017442044 0.0067469478 0.0031806887 0.012847548 -0.02849234 0.007813261 0.020861764 -0.037017107 -0.0216361 0.006588969 0.052133586 -0.024122523 -0.009561315 0.033762142 -0.0025347688 -0.017699894 0.04716146 -0.012714628 0.03722774 -0.022873808 0.0068023414 -0.023210963 0.007514884 0.016596345 -0.012310425 -0.023056943 -0.009943699 0.009497337 -0.008994446 0.03041654 -0.0032881354 -0.0057878904 0.0134536745 -0.007122745 0.028601699 0.02255035 0.03310066 0.018907124 0.0046836203 -0.005860302 0.047685903 0.027334249 0.01764387 0.01865302
p730 0.017723665 -0.02425703 0.004945343 0.021882882 -0.017951928 -0.03674269 -0.02885646 0.02111506 0.050459262 0.031147722 -0.03170851 0.06442475 -0.025359068 0.003275386 -0.035883565 -0.04226495 0.018759582 -0.045250233 0.02307086 0.012703659 -0.012998458 0.012551049 0.012122245 0.023473874 -0.030122472 -0.028102823 0.007469646 -0.035246395 -0.038842387 0.01831069 0.041026987 -0.029925905 -0.03352727 0.042570118 -0.005341499 -0.020228773 0.048438422 -0.028529126 0.030880086 -0.06282675 0.009723994 -0.014712048 -0.012911158 0.045293916 -0.003930719 -0.026636785 0.0066520553 -0.003488364 -0.009653574 0.05338442 0.0032320058 -0.0017244896 0.02493899 0.0024030332 0.018031653 0.030169616 0.020352153 0.0094101485 7.580134e-05 -0.020821251 0.044268288 0.033039115 0.0031806936 -0.004899091
l3571 -0.0009319272 -0.007499245 -0.007800226 0.009937762 -0.022017865 -0.012048434 -0.02698138 0.008195921 0.042674065 0.037684076 -0.02523428 0.06072068 -0.021268029 0.012790977 -0.023555316 -0.030108975 0.01628359 -0.03442148 0.0048068627 0.013948978 -0.017461639 -0.0013293745 -0.0053598126 0.028883103 -0.0074336873 -0.0031326893 0.02410223 -0.02481005 -0.03196592 0.006140264 0.048351187 -0.012490538 -0.024066545 0.017996369 -0.0123276785 -0.022604322 0.05153203 -0.012519502 0.027174333 -0.06956106 0.003626939 -0.022066293 -0.003519047 0.031318486 -0.01785576 -0.017518157 -0.018647514 -0.008895494 0.010793857 0.049383383 0.008657011 -0.006157568 0.022490388 0.010636044 0.021271411 0.03216397 0.01898099 0.015769748 0.015249075 -0.01176448 0.04344235 0.038359087 0.014275624 -0.0067410143
p728 0.005377059 -0.026903767 -0.0010955766 -0.013614092 -0.0055493666 -0.02066816 -0.006383146 0.011629127 0.013176142 0.008152513 -0.034041684 0.017912587 -0.012917664 0.019306136 -0.034164116 -0.030235652 0.00086980494 -0.03957072 -0.0016081344 0.026475443 -0.013562698 -0.004668799 0.01616141 0.006419015 -0.01617712 -0.020496143 0.027452897 -0.0042057238 -0.035885993 0.0046096225 0.019207768 -0.0042747813 0.012416378 0.008745117 -0.009858345 -0.015641589 0.038377333 0.009954425 0.025488377 -0.046729296 0.0046962034 -0.019704185 0.019139947 0.023739357 -0.02022465 -0.022847064 0.0017011311 0.0077776546 -0.0090608485 0.034948487 -0.006369057 0.003728617 0.028729469 -0.019659748 0.0017533879 0.011136548 0.017240835 -0.013574147 0.009772154 0.0014685947 0.03621747 0.034375623 0.0007571386 0.024040448
p785 0.0023024457 -0.027700167 0.020080514 0.027655145 -0.012426266 -0.0054196957 -0.033662822 0.00017087274 0.03626865 0.023535693 -0.021907527 0.02762344 -0.031884618 0.028159425 -0.052884933 -0.02599454 -0.0111082485 -0.03342672 0.019749064 0.0047804774 -0.007706125 0.00171228 -0.0011079852 0.03082725 -0.005520366 0.012847416 0.011309987 -0.04688869 -0.0060141017 0.039235335 0.0596477 -0.020476798 0.002299163 0.05467075 -0.017539745 -0.024129517 0.047349203 -0.010790425 0.036813293 -0.024225643 -0.0060643936 -0.010986073 0.0025706384 0.01446272 -0.04457938 -0.015277001 -0.012002643 -0.009845727 0.007803231 0.039422177 -0.030955644 -0.002627896 0.017041178 -0.017079685 0.027929613 0.03571872 0.03256511 0.00655123 -0.014104916 0.008019713 0.04537134 0.019526966 0.015544569 0.013007789
l3661 -0.0066719544 -0.033129357 0.006845855 0.03357675 -0.023332132 -0.017404852 -0.021779453 0.018988946 0.064443536 0.023226006 -0.04213999 0.06577898 -0.04018774 0.03342514 -0.050988216 -0.040092934 -0.0079257805 -0.023882493 0.029149286 -0.016691796 -0.008434734 0.008540988 0.022521853 0.03854399 -0.0031587598 0.030749908 0.020615814 -0.040486887 -0.004489653 0.015928155 0.070671394 -0.03020986 0.0051385 0.04921591 -0.016201181 -0.03336118 0.07586247 0.0061386325 0.030488936 -0.03080149 0.020840202 -0.04106193 -0.0008614197 0.032713857 -0.054333676 -0.008017053 -0.019580549 0.009612396 0.0012783285 0.04246016 -0.03549188 -0.029000375 0.0203595 -0.0076956823 0.02865529 0.050401103 0.034164045 0.0058592474 -0.016906207 0.010892667 0.038540643 0.013532852 0.023946617 0.003509781
p736 0.014311262 -0.02691119 0.0032667485 0.017631948 -0.037505083 -0.020161489 -0.009764514 0.020677505 0.03115597 0.021142494 -0.0075942334 0.024888234 -0.0067338827 0.02538008 -0.033882078 -0.047947686 -0.0035186047 -0.039150972 0.0059423274 -0.00045767974 -0.0228691 -0.0033983984 0.00045664268 0.024052529 -0.006548621 -0.00017464875 0.01728337 -0.008280139 -0.014683229 0.03695249 0.0322441 -0.009091705 0.010056946 0.025960226 -0.022091607 -0.0024093897 0.04190597 -0.001521005 0.025724059 -0.022235168 -0.00834404 -0.0026105472 0.008537408 0.015089771 -0.0066255354 -0.017741192 -0.0071146633 -0.0037628019 0.018862216 0.027311351 -0.0054651 0.0088290535 0.021440912 -0.018478222 0.013313963 0.039039835 0.006560707 -0.007166436 -0.0016121004 -0.0152971875 0.0551557 0.036739003 0.012327663 0.018152779
p727 0.00033174743 -0.010278698 0.013034352 -0.004342102 -0.024351263 -0.027570903 -0.029598584 0.010092288 0.027950212 0.010126043 -0.03580469 0.05084723 -0.0023199918 0.019023744 -0.030458096 -0.033180736 0.026123434 -0.015257392 0.008013592 0.024212752 -0.019716173 0.016935958 -0.012580788 0.0025725665 -0.024014058 -0.0009027036 0.030042276 -0.029425655 -0.017734732 0.02569916 0.032562904 -0.022009684 -0.00041364558 0.007717879 -0.016050946 0.0063670045 0.02807328 -0.017393613 0.03689931 -0.021793518 -0.01206623 -0.0038618855 -0.015551901 0.023804782 -0.02501158 -0.027701898 0.009352549 0.015206464 -0.014234561 0.02810879 -0.019511223 -0.022066072 0.024477592 -0.012919568 0.006764239 0.045299083 0.015807888 -0.0002954526 0.009753945 -0.009832364 0.033649582 0.015528198 0.004145138 0.00018871648
p731 0.019144192 -0.017960837 0.0057670376 0.02041556 -0.04814483 -0.026063222 -0.012814611 0.00015386468 0.042570256 0.028026713 -0.042839512 0.045573708 -0.018072713 -0.0011516799 -0.03412246 -0.03842237 0.016295468 -0.03671399 0.0148442555 0.025314234 -0.019848503 0.017634317 0.016418785 0.018492108 -0.030367872 -0.01440409 0.026180604 -0.052743006 -0.017874405 0.045667816 0.044826426 -0.040414046 -0.023741292 0.043316428 -0.023834376 -0.0010808022 0.043315288 -0.03127159 0.031428505 -0.030447705 -0.0037356266 -0.023014167 -0.007342345 0.027500281 -0.012937495 -0.017030774 -0.018926438 0.0011893458 -0.012715827 0.04193447 6.4809596e-05 -0.008782785 0.012372918 -0.007456541 0.026386071 0.042517867 0.03207031 0.026798911 -0.00659507 -0.00769213 0.04892029 0.035825767 0.009782862 0.007901883
p700 -0.00074675994 -0.017772447 0.0067439107 0.0144668445 -0.024104811 -0.02777658 -0.0032012784 0.012982113 0.04152263 0.031910937 -0.03480876 0.0512996 -0.0036877547 0.006126444 -0.037310947 -0.032848053 0.0038038949 -0.043173786 -0.005054424 -0.004994463 -0.02111492 0.003918438 0.016783092 0.0042953594 -0.02768742 -0.020548202 0.024027327 -0.036814295 -0.018554907 0.033053495 0.04284487 -0.017009886 -0.018614363 0.011727862 -0.002554807 0.0017366104 0.051327728 -0.016149212 0.014373774 -0.025667243 -0.012317524 -0.034647204 -0.014015762 0.02892612 -0.021136554 -0.022963202 -0.016542152 0.004093157 -0.013984589 0.032348316 -0.010825033 0.0013004483 0.0048018675 0.002030506 0.018944986 0.042306416 0.027700253 0.029550066 0.0063778693 -0.019396957 0.053038023 0.019307856 -0.0014662007 0.008481057
l3512 -0.0030948601 -0.005288343 0.010285258 -0.0011502065 -0.026979296 -0.018773003 -0.0115548 -0.008486296 0.043258317 0.02854944 -0.038758695 0.046752922 -0.018921938 0.025609663 -0.027069159 -0.037808307 0.015297618 -0.03147618 0.00070851075 -0.0018245085 -0.018405855 0.020541288 -0.001345871 0.012769855 -0.021596203 -0.019229285 -0.0006572127 -0.015472469 -0.025643926 0.029204875 0.05146785 -0.016809678 -0.015988158 0.021341268 -0.0135207595 -0.020055475 0.038489033 -0.0011221737 0.014038773 -0.03392993 0.008873946 -1.340778e-06 -0.0008107638 0.01813517 0.0072568613 -0.003125251 -0.0086082835 -0.014634191 -0.016331585 0.04490325 -0.019390782 -0.008306731 -0.0023421636 -0.013403034 0.014686602 0.018571084 0.014726374 0.018431123 -0.013768723 0.0016558905 0.027398866 0.033137478 0.021784022 0.008491932
p722 0.0018813653 -0.026548717 -0.010557092 0.010340734 -0.016106771 -0.03783826 -0.03466564 0.029369941 0.05140237 0.009911452 -0.04224258 0.05991074 -0.0070269927 0.0009326725 -0.042359196 -0.03368567 0.013133665 -0.0312603 0.0031887605 0.014661322 -0.013564412 -0.0016622177 -0.0005300167 0.0080735395 -0.027457982 0.0144154 0.022132697 -0.03373735 -0.0044304784 0.0066659767 0.053447705 -0.028908426 -0.011070886 0.021317529 -0.0117920255 -0.007382083 0.033550125 -0.01932379 0.03962591 -0.041667182 0.0035390044 -0.025502278 0.0057737785 0.03459639 0.006051497 -0.03813463 -0.011824019 0.0032885254 -0.009440547 0.041884493 -0.0046296106 -0.021754412 0.023277484 -0.0056616 0.02310009 0.037498716 0.011225566 0.01821512 -0.005191494 0.010176653 0.041795738 0.03398318 0.012062508 0.020388013
l3561 0.0043173037 -0.022522492 -0.014023987 0.03283791 -0.051217645 -0.04095884 -0.043965228 0.034035325 0.07207169 0.02503464 -0.035877176 0.06101631 -0.039573237 0.012599121 -0.039845917 -0.041503556 0.019896178 -0.041885827 0.027131783 -0.0031849637 -0.016951231 0.019659026 0.022014104 0.04086899 -0.039005987 0.002755832 0.011586187 -0.04381303 -0.04684958 0.029551841 0.062895864 -0.02795041 -0.03491481 0.024600362 -0.034539122 -0.016871782 0.038181275 -0.044183847 0.018674664 -0.048818316 -0.014314789 -0.03513162 0.012651395 0.045510262 -0.007764077 -0.048771925 -0.014543594 0.018807765 -0.013733386 0.06300205 -0.015183441 -0.015832849 0.0147843845 -0.019774724 0.022772657 0.044662848 0.01944714 0.015699146 0.011328955 -0.0008930429 0.03119549 0.03253003 0.008122505 0.018410036
p753 -0.023056718 0.0052301143 -0.020162448 0.024398893 -0.031557046 -0.03483563 -0.031919826 0.041967362 0.06956193 0.039221168 -0.027361356 0.05808776 -0.02079967 0.0060004233 -0.022888346 -0.07025144 0.01771974 -0.030732457 0.0026889995 0.023444654 -0.013055784 0.018009424 0.0088211 0.013782626 -0.035878845 -0.02694711 0.03344615 -0.022456622 -0.023805743 0.04329708 0.048129104 -0.033167124 -0.0220854 0.05378143 0.0056323768 -0.012258048 0.04137324 -0.028757364 0.01996807 -0.0053305915 0.013635095 -0.02665064 0.0034821935 0.050639622 0.0064687277 -0.015295439 -0.010697916 0.010846502 -0.0018993189 0.05608507 0.0006868278 0.009546292 0.022850918 0.018448513 0.006844604 0.04741037 -0.000863588 0.004497766 0.008081921 -0.025802014 0.027711151 0.036350813 0.042074684 -0.0026048243
l3606 -0.019064218 0.016808636 -0.024096966 0.024005314 -0.027529476 -0.03283775 -0.029766995 0.032834247 0.05984203 0.03486293 -0.040343072 0.059677955 -0.04287808 -0.0030080827 -0.051587533 -0.06696099 0.022101076 -0.0461483 0.020584216 0.020120708 -0.011360456 0.009338059 0.016901243 0.029631397 -0.008685908 -0.039385032 0.0062886123 -0.042960405 -0.030082785 0.027393006 0.06418207 -0.04941936 -0.041162673 0.035245188 0.0063679824 -0.032120116 0.041552342 -0.03366029 0.026917623 -0.017991664 0.0033321742 -0.00921852 -0.011727737 0.043085817 -0.009779217 -0.028172003 -0.02268644 -0.009200576 -0.005759128 0.040223256 0.009022607 -0.0072956695 0.020225963 -0.011671073 0.013959379 0.037395306 0.027233372 0.002943836 0.03250928 -0.028731667 0.04151881 0.03695406 0.038672935 -0.0007951813
l3605 -0.026917841 0.010656702 -0.0287214 0.03681758 -0.037972555 -0.022901475 -0.0071565476 0.02721524 0.07552045 0.0144671835 -0.0495467 0.046540465 -0.015106342 0.00983558 -0.040952504 -0.060069196 0.026470913 -0.037292298 0.021215832 0.022787495 -0.0037316647 0.014156708 0.013444083 0.02247386 -0.011635604 -0.03865026 0.0055617816 -0.024468765 -0.04166829 0.03763281 0.03223548 -0.045078605 -0.010650743 0.05345925 -0.014398983 -0.011541534 0.04798697 -0.036020376 0.021104068 -0.0036582807 0.016716864 -0.0121277515 0.015196752 0.03835313 -0.004015659 -0.013758001 -0.010585131 -0.008899746 0.0007941154 0.038982205 0.00976602 0.0053659477 0.033145837 0.008921717 0.008286509 0.037304327 0.0010031646 -1.9149542e-05 0.024235958 -0.021744022 0.021616016 0.05093747 0.032639757 0.006073542
p723 0.021267813 -0.021429135 -0.0007231006 0.024194213 -0.033842046 -0.030614916 -0.015247118 0.027923152 0.04750592 0.026136128 -0.022585243 0.014642142 -0.0072310176 -0.00016681543 -0.027233338 -0.047879737 0.0031515285 -0.026951635 0.004099501 0.011488424 -0.002515831 0.021612883 -0.009169605 0.01098802 -0.027438415 -0.023480525 0.023612961 -0.030623548 -0.014803468 0.012168973 0.057152353 -0.012960658 -0.0046311906 0.010940228 -0.003627465 0.0044747205 0.058485392 0.0057220664 0.035470687 -0.021476083 -0.00057778455 0.006165087 -0.014528214 0.014346385 -0.0355455 -0.030090453 -0.0021469018 -0.012453381 -0.008178341 0.038406778 -0.026524995 0.0020910976 0.017740741 -0.015292463 0.012617875 0.02378966 0.027607366 0.016545555 0.013556392 -0.017146023 0.052276995 0.0101137115 0.0107943155 0.0142505085
l3607 -0.018420843 0.011814802 -0.0118101705 0.0175791 -0.013104363 -0.014933486 -0.024537839 0.030318193 0.071761444 0.020170309 -0.028647693 0.042146243 -0.026011288 0.016285114 -0.037227474 -0.075303994 0.026035547 -0.053128295 0.021332145 0.007894637 -0.010698676 0.005233989 0.015793595 0.03194554 -0.022405175 -0.03068811 0.0062878234 -0.03410292 -0.021130463 0.015123611 0.036819868 -0.04909025 -0.015881702 0.042821743 0.0071446407 -0.02757534 0.039072156 -0.025753012 0.02377177 -0.008570299 -0.008655289 -0.0020432041 -0.011040051 0.059594117 0.015298729 -0.027026588 -0.011284912 0.005955338 0.00688443 0.044475183 0.01157123 0.012839267 0.032871976 -0.005987008 0.013756165 0.032607056 0.022253543 0.015570355 0.028833577 -0.024679406 0.019584352 0.05115781 0.040071078 -0.0004939266
l3568 0.0060397764 -0.015808351 -0.00357625 -0.0066742906 0.0027760293 -0.016215775 -0.007292938 0.0216793 0.0020262932 0.011660572 -0.042218555 -0.00032727397 0.008010432 0.01713513 -0.010836734 -0.03958109 -0.0053673703 -0.027443722 0.018956825 0.022027118 0.008581697 0.007479447 0.023120906 0.021245053 -0.01619969 -0.0077097593 0.01311978 -0.008909964 -0.02156514 0.011791339 0.03326427 -0.020355431 0.006507311 0.0238921 -0.025750734 0.0013884067 0.040084567 0.0037752562 0.016774373 -0.028544307 -0.00903407 -0.016989129 0.021293433 0.0041538933 -0.028264526 -0.02402431 0.009850355 0.00909433 0.0054356134 0.037652645 0.0063935285 -0.0048635453 0.020510124 -0.010746678 0.021768797 0.007425321 0.025888741 0.011807401 -0.0009779802 -0.00970797 0.027469289 0.0006891102 0.0121469535 0.02280957
p787 0.009852012 -0.02130166 0.017177308 0.023592066 -0.038033735 -0.038811084 -0.01942913 0.010007659 0.049236353 0.014713207 -0.04963106 0.064314716 -0.011982453 -0.015754411 -0.027173117 -0.06059658 -0.008149602 -0.02401795 0.03007426 0.008236463 -0.01112549 0.025975397 -0.0041428073 0.025881154 -0.02479601 0.0109411115 0.014644902 -0.025830533 -0.026699373 0.030420767 0.042072475 -0.013320306 -0.029562628 0.02602393 -0.017861284 0.00046031128 0.053190853 -0.025783122 0.019838972 -0.048123643 -0.01415899 -0.012601891 0.017792093 0.045769785 0.0013836621 -0.020440908 0.01071567 0.0050379005 -0.01749209 0.059709016 -0.021787593 -0.023009837 0.022470072 -0.009991776 0.012608766 0.053740997 0.00027895815 -0.0031744335 -0.013874227 0.007702361 0.05449432 0.015218904 0.030350685 0.021241559
l3663 -0.0063623893 -0.01887338 0.025611991 0.017760053 -0.044978082 -0.043783348 -0.001558934 0.012570443 0.06344523 0.02570909 -0.02861585 0.071125865 -0.023203846 -0.0052802176 -0.02983076 -0.05470866 0.0078354 -0.04074386 0.0052478057 -0.0056187627 -0.0028988705 0.002984122 -0.0063330904 0.0071986057 -0.032512717 0.005203267 0.013722631 -0.018793376 -0.03336502 0.020474315 0.054389667 -0.028126353 -0.029914407 0.01882299 -0.027892217 -0.010299845 0.05137837 -0.012073839 0.014063793 -0.040446617 -0.0049680267 -0.0053796484 0.0033572542 0.026966466 0.0116640255 -0.007406279 0.012311897 0.021324383 -0.023832355 0.052909967 -0.002657928 -0.0021494697 0.028493518 -0.021280611 0.012478064 0.031627424 0.005288659 -0.009578339 -0.013482947 0.00095470593 0.034538895 0.024995368 0.015828922 0.020922227
l3567 -0.009937275 0.004035295 0.0031450936 0.0128121115 -0.025495058 -0.017420713 -0.0076131113 0.013011915 0.016764063 0.023801688 -0.0376167 0.04331022 -0.0028185323 0.0045133024 -0.033254918 -0.038750846 0.003301783 -0.036334492 0.012588962 0.007285295 -0.014231698 0.011225036 -0.007721923 -0.0048570647 -0.022503946 0.01755908 0.034672264 -0.018442549 -0.029064 0.021918574 0.0405109 -0.016601892 -0.0054361382 0.021599269 -0.005994935 0.0018624007 0.04129964 -0.007835915 0.027798856 -0.024758779 -0.008186771 -0.008111121 -0.008250202 0.033060156 -0.028053857 -0.0026832577 -0.012661531 -0.010564558 -0.004861343 0.025942894 0.003992577 -0.02284294 0.0076658437 0.006290967 0.009736793 0.029453807 0.020269247 0.0011253773 0.016104562 0.0007544049 0.037334338 0.018827068 0.02176937 0.0063627255
l3577 0.003421879 -0.019452317 4.145383e-05 0.019437509 -0.021532878 -0.0187072 -0.030494181 0.009738924 0.03481237 0.02015468 -0.013164988 0.037109308 -0.02721755 0.01845435 -0.040562518 -0.03743798 0.0137738325 -0.025058359 0.0104933875 0.0010346462 -0.0050599836 -0.008493046 0.016875966 0.012729089 0.0014826473 -0.011256872 0.024272121 -0.016670702 -0.031418294 0.028375596 0.039473288 -0.036059786 -0.0034749745 0.048621077 -0.022478212 -0.011931346 0.03866291 -0.02279159 0.017628068 -0.037143856 0.013733992 -0.030705763 -0.009404631 0.04941375 -0.012057316 -0.006207242 -0.0022271152 0.008109437 -0.004426081 0.035543416 0.002519452 0.0005776767 0.014137488 -0.010638314 0.030604811 0.028030748 0.0040586726 -0.0044134785 0.014804967 -0.017331587 0.037657417 0.02426778 0.010515491 0.0031132693
l3562 0.025528798 -0.015449605 -0.011055822 0.02195491 -0.01269706 -0.012235436 -0.0055757365 0.041205473 0.02606542 0.021165172 -0.038404923 0.013941807 -0.021266531 -0.008410581 -0.039505817 -0.023541758 0.0070732147 -0.027857777 -0.0031717792 0.0014765263 -0.022071846 0.0072810655 0.012958713 0.011473104 -0.027252592 -0.016539274 0.038804717 -0.013744372 -0.018807245 0.011354275 0.045653913 -0.014497938 -0.015211295 0.014377565 -0.019658433 0.014935695 0.040060814 0.015584512 0.031733874 -0.031225447 -0.011137228 0.0122546675 -0.019342784 0.022042343 -0.04310141 -0.0331586 0.009475658 0.003673142 0.0064188405 0.019614425 -0.021216525 -0.014495952 0.03400364 -0.020968394 0.023431048 0.014109444 0.031902585 0.0074833236 0.019307878 0.0010887968 0.06364429 0.025669176 0.0048522153 0.016251849
p1005 0.038273606 -0.035583038 0.062208794 -0.050514773 0.06320775 0.016753174 -0.05585058 0.04352689 0.035785556 0.05947119 0.020800117 0.026045378 0.050574645 -0.057828806 0.05400907 -0.035372462 0.0568659 -0.053600986 -0.053019714 0.054257773 -0.053615697 0.037976846 0.063131526 -0.055409703 0.046042327 -0.060645167 -0.027031029 0.0364312 0.053776335 -0.048996188 0.05546984 -0.035474356 0.045124177 -0.058405835 -0.032719344 0.03911141 0.03352066 -0.031942867 0.05779139 -0.040051047 -0.034737602 0.057827193 0.03317716 0.044249706 -0.047898035 0.051607367 -0.058684573 -0.036802404 0.041150004 0.049964406 -0.042032644 0.0603385 -0.041938715 -0.0393841 0.050644953 0.056198623 0.03551348 -0.04357068 0.048041966 0.050941437 -0.0462812 0.046437446 0.03599242 0.043567166
l4007 0.054088205 -0.062140394 0.03535619 -0.053511392 0.052573353 0.030842118 -0.05024638 0.037369557 0.031173753 0.059758097 0.017845793 0.03776325 0.03600126 -0.046577476 0.04599221 -0.054224767 0.04487452 -0.03792129 -0.045430467 0.051617723 -0.039401762 0.036770888 0.042803492 -0.04540962 0.057482157 -0.06231076 -0.019256338 0.057084978 0.03974355 -0.05051745 0.044207938 -0.060293596 0.034583125 -0.046330657 -0.049292177 0.06202669 0.049195025 -0.024732431 0.052847855 -0.042848114 -0.057282697 0.060301337 0.05770851 0.032942247 -0.0592021 0.043933507 -0.033967793 -0.050577175 0.052799787 0.046178322 -0.043593016 0.05277228 -0.034729276 -0.061016593 0.061423566 0.059374947 0.051656432 -0.06126155 0.033410363 0.03766824 -0.057230365 0.062095102 0.03136446 0.04281303
l3916 0.054597512 -0.04138418 0.060581136 -0.040236924 0.054270808 0.0122187035 -0.05926768 0.042817734 0.035371907 0.065129384 0.030868068 0.045722555 0.034037624 -0.038985796 0.06472341 -0.047526125 0.040472582 -0.034962386 -0.051870394 0.06032646 -0.05416558 0.062663294 0.046155475 -0.0439297 0.056563474 -0.04998287 -0.03632478 0.047667824 0.05056423 -0.0352689 0.04888273 -0.060214322 0.050467055 -0.046888594 -0.04970084 0.03762385 0.042585485 -0.060539197 0.05849844 -0.04796936 -0.05306742 0.038591634 0.061660394 0.03807592 -0.060872175 0.059301637 -0.061780974 -0.0640242 0.054548804 0.06389704 -0.06270093 0.045211773 -0.048412144 -0.036654375 0.0421346 0.034039 0.060393795 -0.05277744 0.05259192 0.056611393 -0.04598475 0.045710053 0.06388534 0.044333525
p956 0.051604796 -0.041440055 0.04987725 -0.040111594 0.05576552 0.014113295 -0.05407534 0.050307304 0.06380763 0.05306735 0.02300441 0.0439043 0.04930723 -0.021783674 0.04790828 -0.039166052 0.04785868 -0.039833494 -0.04987276 0.036550686 -0.039206486 0.052293733 0.061840933 -0.043886796 0.06154834 -0.05722945 -0.021820528 0.03416195 0.03883154 -0.06289266 0.038382314 -0.05846555 0.05949135 -0.064476 -0.057745896 0.05440624 0.050663676 -0.061571926 0.053802982 -0.039590463 -0.06213667 0.05097075 0.04024594 0.063582204 -0.03868136 0.035616856 -0.05852956 -0.06375902 0.06422069 0.06395248 -0.040511187 0.042762578 -0.06323491 -0.05197701 0.034436982 0.034438033 0.04395433 -0.046086848 0.054083664 0.036671042 -0.043636356 0.034824923 0.062460527 0.04812897
l3917 0.051854465 -0.04587053 0.05227985 -0.038840566 0.051073786 0.031413056 -0.040674448 0.06212632 0.05852986 0.05691945 0.03244494 0.02682938 0.04577908 -0.038815834 0.042535458 -0.049941525 0.060047362 -0.037837666 -0.053312745 0.064055294 -0.050738737 0.04950276 0.048330072 -0.059870016 0.049066745 -0.05255578 -0.030910503 0.04516446 0.051098637 -0.038087368 0.06373158 -0.05658682 0.054287106 -0.052621473 -0.043458637 0.050655935 0.040224385 -0.05334725 0.033012193 -0.043244265 -0.033078186 0.05920428 0.04043881 0.058206394 -0.033998217 0.06368565 -0.047094256 -0.0560316 0.048999093 0.06176587 -0.041805223 0.035521887 -0.05651088 -0.060551908 0.054960754 0.050566413 0.03774012 -0.038805656 0.059125304 0.045919504 -0.061696522 0.059447426 0.03521258 0.04704262
p1006 0.015472222 -0.020122323 0.024700671 -0.019914124 0.009194751 0.012552908 -0.027561253 0.021679854 0.035135515 0.022020876 0.008768404 0.008264103 0.0243873 -0.034760494 0.020906717 -0.036096264 0.029990055 -0.03640695 -0.020629786 0.025666613 -0.014299472 0.028564991 0.0274594 -0.03388818 0.026522469 -0.0320425 -0.010707817 0.03469109 0.026502362 -0.008689644 0.024244312 -0.0055202655 0.00609382 -0.012285431 -0.021664469 0.021165261 0.015106518 -0.031908486 0.033960603 -0.0066640265 -0.031721983 0.009618529 0.019982958 0.011616192 -0.033811476 0.024147946 -0.017266767 -0.016732026 0.0077967816 0.026375197 -0.03052664 0.022938017 -0.019676108 -0.02557174 0.03120494 0.022350982 0.023627719 -0.023099786 0.025520282 0.016145479 -0.02082812 0.007638922 0.013092897 0.036102127
l4008 0.026632287 -0.031306595 0.029556397 -0.026574109 0.012580252 0.018592454 -0.0061031817 0.016042119 0.015408173 0.030719614 0.026584268 0.0063325437 0.014687142 -0.012108258 0.031915255 -0.006632915 0.014166863 -0.028143907 -0.02848477 0.021552252 -0.011223429 0.010203925 0.01411056 -0.010379885 0.0313183 -0.031144213 -0.0030708546 0.024416232 0.028627187 -0.014582344 0.03650168 -0.0160761 0.016688311 -0.0055651395 -0.005957344 0.03287314 0.005779029 -0.030605411 0.016195484 -0.032568704 -0.008467381 0.03327941 0.028797109 0.0081593115 -0.028490683 0.016764889 -0.026052345 -0.013081572 0.019104715 0.021218583 -0.017127609 0.008016014 -0.03592668 -0.0056360145 0.019869348 0.033083115 0.03161246 -0.028606448 0.029707914 0.036563613 -0.012855435 0.024503408 0.029600123 0.03378522
l4009 0.007258641 -0.036326386 0.010354881 -0.020928314 0.02388098 0.021463217 -0.00889754 0.013991005 0.016792234 0.013309701 0.013603683 0.0077889124 0.012340926 -0.024470914 0.015550174 -0.011518263 0.013805543 -0.010477462 -0.021950446 0.014113331 -0.02934699 0.011937928 0.008585406 -0.012197492 0.0074940943 -0.028916119 0.002043146 0.01403759 0.028600372 -0.010717009 0.022413358 -0.006610227 0.03345587 -0.03008656 -0.013813741 0.029948026 0.010436114 -0.018737052 0.010126227 -0.031222759 -0.018347658 0.026310593 0.006368023 0.012659101 -0.029242547 0.008356262 -0.03621096 -0.014070884 0.03613058 0.010244762 -0.029036744 0.029499225 -0.023287721 -0.0130658755 0.009640903 0.03133735 0.008581801 -0.00631653 0.0064370395 0.02388883 -0.027819084 0.010950844 0.031764362 0.023973742
p1007 -0.1169564 -0.09556081 0.38948053 -0.14956024 -0.16798422 -0.19635884 0.054705016 -0.17288195 -0.23241517 -0.13934454 0.28975046 0.3589433 -0.17554228 -0.36240184 0.14391868 0.21134946 0.21613461 -0.28049856 -0.22802323 0.19923018 0.12388283 0.037734903 -0.14246348 -0.26527473 0.17024462 0.17388077 -0.30065396 -0.10306748 0.00032594224 -0.09108989 -0.17301548 0.086868964 0.12263351 -0.6191069 -0.34969243 0.00889091 0.04985466 -0.34431002 -0.14593084 -0.33652163 0.059022002 -0.10342855 0.09236766 0.103677064 0.21578008 0.31114462 0.1711169 0.1544952 -0.12633333 0.35263732 0.10762025 -0.07579516 -0.18167686 -0.0046277787 0.30129915 -0.20595974 0.015486675 0.056320287 0.07981915 0.3545423 0.10421146 -0.10784735 -0.019661447 0.10397544
l3980 -0.16206145 -0.110155836 0.35102382 -0.020377312 -0.16900468 -0.21139619 -0.0007706709 -0.21069098 -0.22308709 -0.18056054 0.26928318 0.3992002 -0.17437896 -0.32623383 0.18424642 0.16518177 0.24494103 -0.30026108 -0.18650125 0.18814653 0.066262096 -0.038675435 -0.11610467 -0.24386175 0.12194935 0.19243097 -0.29125375 -0.07873278 -0.010734357 -0.052933894 -0.1844586 0.14270963 0.14782538 -0.55082595 -0.27360314 -0.09296674 -0.06487686 -0.3609889 -0.1164573 -0.3033965 0.10038259 -0.1367414 0.09630425 0.09089411 0.19665863 0.3047943 0.21392122 0.16182256 -0.1015416 0.35472664 0.12996015 -0.00314835 -0.10561226 0.026286375 0.24872495 -0.16645192 -0.057256676 -0.010260645 -0.046390586 0.3054012 0.01384011 -0.12975554 -0.03151398 0.04399925
l4010 -0.0907807 -0.10672446 0.39341673 -0.15647252 -0.19606431 -0.23115866 0.07846575 -0.19608094 -0.20349208 -0.14010704 0.35392588 0.37225336 -0.1997022 -0.3321932 0.14374 0.20175833 0.29350206 -0.34746382 -0.34508735 0.16422865 0.17246589 0.0798194 -0.16719711 -0.2973196 0.16227022 0.20420204 -0.3535125 -0.10047391 -0.035386477 -0.034467403 -0.17175874 0.10485082 0.056224324 -0.6212983 -0.38933963 0.0524743 0.036129046 -0.39003703 -0.08942497 -0.33907264 0.04128473 -0.12673762 0.06386704 0.08114438 0.23386039 0.40174964 0.19766366 0.19981362 -0.1370362 0.41969267 0.10292465 -0.11716972 -0.16202107 -0.02109722 0.3379884 -0.19232431 -0.034093346 0.10460209 0.023957526 0.3893878 0.1559769 -0.11409985 -0.041986898 0.06782522
p988 -0.15220721 -0.1482597 0.2908779 -0.034154885 -0.19268948 -0.1708521 -0.1092858 -0.15093254 -0.18225773 -0.20926473 0.32827878 0.34632766 -0.22445008 -0.277819 0.20531854 0.13196418 0.30462587 -0.33735386 -0.18367933 0.19129771 0.03846092 -0.07482909 -0.08077157 -0.18837748 0.0751818 0.13593909 -0.18855754 -0.049950864 0.060049906 -0.030290855 -0.20362733 0.095925786 0.20209737 -0.52929384 -0.26136184 -0.08684028 -0.09614608 -0.3495957 -0.05532484 -0.2287009 0.124997415 -0.08221428 0.11381348 0.15597591 0.149064 0.39420414 0.22892317 0.079166785 -0.1045974 0.33775058 0.033239607 -0.0046378616 -0.0919779 -0.0045820437 0.17306013 -0.19033442 -0.05731698 -0.071423426 -0.03965363 0.26106063 -0.005218329 -0.17092787 0.017649898 0.06342932
l3981 -0.20476107 -0.18057583 0.27257553 -0.033810303 -0.18034212 -0.16115904 -0.14406353 -0.1535401 -0.16981994 -0.10778148 0.34741566 0.36624378 -0.1934872 -0.29447109 0.21184887 0.1504281 0.36948758 -0.36243385 -0.21185942 0.13278563 0.032478176 -0.07888653 -0.10701978 -0.18330121 0.09866423 0.14360064 -0.23616119 -0.06763468 0.0702249 -0.035128817 -0.1912327 0.11582482 0.17968558 -0.5844538 -0.2797964 -0.042697053 -0.09554414 -0.36861882 -0.08906536 -0.26483923 0.13167655 -0.09116749 0.11631833 0.15062413 0.15728569 0.4198721 0.21399593 0.087137535 -0.06884093 0.3402458 -0.024763891 -0.081738286 -0.08505043 -0.07165245 0.19344598 -0.15426607 -0.06778253 -0.09987216 -0.064231806 0.27206853 0.0505643 -0.13814704 0.014599573 0.094476186
p1111 -0.14079548 -0.08878036 0.36164394 -0.086721994 -0.16440207 -0.24765964 0.019167233 -0.22428556 -0.20737424 -0.12003511 0.3085371 0.36384526 -0.16710784 -0.3465333 0.16828287 0.18007387 0.2582171 -0.27881968 -0.2674501 0.18209293 0.13752218 -0.004941832 -0.15970059 -0.27198803 0.183517 0.21691316 -0.31278238 -0.11356723 -0.020052701 -0.047594298 -0.18778324 0.123082094 0.10145423 -0.5924098 -0.35093138 -0.03215753 -0.025441008 -0.35974994 -0.13172403 -0.30763716 0.072849415 -0.17022884 0.061590802 0.12552701 0.22402798 0.32813767 0.17723683 0.16076633 -0.1426474 0.3902413 0.09353893 -0.11092818 -0.18313068 -0.009609422 0.3012899 -0.17840736 -0.04537937 0.0029646135 -0.0026814188 0.32612428 0.08944704 -0.13568377 -0.059137765 0.060205545
p1009 0.06572425 -0.051221333 0.062655754 -0.06268667 0.06583784 0.061242566 -0.060545143 0.027417801 0.06737519 0.07706556 0.028171655 0.053864535 0.046571612 -0.065923 0.062393703 -0.055728324 0.058198065 -0.052499548 -0.07356222 0.06565441 -0.06265426 0.044602312 0.060603384 -0.06604085 0.0684255 -0.035031557 -0.061662782 0.05803151 0.07497587 -0.06516144 0.06417802 -0.04779255 0.050012484 -0.05471175 -0.04539681 0.061265457 0.041451037 -0.044000097 0.06729328 -0.04518777 -0.051706765 0.06959128 0.048509814 0.0633082 -0.05578795 0.067484684 -0.06665517 -0.06630144 0.06850463 0.05344715 -0.07587813 0.058193848 -0.055808224 -0.07461204 0.06319561 0.068444155 0.07004925 -0.071688674 0.048657324 0.07473344 -0.07318505 0.0711302 0.058512904 0.06641961
l4011 0.065879755 -0.074831165 0.06845546 -0.06923297 0.05335303 0.07531371 -0.05514774 0.03046703 0.07461444 0.06628458 0.030293034 0.06933308 0.05993939 -0.0641374 0.07548505 -0.071805246 0.05057736 -0.05062579 -0.053262696 0.066951446 -0.07075742 0.048878055 0.06999618 -0.052720465 0.061236948 -0.0443618 -0.059204906 0.056045294 0.056319937 -0.06380534 0.04812494 -0.061417457 0.047097035 -0.06749206 -0.060795862 0.0739323 0.040085983 -0.046498176 0.05539464 -0.058896795 -0.06840512 0.07304221 0.0731943 0.06409792 -0.072119385 0.04693478 -0.048898663 -0.049505632 0.047411647 0.054627992 -0.059537593 0.07429717 -0.050500464 -0.05503454 0.047804404 0.05222918 0.055228468 -0.07083754 0.05321914 0.071709454 -0.074828066 0.06617992 0.054189205 0.07112581
l3986 0.055735324 -0.0769842 0.07494173 -0.056832373 0.047846932 0.062294405 -0.07308496 0.027003843 0.052667722 0.07426668 0.020963369 0.0603536 0.074335665 -0.05923679 0.07277195 -0.058854673 0.07642514 -0.062133085 -0.053322617 0.06742577 -0.057821114 0.047823954 0.071553506 -0.046080127 0.05900045 -0.05718046 -0.05046017 0.07417299 0.072968 -0.075352624 0.06745343 -0.044513356 0.0732479 -0.06519085 -0.06343811 0.052841514 0.020912368 -0.07140298 0.07171986 -0.0483675 -0.076572604 0.06281962 0.057467245 0.06762416 -0.05429665 0.058252454 -0.05595075 -0.050883453 0.06295178 0.075317115 -0.067821465 0.05591493 -0.07642864 -0.05294563 0.043629784 0.061998308 0.056530304 -0.05758186 0.06752456 0.072886996 -0.046879042 0.072860815 0.070134975 0.07710142
p993 0.06773892 -0.064980924 0.065957956 -0.07656534 0.049273122 0.066663384 -0.0756666 0.024812622 0.046184283 0.04893774 0.024393164 0.036859516 0.06507206 -0.058267936 0.04756524 -0.0687025 0.07407586 -0.06355947 -0.058420114 0.066757075 -0.068127245 0.044624206 0.07218568 -0.05197701 0.045057964 -0.07406117 -0.05875859 0.07594355 0.050701678 -0.0555303 0.047657218 -0.071553186 0.075410016 -0.06690081 -0.046413787 0.039222877 0.034046073 -0.05766308 0.06628515 -0.035663553 -0.06273228 0.06846382 0.045910746 0.06944942 -0.0685126 0.049244996 -0.075729266 -0.06651507 0.074267626 0.06359772 -0.060556 0.07445561 -0.07134668 -0.06769026 0.06529632 0.05852664 0.07073685 -0.061959576 0.047690492 0.05551173 -0.07274962 0.07033157 0.05769815 0.06330037
l3987 0.057985418 -0.051148582 0.07190146 -0.06202155 0.06632897 0.056843277 -0.06351942 0.04594905 0.031395666 0.06592398 0.04250172 0.05028339 0.06879199 -0.06917407 0.06679623 -0.05670288 0.04757108 -0.064057216 -0.06833493 0.06280892 -0.07281127 0.059769075 0.06919529 -0.061624274 0.06368007 -0.047158685 -0.052574396 0.05547005 0.060962196 -0.0512543 0.064371854 -0.048331678 0.069384836 -0.07003234 -0.057646435 0.030750554 0.041033875 -0.04558036 0.07456303 -0.030038567 -0.06596877 0.047358453 0.073253594 0.050553903 -0.067398176 0.06702695 -0.04852511 -0.04488972 0.05964975 0.07431449 -0.059418015 0.054807354 -0.04911357 -0.045291442 0.04565801 0.058802214 0.06326872 -0.05967293 0.045276802 0.06797 -0.0723301 0.0709427 0.055214714 0.05379302
p101 -0.03658596 -0.048766233 0.061653946 0.03080437 0.051959444 -0.031519048 0.035962 -0.03882366 0.14060853 0.02997675 -0.05505698 -0.03510185 -0.04279079 0.03868725 -0.01119522 -0.016710639 0.1311547 0.03198347 0.04098075 -0.024120059 -0.045305397 -0.032014046 0.031982172 0.03623555 -0.041383207 0.046125986 0.028534895 0.1333232 -0.055864498 -0.13270402 -0.042325184 -0.02157886 0.13158055 -0.012513969 0.034612425 -0.026686054 0.14034207 -0.13645202 0.084352925 0.048683457 0.041753024 -0.02983267 -0.039112754 0.098468974 0.038817856 0.1404837 0.029089937 0.040498074 -0.024866214 0.13198993 0.029704288 -0.040641166 0.020518437 0.038411614 0.052385837 0.07044182 0.077082686 0.037661154 0.051737662 0.025605537 -0.13485363 -0.03544321 0.051198553 -0.030719947
l2164 -0.019290922 -0.07788149 0.057396892 0.036025085 0.045524355 -0.01604975 0.043918878 -0.033474673 0.11252008 0.032254823 -0.05615692 -0.02172876 -0.017588874 0.035831656 0.028776873 0.00013682338 0.1255883 0.035242036 0.027300855 -0.037503965 -0.054932684 -0.041676026 -0.028924895 0.03370401 -0.03237034 0.020506132 0.04200526 0.11588394 -0.057389304 -0.14094806 -0.02840896 -0.027744807 0.13771306 -0.029345242 0.026235431 -0.053967796 0.1135008 -0.1228367 0.044473767 0.038908597 0.032020997 -0.038784478 -0.024309054 0.07364196 0.050416693 0.13473271 0.044182364 -0.0032429846 -0.02897534 0.13314879 0.04775815 -0.025856744 0.019550685 0.028004665 0.039279968 0.09563671 0.055135846 0.025542965 0.048677076 -0.0419049 -0.14115079 -0.0288255 0.039483104 -0.030679317
p104 -0.004755639 -0.04106702 0.0017961819 0.026186636 0.00064195134 -0.0298876 0.032760296 -0.0062602223 0.1216084 0.016567828 -0.045127414 -0.014954785 -0.02847348 0.023221089 0.020356078 0.0024709245 0.14431438 0.023299284 0.052533563 -0.028920317 0.0021109025 -0.01600758 -0.00792692 0.018185142 -0.016405724 0.04120919 0.013999073 0.1387126 -0.04055749 -0.13185911 -0.0051878043 -0.020496875 0.12074581 -0.025478223 0.034657776 -0.020967565 0.14173521 -0.14383377 0.039213616 0.04233853 0.015208037 -0.053245746 -0.0069461237 0.13104162 0.06369425 0.13143739 0.029281951 0.009868591 -0.031171674 0.1399202 0.052223634 -0.013617917 0.0349915 0.024551118 0.011997299 0.0845435 0.117157295 0.03454211 0.0011085268 -0.024207314 -0.13783419 -0.025630249 0.009743257 -0.03383703
l2163 -0.007174 -0.07875266 0.02352891 0.026227726 0.042025916 -0.040161736 0.01840267 -0.023775117 0.064709485 0.044449784 -0.04146475 -0.043503374 -0.014971622 0.030733142 0.026729442 -0.009926423 0.088097684 0.02847 0.021975387 -0.01890145 -0.018562458 0.0005225468 0.0024672253 0.022177093 -0.023748921 0.03640727 0.020201832 0.14107113 -0.044154238 -0.13135661 -0.01710832 -0.0071097477 0.11465242 -0.03720125 0.040380362 -0.030769134 0.09424392 -0.14093159 0.02093148 0.052514683 0.027239092 -0.041790307 -0.00766557 0.054310676 0.029663496 0.13736778 0.0031731988 -0.0019924827 -0.043549743 0.13015907 0.05940211 -0.033171654 0.02577799 0.0438142 0.017841479 0.07875353 0.040685214 0.04123012 0.0102821095 -0.0003405326 -0.122664966 -0.014410424 0.04028005 -0.022640314
p85 -0.024486614 -0.121263534 0.016128814 0.0129719665 0.0016129202 -0.036806144 0.021218218 -0.035549488 0.03523342 0.06769781 -0.047262773 -0.037720233 -0.024846075 0.036672663 0.07807914 0.029129418 0.02328723 -0.045773465 0.034503765 0.029268375 -0.016893867 0.040869314 -0.023995379 0.023117542 0.0013463887 0.054660086 -0.03680404 0.14108083 -0.054529548 -0.097448096 -0.022769762 0.022133177 0.07046625 -0.06184705 0.033668425 -0.033658504 0.021230986 -0.13153459 0.039367545 0.05579668 0.038567793 -0.030892454 -0.041530717 0.015592776 0.027227713 0.06913568 -0.003217932 -0.06392047 -0.044805806 0.080991104 0.060399536 -0.014490989 0.004548373 0.036740676 0.07593564 0.1397105 0.004851439 0.009368895 0.021794403 -0.020174237 -0.09674955 -0.03562368 0.10506546 -0.037039626
l2167 0.00025968882 -0.109302156 0.025904698 0.020450262 0.008173282 -0.036874928 0.03410655 -0.030724421 0.013425927 0.054839656 -0.03241841 -0.031208841 -0.024171615 0.029814444 0.061665397 0.03383732 0.07494781 -0.07088286 0.022668432 0.024921687 -0.026141215 0.0019604606 -0.039575968 0.01568747 0.0110163 0.05748999 -0.008127788 0.13026041 -0.04275855 -0.08800342 -0.014339743 0.035338644 0.052339222 -0.059260223 0.044370994 -0.043103836 0.035430446 -0.11812996 0.021618184 0.049369637 0.03157685 -0.029492015 -0.044781424 0.0158454 0.04284688 0.07247613 0.01924588 -0.060983185 -0.024638576 0.08230739 0.042674482 -0.027962223 0.018429436 0.018616322 0.07132165 0.12533003 0.018548878 0.03708119 0.018256826 -0.02453919 -0.14026901 -0.033528425 0.08823281 -0.021144494
l2169 -0.023614844 -0.10875725 0.010090192 0.026467351 0.001715146 -0.026672263 0.027026284 -0.026128797 0.031755872 0.0544166 -0.03852367 -0.02056931 -0.030175691 0.041235693 0.058482245 0.02702004 0.03177614 -0.026149746 0.023232497 0.03382019 -0.004190215 0.018556295 -0.008356193 0.029131306 0.010826171 0.055898793 -0.015203673 0.13865916 -0.05125126 -0.11822109 -0.019849721 0.02044006 0.06526108 -0.052121934 0.024629777 -0.05311024 0.038646046 -0.1384534 0.018395945 0.062057015 0.02678317 -0.050404456 -0.028166914 0.038950928 0.020581895 0.040532414 0.020074861 -0.053193934 -0.022537814 0.07217683 0.050493885 -0.009747606 -0.0017028885 0.014893317 0.086558886 0.1387537 -0.00011032053 0.024471164 0.020696176 -0.026438588 -0.1206899 -0.016210277 0.088529654 -0.01784672
l2165 -0.011238334 -0.12498259 0.012327257 0.029993149 0.021828882 -0.0396557 0.005986215 -0.03284144 0.0314763 0.05952069 -0.031744193 -0.018821184 -0.01575181 0.03300558 0.04803815 0.022865817 0.032891612 -0.02991452 0.019004067 0.01710346 -0.0006988088 0.01706861 -0.031067938 0.025495108 -0.016000703 0.046213217 -0.006581185 0.13389376 -0.05921786 -0.09310913 -0.0054321145 0.0027036222 0.057389863 -0.03923385 0.012794862 -0.04398777 0.019832416 -0.12500542 0.017995 0.05494877 0.021916784 -0.040615298 -0.017565405 0.03302658 0.03373744 0.048023317 0.028406756 -0.028461896 -0.015724806 0.03866281 0.035970967 -0.00373006 -0.005952395 0.002921232 0.07663919 0.120709635 0.024118403 0.002721852 0.021137599 -0.0058809402 -0.10663621 -0.042840645 0.08312351 -0.014866728
l2160 -0.0143259065 -0.11682959 0.00090762594 0.0106265545 -0.010368491 -0.028684478 0.019720428 -0.027296698 0.035836246 0.06255522 -0.046162475 -0.017991412 -0.044533998 0.028269887 0.08657615 0.026146604 0.053253096 -0.050263688 0.044444054 0.04284824 -0.02095335 0.025166987 -0.016434778 0.028214086 0.01320268 0.03310463 -0.036415495 0.12275355 -0.03551715 -0.07449424 -0.016672501 0.01532588 0.031251688 -0.05588012 0.036566388 -0.053171057 0.0337892 -0.13841942 0.01820717 0.03974334 0.04587999 -0.057609383 -0.03759295 0.039873578 0.023769353 0.063438214 0.0153152095 -0.059902772 -0.030250177 0.079158865 0.03868876 -0.008832315 0.010861362 0.014135481 0.08239121 0.1184483 -0.0083883265 0.029172841 0.024595527 -0.030657878 -0.07767047 -0.021387119 0.08387314 -0.04508373
l2175 -0.025970694 -0.11879967 -0.0131633 0.015765527 0.0029635662 -0.026397314 0.009279366 -0.04998516 0.029591339 0.038029443 -0.043009758 -0.014841632 -0.026637945 0.01768586 0.05245229 0.015889509 0.030344618 -0.06416029 0.046995044 0.033078108 -0.03782145 0.041045416 -0.031184018 0.006692617 -0.0062563536 0.046133466 -0.011114536 0.13654755 -0.051657543 -0.08269659 -0.005403854 0.002285188 0.053667076 -0.018766869 0.03453156 -0.033754554 0.03957334 -0.12103658 0.02926214 0.052650336 0.038300812 -0.052544508 -0.022106836 0.0015012514 0.015433602 0.059559334 -1.4853911e-05 -0.06609295 -0.036353733 0.048545174 0.051859718 -0.020412022 0.010103227 0.028763147 0.073860295 0.11612 0.015017666 0.025795208 0.029502722 -0.012838292 -0.10730575 -0.015908876 0.087927654 -0.019917404
l2174 -0.005324908 -0.1063215 0.007232313 -0.005218241 0.028245518 -0.03290358 0.015651414 -0.053098835 0.009155765 0.051844984 -0.036738403 -0.043338925 -0.021179032 0.03263542 0.0801981 0.011086812 0.026346505 -0.04367962 0.034478664 0.0055349837 -0.021709865 0.015577057 -0.018688586 0.029382097 -0.00873926 0.045995023 0.0016531114 0.12268945 -0.037328307 -0.09778237 -0.0223975 -0.011064755 0.070010915 -0.055125643 0.014034507 -0.028668277 0.009912355 -0.13763076 0.02433691 0.03879403 0.044390075 -0.054327466 -0.03313595 0.0008821234 0.017054586 0.041366015 0.015123364 -0.06494758 -0.016982619 0.06739085 0.05611325 -0.0019524982 -0.011191352 0.036691383 0.06714648 0.13372186 0.0029169922 0.016457949 0.010475121 0.0052428 -0.099385984 -0.036855485 0.07922502 -0.004007648
l2166 -0.040037207 -0.10331464 0.0008954015 0.01861334 0.007945013 -0.037743554 0.023834722 -0.031999987 0.05868515 0.074811794 -0.05335787 -0.036693852 -0.042367272 0.022758547 0.079140544 0.008029173 0.054262407 -0.04055876 0.018758297 0.021079235 -7.685874e-06 0.032608084 -0.017870946 0.037105285 0.003203381 0.03917915 -0.017707853 0.13314992 -0.059038226 -0.09162522 -0.017747236 0.0159414 0.05190603 -0.067080006 0.04229097 -0.031044753 0.05713846 -0.12970564 0.029125737 0.044542074 0.016307628 -0.029049711 -0.016164677 0.032244004 0.03804514 0.05810963 0.00067130924 -0.057113163 -0.017140256 0.088532776 0.04695464 -0.041648097 0.028970582 0.031000359 0.07183056 0.1153177 -0.022179425 0.01949605 -0.0007973825 -0.0040030875 -0.09044206 -0.04148328 0.06757926 -0.02038128
l2193 -0.038838517 -0.033753842 0.045903075 0.029460752 0.07127093 -0.028111514 0.020553574 -0.02558103 0.1111939 0.034840614 -0.03255913 -0.042449843 -0.0398134 0.017483708 -0.005063567 -0.012187513 0.121232934 0.029012093 0.046271447 -0.014515355 -0.06974019 -0.040952466 0.044562668 0.01406188 -0.02750433 0.03848442 0.021535845 0.124864385 -0.05207076 -0.13508587 -0.04308932 0.017889839 0.13574775 -0.012770036 0.032766793 -0.053202152 0.1275283 -0.122459345 0.072568506 0.042151496 0.041403994 -0.03064736 -0.03654743 0.08565069 0.03188125 0.11560849 0.021619126 0.031847358 -0.023274908 0.117642716 0.05755295 -0.03421823 0.03344782 0.016904056 0.047995757 0.07954404 0.09520537 0.02844581 0.038128298 -0.0009879781 -0.12874283 -0.03429205 0.045144744 -0.032484323
l2171 -0.022975646 -0.11030824 0.006857855 0.004892621 0.02085648 -0.037298255 0.018168116 -0.04062857 0.027202213 0.061829306 -0.030544842 -0.03391919 -0.01715921 0.043642666 0.08013885 0.013890398 0.05088013 -0.050748724 0.04027486 0.03161999 -0.005857086 0.027391264 -0.0117952945 0.03736806 0.023414232 0.056393415 -0.03575924 0.1147986 -0.04402216 -0.096895315 -0.03863668 0.028405992 0.080697596 -0.055545527 0.036029194 -0.0506707 0.04309104 -0.11834735 0.034837645 0.05769776 0.018141722 -0.038081378 -0.02346415 0.017420044 0.030525256 0.061822515 0.0142805185 -0.057031766 -0.038067143 0.09910918 0.039154693 -0.0073543866 0.013114396 0.033808816 0.07168594 0.13582532 0.00880364 0.033765204 0.004574962 -0.024845056 -0.08687341 -0.044382885 0.10038314 -0.032977715
l2162 -0.027334042 -0.12966686 -0.00010793656 0.0014066662 -0.012877638 -0.015380072 0.025875797 -0.037843727 0.020744575 0.06036568 -0.038733717 -0.01673899 -0.01692279 0.042050023 0.058974702 0.0009409899 0.054499805 -0.0490987 0.04466609 0.035790298 -0.01886054 0.013727708 -0.04279635 0.023058182 -0.008800818 0.055743158 -0.025756607 0.14020056 -0.044429123 -0.09881158 -0.042961493 0.014038422 0.060892176 -0.0662244 0.020813448 -0.046847854 0.026643917 -0.11558827 0.013842755 0.043365557 0.036957957 -0.040535893 -0.033336088 0.018010134 0.03667016 0.05939058 0.004181322 -0.06001365 -0.017512491 0.07733651 0.051063612 -0.004821961 -0.002983152 0.024710502 0.07183176 0.122182675 0.028426293 0.042353068 0.028884303 -0.0071530566 -0.10816321 -0.019856095 0.09704731 -0.03478963
l2194 -0.019528726 -0.05514784 0.072232835 0.041500803 0.039563578 -0.03812665 0.026153823 -0.032088358 0.1239902 0.031484507 -0.044238094 -0.0200272 -0.023300363 0.014516974 -0.027716748 -0.012599546 0.13265955 0.032931376 0.047218412 -0.031157833 -0.027341269 -0.025752302 0.034606703 0.023838347 -0.020854343 0.031741165 0.022671249 0.11686473 -0.041329462 -0.12450079 -0.023976155 -0.035180006 0.12344709 -0.015741076 0.03154772 -0.018442782 0.13145553 -0.1252426 0.032652825 0.054287024 0.035876453 -0.034158524 -0.026552215 0.1370614 0.04807917 0.12760907 0.021952558 0.032947842 -0.019760828 0.12678379 0.04137441 -0.04202858 0.025608595 0.043871153 0.035044573 0.087499954 0.13727547 0.021811424 0.042664777 -0.038552742 -0.13832153 -0.04212143 0.02466048 -0.038553033
l2195 -0.023978606 -0.032894045 0.053772673 0.02058586 0.046525534 -0.018020788 0.015982617 -0.03087945 0.12755555 0.023733297 -0.05235897 -0.018654129 -0.029032556 0.032771252 -0.00061497325 0.009134634 0.12594904 0.030640148 0.035690833 -0.033259623 -0.06887816 -0.014135346 0.04703334 0.028223682 -0.035261672 0.055153303 0.029687077 0.1311692 -0.027137205 -0.13116884 -0.026135357 -0.0042732097 0.12442164 -0.006363877 0.04318907 -0.049568716 0.11437477 -0.1342105 0.039538473 0.04926826 0.016673971 -0.02716035 -0.02239473 0.11703737 0.036841784 0.13830465 0.024459993 0.034743033 -0.031176459 0.1351423 0.031903844 -0.02302275 0.035222873 0.033583485 0.021254659 0.03455635 0.11696651 0.04275415 0.025261566 -0.005116986 -0.14137824 -0.031055 0.024881825 -0.0170671
l2196 -0.037623715 -0.036767557 0.06305236 0.026292099 0.05670534 -0.023812626 0.029588535 -0.033128627 0.12676413 0.03755817 -0.036787994 -0.03481826 -0.03925915 0.03733082 -0.025290614 0.011960007 0.111673035 0.030043496 0.040073335 -0.03520931 -0.06471374 -0.037096605 0.041367624 0.03761141 -0.013373474 0.041486736 0.021513734 0.12780339 -0.034557424 -0.12486655 -0.031454783 -0.00017439088 0.14080402 0.006522424 0.022060858 -0.033187144 0.1119201 -0.12528916 0.05392479 0.026063344 0.023013096 -0.03203587 -0.029729217 0.09020575 0.05142015 0.12275622 0.027697127 0.03505904 -0.015490062 0.1344144 0.043618027 -0.016544616 0.025895944 0.026101073 0.042516068 0.05348372 0.105565354 0.031680264 0.04335171 0.012807652 -0.13560103 -0.02392495 0.03689607 -0.038159233
l2201 -0.004552283 -0.086105734 0.04964013 0.01634006 0.0010242357 -0.02376164 0.039642435 -0.014528874 0.088636436 0.028729828 -0.030878663 -0.030272001 -0.029555615 0.04135085 -0.0135148 -0.04147744 0.13736452 0.034883045 0.023456736 -0.032581266 0.026557337 -0.037575882 0.015919235 0.037829105 -0.014316015 0.02384855 0.03196489 0.13353525 -0.035115305 -0.10470612 -0.028670456 -0.040663686 0.12730457 -0.056938794 0.038534027 -0.037774444 0.10924877 -0.114940204 0.031438496 0.028359039 0.017714918 -0.058099087 0.013283574 0.1201735 0.054580085 0.13169743 0.028673112 0.026206445 -0.0252423 0.121517554 0.03900368 -0.017144734 0.0139732985 0.02187349 0.0003712028 0.11048516 0.10467261 0.034808666 -0.015508175 -0.034604702 -0.14232329 -0.018693276 0.03549701 -0.017664718
l2168 -0.01046915 -0.11615608 0.022246718 0.0067631225 0.028741557 -0.018597193 0.021001723 -0.028965367 0.01105317 0.0680814 -0.058746774 -0.032667637 -0.021903304 0.037731092 0.05260772 0.0024839153 0.02087524 -0.04784146 0.028294446 0.025664762 -0.020875482 0.023781795 -0.03345516 0.023519173 0.010703881 0.032831468 -0.013151045 0.11533496 -0.06225301 -0.08269962 -0.02652292 0.023627734 0.04914997 -0.05990069 0.022896638 -0.053542957 0.021879606 -0.1361038 0.029191332 0.06448364 0.044488266 -0.030164426 -0.016736638 0.028088402 0.023401001 0.04999226 -0.012802581 -0.0608365 -0.01697444 0.060035005 0.03605607 -0.029410277 -0.00070299517 0.026289817 0.05841085 0.11873832 0.0060966355 0.01593428 0.025030889 0.0001949989 -0.09797599 -0.02765473 0.07586031 -0.03605917
l2172 -0.021778967 -0.11448019 0.020770878 0.015546132 0.021085959 -0.044752177 0.03105147 -0.052994285 0.029556692 0.07480201 -0.033509783 -0.04065351 -0.0036842653 0.01773861 0.07580527 0.0009998507 0.018106218 -0.021870751 0.039105803 0.017118786 -0.019664349 0.0377805 -0.020416865 0.00027137998 0.041173983 0.03771445 -0.037821755 0.14031224 -0.049071167 -0.08943323 -0.023508718 0.015753228 0.035019416 -0.02852041 0.026945986 -0.037977852 0.025699444 -0.12730207 0.03212275 0.05239458 0.03390861 -0.05628282 -0.033686947 0.020236222 0.023411142 0.031045426 0.0057359906 -0.06558517 -0.031516593 0.05278273 0.05713858 -0.020893186 0.0031531714 0.008686438 0.079539515 0.12217787 0.0075436393 0.023231778 0.010881415 0.00070004107 -0.072326645 -0.03847039 0.10205961 -0.019624285
l2161 -0.018992854 -0.13147005 0.02773362 0.019255053 0.0022686194 -0.015934836 0.04064494 -0.02755471 0.023579301 0.06251882 -0.056434225 -0.030357013 -0.018767923 0.032861292 0.051502977 0.011397815 0.039512713 -0.031576317 0.027178494 -0.0023394057 -0.025754187 0.024523085 -0.01201939 0.035297684 0.01192653 0.04845127 -0.018377423 0.12950622 -0.06463713 -0.102772124 -0.011654088 0.004773524 0.064758115 -0.034630224 0.0185505 -0.041033693 0.039279364 -0.12172035 0.015629113 0.04552717 0.03298478 -0.031776957 -0.02034598 0.011675872 0.030079473 0.07777997 -0.01109462 -0.046001393 -0.032409035 0.08138231 0.05528042 -0.026668185 0.0011689218 0.03567214 0.07674839 0.11233879 0.012633214 0.026865534 0.02577437 -0.0018326122 -0.11537022 -0.029838588 0.06918022 -0.03170739
l2170 -0.043356284 -0.116559654 0.020693507 0.018893862 0.0127899 -0.01916515 0.04405487 -0.021086892 0.026043115 0.05344298 -0.05726823 -0.026289586 -0.0324407 0.042284198 0.06468356 0.028365454 0.056188293 -0.04648452 0.02792962 0.015742676 -0.0059262267 0.03629854 -0.01951177 0.033186346 0.030359484 0.060218144 -0.06484015 0.13634942 -0.049669277 -0.11084541 -0.038906667 0.026478997 0.06978183 -0.059453174 0.026165823 -0.039626528 0.044795252 -0.110070735 0.023807442 0.058010437 0.031428616 -0.051006477 -0.020956207 0.035261076 0.04519296 0.06913977 0.008037407 -0.06378615 -0.03865615 0.10175199 0.054690596 -0.023175761 0.008339705 0.0402303 0.0578835 0.12256842 0.0027456572 0.020163568 0.0055091963 -0.01016205 -0.14216208 -0.044560634 0.11896959 -0.04042163
l2173 -0.010071105 -0.1025957 -0.0046506566 0.015425152 0.017111264 -0.032361265 0.018370938 -0.022924753 0.0073963646 0.050901018 -0.049110334 -0.030614777 -0.022244979 0.019319877 0.071193166 0.001496905 0.029126106 -0.03906123 0.042669103 0.031396832 -0.017350523 0.034269776 -0.016540384 0.03418866 -0.0076099373 0.05789695 -0.00680895 0.12075898 -0.038670763 -0.09828261 -0.004027382 0.0061654937 0.052698538 -0.023763012 0.037941054 -0.036688153 0.003473266 -0.12447788 0.041437484 0.05175446 0.018874208 -0.050160185 -0.03962058 0.041998148 0.043089878 0.074788295 0.005098487 -0.07393968 -0.015446203 0.076561436 0.04047819 -0.0042206133 0.013682501 0.03214615 0.07629345 0.10326755 0.0085822735 0.015074543 0.017929126 -0.011090618 -0.104313344 -0.03451624 0.07830319 -0.02905603
p1010 0.051402118 -0.06511499 0.053618647 -0.05369352 0.041572858 0.05747979 -0.07809371 0.06419302 0.061166093 0.053524796 0.035422295 0.049988676 0.056135338 -0.0632211 0.07047502 -0.07646193 0.0509278 -0.07942054 -0.056395918 0.06022166 -0.0758617 0.07487798 0.07479669 -0.06842456 0.08156107 -0.015989965 -0.04994891 0.08050215 0.07168522 -0.076156475 0.0370935 -0.075032994 0.0674489 -0.06183279 -0.055751096 0.06765825 0.051365715 -0.0459117 0.06416484 -0.057448298 -0.05766535 0.078252025 0.040219758 0.035205673 -0.07029929 0.039344814 -0.040705506 -0.0715164 0.075550765 0.07715312 -0.044939034 0.062399697 -0.07623016 -0.063210875 0.042503625 0.06733046 0.058025435 -0.06986511 0.07379628 0.05131523 -0.073962905 0.052767396 0.037273142 0.062435094
l4012 0.046806898 -0.07934193 0.07880915 -0.079836816 0.03438868 0.061903786 -0.064309515 0.05494179 0.06735622 0.07737374 0.038315598 0.05761593 0.07129391 -0.056287583 0.05975294 -0.060290553 0.07874827 -0.06851226 -0.041153695 0.077114776 -0.0739969 0.06375247 0.06897411 -0.07878436 0.06030431 -0.0093526915 -0.05270416 0.07740236 0.078300014 -0.055648632 0.0315195 -0.08037632 0.07407224 -0.0728355 -0.080204174 0.059859406 0.0669105 -0.053313624 0.06588083 -0.06361066 -0.07589268 0.056971934 0.03322299 0.042930417 -0.06407391 0.036697797 -0.03077857 -0.051809143 0.06421983 0.06851528 -0.04964152 0.08202111 -0.061405636 -0.06180383 0.032177687 0.077639565 0.06356922 -0.07373287 0.06800439 0.07550969 -0.055693377 0.068385 0.036078274 0.03372436
p1011 -0.037846655 0.021893943 -0.0029632421 0.006113352 -0.0064085308 0.0491424 0.012289431 0.000334859 -0.08504528 0.04743421 -0.081594475 -0.102931865 -0.011184179 0.082469836 -0.022514876 0.0028159802 -0.021550205 -0.061582316 0.020618232 0.059400287 -0.05986948 0.043004483 0.059289433 0.019847289 -0.030202702 0.016467992 -0.067404315 -0.0015851452 0.051951535 0.005648083 0.04036945 0.011860969 -0.0037511003 -0.055574805 -0.047761027 0.053883314 0.052580796 -0.058412734 -0.021857856 0.08368325 -0.05810953 -0.021104604 0.06402232 0.041151326 0.015940992 -0.018943256 -0.05282867 -0.058642443 -0.05319252 -0.09242053 -0.046343192 -0.023267081 -0.06855585 -0.0485368 -0.0047626165 -0.016691962 0.05408943 -0.00090679055 0.06566179 -0.013954804 -0.043274596 0.058710784 0.06379801 -0.048511345
l2728 -0.037671972 0.0416035 -0.02474866 0.028871212 -0.012948345 0.052599017 0.0040991516 0.025000937 -0.0675675 0.058906894 -0.074623406 -0.06973583 -0.03243536 0.06318888 -0.0046066386 0.012957328 -0.02811021 -0.054968674 0.040689524 0.060849953 -0.059992272 0.06492031 0.049750943 0.027507233 -0.028745089 -0.0067917327 -0.05006758 -0.009299446 0.063138016 0.004299143 0.05881797 0.023126353 -0.019832216 -0.046702605 -0.058889415 0.061967548 0.05300681 -0.046179462 -0.040151276 0.06980508 -0.061650593 -0.019550167 0.0654601 0.051796187 0.011193937 -0.010678857 -0.045599703 -0.05984665 -0.045057897 -0.06894746 -0.05575872 -0.02332097 -0.05298754 -0.057990283 -0.018558672 -0.032160047 0.051701017 0.024136782 0.039334055 0.0037084364 -0.072129376 0.042024676 0.05382794 -0.05084162
p288 -0.039052267 0.03996074 -0.01799132 0.04141884 -0.023074633 0.07659742 0.031361133 -0.0045467103 -0.067738734 0.06117766 -0.0782848 -0.0931115 -0.029042069 0.052015696 -0.031346835 0.011159339 -0.0015109562 -0.07627599 0.0386595 0.048359953 -0.07069662 0.065781444 0.073097445 0.007223522 -0.02986483 0.021398718 -0.06701433 0.06737719 0.08073842 0.010446491 0.054324154 0.016545115 -0.0017086534 -0.072382666 -0.057983458 0.07331348 0.07613667 -0.059839796 -0.036941312 0.08368583 -0.058338333 -0.027693411 0.0656724 0.07239851 0.026229465 -0.023500392 -0.0806637 -0.081433475 -0.034393232 -0.08427708 -0.054012988 -0.034152742 -0.076228864 -0.04630123 -0.023133026 -0.022673445 0.06409942 0.014162934 0.079892814 -0.016605234 -0.07988251 0.075166255 0.07632393 -0.045706615
l2727 -0.033406645 0.033391893 -0.022151947 0.031287253 -0.033812538 0.07899959 0.032868225 0.033424616 -0.06865789 0.05723717 -0.0995819 -0.099490374 -0.022970058 0.05001063 -0.052717462 0.042757086 -0.022965437 -0.07924069 0.057733446 0.059198365 -0.059963845 0.07537544 0.05982731 0.035771396 -0.037421662 0.026906947 -0.08134571 0.06199041 0.06691452 0.03661099 0.06249051 0.0190576 -0.011561538 -0.057024024 -0.07189404 0.077855 0.07686291 -0.076020144 -0.032782663 0.077648774 -0.067187406 -0.045242574 0.055978253 0.07474249 0.048639756 -0.026835924 -0.066842064 -0.0682609 -0.07121997 -0.10322483 -0.052293263 -0.024600113 -0.08225948 -0.060982477 -0.04295831 -0.05122552 0.070302494 0.02562243 0.080079615 0.01038822 -0.067942776 0.07854292 0.08148116 -0.05309574
l2729 -0.013866591 0.041859727 -0.018266702 0.027380334 0.001249498 0.043702345 0.007089026 -0.0014794606 -0.06997556 0.055680733 -0.077125944 -0.07193727 -0.013968335 0.037946824 -0.02269513 0.020417558 -0.0018239912 -0.062381327 0.034531314 0.061414022 -0.051125452 0.05677126 0.056974705 0.011738281 -0.011097725 0.02596227 -0.04324565 0.05253735 0.05149472 -1.8758219e-06 0.054647036 0.008425768 -0.0006249113 -0.03779037 -0.030571373 0.041485094 0.0405424 -0.053575333 -0.024537105 0.07074458 -0.050883416 -0.004048504 0.042098463 0.061589822 0.027555376 -0.021103304 -0.06318039 -0.048862014 -0.039669685 -0.08607208 -0.040094018 -0.01270032 -0.035237886 -0.056857314 -0.02551405 -0.030437052 0.032152437 0.018352538 0.05014678 -0.021275379 -0.05475231 0.06092667 0.033594195 -0.034187466
p1012 0.042920377 -0.023377076 0.012942949 -0.00538904 0.020977052 0.034584492 0.0023048494 0.027791142 -0.010569411 0.046102386 0.035123575 0.036488153 0.012312944 -0.00086872076 0.016112061 -0.02023917 -0.0046288436 -0.043642692 -0.02469992 0.054577127 0.00093782065 0.019001722 0.004246242 -0.010195947 0.033178866 0.0025287427 0.002100559 0.05338133 0.011013952 -0.052947517 0.018224847 -0.023615127 0.053097636 -0.050662242 -0.012224198 0.044815823 0.041922394 -0.013129536 0.01384901 -0.020707346 0.0022576298 -0.0031334888 0.01944963 0.013004093 -0.036272507 0.01279155 -0.0015521398 0.0057081464 0.019362267 0.04495092 -0.02052526 -0.0041328394 -0.044719297 -0.04305431 0.024788857 0.00025995527 0.04812918 -0.017775178 -0.005244404 -0.00401143 -0.031046625 0.034866795 -0.004252149 0.0498943
l3656 0.035328444 -0.0053693214 -0.0025638621 -0.021144845 0.0073126545 0.05378128 -0.01024512 0.006534071 0.012998546 0.052248374 0.049541254 0.04522745 -0.0031911533 0.015778996 -0.0040995083 -0.0038130328 0.010765244 -0.039378252 -0.002375169 0.051348466 0.0011649857 0.00023206277 0.0301043 0.0024870634 0.038844567 -0.0144534325 0.005485011 0.053804282 -0.00082289864 -0.045263708 0.007423094 0.0029373607 0.05346053 -0.053941604 -0.01196633 0.05227618 0.04714207 0.013497602 -0.004098225 -0.00076006143 -0.023262778 0.018488735 0.056193557 0.011694385 -0.044198 0.022352673 -0.019869903 -0.015715301 0.01011924 0.035525568 -0.012214828 0.0029311157 -0.054291926 -0.045467585 0.0057502715 0.017566819 0.029443549 -0.008362277 0.02348578 0.008451015 -0.05508271 0.04969774 -0.0053454903 0.04289758
p781 0.05443104 0.003765604 0.021348651 -0.006479089 0.0015426533 0.04143697 -0.016191699 0.019305943 -0.015246677 0.035390027 0.038337912 0.045665514 0.0020128847 0.0042759557 -0.0048161075 -0.014790737 0.012461666 -0.051032525 -0.017315378 0.05220035 -0.023642683 0.015870145 0.035198055 -0.018968519 0.02010652 -0.02722402 -0.00806601 0.0474154 0.022945056 -0.055542424 -0.0034205462 -0.009142309 0.048940938 -0.041298877 -0.011098795 0.031801347 0.047327667 0.011652297 0.02211701 -0.014633514 -0.0066399933 0.009469346 0.011926226 0.017493013 -0.04804119 0.009206256 -6.204991e-05 -0.0036155803 0.0029452678 0.05535354 -0.00596185 0.01852568 -0.04540295 -0.049374532 0.014363213 -0.003883759 0.056072894 0.0028199314 -0.004588097 0.02541353 -0.039554607 0.04545313 0.023427006 0.052563563
l3657 0.047275 -0.011035667 0.055221908 -0.003291208 0.015976835 0.032797128 -0.009099344 0.018968696 -0.016369209 0.043375604 0.0521588 0.0457361 0.016196452 0.015115752 0.023831751 -0.0036936735 -0.0047156895 -0.053682543 -0.051831678 0.03137345 0.0048208423 -0.0005687525 0.055404883 -0.0023419643 0.009658714 -0.018991288 -0.024831362 0.05507699 0.044105705 -0.03472345 0.01604086 -0.013023432 0.03463375 -0.051245946 -0.011479626 0.043990072 0.04349545 0.016514434 0.0025178932 -0.0014786335 -0.004056613 0.0075182053 -0.0022066678 0.012288454 -0.04043199 0.005118497 -0.026188344 0.002261688 0.007170517 0.033338293 0.0033083828 0.002937247 -0.03205761 -0.044476673 0.0060120383 0.025078427 0.04585773 -0.0145681705 0.025029121 -0.0014099539 -0.05305709 0.05140522 0.013191741 0.048697174
p1013 0.10095813 0.097935446 -0.12966932 0.11768399 0.07140117 -0.16457064 0.0719907 0.1293911 -0.15457508 -0.11079879 0.17744543 0.18733609 -0.15281436 0.059100516 0.11508256 -0.1951733 0.07002987 0.11011955 -0.20589969 -0.08298831 0.20020857 -0.08603894 -0.119118094 -0.14949054 0.12791449 -0.08680643 0.1935074 -0.23062 0.09204957 -0.041950993 -0.123665474 0.12301794 0.19700122 -0.0886315 0.09412213 0.106872626 0.12432567 0.10553891 0.08497238 -0.25639632 0.092977956 0.139921 -0.15829882 -0.054157354 -0.1280809 0.13458022 -0.11748223 -0.111301325 0.10261542 -0.16130267 -0.18108228 -0.11726853 -0.099525824 -0.1280632 0.123119935 -0.17784385 0.122071244 -0.0053040306 -0.12823404 0.15328434 0.11849192 0.18474394 -0.08312374 0.105314314
l4013 0.069397226 0.08321447 -0.0895316 0.1016639 0.049238436 -0.11417451 0.054031324 0.08881293 -0.13019677 -0.06119363 0.10619482 0.11193266 -0.111808576 0.04619628 0.09862628 -0.14200349 0.04589794 0.09079404 -0.14973931 -0.06733917 0.14616808 -0.054540135 -0.07946859 -0.109279715 0.09033285 -0.06493087 0.16189142 -0.20718065 0.06945417 -0.04835533 -0.092704736 0.07471483 0.14015678 -0.0585766 0.06594363 0.086132444 0.10679203 0.05683853 0.054616947 -0.21679042 0.07319673 0.11156559 -0.1147942 -0.013606736 -0.09642508 0.10285538 -0.08456598 -0.08198668 0.09293581 -0.117305264 -0.14891778 -0.076136634 -0.061701804 -0.112803906 0.08508845 -0.1434345 0.08928272 -0.023123594 -0.09004465 0.10443037 0.07563188 0.13735233 -0.06465142 0.08078451
l3097 0.08144491 0.12165963 -0.117793 0.11573047 0.037409052 -0.12818584 0.0972409 0.108532384 -0.12440775 -0.0982699 0.14725322 0.1856613 -0.14320141 -0.07480768 0.07873078 -0.15801927 0.004175923 0.11477829 -0.16598652 -0.051953696 0.17846267 -0.061407797 -0.10767091 -0.11446937 0.13799176 -0.13453661 0.15487105 -0.16204663 0.12986068 -0.06063905 -0.13254811 0.09701999 0.16991013 -0.09694771 0.1255778 0.08039051 0.13019933 0.09061346 0.14111087 -0.23066416 0.13282348 0.09733137 -0.14065816 -0.104628906 -0.12830314 0.10726534 -0.113649525 -0.09958194 0.107328355 -0.12673332 -0.19278191 -0.10148404 -0.07909289 -0.1202536 0.10941162 -0.14490974 0.12291489 0.07112582 -0.1299032 0.096943766 0.10658081 0.14912835 -0.11015925 0.10187019
p449 0.075141355 0.12736647 -0.107467964 0.11013141 0.061420806 -0.13285655 0.1016995 0.11991792 -0.10892361 -0.11122903 0.15442662 0.1849945 -0.15092024 -0.07839699 0.10893713 -0.16313876 0.030220505 0.13092504 -0.17420416 -0.06715764 0.16767804 -0.085432895 -0.1007228 -0.10894752 0.104795225 -0.14960721 0.14389187 -0.17674887 0.10444602 -0.085309654 -0.13585985 0.09435221 0.17861147 -0.11986145 0.13644534 0.077639535 0.1341181 0.079669625 0.13355193 -0.24236654 0.14356916 0.10277857 -0.12369729 -0.11145134 -0.12537189 0.10654126 -0.11309562 -0.10722432 0.10819953 -0.12933338 -0.20378464 -0.12114435 -0.07590506 -0.10559565 0.10619556 -0.15431847 0.1049409 0.07247559 -0.13903333 0.09313373 0.108136885 0.14237009 -0.109680206 0.10066648
p798 0.051774118 0.07176538 -0.1033786 0.12944604 0.0523359 -0.120281555 0.07110381 0.07419054 -0.1268038 -0.10964921 0.19007176 0.16159372 -0.14664465 -0.010562222 0.09788012 -0.12527949 -0.060841814 0.081827685 -0.15092689 -0.044325724 0.17941837 -0.04087519 -0.08719969 -0.08010368 0.12582026 -0.11681527 0.18884377 -0.16989565 0.071107045 -0.061024092 -0.121686466 0.08904898 0.15558551 -0.113214985 0.12906435 0.09568876 0.14275287 0.070101134 0.14292882 -0.24812445 0.12061878 0.10965323 -0.11627085 -0.1303492 -0.12800175 0.10430676 -0.07462127 -0.062874354 0.086963765 -0.08493447 -0.21108928 -0.11610852 -0.08509581 -0.093092404 0.12621833 -0.13964805 0.11321936 0.06767704 -0.09850952 0.083555855 0.14308366 0.099300005 -0.095511645 0.10485016
l3683 0.063183375 0.06584178 -0.12738995 0.120707 0.073302016 -0.1263996 0.06664167 0.08023771 -0.13627338 -0.11513643 0.2014922 0.18859723 -0.13504374 -0.0016931269 0.08301085 -0.16400935 -0.0799144 0.08210229 -0.17909871 -0.04174164 0.19962466 -0.052210547 -0.08968883 -0.0974399 0.1352698 -0.14350523 0.19112855 -0.15566896 0.07570241 -0.063297026 -0.1325365 0.083847426 0.15014964 -0.11282259 0.13089822 0.10820594 0.14344071 0.09084836 0.15643314 -0.26260534 0.13942616 0.08410209 -0.123214506 -0.11583845 -0.13305266 0.12102327 -0.07570607 -0.060014516 0.093389824 -0.08527615 -0.20847505 -0.117478035 -0.07681862 -0.09085868 0.12547676 -0.16935864 0.13062759 0.10203472 -0.09754845 0.055358313 0.14981905 0.12935428 -0.10940671 0.116734974
p790 0.06625657 0.113824986 -0.068732195 0.11105348 -0.009882157 -0.11557344 0.099428706 0.11632939 -0.09943299 -0.09233134 0.118047915 0.17875136 -0.14436156 -0.08530244 0.071303196 -0.13239841 0.06661361 0.11062588 -0.1458291 -0.08436143 0.1584551 -0.07267535 -0.07664658 -0.09374357 0.10796932 -0.116364144 0.13793817 -0.16733867 0.10366467 -0.081683055 -0.11342099 0.08953625 0.16240016 -0.10433233 0.13306922 0.09376648 0.10476324 0.09707653 0.08512451 -0.2024656 0.114375845 0.10600935 -0.12561253 -0.11787368 -0.08305635 0.09239395 -0.06483813 -0.09389731 0.1085238 -0.10291792 -0.21250744 -0.1254207 -0.05149418 -0.09023479 0.10941261 -0.15465315 0.09298677 0.047523096 -0.12421692 0.093089245 0.066674255 0.15545087 -0.10649601 0.08553016
l3667 0.08737573 0.13516016 -0.096205294 0.10983527 -0.017716039 -0.13609454 0.09853602 0.13167405 -0.10916486 -0.0854777 0.15774935 0.2290007 -0.14476891 -0.10386644 0.061528713 -0.13568634 0.0926758 0.09866975 -0.14661689 -0.09741164 0.18432663 -0.07412274 -0.071096644 -0.11512469 0.10749685 -0.15413947 0.14573374 -0.19915979 0.13981642 -0.06746929 -0.13532495 0.11778243 0.16781165 -0.101390034 0.12431537 0.09541908 0.09819522 0.09256221 0.11526667 -0.24268843 0.12774822 0.08544044 -0.12299713 -0.15010896 -0.0867329 0.11301201 -0.06998917 -0.086407535 0.1274012 -0.14745834 -0.23859523 -0.13411526 -0.052085843 -0.11043434 0.1479337 -0.1500172 0.12819244 0.06672907 -0.13046089 0.116615966 0.08970144 0.18027477 -0.1283498 0.10105661
p542 0.058410987 0.11037448 -0.077748306 0.12336528 0.051459495 -0.0742067 0.08822402 0.072519444 -0.10804863 -0.074638605 0.14871362 0.16946445 -0.123731636 -0.06292589 0.074226655 -0.14293937 0.04094286 0.086188555 -0.10761965 0.020228095 0.1669009 -0.048117623 -0.10667406 -0.07580221 0.06734364 -0.1368418 0.13445328 -0.12804818 0.07561543 -0.048592836 -0.08896978 0.061536923 0.12678938 -0.07178097 0.07015095 0.062135473 0.15052341 0.069568515 0.10322029 -0.21574475 0.11843573 0.062109187 -0.122187525 -0.13150951 -0.10357037 0.07588857 -0.10469762 -0.06779774 0.0904892 -0.11423798 -0.19646493 -0.089639775 -0.07401657 -0.105672084 0.11112131 -0.1328597 0.07831231 0.056486398 -0.09733049 0.055004355 0.14089154 0.09354166 -0.08071552 0.063010395
l3259 0.05005426 0.108005345 -0.07580488 0.11210448 0.05544783 -0.08012441 0.08568836 0.07975763 -0.10784071 -0.072491825 0.15633936 0.17881075 -0.12961824 -0.054024473 0.049746983 -0.13171743 0.01004855 0.07898284 -0.0991423 0.046421707 0.14164105 -0.06285753 -0.09824086 -0.088109545 0.08960652 -0.13360107 0.14139062 -0.1252691 0.059276532 -0.030073803 -0.08937096 0.03733483 0.1528902 -0.04840953 0.058761846 0.0693747 0.1595582 0.06589102 0.11279489 -0.19817166 0.12683117 0.0447252 -0.11405596 -0.12676787 -0.08808081 0.06559744 -0.10956631 -0.0514221 0.069176674 -0.11621038 -0.20424928 -0.0878577 -0.08334069 -0.11362031 0.12070425 -0.103270225 0.06878749 0.04579144 -0.10264827 0.04313209 0.15584467 0.075910434 -0.062173855 0.057110716
p548 0.057773054 0.07477853 -0.042038787 0.0893354 0.052913867 -0.12100346 0.09709662 0.095637925 -0.09371825 -0.093205266 0.13917735 0.13258398 -0.152803 -0.10704233 0.0839576 -0.15540348 0.06797839 0.107990034 -0.15189672 -0.040131617 0.1421835 -0.027007783 -0.06653316 -0.053348165 0.081669144 -0.108962744 0.1624449 -0.13034037 0.09890031 -0.065392084 -0.08829537 0.08244814 0.160787 -0.10645908 0.12880757 0.023635743 0.13336635 0.073173724 0.089643344 -0.19470865 0.11235178 0.09865469 -0.10833554 -0.11498484 -0.08854002 0.105659865 -0.0747238 -0.015761634 0.09647476 -0.10628699 -0.18987219 -0.121589124 -0.035405204 -0.08252975 0.07474618 -0.13378589 0.09668236 0.02627921 -0.12535988 0.02743044 0.125356 0.10030987 -0.06573251 0.071656406
l3266 0.03380958 0.08089313 -0.020228328 0.07966039 0.04613613 -0.0876213 0.07091727 0.07241118 -0.05823442 -0.057214145 0.102865495 0.097948834 -0.13203634 -0.07548261 0.051197242 -0.10005484 0.053820077 0.08826588 -0.13050255 -0.04774793 0.1218006 -0.0038031065 -0.06174363 -0.054887846 0.050971687 -0.093755245 0.1374105 -0.112389 0.070294715 -0.03867275 -0.0712555 0.074921265 0.13737442 -0.114820965 0.09241919 0.005236776 0.0874941 0.029986583 0.070935436 -0.18709594 0.1058737 0.0892998 -0.10498416 -0.08083811 -0.091477044 0.10633417 -0.07581824 0.012338513 0.061575577 -0.08007573 -0.1437959 -0.091937214 -0.037641566 -0.077067144 0.042209167 -0.10234581 0.103788346 0.006514778 -0.096976124 0.0022865161 0.11271393 0.09233194 -0.044354163 0.048197728
