3900 64
b0 -0.068907626 0.26601017 -0.24237515 -0.1868777 -0.37236568 -0.25459856 0.39538142 -0.120878585 0.054560363 0.36725786 -0.37980965 0.6010421 0.27331218 -0.20167461 -0.20325541 0.02537954 -0.41666153 0.5578788 0.17590426 0.56505907 0.20226555 0.29648888 -0.18844995 -0.05700856 0.3603883 -0.23706037 -0.0152157955 0.32620612 0.6245703 0.33945492 0.9539064 0.33938992 0.73856324 0.2726504 -0.08353078 0.12871708 -0.17918737 -0.024123639 -0.41889316 -0.9216047 0.42267928 -0.16853133 0.29527876 -0.6641261 0.21071285 -0.24084012 -0.07465928 -0.8398664 0.117937125 -0.47318864 0.2939307 -0.3511901 0.16059147 -0.24227712 0.2458094 -0.24736369 -0.1934673 -0.02751058 0.10621768 0.28108555 0.05005778 0.0028407201 0.12802234 0.3886462
u615 -0.30466488 0.2145243 -0.487539 -0.19573845 0.010880682 0.018041627 0.3338123 -0.013317115 0.30733696 0.37636575 0.4249894 0.32807484 0.22751167 -1.1579415 -0.99333656 -0.049629793 -0.117683925 0.50882864 0.21622148 0.5599964 0.40144652 0.15954316 -0.40942 -0.23632094 0.16626538 -0.2953021 -0.3788196 0.07192253 0.33159795 0.031925354 0.392647 0.617041 1.154034 0.47725168 -0.17973013 -0.12297209 -0.43515772 0.14886516 -0.8191527 -0.52996004 -0.10032246 -0.1825874 0.06684969 -0.6613998 0.015986541 0.3035378 0.124050744 -0.87340105 0.115399845 -0.25717708 0.5035649 -0.25053877 0.7915644 -0.16392094 -0.019808218 -0.30336756 0.2094109 0.119927056 -0.1432901 0.052738857 0.023326883 -0.025662668 -0.33531916 0.42497012
b186 -0.21080454 0.70780927 -0.25430658 -0.13555346 -0.23309392 0.28580093 0.21870132 -0.13513161 0.24827302 0.18004248 -0.089622095 0.20956677 0.36229175 -0.610113 -0.25493246 0.03519545 0.31980786 0.1776181 0.19895975 0.17117658 0.32325146 0.6388285 -0.34455535 -0.37808666 0.109849 0.1148816 -0.031091435 -0.027076596 0.53225964 0.20404774 0.6066727 0.6427402 0.47622094 0.35021105 0.2742738 -0.17142518 0.0032372396 -0.06497183 -0.5831687 0.0072718114 -0.10028748 -0.19850074 0.72177637 -0.49868897 -0.044194326 -0.7946848 -0.26417214 -0.5256345 -0.12668905 -0.17393513 0.38653514 0.08733683 0.07700011 -0.064223826 0.050083984 0.06282696 0.08175809 0.31321922 0.05025036 0.12253052 -0.048603203 0.16925354 -0.16595659 0.21336226
u1168 -0.09958693 0.29742014 0.38158005 0.29024485 0.17280325 0.094477534 0.34422576 -0.44792348 0.3358393 0.2557565 -0.253419 0.44911242 0.6547326 -0.07242202 -0.16409129 0.4315476 -0.14307676 0.40126422 0.7247153 0.16186213 -0.084604904 0.41065338 -0.50050515 -0.47560433 0.19804844 0.4570984 -0.16608748 0.18995443 0.6911852 0.5998231 0.61489815 0.008536474 0.066017285 0.8960983 0.22793293 0.037071947 -0.3618906 -0.3450897 -0.3521869 -0.09118925 -0.021475969 0.20541126 1.0249698 -0.61147255 0.5454963 -0.5431767 -0.44607854 -0.017144322 -0.2980048 -0.39421088 -0.03836707 -0.07541993 -0.37905556 -0.2548981 -0.09747444 -0.16651316 -0.046447568 0.58732486 -0.47100183 0.5549281 -0.38903752 -0.18062323 -0.22872302 0.61107135
b1990 -0.21050501 0.12031 0.05560509 0.17925918 0.19108249 0.30434558 -0.009317883 -0.51281554 0.26278532 0.22126251 -0.29712817 0.45025256 0.3463789 -0.037613053 -0.17322385 0.33795726 -0.28322512 -0.0680366 0.37565216 -0.022648172 0.13979504 0.34624523 -0.09180693 0.43064117 -0.41172874 0.46744055 -0.4507826 0.3444321 1.0710822 0.62172425 0.025721714 0.15321359 0.3668507 1.3683976 0.32428485 0.0034265053 -0.77839404 -0.24500106 0.064846195 -0.7380814 -0.628331 -0.22862568 1.3663269 -0.052554086 0.8604802 -0.6131586 -0.823337 0.07408179 0.26737073 -0.36917773 0.15721242 -0.69407845 -0.46321967 0.00995092 -0.42056972 -0.17703268 0.34979054 1.0189478 -0.26468498 0.36553386 -0.25941202 -0.31415632 0.30309442 0.54564846
u1013 -0.14161254 -0.0043638228 0.23757334 -0.11520232 -0.20948255 0.12836914 -0.28997308 -0.1738598 0.072690606 0.03566533 -0.67022985 0.2583449 0.10124405 -0.3704409 0.04883274 -0.62920976 0.032097768 -0.05192566 0.15700512 -0.12994157 -0.41109693 0.2958197 -0.19774747 0.43162128 -0.17641452 0.06473713 -0.47747615 0.03725411 0.67657965 0.61896515 0.29645234 0.08883995 0.22593734 0.7523955 0.438502 -0.28355518 -0.49064723 -0.09722911 -0.2122005 -0.7211147 -0.40425617 -0.4367259 0.74077874 -0.49369124 0.4007268 0.120262764 -0.6800645 -0.6194947 0.35466173 -0.585122 0.13585682 -0.6021791 -0.41367328 0.11873486 -0.0614429 -0.30622873 -0.05497294 0.48446792 -0.060845293 0.34780982 -0.43580285 -0.23424983 0.025497206 0.47727418
b1023 -0.18959464 0.7072738 -0.07923209 0.091196634 -0.09391769 0.25060952 -0.3458641 -0.29202828 0.27722883 0.4185266 -0.74646145 0.5427974 -0.074720584 -0.5285499 0.19124524 -0.5569901 0.12848902 0.37968478 0.077885225 0.08574684 -0.77808803 0.18155298 0.09533134 -0.34678742 0.5065456 -0.265491 -0.4033566 0.0012202356 0.7304223 -0.0740158 0.27244765 -0.0627209 0.40219632 0.48629543 0.2785783 -0.70256364 -0.25174943 0.10504399 -0.600822 -0.84943473 -0.32118648 -0.60768396 0.4588983 -0.6741562 -0.08893247 -0.19689968 -0.84143996 -0.604795 0.19589937 -0.6451127 0.6035847 -0.85636973 -0.24921095 -0.4624825 -0.011940952 -0.4307377 -0.4533507 -0.43233752 -0.53275037 -0.09879719 -0.3699632 -0.3939441 -0.10077676 0.7493855
b456 -0.10605222 0.42840412 -0.103275366 0.083742894 -0.30924684 0.30240053 -0.26076552 -0.14505666 0.11910203 0.29931614 -0.08511339 0.48800802 0.231031 -0.32655993 0.12436217 -0.31450042 -0.32361656 0.058176752 0.19693875 0.11261441 0.2698012 0.4882478 -0.031811614 -0.2561442 0.013071431 0.0688115 -0.40613335 0.058808714 0.7426684 0.40748173 0.6993766 0.55325955 0.43760896 0.5480927 0.27538952 -0.1786531 -0.43773028 -0.34400105 -0.16099311 -0.55076385 -0.040110186 -0.25980678 0.2692696 -0.24386524 -0.32123384 0.15605299 -0.3402417 0.005604493 0.2979836 -0.42902187 -0.11962226 -0.36582485 -0.23899406 0.27644148 -0.046413325 0.24792534 -0.021435665 0.24523667 0.17786296 0.52611744 -0.3596856 -0.16741015 -0.06498741 0.47762966
u56 0.3706719 0.3492567 -0.030124692 -0.13761643 -0.56723917 0.6708838 0.02596747 -0.5268777 0.18100573 0.25870082 -0.3271143 0.5007549 0.52419066 -0.11330854 -0.12289242 -0.6671196 -0.0919564 0.08510262 -0.27324238 0.5294064 0.041243214 0.11686627 -0.123664774 -0.5199855 -0.0044766506 -0.27479443 -0.25854552 -0.08310335 0.6957517 0.60448486 0.880398 0.3727929 0.31078008 0.1579721 0.2634497 -0.11350857 0.042801302 -0.19073547 -0.4256246 -0.7260382 0.023411902 0.12179846 0.6229991 -0.15985769 -0.5178662 -0.20332165 -0.7199575 0.00035909427 0.25614774 -0.5373381 0.12388846 -0.32734883 -0.26140362 -0.005481029 0.060047574 0.19697388 0.094411835 0.109830685 0.2783668 0.26480043 -0.07142551 -0.059750605 0.12635957 0.34053594
b203 -0.46871367 0.07734012 0.38170347 -0.625134 -0.64542055 0.36484408 -0.4644201 -0.39696026 -0.007848251 0.42863336 -0.22305663 0.65160686 0.70482296 -1.0149299 -0.29652482 -0.31127813 0.15746988 0.6558902 0.028135316 0.36035883 0.42409837 -0.35168877 -0.31076205 -0.4054716 0.34823316 0.18063416 -0.054481126 0.21107554 0.7631209 0.7200462 0.36881545 0.580132 0.117552176 0.42026746 0.11083203 0.44867414 -0.31723082 -0.048758913 -0.7563835 -0.4502399 0.44023183 0.16041636 0.9666303 -0.43318254 -0.43463907 -0.5097872 -0.040007915 0.32798308 -0.2988764 -0.46380952 0.006173579 -0.0136135025 -0.21256436 0.30098 -0.3822867 0.24104725 0.34421465 0.066980846 -0.03386758 0.41706094 0.43420488 -0.16691151 0.052632853 0.3477866
u315 0.0650212 0.070304886 0.32309046 -0.088910155 -0.23589674 0.29283595 0.171305 -0.13570915 -0.06868034 0.21348877 0.01794764 0.23017205 0.5673307 -0.79763293 0.2129784 -0.168137 0.18922627 0.16093697 0.2972065 0.22044337 -0.38011417 0.13519673 -0.44562462 -0.2763322 -0.05527341 -0.21106446 0.023834737 -0.010625168 0.5669093 0.52945024 0.40342027 0.7314988 0.6119542 0.6004593 0.47491333 0.036470566 -0.47537145 -0.0054264474 -0.60276383 -0.22777903 0.63631517 -0.19485986 0.120127335 -0.008550654 -0.3846019 -0.5196421 -0.2722063 -0.5196619 0.31414542 -0.2054722 0.14855266 -0.4276872 0.076829664 0.1281988 0.1961579 -0.026638055 0.08288501 0.601632 0.34705293 0.39318225 -0.041846745 0.1955578 0.082673915 0.09153848
b1752 0.44048163 -0.5122978 -0.7554731 -0.117584474 -0.77291083 0.019251646 0.107829645 -0.80230206 0.5673958 -0.03645524 0.30884695 0.34262848 0.8798817 -0.7918002 0.18659076 -0.26962718 -0.19871806 -0.35003904 -0.164726 0.2930664 -0.42064255 0.4870177 0.68238825 0.34893656 -0.03663689 0.36720333 0.11138777 -0.041971415 0.5008912 0.005736914 0.17380364 1.0600123 0.4229664 1.1101954 0.68535215 -0.16762279 -0.33462524 -0.46970004 -0.13723458 -0.33806044 0.2562233 0.12817408 1.0082507 0.12805633 -0.30048516 -0.7620316 -0.17543155 -0.16198635 0.19162934 -0.21972652 -0.1371227 -0.2957145 0.06758375 0.011354306 -0.3261851 0.38529575 0.8071168 0.15697342 -0.21655285 0.8601063 0.007154546 -0.1958438 0.30803162 0.15774676
u563 0.20686406 -0.12167403 -0.56587464 0.71444935 -0.24080898 -0.078499496 0.59158343 -0.13351856 0.6255278 0.47366908 0.6572159 0.11303275 0.9263092 -0.15915851 -0.38520384 -0.008479174 -0.5768445 -0.12601373 -0.3529752 0.025514673 -0.42705578 0.67348737 0.38641626 -0.058081258 0.12012944 0.3769284 -0.42705724 -0.2575528 0.3996117 -0.48785448 -0.3013433 0.34980533 0.42705077 0.669916 0.7089881 -0.19064517 0.18687288 -0.17492001 0.045077786 -0.66703147 0.26125982 0.038002297 0.26128754 -0.1390069 0.38947532 -0.5547769 -0.6717027 -0.5442982 0.2847785 -0.7037039 -0.036182333 -0.36096126 -0.36392665 0.17688496 -0.2500537 0.7143627 0.5916926 -0.047554176 0.37697342 0.20174924 0.16616662 -0.12018719 0.21950218 0.6195677
b1358 0.076837964 -0.018051554 -0.5006501 -0.05488791 -0.25575593 0.19314888 0.55241686 0.029624494 0.23783207 0.39213616 -0.068196096 0.57215047 -0.15314777 -0.41013977 -0.19776614 -0.352984 -0.21954395 0.06770557 -0.08490162 -0.32616344 -0.8456327 -0.01864681 0.45475125 -0.14839831 -0.45628834 0.1267576 -0.23869866 -0.37333584 0.78986484 -0.09019516 1.053203 0.16798747 -0.13705517 0.4170601 1.0002106 0.08816017 -0.17893176 -0.12506205 -0.5223758 -0.48780084 0.6760246 -0.33565348 0.7473709 -0.58194935 -0.35264876 -0.17419122 -0.25347933 -0.4321985 0.61939883 0.11688053 -0.29614228 -0.2681007 0.1211278 0.16989113 0.20894115 -0.042506598 0.8957776 -0.099237554 0.21689665 0.5223152 -0.06426593 0.188605 0.4582578 0.50509644
u1246 0.4970477 0.25993901 -0.16980577 0.07688304 0.14169417 0.45316485 0.2539526 -0.11882348 0.42011535 0.3257876 0.0061242213 0.5321225 0.4791514 -0.9157815 0.09545519 -0.512643 -0.14838526 -0.16989708 -0.02509731 -0.08693668 0.035145503 0.2496573 0.36586568 -0.095542155 -0.52347964 -0.064544275 -0.31032306 -0.2126368 0.7903861 0.37849203 0.5819493 0.34013495 0.4494483 0.619185 0.61888176 -0.06353049 0.09026632 -0.1516157 -0.062117066 -1.0512351 0.65067124 -0.53635603 0.36365134 -0.3499966 -0.75293285 0.11454758 -0.27451864 0.03229952 0.1403157 -0.26620793 -0.31859323 0.029027209 -0.3066563 0.5623503 0.089019164 -0.22155316 0.7180892 0.24216977 -0.15245171 0.15657581 0.028181754 0.12844157 0.15193957 0.3843807
b260 0.30404875 0.18804318 -0.16048184 -0.17594917 -0.34543923 0.65765953 -0.2546688 -0.61396044 0.038708128 0.4094883 -0.07210229 0.5201867 0.5736863 -0.42370915 -0.18807428 -0.24925008 -0.12606922 0.24701868 0.11554318 0.10585778 0.084071316 -0.14359295 0.35908177 -0.22840723 -0.22387987 0.052529056 -0.17877285 0.29220492 0.49290615 0.2952745 1.0573926 0.3712661 0.649511 0.4075044 0.2526833 -0.41404492 -0.11587608 -0.54444313 -0.17363082 -0.29009193 0.21245506 -0.08666076 0.3491664 -0.82338375 -0.46284047 0.06357615 -0.58144236 -0.058492023 0.17927283 -0.12889308 -0.044547826 -0.00035516574 -0.3365531 0.21626638 -0.0818592 0.20296693 0.002720072 -0.011943474 0.19241463 0.090771325 0.043698616 0.3012478 0.32779455 0.604735
u1061 -0.16666467 0.66973704 -0.24964987 0.18437669 -0.44807056 0.3517395 -0.08680496 -0.520396 0.5795457 0.12396546 -0.26696885 0.30882275 0.56842893 -0.42027515 -0.21071722 -0.039865714 -0.25322753 0.41437793 0.24173915 0.28792545 0.42914763 -0.10069575 -0.16458282 -0.19831981 0.42624453 -0.30940917 0.06731084 -0.19131175 0.5897893 0.113108404 0.7990086 0.80565214 0.41146222 -0.43736246 0.3187836 -0.2130192 -0.054361165 -0.15045364 -0.23787078 -0.27575728 0.30217713 -0.33726948 -0.27791858 -0.3211394 -0.2041197 0.18544093 -0.8963452 -0.1972841 0.08532118 0.15998302 -0.15942653 0.0153405545 -0.26868123 -0.1889989 0.078581095 0.10637774 0.014086737 0.116749465 0.45926407 0.99059695 -0.023061432 0.105873525 0.007821446 1.1283268
u44 -0.44280314 0.33471975 0.11662653 0.23737182 -0.17406043 0.62881994 -0.016383085 -0.06871649 0.47090715 0.6613457 -0.23631872 0.5225135 0.50716937 -0.5435575 0.016322307 -0.7969185 0.3538403 0.09096134 0.15422271 0.046224434 0.008181293 -0.1418058 -0.24716927 0.035353787 -0.16125767 -0.34705833 -0.021308273 0.24441616 0.5447144 0.54731137 0.7152158 0.83129483 0.4340344 0.17234859 0.10196662 -0.097107664 0.18366341 -0.21317782 -0.5886749 -0.37249997 -0.17620373 0.36769313 0.98015434 -0.11648328 -0.271237 -0.03483518 -0.20855272 -0.1593736 0.08678139 -0.18001072 0.1385595 -0.6430488 0.11267094 0.124844044 0.5300974 0.067684315 0.22152498 0.46263108 0.46304208 0.84346515 -0.094853416 -0.3934633 0.1438978 0.6592115
b1470 -0.2738083 0.21621524 0.5317219 0.27318117 -0.9357985 -0.035062894 -0.07919436 -0.06672194 0.5930969 0.98024166 -0.1729871 0.2636209 0.8194719 -0.4902029 0.050207287 -0.26285547 0.50778496 0.54289347 -0.07644699 -0.309973 -0.07035741 0.6208102 0.058277335 -0.28579542 -0.6332391 -1.0160422 -0.45276567 0.18490325 0.5018511 0.5945948 0.75927335 0.46450877 0.2690427 0.401024 0.026188904 0.10839682 -0.0038317977 -0.22476609 0.1354444 -0.44997358 0.017326992 -0.019805064 0.32031417 -0.072945006 -0.78955466 -0.4796409 -0.3206177 -0.43655866 0.11019629 -0.156677 0.047055088 -0.8627326 0.06488101 -0.27026302 0.35953707 -0.19268294 0.47178975 0.34141263 0.6527458 1.1565619 -0.22114578 -0.73751694 -0.51134115 0.16670401
u393 -0.21787667 0.2652752 0.15360986 -0.079605356 -0.28867334 0.41201162 0.30452275 0.114484094 0.1430675 0.36079586 0.123227455 0.6231486 0.7683468 -0.49165872 -0.38511747 0.08132708 -0.014042194 0.7955284 -0.04017928 -0.33726352 0.22401065 0.9447976 -0.012641969 -0.20870012 -0.22924188 -0.38208374 -0.74514705 -0.04533071 0.43104672 0.844414 -0.25453818 0.50428003 0.21084502 -0.3977763 0.064757824 -0.3561966 -0.28186178 -0.18815346 -0.14128411 -0.8494517 0.15148264 0.15407537 0.25923163 -0.46040684 0.025498679 -0.2541957 -0.57992464 -0.9339342 0.013300003 0.15175556 0.0836468 -0.41271007 0.10673319 -0.28901455 0.30854985 -0.0877906 0.23491147 -0.07222268 -0.054079153 1.0172657 0.20084047 -0.3231904 -0.358558 0.02368413
b1569 0.11416389 0.41244557 0.25637433 -0.123504266 -0.38675532 0.13379829 0.40434983 0.07108373 -0.23220363 0.6567669 -0.0937788 0.4382441 0.39027888 -0.14016573 -0.46850282 -0.27239817 0.16496386 0.57045615 0.24301255 -0.124779895 0.07310789 0.47167712 -0.36210546 -0.17571327 -0.5500353 -0.27615577 -0.61664855 -0.34290436 0.24061269 0.11705799 0.3270892 -0.3983699 -0.067834705 -0.19042315 0.33987767 0.087913774 -0.43723252 0.22139782 -0.7885674 -1.0089704 -0.13311695 -0.2133413 0.6906749 -0.64091563 -0.5718474 -0.35150596 -0.36606267 -0.7829678 0.45707414 0.65663815 0.055216417 -0.43694642 0.6100051 0.1104815 -0.3791848 0.16098426 0.4206065 0.3072277 -0.02561266 1.219028 -0.0039478303 0.11880773 -0.3271678 0.5975016
u1216 0.08164694 0.05725163 0.25419548 -0.021049423 0.03902524 -0.0829392 0.2918803 -0.40441084 -0.0038990714 -0.022320721 -0.36198673 0.7985232 0.18118474 -0.64910436 -0.31883457 0.068939276 -0.12612875 0.54027104 0.15382497 -0.24304375 -0.22578406 0.13418704 -0.16515528 -0.004758577 -0.3862267 -0.6356374 -0.54307586 -0.0029466297 0.8537521 0.05731159 0.5915026 0.1774582 -0.05082921 -0.11059782 0.47145894 0.3073363 -0.35523733 0.0037111023 -1.1953105 -0.46722794 0.08108975 -0.45356697 1.0030338 -0.6093862 -0.14876395 -0.6492054 -0.3584587 -0.80428565 0.19091736 0.188827 -0.019792963 0.044459775 0.1609526 0.32565603 -0.04583398 -0.14951718 0.66382265 0.21885055 0.13079925 0.49504763 -0.33921403 0.16288696 -0.089950725 0.88053876
b1015 -0.00929601 0.15915242 0.46754694 0.04574439 -0.10647587 -0.16874962 0.4649498 -0.57922906 -0.03700848 0.3461224 -0.38321117 0.5561624 -0.36386365 -0.5162596 -0.27414778 -0.0472042 -0.38393125 -0.16414624 0.61904836 0.055012353 -0.36790842 0.2295634 -0.53312975 0.015262038 -0.11931702 -0.16528329 -0.3022245 0.3578596 0.713548 0.33017018 0.5075104 0.38513517 0.39758927 -0.022118365 0.26417723 -0.34598258 -0.040816434 -0.22279783 -0.2592789 -0.22328617 -0.20428737 -0.34104365 0.75095165 -0.92033273 -0.2559109 -0.4240212 -0.7349922 -0.40597036 0.2291175 -0.44456515 -0.020506315 -0.30967993 -0.40845677 -0.06052598 -0.16862257 -0.17947184 0.053526603 0.06230105 0.4291377 0.96554804 -0.6778404 0.20122975 0.19333856 0.7782967
u291 -0.44580102 0.16586715 -0.040243473 0.08298072 -0.21594952 -0.54265904 0.74979085 0.2570232 0.0037966813 -0.1166644 -0.13519445 1.0275311 0.6345811 -0.2997063 -0.32961592 0.27628696 -0.7342535 0.40123245 0.079399645 0.16156313 -0.16225858 -0.17210992 -0.14152797 -0.13874362 -0.11648486 -0.48497885 -0.24037348 0.6975062 0.671382 0.5172297 0.46253392 0.62362397 0.567902 0.058308177 0.15474787 -0.1843274 0.40409493 -0.14924514 -0.07846287 -0.21696928 0.36899683 -0.3179292 0.34606943 -0.5474851 -0.9944443 -0.62288755 -0.5969825 -0.24639952 -0.01210023 0.4175939 -0.04864211 0.0701426 0.011356881 0.17912506 0.35352603 -0.1013114 -0.06458151 0.08821075 0.38978636 0.11457146 -0.35849074 -0.13521403 0.20750426 1.1838613
b1800 0.005461258 0.29703948 -0.04294652 -0.00055269426 -0.5278316 -0.43280268 0.24434347 0.00046118596 -0.5399557 0.2858434 -0.25795683 0.00056609075 0.9004375 -1.2884881 -0.77781004 -0.6545176 -0.06660081 0.40441433 -0.05361345 -0.334106 -0.26990184 0.15385607 -0.9483358 -0.17774579 -0.35738817 -0.034962557 -0.51038444 0.85291857 0.9865422 -0.050735045 0.37533996 0.469474 0.78282857 -0.07134394 0.6272841 -0.25524473 0.3466118 -0.2339611 -0.47186062 -0.18672933 0.042894322 -0.2899368 0.20633161 -0.6124925 -0.91943496 -0.81784374 0.001736049 -0.020515246 -0.44957504 -0.019536609 -0.27441505 -0.56141055 0.019200852 0.56540465 0.108971775 -0.14368199 0.20444323 0.1992877 0.4432617 -0.076203756 -0.2985556 0.12997071 -0.1402509 1.1002108
u483 -0.5329852 1.0661039 0.12902492 -0.4521938 -0.5158008 0.0688877 0.0830442 -0.47853622 -0.2684411 0.09302449 -0.26809546 -0.32431558 0.6508695 -0.55430734 -0.549464 0.011286046 0.4481828 0.68150514 -0.36472508 -0.1415963 -0.0017221726 0.42684796 -0.22480227 -0.43474653 -0.20642675 0.020158093 -0.36905473 0.612805 0.80174595 0.017852554 0.5398806 0.112983525 -0.23407413 0.4825296 0.60065925 0.035147656 -0.08333684 -0.06032069 -0.5838928 -0.7083152 0.43258676 0.29677802 0.84325343 -0.42559272 -0.2374521 -0.9493094 0.1826103 -0.31732216 0.0789549 -0.2479342 0.13168706 -0.4904218 0.30112872 0.21916738 -0.20606256 -0.18458943 0.2311977 -0.023674004 -0.15538645 0.25458962 -0.11176211 -0.31815174 -0.12843597 0.22234154
b1105 0.036619898 0.33460337 0.2561129 -0.55234724 -0.84173256 1.4072524 0.07437925 -0.41257656 -0.19434795 0.16367346 0.11152354 0.04026879 0.011206037 -0.9288321 -0.11424075 0.3382597 0.32396796 0.34979987 -0.12846902 -0.18889196 0.25086692 0.5196307 -0.42769617 -0.05358942 -0.5715168 -0.56110984 -0.24375318 0.41725853 0.54495645 0.64422905 0.11107414 -0.410145 0.3301043 0.75218034 0.3221723 0.013776919 -0.15717511 0.6415664 -0.20174181 -0.5955209 0.5377212 0.046567507 0.7659187 -0.5663197 -0.4888691 -0.23227991 0.13048086 -1.3714505 0.2807069 0.15086262 0.44754007 -0.5717444 0.075397015 0.4960039 0.24624854 -0.3347835 0.4310669 0.21085754 -0.19019914 0.3663319 -0.25563 0.0075992225 -0.05924677 -0.02309014
u653 0.0012976596 0.29468694 0.26459247 0.017017668 -0.836148 0.12694119 0.012177983 -0.44381785 -0.24429579 0.42073107 -0.15910414 0.14745674 -0.15774165 -0.31305063 -0.41334203 0.057368863 0.57802594 -0.5596347 -0.063169196 0.14759181 -0.44461417 0.44078097 -0.7223816 0.37569135 -0.14421867 -0.6318913 0.016518105 0.36623552 0.587708 0.89471745 0.6415418 0.6233479 0.77048504 0.11987843 0.40072075 -0.07556431 -0.7001004 0.29820272 0.008921432 -0.67863965 0.33700144 -0.27915096 0.5391739 -0.31494755 -1.195382 -0.117705464 0.008339866 -0.83729386 0.3416353 -0.44643167 0.38805082 -0.74393135 -0.14008275 0.07055479 -0.25874552 -0.29397693 0.3602473 -0.024429722 0.048621975 0.24661101 -0.42534435 -0.24620967 0.24404392 0.67523474
b15 -0.29524913 0.21366896 0.107691996 -0.01569498 -0.41635525 0.02116265 -0.027945958 0.28194726 0.2359725 0.6425213 0.1281421 0.6789902 -0.32500878 -0.1867765 -0.09958336 -0.43296987 0.26062068 0.4135287 0.24423538 0.046677414 -0.13654618 0.19667475 -0.70817494 0.26222226 -0.022761123 -0.34008145 0.123313874 0.25601992 0.52758265 0.47576824 0.77181363 0.3003142 0.1343669 0.5214417 0.38501415 -0.16512176 -0.39525166 -0.19785264 -0.49389613 -0.71517104 0.0485497 -0.37167034 1.2212827 -0.40299985 -0.30060184 -0.42228043 -0.110227674 -0.29840258 -0.17037375 -0.5618236 0.40383482 -0.633466 -0.23114079 -0.019137224 -0.03153729 0.072328344 0.035620082 -0.028673163 0.40097594 0.0738931 -0.21111402 0.10191621 0.060000535 0.33820346
u1182 -0.18134873 -0.04495439 -0.43950772 -0.08591612 -0.60566777 -0.23935351 0.042804178 0.5925081 0.3290972 0.76229614 0.3475917 0.5566078 -0.24550346 -0.23749658 -0.18452549 0.2554851 -0.13412587 0.3114991 0.32501337 -0.14300303 -0.2851207 0.18517458 -0.4068888 0.28214324 -0.5602123 0.05601896 0.013175698 0.20355977 0.46570444 0.40998062 0.70163715 0.74135786 0.6141061 0.2718455 -0.03669129 -0.08303371 0.12510109 0.14857447 -0.2914356 -0.44651788 0.26998338 -0.4080871 0.29122478 -0.45520774 -0.023810338 -0.5410026 -0.4745512 -0.625288 -0.26480034 -0.5486675 0.23886637 -0.1616488 -0.8884294 0.16859142 0.3780959 0.55881304 0.008074835 -0.1859213 0.63553864 -0.21882577 0.07580874 -0.36054212 0.02674586 0.82357305
b177 0.08371213 0.44783348 -0.16274823 0.05386678 -0.3799554 0.5103352 0.002135767 0.038609676 0.16618533 0.24425924 -0.02070563 0.5084675 0.23008901 -0.29424775 -0.5469845 -0.18947266 0.11375427 0.22377749 0.037080448 -0.1029783 0.20204365 -0.0035733352 -0.24855077 -0.1849184 -0.44654116 0.046545632 -0.23641902 0.40096483 0.41548142 0.21768296 0.8062529 0.2457353 0.29002798 0.4886571 0.29906273 -0.38142145 0.059017323 -0.1602493 -0.07569168 -0.4863744 -0.017886817 -0.14909896 0.25243214 -0.4748252 0.09011952 -0.6489504 0.008454034 -0.659881 -0.1356571 -0.6267387 -0.06113269 -0.2154611 -0.33914444 0.050752673 0.1057311 0.18927036 0.14333199 0.19110002 -0.037697 0.18236253 0.06523177 -0.13388035 -0.3266268 0.63535845
u119 0.053931277 0.28032833 -0.08081377 -0.24716225 -0.4418355 0.5903326 0.0831141 -0.14153785 -0.022687461 -0.122707255 -0.088430196 0.7264315 -0.051303253 -0.256643 -0.54805493 0.084053725 -0.04104929 -0.35845593 -0.041522454 0.948678 -0.112760544 0.9765995 -0.42273518 -0.2775289 -0.5819916 -0.49520475 -0.16871697 -0.16556202 0.40419462 0.11668958 0.13992521 0.4405649 0.40161178 0.266749 -0.21792263 -0.109262645 -0.024929034 0.07911232 -0.11250127 -0.34604022 0.21527556 -0.107926615 0.8430241 -0.58768016 0.07528618 -0.2915338 0.1464229 -0.77796715 -0.30795395 -0.29552358 -0.0112688085 0.46182173 0.37479442 -0.01490354 -0.30293062 0.52884346 -0.35521784 0.32496032 0.27607736 0.64001364 -0.07334189 0.029958773 -0.5211316 0.68147105
b1820 0.1894551 -0.32060817 0.1855956 -0.37705368 -0.5992275 0.5018039 0.07774052 0.0013547995 0.002655047 -0.06938304 -0.02355604 0.683879 0.007858212 -0.4830842 -0.6164643 0.10202705 -0.21380097 -0.23619454 -0.31756818 1.1769412 0.0009182152 0.9402987 -0.5301581 -0.49464664 -0.8545104 -0.6343692 -0.31279784 -0.08631345 0.5849608 0.27095678 -0.20783275 0.42039928 0.88732654 -0.05398596 -0.26198953 -0.12712675 0.074272186 -0.08269629 -0.3026969 -0.50197524 0.10998212 -0.007821657 1.21997 -0.5276522 0.23665391 -0.022959197 0.5100447 -0.8876262 -0.28250217 -0.33873495 0.103884004 0.6900626 0.30393514 -0.035175055 -0.2968384 0.34366682 -0.5444701 0.2582692 0.4480869 0.6609254 -0.19708554 -0.44780856 -0.86401355 1.4213167
b529 0.15665373 0.21635474 -0.34243196 -0.08050159 -0.400861 0.49525705 -0.09084583 0.15347578 0.19606698 -0.1811646 0.06836069 0.44986203 0.33880535 -0.97155815 -0.53776103 0.101821356 0.3990756 0.09367334 -0.48938826 0.41204947 0.17787261 0.23766166 -0.031837758 -0.108699635 -0.3796421 -0.2967139 -0.013415996 0.016393933 0.593952 0.49371675 0.17860717 0.6829464 0.008544509 0.7010401 0.29385334 0.14257851 -0.32224995 0.3855329 -0.81707203 -0.17597604 -0.22500141 -0.45924547 1.0895513 -0.21457727 -0.21109545 -1.0715466 0.21339914 -0.03768269 -0.41062722 -0.19107868 -0.27547258 0.2121609 -0.08122655 0.12670214 -0.13692397 0.8595801 0.24145085 0.34388524 0.28483632 0.3624061 -0.03976207 0.06885147 -0.61737615 0.5823979
u445 -0.008721646 0.3375147 -0.44251275 0.07927755 -0.49404758 1.1497407 0.3062778 -0.15273613 -0.28164244 -0.034097716 0.06648109 0.25302178 0.90116656 -0.6276536 -0.31342623 0.4571063 0.34027624 -0.3087408 -0.13644148 0.4206153 -0.020671753 0.027735049 -0.6799279 -0.0496617 0.07557103 -0.2872901 -0.38743463 -0.12737182 0.3585458 0.31900722 0.5367027 0.56722605 0.5201399 0.34228718 0.3193704 0.11716023 -0.13052125 0.14359146 -0.00074631703 -0.27964312 0.021086693 -0.14129299 0.7120622 -0.027486835 0.3858864 -0.61316556 -0.13195898 0.16197237 -0.5827524 -0.6361921 0.20359129 -0.6254463 0.2179996 0.20046099 0.25715685 0.21617483 0.51356775 0.11225629 0.04917874 -0.09688657 0.08082728 0.13782904 -0.17150928 0.63393724
b315 -0.35226497 0.4485739 0.049596954 0.14422458 -0.27394685 0.16873701 0.010437734 -0.300077 0.20466177 0.018873725 -0.0036742236 0.48178256 0.51550126 -0.53854305 0.42330205 -0.017277688 0.16018008 0.4357385 0.051054224 0.3992879 -0.24592668 0.46184775 -0.63379055 0.23677425 -0.33657205 -0.30794725 -0.075235866 0.045457188 0.27467468 0.47419563 0.44940785 0.23646371 0.67080086 0.19303258 0.6720906 -0.065072864 -0.48805404 -0.0041887523 -0.3078325 -0.068984635 0.28561884 0.14069955 0.6426923 -0.40716475 -0.011373204 -0.34181753 0.124859534 -0.0473992 -0.26557618 0.033267636 -0.01755618 -0.1923202 0.3450372 -0.2988595 -0.27612442 0.28202587 0.19884264 0.53827584 -0.20503785 0.24374855 -0.10791932 -0.09828548 -0.38805455 0.5940743
u606 -0.6884829 0.115593284 -0.53494173 -0.68453 -0.81600416 0.6595222 -0.1841353 -0.19995427 0.050946563 -0.36903492 0.3164909 0.59482867 0.50375116 -0.78340715 -0.24241477 0.23783906 0.03238384 -0.050525274 0.17205945 0.21362518 -0.167619 0.53732145 -0.9564373 0.05894423 -0.40967318 -0.25896683 -0.34663218 0.20557374 0.3413708 0.091193825 -0.48633856 1.0552539 0.34905317 0.6595857 0.0025898837 -0.29937956 -0.2926511 -0.54280496 -0.63834316 -0.5677061 0.36724728 -0.09601629 0.3669396 -0.8385312 0.4510355 -0.64470536 0.10399461 0.34334162 -0.35050872 -0.16580534 -0.25177902 -0.297464 0.14576872 -0.5129403 -0.06645523 0.23911735 -0.3205563 0.020089978 -0.0015886916 1.0397979 -0.083503254 -0.3268571 -0.31566906 0.6746921
u52 0.19787477 0.40037274 0.18801425 0.3982545 -0.16800223 0.36139888 0.33390307 0.2135267 -0.12735647 0.46359646 -0.32110146 1.0216784 0.91348135 -0.66770524 0.2507414 -0.0057646604 -0.45069563 -0.2616206 0.0020180885 0.3511845 -0.24717045 -0.0901429 -0.5924323 -0.18748325 -0.30105147 -0.8575865 -0.16354665 0.067418136 0.2665249 0.56916636 0.45657644 0.2523959 0.65132296 0.4382115 0.59513676 -0.685072 -0.06349919 -0.31871912 -0.30184013 -0.9916349 -0.00466261 -0.22425902 0.05981776 -0.13107137 -0.37498948 0.020117015 -0.05367255 -0.014369052 -0.22881551 0.25345126 0.02583883 0.044333342 0.35708287 -0.48866564 -0.19742514 0.35055736 0.224244 0.09980427 -0.44329953 -0.124284476 -0.06600599 0.6156149 -0.8951279 -0.10602658
b637 0.04356395 0.39932692 -1.0401698 0.63227516 -0.6076112 0.6675229 0.537946 0.2576566 0.40223786 -0.24630338 0.30716494 0.15036398 1.5679024 -0.7177853 -0.62348276 0.08435372 -0.4415172 -0.09752261 -0.2585322 0.5985606 -0.40552983 -0.0073678046 -0.52769727 -0.03967147 -0.29294652 -0.27555874 0.08295883 0.4395875 -0.13056202 0.6423883 0.9929423 -0.2675331 0.34041247 0.26451406 0.1909254 -0.5027476 -0.21151073 -0.6751445 -0.41418335 -1.0305384 0.50833553 0.25622454 0.5230045 -0.40587676 -0.060024578 -0.27121654 -0.2593973 -0.10568629 0.15776627 0.11600686 -0.0025245815 -0.037550006 0.38361505 -0.114936545 -0.15831858 -0.12010705 0.75569457 0.36354977 -0.047711402 -0.124097355 -0.57704175 0.77116245 -0.3940755 -0.091069326
u370 0.2074331 0.18543994 -1.0883517 0.43516323 -0.77474314 0.98083586 0.5217579 -0.13780542 0.17092057 0.30634174 0.058733266 0.44463348 0.8124679 -0.18430367 0.1601309 -0.87754375 -0.3636383 -0.09954328 0.21037486 0.42752334 -0.48112783 0.041217636 0.3867336 0.30614895 -0.6158824 0.33504826 0.0049584243 0.094721526 0.5925411 0.045337513 0.5254145 0.1839557 0.2978419 0.7754346 0.41712978 -0.19366285 -0.30429614 -0.40728024 -0.26968798 -0.5816281 0.47130632 -0.13565029 0.731601 -0.79739016 -0.24343765 0.16683167 -0.2693743 -0.24972911 0.16340981 0.046789706 -0.6986382 -0.23876955 -0.14625134 0.2521675 -0.0938584 -0.54595274 1.0134532 0.079653986 0.08386178 0.46934667 -0.24454147 0.56970155 0.23785065 0.38098097
b1161 0.48771116 0.56600696 -0.6197744 0.061417762 -0.63612646 0.8951723 0.034852378 -0.18632863 -0.14647315 0.02688022 0.22131881 -0.001739919 0.36521196 -0.47517967 0.7566215 -0.441247 -0.35914466 -0.034102786 0.114285484 0.29626602 0.22053483 0.46836784 0.30438313 0.5222182 -0.75146776 0.012530586 -0.07149224 0.47245848 0.16086674 -0.23646063 0.45918062 0.614433 -0.23174106 1.457456 0.8087614 0.08071898 -0.18007283 0.049177974 0.16493692 -0.38908675 0.44136533 0.058293246 0.4735009 -0.77697164 -0.058554314 0.47047982 -1.1149237 0.10115577 0.6239398 -0.43733767 -0.5490051 -0.29475313 -0.2567317 0.15036073 -0.33435407 -0.24018691 0.3927667 0.16396442 0.21416254 0.44365135 0.11949715 0.18261603 -0.30876192 0.18135968
b1019 0.18450603 0.107582726 -0.5853766 0.14751706 -0.7706183 0.82532024 -0.05990006 0.52666605 0.4295558 0.929632 -0.3196729 0.19986449 0.20859464 -0.69347763 0.18548164 -0.6859183 -0.48804307 -0.12795292 -0.051405955 0.4370441 0.26475734 0.14178574 0.21934687 -0.18737595 -0.5416024 0.3235968 -0.4965684 0.05176001 1.0454084 -0.11066234 0.79692066 0.39919192 0.24698956 0.07031536 0.73339266 -0.24571137 -0.3217931 -0.5572837 0.15886489 -0.84835637 0.44013855 -0.42668018 1.2955093 -0.7846337 -0.98481727 -0.093529314 -0.42251614 0.29029748 -0.1701881 -0.23735595 -0.9249262 -0.37552276 -0.51484025 0.056740962 0.19946451 -0.58167803 0.6007169 0.191178 0.063362874 0.39363405 -0.16641028 0.31511918 0.31442028 0.66732687
u879 -0.11744112 0.5338544 -0.43141943 -0.06973459 -0.571305 0.23048 -0.17061625 0.02678715 0.22381653 0.4204538 -0.41359895 0.14511386 0.01926511 -0.49033552 -0.18982443 -0.19926739 -0.106681764 0.34329104 -0.049610365 0.37812415 0.38259438 0.06095491 -0.09306051 -0.09366476 0.11131293 0.2650344 -0.5985744 0.22488007 0.49841306 0.21486433 0.5602312 -0.142057 0.31707978 0.3065917 0.22627522 -0.044088818 0.0029887261 -0.4899687 0.13618131 -0.41222993 0.25981504 -0.33726144 0.62222016 -0.3523316 -0.3048157 -0.289591 -0.061679248 -0.432356 -0.21845621 -0.34650382 -0.24059613 -0.52430993 -0.12227714 -0.18998033 0.48253697 -0.047916856 0.23980977 0.15908971 -0.03733156 0.61886513 -0.17413546 0.20681754 0.041213367 0.78706014
b1130 -0.23465104 1.2283975 -0.6997118 -0.08537829 0.11133986 -0.5054515 0.34173262 0.68854314 0.868546 0.59257364 -0.17516235 0.16081122 0.11534009 -1.5570492 -0.52935976 -0.34265408 -0.022964247 1.0283624 -0.217059 0.48572698 0.7944735 0.2950032 -0.36982295 0.025451424 0.39588958 0.20171514 -0.35657948 0.02984488 0.26164693 0.95428646 0.7019513 -0.61775744 0.5544026 -0.5177607 0.107606515 0.09856353 -0.06546431 -0.5541119 0.024014285 0.012588628 -0.3752733 -0.60701007 0.39381874 -0.6759705 -0.5164125 -0.15405762 -0.3701537 -0.7843826 -0.13589872 -1.1765791 -0.017679228 -0.30601954 -0.19524086 -0.06680983 -0.0555036 0.35846114 0.27642387 0.37507096 0.076984495 1.4993522 -0.28630853 -0.0017244249 -0.25525844 0.38538522
u761 -0.45851403 0.786762 -0.53650147 -0.09748285 0.234435 -0.24022591 0.47807613 0.46713015 0.27726388 0.55487955 -0.2844782 0.6183374 -0.17944206 -1.1540058 0.061039586 -0.5694808 -0.23591568 0.37425092 -0.11380068 0.2805522 0.060307574 0.6139138 0.08678008 0.17183062 -0.44300014 0.4025871 0.32614526 0.104847014 0.68131715 0.78688675 -0.35157803 -0.044307444 0.26455745 -0.49797118 0.12315436 -0.10901503 0.05990934 -0.23559284 0.21911445 -0.5339743 -0.20466803 -0.2273831 0.6032745 -0.6968823 -0.16047408 0.057003863 -0.6297431 -1.0723611 -0.38721552 -0.32222506 0.052179366 -0.50137126 0.010059541 0.15718012 0.46936148 0.3861512 0.076699026 0.59834635 0.112987325 0.48741615 -0.24731469 -0.4440986 -0.20780665 0.6448044
b440 -0.15806143 0.49451867 0.13717505 -0.028442558 -0.0120708 0.3011377 0.22361615 0.24378946 -0.059702784 -0.0665344 0.19373056 0.2027993 0.09610806 -0.84675825 0.13273536 -0.38984242 -0.04841337 0.22614634 -0.14912695 -0.095231496 0.19816577 0.12522782 0.17900272 0.040361427 -0.17620523 0.11955667 0.003828969 -0.145562 0.45198315 1.0466847 0.2921339 0.63636285 0.070492186 -0.3685985 0.56123954 0.08008179 0.15365504 -0.29199293 -0.43054712 -0.2611118 0.1961057 -0.2536031 0.5837668 -0.7690102 -0.13552135 -0.5558245 -0.13311203 -0.86129004 -0.20384185 -0.36030808 0.7570925 -0.045675155 0.14715052 -0.13012415 0.0782014 -0.06868938 -0.05021977 0.20511726 0.4456778 0.45260927 0.03542274 0.13554007 0.40433177 0.9465526
u565 -0.19035356 0.32754967 0.2720133 0.01138796 -0.49310198 0.5089761 -0.07843718 0.40689594 0.19897048 -0.065757975 0.07624297 0.35094315 0.26144785 -0.3084832 -0.53412277 -0.27388802 0.3759706 0.70150745 -0.049532898 0.08693186 -0.1454203 -0.058233183 -0.14263152 -0.27952057 -0.32296214 -0.02362304 0.20266412 0.15543044 0.46181437 0.41189727 0.12360399 0.50822586 0.06890698 0.26567712 0.34963012 -0.25182858 0.10692873 0.0149877155 -0.4565934 -0.24128845 0.08223505 0.0030030543 0.95967823 -0.41285998 -0.035150126 -0.47881415 -0.025411533 -0.7712686 0.054045223 -0.35573006 0.2166045 -0.23779063 -0.10782298 -0.12552483 0.06575559 0.2651826 0.3687525 0.18020274 0.4281885 0.33712772 -0.42860532 0.020285793 -0.14149992 0.8593403
b305 -0.38058382 0.3900714 -0.120633505 0.1870444 -0.41326854 0.28147152 0.07235276 -0.09937754 0.104664676 0.004277704 -0.13072878 0.9145884 0.36566702 -0.62110364 -0.1376795 0.3536833 -0.0067693694 0.46364474 -0.24626413 0.060772453 -0.21392383 0.22151451 -0.13140196 -0.1869944 -0.14407437 -0.0906131 -0.03853321 0.5544971 0.6192176 0.2961807 0.4967621 0.21985917 0.25888604 0.2580585 0.35572606 -0.45662773 0.017269893 -0.2607945 -0.12084572 0.2006392 0.32441774 -0.020389276 0.50411266 -0.5854169 0.121663846 -0.2543736 -0.043969207 -0.12395456 -0.092323124 -0.21838717 0.2563764 -0.017609308 -0.1360618 0.2290208 -0.2348824 -0.22720577 0.16584755 0.26625958 0.06904108 0.5976913 -0.20180698 0.02687469 -0.21743593 0.4699035
u338 -0.39145723 1.0002662 -0.6696289 0.49478126 0.1991736 0.10093264 -0.12145961 -0.1868878 0.27022907 0.29490536 -0.48935512 0.5164553 0.6157476 -0.29842484 -0.5193063 0.15978043 -0.07175871 -0.34586748 -0.88190335 -0.21897967 -0.38850042 -0.25798535 0.030483726 0.08352905 0.7157246 -0.2630911 -0.13434762 0.24173628 0.68517375 0.57905096 0.35675442 0.25141105 -0.24891084 0.28004566 0.5026392 -0.34978184 -0.033583943 -0.3881482 -0.805836 -0.2604976 0.116590716 -0.32351264 -0.15480207 -0.6402579 -0.117357366 0.21829054 -0.7890096 -0.29576242 0.5141358 0.09570376 0.31106147 0.050696757 -0.28510606 -0.08073939 -0.3582019 -0.0098624425 0.5166779 0.32107124 -0.2052424 0.4420288 0.23753987 -0.18799952 -0.30554837 0.8561681
b80 -0.085130915 0.0761358 -0.42721352 0.3099623 -0.12793419 0.038793027 -0.21446975 0.26329252 -0.18956567 -0.53426194 -0.49751624 -0.016719641 0.8226545 -0.16494372 -0.2818593 0.6521275 -0.09389462 0.21869239 -0.38664085 0.22081853 0.052241985 0.58951706 -0.24245392 0.05335001 -0.14485559 -0.8755089 0.30353567 -0.24712576 0.60906 -0.0575894 0.6283398 0.08406927 0.07779796 0.21027303 0.27125937 -0.29573908 -0.21151336 -0.066219784 -0.027655758 -0.52426547 0.3826265 -0.42117324 -0.05115611 -0.37290826 -0.2566938 0.07934714 -0.31629366 -0.16178393 0.61345184 0.049178217 0.33137316 0.01851665 -0.09996438 -0.41497338 0.1138132 0.4422964 0.05613567 0.16279931 -0.49403673 0.5015227 0.6108413 -0.053928293 0.017203564 0.63336587
u82 -0.3886989 -0.21341403 -0.30554974 0.29502 -0.38463584 0.5660901 0.31752327 0.13845907 0.21329279 0.1940701 0.086492084 0.3652346 0.3952767 -0.37773743 -1.1166855 0.4770768 0.5961432 0.065183185 0.124768026 0.65742046 -0.50838065 0.43491784 0.04546419 -4.675816e-05 -0.15835394 -0.67287296 -0.15864165 -0.24814616 0.547339 0.053324047 0.9305257 -0.2543922 0.1475526 -0.6072282 0.40837795 -0.29404357 -0.12519751 -0.6025704 0.3874612 -0.39860883 0.3748532 -0.21711919 -0.065987304 -0.56532294 0.5220629 -0.28461137 0.0899161 -0.09985248 0.7281646 -0.3336436 0.22420272 -0.02158589 -0.037885208 0.014370064 -0.04471483 -0.15518087 -0.33028212 0.48100618 -0.18169251 0.4554906 0.76658374 0.12152729 -0.56155485 0.061322436
b512 0.06295699 0.23244172 -0.14911467 -0.08402485 -0.26321924 0.28824806 0.105062515 -0.2729042 0.2143083 0.26532316 0.30515227 0.38042235 0.3962503 -0.74254185 0.05344422 -0.24273956 0.32710186 -0.10474536 0.014363113 0.29759485 0.019391919 0.27135548 -0.29360205 -0.30181602 0.01574769 0.097291775 0.1000342 -0.011483389 0.5852626 0.27746007 0.89585936 0.03030977 0.46492684 -0.14849497 0.34275585 -0.2466027 -0.21934314 -0.1466691 -0.38368672 -0.25654638 0.021559875 0.11255048 0.47367325 -0.38928086 -0.5802101 -0.27681056 -0.2964658 0.14477001 0.26274815 -0.28501764 0.009816066 -0.41002172 -0.17946748 -0.025339717 0.119606316 0.2738003 -0.06847762 0.42753538 0.07451722 0.52557087 0.12290544 0.10493864 0.1873749 0.5949173
b1697 0.010468781 0.3550194 1.0513294 -0.67277867 -0.16953887 -0.13609584 0.42363474 -0.024120197 0.27116966 0.085677825 0.1409911 0.23458117 0.6204962 -0.16975923 -0.051698685 -0.3130834 0.24798296 0.2215649 0.33087882 0.5282882 -0.31699184 -0.013866642 -0.85198903 0.07493984 0.119070046 -0.29398093 0.21743855 0.014749758 0.5151967 0.29720587 0.44511798 0.4068772 -0.37035817 1.314976 -0.042143162 0.14487088 -0.639501 0.36339954 -1.1586225 0.5028917 0.5405908 -0.2736457 0.0019390055 -0.11406109 -0.14003408 -0.26213652 -0.2410436 -0.84048915 0.9091865 0.25298634 0.17917979 0.23748253 -0.19610934 0.226069 0.3808606 -0.20604308 0.06863617 0.5805535 -0.10506695 0.6166426 0.020115016 0.061598234 -0.03710645 -0.2879905
u776 -0.37701383 0.5904942 0.5705525 -0.18142319 0.19276106 0.5682485 0.19178486 -0.44066334 0.039255716 0.37979263 -0.06925742 0.19429952 0.1036349 -0.5743603 -0.26516703 -0.3988598 -0.04288695 0.40428236 0.20524639 0.2851304 -0.026035791 0.07806258 -0.20006245 0.1033021 0.057933036 0.04088055 -0.046820235 0.067490354 0.9850196 0.7025949 0.19374408 0.5053114 -0.08442438 0.7771142 0.2832968 0.065955065 -0.45420915 0.27237976 -0.6213196 -0.17238697 0.29973248 -0.29803833 0.556953 0.18071723 0.07319999 -0.73097366 -0.6340637 -0.37389055 0.4914047 0.04708911 -0.097899616 -0.021456955 -0.31301278 -0.107410565 0.1116861 0.055838328 0.21170287 0.7661009 0.25505307 0.62351465 0.13357927 -0.34908146 0.17513543 0.0064476193
b450 -0.19180207 0.22477089 0.6680846 0.35614124 0.21900073 0.47160473 0.39893794 -0.4712521 0.42491361 0.034196768 0.01948225 0.90774804 0.12514621 -0.31905407 0.14997096 -0.1290245 -0.005227231 0.32661834 -0.0019390375 0.48835117 -0.12825304 0.25970832 -0.013162917 -0.33837113 0.09724415 -0.03995618 -0.18820448 0.23858708 1.1727775 0.16125855 0.68185127 0.79211324 0.08771056 -0.47297284 0.13880242 0.19178073 -0.429398 0.18213278 -0.848428 -0.29734132 0.29419506 -0.33230004 0.169118 -0.053795107 -0.48633957 -0.56022733 -0.70458424 -0.6921441 -0.1673176 -0.04127936 0.3086336 -0.11100975 0.10975909 -0.06738567 0.18890631 -0.2398163 0.35050794 0.22931743 0.108666405 0.53451633 -0.33065677 -0.43254462 0.046617236 0.54192823
u674 -0.3234803 0.917147 0.08840751 0.17598511 -0.11158696 0.9365168 -0.055858232 0.01368936 0.3986593 0.11565725 -0.0049974457 0.519678 -0.007752722 -0.6098114 0.31767133 -0.09801713 0.34145522 0.55389625 -0.2084686 0.06290992 -0.0799897 0.21665232 -0.29481518 -0.51706904 -0.12192249 -0.20627847 -0.34834078 -0.10667871 0.5439763 0.21700528 0.48531252 0.30611947 0.3522576 0.059156362 0.57116926 -0.15192313 -0.23113199 0.174349 -0.6096576 -0.5822726 0.07961121 -0.356565 0.541764 -0.6045056 -0.026576476 -0.40624666 -0.36312518 0.0884419 0.18702286 -0.09414988 0.5057318 -0.48728287 0.05549354 -0.11972898 -0.04470817 -0.27004665 -0.01319319 0.06294358 -0.07011144 0.178999 -0.1937302 -0.37372196 0.38397244 0.05502154
b321 -0.5690459 -0.09096935 -0.2226683 -0.03604499 -0.20209874 0.79378474 -0.17185469 -0.28386086 -0.25282425 -0.28390357 -0.16152968 0.62342983 -0.042951893 -0.7911231 -0.5320812 0.30282366 0.25182074 0.6818641 -0.2896218 -0.17862213 0.08757945 0.27074605 0.20119205 -0.38644403 -0.37801793 -0.4301913 -0.11521764 0.19922146 0.5732302 -0.27192315 0.90432006 0.50478435 0.06982166 -0.00363331 0.33087993 -0.1846851 -0.0639742 -0.20587464 -0.46855405 -0.64278144 0.42167556 -0.4254369 1.2224013 -1.0277821 0.14562356 -0.23766972 -0.30594018 0.0038032096 -0.076771855 0.047448847 0.25820187 -0.2695074 -0.10110692 0.64835864 0.2743497 0.17335525 0.1793476 -0.15088125 -0.013055276 0.18903789 -0.23023558 0.17296383 -0.33086258 0.26388916
u114 -0.15417817 0.1412523 -0.21440357 0.4695346 -0.11919795 0.27575675 -0.102086335 -0.20816566 0.33948907 -0.07733294 -0.06662009 -0.017840846 0.8360654 -0.2931083 -0.015835809 0.16293071 -0.30950978 0.2786235 -0.087760165 -0.37947714 0.063751735 0.09779662 0.038603928 -0.08228168 -0.09825788 -0.15970297 0.42765507 0.57460976 0.4618185 -0.26717255 0.2064737 0.38014504 0.3756078 0.64777356 0.40465346 -0.17296992 -0.44490477 0.020475578 -0.52609426 -0.3700096 0.48020792 -0.19462287 0.37034616 -0.06886929 0.22138833 -0.4906283 -0.40178704 -0.29890668 -0.49099043 -0.3483615 0.21551059 -0.11694614 0.24638176 0.068580545 0.3125182 0.108784765 -0.62153995 0.47926092 -0.3424847 0.14230673 -0.29226658 -0.0071314517 -0.122938946 0.37490377
b335 -0.11950403 -0.18372916 -0.1437384 -0.11703078 -0.09945385 0.30866244 -0.09114013 -0.22413199 0.079280876 0.4397241 -0.3063815 0.17323539 0.81145096 -0.1085996 -0.46465808 0.3339225 0.20605175 0.3010342 0.11332737 -0.17330411 0.14725786 -0.053424902 -0.27943528 -0.19001374 -0.100964606 0.07679943 -0.14247805 -0.111415215 0.2027864 0.05836201 0.2226536 -0.01754681 0.41916654 0.28646138 -0.20757982 0.23209925 -0.4931223 0.16676426 0.18572955 -0.41752616 -0.016656894 0.584056 0.6424976 -0.581549 -0.26651078 -0.613814 -0.31166354 -0.12184385 -0.18502975 -0.06355245 -0.14996797 0.030869212 -0.017271565 0.027074419 0.37836093 -0.48790437 -0.66403306 0.7813687 -0.6471696 0.14197077 -0.03872669 -0.0011906044 0.15593854 0.32897455
u125 -0.076841116 0.50806636 -0.37700358 -0.23359637 -0.4837499 -0.16177571 0.07645775 0.04270023 0.15193322 0.40529194 -0.019987304 0.63656783 0.65848494 -0.40015948 -0.7390187 -0.06773658 0.2082992 0.12293954 0.5239583 -0.34256646 0.018733747 -0.043219462 -0.6442758 -0.042527437 0.49350017 0.19527657 -0.2913075 -0.1948762 0.6731857 0.041918643 0.36039516 0.84114546 0.6896725 0.08694783 -0.15248589 0.13679868 0.21824338 0.11126846 -0.30979988 -0.22975378 0.4566627 -0.19224377 0.29481685 -0.6904255 -0.35860324 -0.603099 0.21110047 -0.34726897 0.049613483 0.10880136 0.051362794 -0.14251722 0.13335575 0.079505816 0.053969648 0.10435081 -0.11812105 0.4837132 -0.40653095 0.24652201 0.3551392 -0.029179344 -0.26151562 0.32963443
b213 0.09004693 0.37080267 0.032502986 -0.1561618 -0.34626698 0.4251374 -0.028524365 0.08508499 0.25989765 0.10150569 -0.21985757 0.52970773 0.5040645 -0.7664197 -0.08921958 -0.012781262 0.03360058 0.24236774 0.2664735 0.12299488 0.19165199 0.2515044 0.005829332 -0.011863883 0.113957 0.21624202 0.012290644 0.03591234 0.61594564 0.38406664 0.5364877 0.31254673 0.21618356 -0.17120071 0.28662795 -0.055653207 -0.055162396 -0.07973703 -0.6585993 -0.55809355 0.090351894 0.041283615 0.59805214 -0.34251568 -0.2747068 -0.34313986 -0.39381674 -0.25524023 -0.104504816 -0.14265874 0.10746818 -0.35064912 0.24681585 0.03244258 0.020066615 0.10061961 -0.12242149 0.48666203 0.11096911 0.22921215 -0.20549095 -0.17516409 0.06532433 0.55021137
u773 0.056569118 0.9384844 -0.1415824 -0.16558614 -0.018849473 0.046790086 -0.36186448 0.25606167 0.060987752 0.7028141 0.13240218 0.39330277 0.6579146 -0.90022916 -0.2857052 0.02503183 0.031745486 -0.25705174 -0.2279142 -0.13870478 0.32713073 0.71038836 0.36658183 0.005590054 0.23003434 0.03806025 -0.22336228 -0.028195368 0.28172737 0.13798763 0.9698384 0.30949122 0.44639203 0.16529146 0.45873463 0.03592312 -0.22418776 -0.15579498 -0.17550662 -0.24271584 0.23145252 -0.0147235785 -0.008651129 -0.23562738 -0.42290777 -0.21575068 -0.32781017 -0.33167544 0.37503824 0.04437914 -0.18510824 -0.74183303 -0.049664807 0.055817015 -0.012889673 0.16627218 0.2748478 0.26738745 0.11383356 -0.012304261 -0.056225084 -0.18468633 0.26481232 0.37068477
b1054 -0.25629145 0.58927983 -0.24588867 -0.3952516 0.48857686 0.06683148 -0.0036287287 0.12635583 -0.02237842 0.55582476 -0.3259855 0.015113308 0.6864122 -1.0598125 0.05266347 -0.35183033 0.35250303 0.11109422 0.22871254 0.06680562 0.32984194 1.0959911 -0.010243974 -0.020533474 0.2282472 -0.14413351 0.050506458 -0.27674744 0.7261046 0.46562338 0.23377429 0.34534776 0.43855187 -0.029931122 0.31335405 0.12287429 -0.09305398 -0.44291773 0.113052055 -0.25964865 0.105531186 -0.12696978 0.6798233 -0.7748815 -0.65695417 -0.1415678 -0.5123819 -0.3243023 0.25749168 -0.42109096 -0.18344954 -0.47030836 -0.09965904 0.23919286 0.4042067 0.20592715 0.19755745 0.4867819 -0.20025314 0.47402745 0.18222274 -0.26947674 0.31069964 0.70958644
u176 0.090484284 0.47458798 0.19894752 -0.4673274 -0.08522606 0.873137 0.0571854 0.1962563 -0.19026266 0.58122915 -0.12551661 0.16466902 0.31214952 -0.8038721 -0.11306708 0.0016823396 0.25826615 0.30507442 0.26995468 -0.08426912 -0.39587575 0.011454363 0.077765554 -0.34534335 -0.13011357 -0.4602101 0.30244872 0.44947577 0.019566026 0.62714463 -0.13267326 0.25835887 0.7217112 0.010103267 -0.26111153 0.37413836 -0.080173075 -0.0045048245 -0.2618229 -0.15351523 0.55731326 -0.18976049 0.71485937 -0.86959755 -0.7203629 -0.18301234 -0.23441817 -1.2836925 0.51678026 -0.06561096 0.11545558 -0.46891177 0.11940861 0.63779974 0.4893065 0.15843204 0.7987145 0.49712878 -0.39511248 0.4607618 -0.13931966 0.041601162 -0.14162864 0.78180337
b1332 -0.37626278 0.43407473 0.06702133 -0.1294594 -0.0022480083 0.56582814 0.020906014 0.08456119 0.06890816 0.101574734 -0.021322222 0.52338606 0.6354783 -0.40169892 -0.18476427 -0.22241744 -0.2536682 0.57972085 0.06109789 0.23428926 -0.22423567 0.42476526 0.16468593 -0.29608986 -0.077727824 -0.36584824 0.47246692 0.4574759 -0.20465305 0.27403238 -0.7566621 0.27129316 0.13208772 0.096778184 -0.086233616 -0.06673628 -0.29768887 0.081073835 -0.26017398 -0.64524496 0.2908692 -0.40717894 0.8596675 -0.9962756 -0.4051209 -0.98304385 -0.100095324 -0.9250022 -0.14759603 -0.6097662 0.14684573 0.06973923 0.36811638 0.018423358 0.37365624 0.67084265 0.08522138 0.19114788 0.03542921 0.23032457 -0.4701845 -0.060554907 -0.14250562 1.2579205
b539 -0.22573835 1.2206497 -0.48748812 -0.001829832 -0.25320843 0.95057875 -0.16940013 0.14987803 0.11190942 -0.40178326 0.17891482 0.6238043 0.8515458 -0.023702739 -0.46246982 0.2501917 0.24168804 0.09924569 0.09872279 -0.034503855 -0.4809125 0.57714945 -0.57148206 -0.39494467 -0.52242094 -0.17784545 -0.21480031 -0.15078089 0.40896946 -0.18615945 0.14578563 0.7588031 -0.11674196 0.2504796 0.46254674 -0.088220954 -0.18322717 -0.58907455 -0.2547073 -0.27347568 0.69267106 0.4518709 0.18187766 -0.98292834 0.77184343 -0.012140153 -0.24089552 -0.247383 -0.21312103 -0.06239568 0.12476279 -0.24570712 0.19047645 0.0654503 -0.11377003 0.29801437 -0.15889359 0.23728131 0.18778248 0.89214385 0.058894426 0.27531147 -0.23092262 0.6083896
u248 0.04569604 0.49224663 -0.01820473 0.04443761 -0.046407923 0.71538013 -0.13211331 -0.008530342 0.25512192 0.2676487 -0.08503196 0.7089194 0.33267778 -0.34683678 -0.28320813 -0.14414257 0.47083616 0.12487155 0.18091965 0.16082583 0.095809266 0.9164427 0.026861021 -0.21599123 0.21079616 -0.08435778 -0.16045098 -0.20268998 0.58913255 0.029486004 0.7685146 0.6825769 0.45507953 -0.24173218 0.37319478 0.01890546 -0.027878236 -0.03565935 0.033972718 -0.1719855 0.050964877 -0.28898808 0.31789622 -0.5973092 -0.13641453 0.2933828 -0.40809786 0.14139672 -0.08840646 -0.7914583 -0.016424015 -0.38779932 0.035178848 -0.23581974 0.49036232 0.19395125 -0.2676226 0.51698345 0.5294031 0.6611725 -0.0294908 0.18367882 0.096205026 0.626955
u539 -0.11719558 0.23659828 -0.3221623 -0.18672891 -0.33492404 0.006317982 -0.03183869 0.004475847 0.084300615 0.2699653 -0.10339874 0.2357055 -0.10144793 -0.5991452 -0.046146337 0.12569405 0.28184202 -0.06631913 0.14008643 0.11363058 0.1771564 0.13135506 -0.57000875 -0.25808102 0.058766786 0.32422942 0.07729055 0.2235098 0.7520457 0.41106346 0.091271944 0.246661 0.3748634 0.5265389 0.38587925 -0.18554394 -0.058127712 -0.04201932 -0.21719173 -0.5109448 0.08559203 0.08611381 0.5817304 -0.024944484 -0.3562378 -0.39842167 -0.7068017 -0.16702913 -0.20956238 -0.23028187 0.16910115 -0.46489966 0.12553497 0.06258932 -0.043358844 0.03333705 -0.38519606 0.020918053 -0.052033175 0.18314935 -0.23434667 -0.17213805 0.28257513 0.5738261
b756 -0.26656872 0.5414093 -0.38764173 0.05605362 -0.09818692 0.49878895 -0.23308937 -0.09668866 0.34826034 0.18348175 -0.079786025 0.4118415 0.651732 -0.4239299 -0.24261394 0.2721554 -0.021185435 0.19540115 0.43449104 -0.27803248 0.084343396 0.4885579 -0.3209444 -0.04415468 0.3168004 0.028929446 -0.1240408 0.21707706 0.21644199 0.26396093 0.6704739 0.17628518 0.21787524 0.2629307 0.07247252 -0.2879445 0.19771278 0.010190975 -0.31618023 -0.33714923 -0.13457586 -0.32897988 0.5871489 -0.50457764 -0.49763718 -0.20098758 -0.11516971 -0.2682557 0.05475565 -0.07997027 0.2139971 -0.12651047 -0.27176532 -0.22100888 -0.029231606 0.0006053251 -0.04792669 0.56499094 -0.14633788 0.29059362 0.16084997 -0.035832666 0.07501632 0.6236546
u373 -0.0030332713 0.6011478 -0.19395556 -0.41332272 0.10559398 -0.07283467 -0.06627271 -0.3180285 0.5822055 0.3871626 0.22179088 0.32401058 0.28002042 -0.69390553 -0.61079293 0.3444478 0.29671943 0.13345046 0.39832425 0.10332629 -0.38577935 1.0192297 -0.6091414 -0.27400422 0.3979158 -0.009007167 -0.37584963 0.73438203 0.52823335 0.43680322 1.0159314 0.16508031 0.34347153 0.41103786 0.56468076 -0.09590464 0.3770203 0.0129860155 -0.114045314 -0.15547481 0.06878716 -0.48829737 0.6994609 -0.36798477 0.16352528 -0.35840452 -0.5203482 -0.44636682 -0.530613 -0.21727727 0.43891722 -0.1628442 -0.44948822 0.40866166 0.010987138 -0.14670569 -0.54902965 0.23853798 0.061971758 0.09754549 -0.011944773 -0.044237226 0.3302718 0.607241
u1144 -0.8333126 0.35734677 0.028268794 0.10520463 -0.19471955 0.3026105 0.21495785 -0.28057373 -0.19996236 0.013526106 -0.035687037 0.56743693 -0.15673475 -0.24720259 0.13120764 0.4060401 -0.15617792 0.23309954 -0.27355462 -0.14194041 0.2022881 0.45203882 0.04591864 -0.09146524 -0.22017303 0.051839575 -0.16478077 0.6613788 0.23090748 0.2907083 0.84016323 -0.028544461 0.13150929 0.3992624 0.3002709 -0.1665865 0.360672 -0.070801936 -0.6002492 -0.56747675 -0.06367626 -0.24051502 0.24741398 -0.49881095 -0.44320232 -0.31677938 0.22796264 -0.8784767 0.2347575 -0.23289898 0.12995481 0.10165226 -0.08602843 -0.11259123 -0.15090202 0.08304614 0.29346496 0.67161745 0.02336879 0.6993354 -0.19310877 -0.349569 0.089057066 1.1277664
b2154 -1.1126386 0.20024343 0.080318645 -0.28871724 -0.45647144 0.3748537 0.17511572 -0.5915674 0.1999049 -0.49424884 0.13854638 0.59278005 -0.41003785 -0.47437876 0.20058617 0.00043456416 -0.34817666 0.109960854 -0.40096387 -0.20021905 0.09487903 0.5027983 -0.04583911 -0.03190145 -0.4407971 0.54476357 0.20208177 0.12457792 0.24483857 0.112004675 1.0602398 0.08674394 0.8834472 -0.13320139 -0.3509218 -0.4538606 0.19869542 0.0062238243 -0.45874137 -0.21584702 0.63774854 -0.43488356 0.5375803 -0.38438442 -0.53622895 -0.026079044 0.40314156 -0.6323115 -0.093947396 0.32063347 0.25149572 -0.26612464 0.071208484 0.10732754 -0.51447994 -0.11072808 -0.31628135 0.059542537 0.3447815 1.1178124 -0.28407472 -0.36120635 0.3444606 0.84562534
u613 -0.4377287 0.04451274 -0.0477446 -0.18199122 -0.6842077 0.41140994 0.036324315 -0.22067384 0.176365 0.07950231 -0.11954468 0.53309256 0.48180604 -0.9476664 -0.094399124 -0.20223776 -0.04904998 0.610907 -0.13810264 -0.18175407 0.2802966 0.47358698 -0.17476028 -0.10509346 0.25072563 0.19303805 -0.30097058 0.083749264 0.5875564 0.17626043 0.8679997 -0.15230882 0.5476728 -0.019670637 0.0936416 -0.27970594 0.016250161 -0.2267134 -0.17377606 -0.6052482 0.22977725 -0.3973552 0.56755155 -0.32360348 -0.34022707 -0.27733916 0.1068887 -0.24079727 -0.05124244 0.0014604381 0.018391741 -0.18272041 -0.3082091 0.032780822 -0.032048058 0.07653994 -0.18766801 0.22731206 -0.15351532 0.5764356 0.11360495 -0.09344552 0.073727004 0.19210814
b57 0.036055874 0.6163603 -0.025181772 -0.24500117 -0.38440457 0.37443691 0.11906121 -0.1230875 0.0784277 0.24934745 0.040189408 0.63843733 0.5820583 -0.97463113 -0.0041283485 0.027329326 0.0720422 0.25055844 0.25842905 0.16011354 0.1048752 0.31049848 -0.33351618 -0.043498658 0.11024549 0.0030825874 -0.3250974 0.01188729 0.46566004 0.15723531 0.5969203 0.38272306 0.62542033 0.20525526 0.23696116 -0.3651299 -0.06651479 -0.014900533 -0.19257057 -0.33061886 0.16868256 -0.17032462 0.4204768 -0.31428182 -0.27918905 -0.3646642 -0.33668697 0.3085431 -0.11616569 -0.20285736 0.045479495 -0.237193 0.3914946 -0.03242539 0.33533347 0.014834041 0.12392878 0.3743379 -0.031236814 0.45641488 0.014937555 0.0076349424 0.23071413 0.453183
b225 0.26482013 0.46844998 0.32815987 -0.051262964 -0.3588129 -0.3337199 -0.5177468 0.17088746 0.041604333 -0.34182152 -0.252073 0.47660387 -0.5306014 -0.26530623 -0.4763024 -0.007878416 0.08517184 0.43903753 -0.043516435 0.08628129 0.10149212 -0.0546503 0.33150083 -0.7235559 -0.077646084 0.30084872 -0.05205949 -0.011440451 0.039605066 0.4236022 0.34414068 0.72006196 0.50592935 0.53869694 0.3352751 -0.19051668 0.08835686 -0.03479411 -0.02318998 -0.4376976 0.29467747 0.19570126 0.46764424 -0.5316966 -0.2194051 -0.06313278 -0.6694808 -0.28451037 0.03690106 0.44557682 -0.30976036 -0.48350525 -0.43897527 -0.26323316 0.034907 -0.29269618 0.3154769 0.19212492 -0.29813674 -0.022557914 0.19035287 -0.048858352 -0.533989 0.6591715
u14 -0.64187896 0.4780259 -0.2151171 -0.21998239 -0.023755375 -0.38286677 0.12940338 -0.09870539 0.009109371 -0.25480017 0.19912145 0.29041415 -0.3177419 -0.46259606 -0.6896941 -0.32974625 0.5014646 0.308954 0.2284203 0.30950847 0.055349715 0.294751 0.3038383 -0.29890546 -0.13162726 0.078983404 0.012671483 0.2105181 0.69068784 0.4091073 0.551032 0.4400117 0.663234 0.19483997 0.046716105 0.32708758 0.30631405 0.116940744 -0.509431 -0.12806882 -0.0028473744 -0.2864276 0.68784666 -0.6675747 -0.3511951 0.04432234 -0.32545403 -0.21154884 0.047149435 0.19172756 -0.057179213 -0.27323928 0.11972418 -0.13603607 -0.2618442 -0.32032394 0.015129694 0.33703566 -0.031369124 0.37020496 0.12988506 -0.035628144 0.20782658 0.5705403
b276 -0.5234748 0.10280165 0.06798872 -0.12671073 -0.1875536 0.0945292 0.4331636 0.23394781 -0.11832141 0.30291983 0.32854787 0.34024322 0.24616495 -0.3688055 0.16592777 -0.17855147 -0.3488614 0.48473796 -0.1353628 0.070026115 0.12094888 0.39529523 0.018157711 -0.27174312 0.11992902 0.045477085 -0.29211113 0.23941438 0.3337215 0.31388545 0.8190733 0.516242 0.35693905 0.09241986 -0.03588444 -0.37817678 -0.021606436 -0.15836923 0.04641304 -0.18508077 -0.004891438 -0.5114523 0.50651133 -0.28375491 -0.4287166 -0.25292784 -0.39022285 -0.53122175 -0.21348026 -0.12856483 0.098921776 -0.27033862 8.5132655e-05 0.061206266 0.440745 -0.20214185 0.29978353 0.34008044 -0.1940412 0.22718348 -0.06291587 -0.005753047 0.065551266 0.42520508
u172 -0.12321667 0.5084848 -0.18841678 0.048834253 -0.12865545 0.40212643 -0.22573943 -0.34837446 0.22756197 0.36177665 0.12297199 0.586317 0.16450821 -0.35667244 -0.024899459 -0.0788951 -0.03974176 -0.041942637 0.051492523 0.27131283 0.34563255 0.54873616 -0.057687733 0.16797176 0.3521834 -0.002739502 -0.37667695 0.10812931 0.56107867 -0.011130811 0.37638265 0.39615318 0.2780999 0.41391733 0.24693383 -0.18368563 -0.0057346714 -0.14253423 -0.19400267 -0.20416516 -0.049879666 -0.4301251 0.6324257 -0.5423336 -0.2983175 -0.5210387 -0.41427845 -0.4714067 0.41854557 -0.015055519 0.026187295 -0.46280304 -0.33165437 0.071274765 -0.30544382 -0.16642855 0.36455798 0.6850283 -0.039836045 0.3952509 -0.07159383 -0.3397146 0.087964736 0.09548908
b67 -0.55082047 0.24751525 -0.021098206 -0.3172967 -0.03407876 0.12652354 0.017061109 -0.30355713 -0.080963664 0.2955442 -0.02499749 0.27223536 0.08990993 -0.36600533 0.045648295 0.03934359 0.036403257 0.70831615 0.13455746 0.32274434 0.008232049 0.16143422 -0.45597634 -0.084456295 -0.16319743 0.37869012 0.0829125 0.52922696 0.8544251 0.52184135 0.43538907 -0.20969602 -0.10463755 0.467789 0.4811403 0.14841473 0.17251717 -0.09424951 -0.17739661 -0.40428287 0.36077926 -0.0981574 0.37799573 -0.5824129 -0.20322326 -0.22340566 -0.39924854 -0.96250176 -0.13404746 -0.24423315 0.22852825 -0.20456183 -0.17243317 -0.055256415 -0.34266472 0.07044574 -0.13368405 0.56106085 0.2581447 0.756603 -0.46649688 -0.10659769 -0.15928134 0.69542366
u100 -0.16728783 0.24906412 -0.16023813 0.25457466 -0.12678058 0.2643157 -0.2555405 -0.5201479 -0.035884015 0.42864567 -0.0074881767 0.61343986 0.23215687 -0.6826229 -0.020063667 -0.08600955 0.15300277 0.5929211 -0.094531864 0.12864743 0.24080081 0.13281141 -0.2580843 -0.36211702 -0.19997148 0.11812164 0.11792145 0.20625159 0.56565654 0.14015093 0.2115821 0.7268054 -0.3733098 0.13094944 0.3135453 -0.24518368 -0.09025467 -0.018239621 -0.21550843 -0.43105152 0.12072196 -0.33021474 0.64089364 -0.90359837 0.06822469 -0.22146451 -0.006559054 -0.7612887 -0.3421764 -0.13087513 0.10774089 0.0534996 0.08048088 -0.1846734 -0.059114303 0.13058542 -0.09730543 0.44226316 0.31488636 0.30732805 -0.02462146 0.35787517 0.06846657 0.2433064
u886 -0.37157553 0.36138502 0.09643713 -0.215901 -0.56875527 0.60867256 0.15602379 -0.17905478 0.13902833 0.33276764 -0.26501226 0.13300318 0.080125116 -0.35844415 -0.10156485 -0.051455088 0.11598107 -0.04968636 -0.28234696 -0.29319695 0.08110477 0.5381003 -0.25889343 -0.36870584 -0.4537557 -0.03210796 -0.16931999 -0.27352846 0.49745777 0.16659427 0.7358583 0.37842417 0.62846935 0.33263594 0.4106434 -0.47225118 -0.08486525 0.14293502 -0.21687609 -0.50515336 0.057410605 -0.2553937 0.12598202 -0.42170104 -0.20010374 -0.19953766 0.29524896 -0.26942456 -0.15779549 -0.08869417 0.39368746 -0.17126656 0.13196741 0.21347268 -0.052194677 -0.42779997 0.064199254 0.404141 0.015107703 0.24764693 0.3581247 -0.26556543 0.10208805 0.6469348
b621 -0.5470108 0.58731526 -0.13718764 0.5287762 -0.22017983 0.7004786 0.43747064 -0.76277757 -0.32204804 0.45745817 -0.07587001 0.5214044 -0.2685668 -0.5365039 0.31295118 -0.09791386 0.86827695 -0.33459145 -0.22814338 0.1083664 0.54318774 0.74145037 -0.29922402 -0.63561076 -0.5668629 0.4667918 -0.16826166 0.1886778 0.6367471 -0.042485006 0.90853554 1.0823752 0.31355643 0.43335935 0.50527203 -0.37907326 -0.22503921 0.018835146 -0.22760113 -0.29792386 -0.10916313 0.16394034 0.55727935 -0.3343879 -0.2203924 -0.5113483 0.44370455 -0.18286775 -0.37247258 -0.23256813 0.08826432 0.1529793 0.340991 0.39656788 0.24785559 0.25256634 -0.42156592 0.2773033 -0.046206724 -0.2759442 -0.14176063 0.40178278 -0.89863735 0.33043766
u156 -0.5138506 0.19462898 -0.35741535 -0.0019787538 -0.95108783 0.5874563 0.43067718 -0.3840611 0.34849137 0.08038687 0.12232517 0.42498574 0.21558425 -0.7847252 -0.05926246 -0.040037062 0.09352739 0.17493781 -0.30778143 0.107322395 0.5494946 0.6896017 -0.54760236 -0.50846356 -0.39230964 -0.0026183932 0.4340585 0.32338643 0.5731899 0.24168386 0.9050058 0.41795778 -0.118812956 0.8432885 -0.1313585 -0.26761466 -0.2316227 -0.29369578 -0.113037296 -0.42699435 0.5803209 0.11155344 0.56924075 -0.7907018 -0.2329061 -0.3436929 0.67992944 0.3610693 -0.33821478 -0.19818507 0.20073532 -0.8653344 -0.0024944781 0.72803825 -0.001673845 0.3490365 0.7341264 -0.4788316 -0.21371642 0.46443295 -0.03965836 0.6357018 -0.49423668 0.19195825
b1340 0.099978864 0.7686487 0.32609746 0.6566522 -0.62595415 0.6387779 0.04925068 -0.32806695 0.40594104 0.39411935 0.37421218 0.8085141 0.89066863 -0.8417877 0.4856904 -0.31394103 -0.07221286 0.17861295 0.46748394 0.33010927 0.5431539 0.6322454 -0.631235 -0.45317966 0.10275804 -0.036440577 0.3688648 -0.42580256 0.4418402 -0.2775683 0.6652933 -0.21526916 -0.17983948 1.135217 0.3925075 -0.37160185 -0.37514073 0.7620544 0.0015285255 -0.385155 0.66794187 0.09888374 0.27541426 -0.16367911 0.500264 0.03374639 0.051937114 0.10341133 -0.032919757 0.044561762 0.10740628 -0.3964421 -0.65098476 1.0638093 0.16491671 0.0245637 0.039342787 -0.22374873 -0.010582723 0.18255797 -0.043319516 0.45041087 -0.19615692 0.33354375
u813 0.04060594 0.6667094 0.5719566 0.46944153 -0.7068627 0.12705208 -0.24105333 0.22983883 -0.1358874 -0.009611524 0.1484503 0.582755 0.29660952 0.020144572 0.013525469 -0.13504776 -0.23698112 0.0018542802 0.2737308 0.07794776 0.6294076 0.24747682 -0.13501072 -0.70244455 0.29918176 0.15349193 0.7981027 -0.40576696 0.49846134 -0.34614745 0.5116815 -0.42015368 0.30293918 0.50341845 0.068265475 -0.27528286 0.06274664 0.4447046 0.595625 -0.40895408 0.35676828 -0.3870109 0.008710739 0.5007675 0.18990143 -0.5013767 -0.68664765 -0.13020703 0.28652823 0.26081905 -0.17439006 0.0925266 0.029999316 0.25564265 0.12346758 -0.35096183 -0.03400091 -0.5350926 0.045187943 -0.3291698 0.189435 0.09862494 -0.12879047 0.67013544
b170 -0.23911326 0.33900273 0.28088766 0.5054397 -0.2475012 -0.14423186 -0.055335663 0.38250872 -0.3795381 0.00028943428 0.11605706 -0.09841109 0.14049158 0.46651584 -0.10134147 -0.14189197 -0.36161748 0.23054291 0.13062511 -0.17219245 -0.21380553 -0.14675951 -0.3426223 -0.19118164 -0.23027888 0.58685726 0.5672268 -0.54646295 0.079457596 -0.37393934 0.37110588 0.38532352 0.020567892 0.65072423 -0.305919 0.117201306 0.25601363 -0.046025537 0.17354065 0.05923213 -0.11022683 -0.13508394 0.08613651 0.3135636 -0.46186927 0.21339402 -0.5694495 -0.23861976 0.23185436 -0.30175072 0.20139596 0.15448166 0.118222356 0.35604352 0.48023704 -0.19335087 -0.17207704 -1.0091294 0.3505385 0.37151945 0.54784656 -0.11829412 -0.22717872 -0.010502291
u263 -0.107881434 -0.15509634 0.71959364 0.70260334 -0.09567633 -0.5792143 0.13912806 0.43027967 -0.45307046 0.09342398 0.11196305 -0.3675862 0.0542272 -0.2503209 0.18153363 0.111521944 0.057620335 0.039444562 0.15000202 0.32344478 -0.48679167 0.19222777 -0.49112028 0.13227862 -0.27051902 0.35893846 0.92207986 -0.534498 0.06002898 -0.0071592345 0.02503535 -0.054250106 -0.072334506 1.0584328 -0.11375756 -0.11338614 0.8500906 0.15380883 0.45295337 -0.1029916 0.19942136 0.12732802 0.110161 -0.21054949 -1.3809189 1.1721876 -0.12557685 -0.16017124 0.41881964 0.05457135 -0.26662564 0.5052768 -0.015851112 0.37469772 0.27224216 -0.2703783 0.1023362 -0.5743374 -0.19283274 0.051934984 0.4827926 0.2417348 -0.4215755 0.23534136
b264 0.21750335 -0.35083362 0.53090197 0.41461048 0.19193962 0.7846028 0.3098427 0.5945865 -0.12366545 -0.50797606 0.13097899 0.013910599 0.2973092 -0.20470789 -0.12731065 0.0117067825 -0.72626173 -0.19921112 0.041789044 0.8610459 -0.36062998 0.4178375 0.35216624 -0.10260889 -0.24154791 0.98585135 0.65721196 -0.22675373 -0.23199514 0.3785795 0.3434534 -0.33617675 -0.23452759 0.72462666 -0.08073594 0.076836295 0.7681134 0.52910054 0.15193477 -0.08587001 0.11977414 -0.17400959 -0.34861174 -0.47367376 -1.0136197 0.78969586 -0.13175036 -0.8665775 0.27250412 0.08399705 0.013730625 0.065903515 0.5823863 -0.06357373 -0.1312644 -0.2717408 -0.18482766 -0.88718534 -0.22246517 -0.33582875 -0.059912886 0.44573477 -0.6287874 -0.067414455
u1242 0.2520191 -0.023162689 0.5484221 0.22460225 -0.1371757 1.1061664 -0.19991581 0.14851958 0.24783407 -0.5381569 -0.2015797 0.5621271 -0.48523661 0.3157712 0.0284839 0.23570377 -0.91260314 0.1697148 -0.21742721 0.6141164 -0.1099212 0.4539727 -0.41630998 0.39975926 -0.30288103 1.0143551 -0.036231913 -0.8637921 -0.6284095 0.4801789 0.10520078 -0.7171222 -0.036587957 0.5568203 0.1104433 0.54803103 0.7633234 0.27398458 -0.114595234 -0.030073108 0.20944595 -0.18481022 -0.36283782 -0.3573505 -0.1689174 0.37708926 -0.5154089 -0.6409127 0.17432664 0.27135447 0.21224919 0.66635054 0.8135476 0.24462675 0.0051104454 0.3984798 0.15655455 -0.9189974 -0.10846087 0.09910584 -0.13072537 0.07761749 -0.32254383 -0.06046459
b2062 0.19382612 -0.53384286 0.65873134 -0.30148003 -0.008913624 1.2052206 -0.21927421 -0.17363645 -0.19700623 -0.58286023 -0.14737709 0.6011703 0.5286401 0.15165587 0.2923894 0.5044074 -1.0689077 0.21128134 0.23264234 0.6147348 -0.03839918 -0.30916464 -0.040146634 0.14080241 -0.1444732 0.46585053 0.33929715 -0.7445893 0.2108821 -0.32942528 -0.36261287 -0.8870716 0.18453425 0.96777195 0.2260737 -0.3607294 1.2783042 -0.6554103 -0.45483407 0.06360506 0.023937257 -0.31853613 -0.10071982 0.11049708 -0.0066395905 0.27430877 -0.5384 -0.8627146 0.055100977 0.2656797 0.2891614 0.34848297 0.32947454 0.88629735 -0.26578134 0.46324316 0.21037386 -1.1427305 -0.3417925 -0.2700221 -0.10296557 0.17272647 -0.24050595 0.026853725
b567 -0.1393515 0.3464061 -0.1327078 0.29111764 0.1414524 0.25864232 0.3661192 -0.23366643 0.30724043 0.012573703 0.2156671 0.26985884 0.15200716 -0.27104548 -0.5566922 0.12886178 0.2527391 0.33437884 0.40622187 0.22626846 0.19767958 0.49826068 -0.21389304 -0.028654953 0.5174636 0.24703324 -0.15781733 0.27380347 0.1881643 0.31300315 0.92681974 0.7187198 0.44868106 0.2969521 0.27577505 -0.52756757 0.1062983 0.22908396 -0.49801275 -0.52023387 0.22575176 0.21476485 0.20069058 -0.019431448 -0.15600498 0.062815025 -0.67761433 -0.3224444 -0.4057343 -0.10485772 0.105957426 -0.40322194 0.05099057 -0.16897178 0.060775947 -0.36803505 -0.3549099 0.33588687 0.1743823 0.94780296 0.3552479 0.16235998 -0.20823291 -0.13793056
u1181 -0.23855184 0.13561726 -0.052061986 0.018001456 -0.4195761 0.43817323 0.2723341 -0.0755281 0.46102655 -0.01838914 -0.25910828 0.3713854 0.08794648 -0.66658777 -0.37997276 0.24481381 0.122302786 0.23337042 0.30711985 0.19783953 0.2344475 0.70211256 -0.06969273 -0.45563874 0.2340923 -0.042790223 0.20026007 0.088331684 0.300673 0.062321756 0.7153869 0.43537706 0.47142836 -0.18982525 0.702792 0.3398644 0.041419737 0.12510599 -0.15630667 -0.59683615 0.1622511 0.12976432 0.29088837 -0.43007624 -1.2382511 0.31166098 -0.4853602 0.038302332 -0.091378845 -0.040592123 0.050247293 -0.3314357 0.32085243 0.18151708 -0.26000345 0.09115908 0.08130217 0.41452944 0.032848585 0.061206963 0.2203727 -0.17210461 0.12804073 0.41922757
b114 -0.018707614 0.6944682 -0.18750049 0.053507645 -0.0663905 0.27228734 0.2764029 -0.15482225 0.16033207 0.20467402 -0.17665486 0.56826735 0.13501012 -0.43063542 -0.421688 0.0027188626 -0.09255133 0.42291474 0.13147095 -0.24495123 0.15172936 0.20534787 -0.48110068 -0.36958942 -0.06604855 -0.040698834 -0.047892787 0.31150013 0.4666666 0.29584306 0.330599 0.45860335 0.37418237 0.34421405 0.31986445 -0.023471242 -0.08302218 -0.04325188 -0.47962108 -0.4313233 0.1099293 -0.1943801 0.50639105 -0.7338828 0.18749847 -0.38829297 -0.30421072 -0.64663327 -0.06395274 -0.57232946 -0.010987661 -0.16683951 -0.067696266 0.03598673 -0.32433423 0.10913086 -0.022233708 0.29452798 -0.023244679 0.37660182 -0.051311255 -0.111195475 -0.25676525 0.2609527
u596 -0.363449 -0.175583 -0.64851856 -0.01131037 -0.08974984 0.5409445 -0.0019817404 0.53762096 0.12078336 0.80861235 -0.103570886 0.26549685 -0.61469024 -0.422948 -0.58287126 0.108225785 -0.23803106 0.3808182 -0.028511997 -0.3029694 -0.13130084 0.4157398 -0.22258739 -0.16318342 -0.30007562 -0.30437562 0.1948214 0.12696858 0.7163621 0.099474385 1.1657349 0.49427134 -0.21651256 -0.15442315 0.6373376 -0.008881945 -0.37229866 -0.23624422 -0.5009672 -0.3874398 0.1087099 -0.46033382 0.7874546 -0.7574772 -0.48535565 -0.23049203 -0.13876319 -0.39074898 -0.2766139 -0.9517725 0.14669953 -0.154821 0.3492812 0.17287935 -0.5051416 0.045614246 0.4671249 -0.0075671487 -0.09655411 0.2917782 -0.25774068 0.0922876 0.36070457 0.18534698
b922 -0.38390905 0.43875045 -0.43924448 0.76003784 -0.29145896 -0.20289487 0.034140095 -0.29429734 -0.12387615 0.36634916 -0.03711823 0.6053387 -0.16263458 -0.37802678 -0.4144401 -0.031553864 0.16323747 -0.31137738 0.09280252 -0.20530427 -0.36337024 0.76763386 -0.52301484 -0.12258703 -0.2608562 -0.7488571 -0.119010575 0.34090778 0.652166 0.24038921 0.54703516 0.49898615 0.21839823 0.19623545 0.1671615 0.05777744 -0.21516286 -0.20566624 -0.5076111 -0.5546146 -0.35472757 -0.45156252 1.2512369 -0.87148637 -1.3601748 -0.5396047 0.5716604 -0.3241637 0.20513813 -0.27995044 0.11058546 -0.5108856 -0.26814446 0.14959519 -0.60125357 0.011931647 0.48710263 0.32142144 -0.23254092 -0.30839625 0.10091427 -0.34629333 0.1314962 0.33863902
u209 -0.32806358 -0.006880919 0.18123572 0.46254414 -0.61002105 -0.5322176 -0.06867373 -0.005415213 -0.0011945579 0.41774338 0.48374936 0.7860947 0.2906336 -0.35701478 0.10268398 0.024684263 0.7995989 0.18299706 -0.111335434 -0.014770517 -0.035660706 0.088868946 -0.15485165 0.25673613 -0.2649583 -0.53938925 -0.06475065 -0.06626484 0.6365031 0.39760113 0.45625463 0.27558762 0.15303291 -0.058315385 0.19232363 -0.37791318 0.07456195 -0.37283984 -0.36396307 -0.26091138 0.14493538 -0.25217745 0.6372349 -0.427358 -0.31720188 -0.6025459 0.1417296 -0.72195774 -0.012768571 -0.1657002 0.2877023 -0.750762 -0.19196455 -0.15630455 -0.79733247 -0.027335372 -0.11816555 0.43453753 -0.08453744 0.1481502 0.191319 0.10942483 -0.07485725 0.3802104
b210 0.08934749 0.2704661 -0.035527695 0.18817924 -0.6060698 0.38407445 0.29618025 -0.034352902 -0.13603124 0.666806 -0.3354055 0.20765306 0.59030837 -0.42769092 0.18983394 -0.09315816 0.24735813 0.31097186 -0.36114356 -0.04963855 -0.083477765 0.03392797 0.040990822 -0.08882957 0.23550093 0.043273266 -0.06540624 -0.13556056 0.33117217 0.17902967 0.46639377 0.33181018 0.15710555 0.1916889 0.37506896 -0.29669023 -0.14965865 -0.44438586 -0.6015364 -0.4409152 -0.091105625 -0.37398142 0.7478421 -0.47887507 -0.24731182 0.13740915 -0.1626267 -0.36190507 0.2911252 -0.15079512 0.15794611 -0.40012103 -0.19621627 0.14226404 -0.08174069 -0.0075788097 0.23754515 0.49369836 0.23720951 0.19537783 0.004991366 0.1270605 0.03278997 0.6385562
u923 -0.25926042 0.38552114 0.05193698 0.11471257 -1.0428878 0.5502991 0.26243207 -0.110936664 0.7724194 0.0564821 -0.40856367 0.6204874 0.31492344 -0.40173438 0.6496582 -0.011150639 0.40504736 0.20333149 0.09748969 -0.11604251 0.21189915 0.24266255 -0.011193337 0.28598368 -0.0053549926 -0.005394502 -0.646644 0.098854 0.2658865 0.6398515 0.14018784 0.24436693 0.3393493 0.1038381 0.5277055 -0.2545755 0.22298446 -0.44866824 -0.18250665 -0.10886364 -0.0026541809 -0.20917504 0.722863 -0.84340644 0.105832726 -0.07841768 0.17589979 -0.54047024 0.09252843 -0.18205772 -0.022445636 -0.23927566 -0.16336903 -0.18652222 0.31996426 -0.2276596 -0.08585419 0.36713064 -0.18622082 -0.022389323 -0.09497622 -0.21879458 -0.2777043 0.8346535
b762 -0.22223964 0.5197124 -0.011756506 0.16687849 -0.72445726 0.006118109 0.14485556 0.14508837 0.21845353 0.291171 -0.061550684 0.30116883 0.6428422 -0.60686964 -0.27377433 -0.0637916 -0.013695903 -0.092452966 0.144956 0.14276758 0.06989161 0.40444103 -0.043415 -0.03131074 0.21797396 -0.17435794 -0.086636595 0.06055821 0.49977964 0.0074627027 1.0069953 0.3088618 0.5266678 -0.2204684 0.36910513 0.13243806 0.13048312 0.022924285 -0.31189406 -0.38747826 0.12810732 -0.036554188 0.6659461 -0.48193628 -0.13539903 -0.3263001 -0.52915746 -0.25336146 -0.07156873 0.06072879 -0.010383335 -0.08510049 -0.0005787164 0.1936903 0.16204876 0.28019926 0.10397315 0.28926647 0.24996525 0.4266562 -0.26042593 -0.11798119 0.210149 0.68901473
b415 0.32778502 0.2891458 0.43486053 0.03284524 -0.32139915 0.51926327 -0.47215414 0.49233574 -0.23029411 0.13718976 -0.027724635 0.60605806 0.7165941 -0.8834273 0.77316254 -0.20184898 -0.4220977 -0.044961747 0.18148008 -0.09247572 -0.65539545 -0.2114715 0.065824084 -0.32917485 0.15287478 -0.24651925 -0.11979929 0.04812513 -0.33258358 0.30969423 0.18037963 0.3648126 0.83847225 0.45673665 0.07244403 -0.24303626 -0.36836872 0.059288383 0.30156973 -0.14774016 0.32935846 -0.27200282 -0.30726618 -0.60695446 -0.07228158 0.28839093 0.32894707 -0.36836016 0.44213042 -0.056801382 -0.09053397 -0.6310721 0.063469395 0.20503479 0.5745693 -0.08900417 0.2744576 -0.080790825 -0.43480113 -0.22370511 -0.18359655 0.2357897 -0.60834116 0.44392043
u331 -0.17122895 -0.09851055 0.3701116 -0.27429608 -0.52159333 0.14512458 -0.283513 0.16726193 0.18127201 -0.08865142 -0.65194994 0.25429368 0.90465117 -0.8918588 -0.014467868 -0.46926633 0.2628167 -0.26052803 -0.1967539 0.18056214 -0.109298036 0.16904369 -0.0069537074 -0.13655396 0.07123246 0.041599274 -0.13571593 -0.2132087 0.098933056 0.18526766 0.11615465 0.22934945 0.37617552 0.2172153 0.5020671 -0.35573024 0.10973769 -0.3128761 -0.07188086 -0.57452667 0.29724905 -0.468041 0.32017 -1.0057709 -0.6091585 -0.2894041 -0.03263874 -0.64164656 0.09753465 -0.20515749 0.017641468 -0.8891887 -0.2936358 0.16466747 0.0538145 0.06827505 0.21091282 0.23952158 0.17274438 0.42830086 -0.20146656 -0.044696588 -0.15343505 0.55647105
b229 -0.08417157 0.26131654 0.06631661 -0.61947423 -0.54205775 0.765592 0.20850939 0.08048572 0.39562297 -0.4577213 0.42645368 0.7975433 0.28918478 -0.3180944 -0.17456472 0.032180376 0.17279147 0.04859235 0.15833682 -0.0055587613 0.1326899 0.40545204 -0.060555395 -0.38083154 -0.6237033 0.15675938 0.21519081 0.16837153 0.20518936 0.17152104 -0.07911515 0.39163867 0.5070791 0.61018765 0.027181454 -0.34861356 -0.03904738 -0.1380889 -0.19662967 -0.49863955 -0.009975288 -0.05195256 0.66754514 -0.25778532 -0.20261948 -0.28502387 -0.5111178 -0.2829873 -0.29219085 0.046270892 0.07382393 -0.70610887 -0.014883135 -0.011842894 -0.037823144 0.121490315 0.2137813 -0.026641633 0.021174414 0.3854362 -0.19839218 -0.14674893 -0.40573913 0.5901107
u110 -0.26244572 0.30983981 -0.120206095 -0.19076622 -0.62977755 1.1792359 -0.0017632118 -0.06934593 -0.12669149 -0.37030348 -0.14197128 0.98184115 -0.16794749 -0.7554426 -0.44887987 0.31609476 0.36999846 0.20565867 -0.1403302 -0.37885356 0.36352438 0.52068955 0.109724 -0.12397084 -0.76110166 -0.14912188 0.40853816 0.48909855 0.5150628 0.1999323 -0.16283204 0.3673988 0.74611855 0.22919622 0.088585936 -0.43891016 0.11925537 0.027592197 -0.7679147 -1.0767169 -0.04915525 -0.07757794 0.38922355 -0.6598469 0.004788474 0.14730942 -0.26383913 0.0022503545 0.25475702 0.17350888 -0.1730966 -0.042353265 0.26111552 0.35703918 -0.036433533 0.532241 0.008539066 0.24726398 0.1201924 0.60212946 -0.3722268 0.08926618 -0.081576824 0.59897
b477 -0.20271136 -0.21311595 -0.07592784 -0.77320397 -0.30379692 0.99871397 -0.025738547 -0.07381599 -0.21123445 -0.0634446 0.18147363 0.5728577 0.925628 0.054935146 -0.21822251 0.2542773 0.13204958 0.25673783 0.08686262 0.32552832 0.5007528 0.6568157 -0.5076284 -0.32927057 -0.52919143 0.13812967 0.3431655 0.23761979 0.5350194 0.6533929 -0.04655767 -0.08684867 0.58920383 -0.063372135 -0.017550983 -0.081793144 0.044795204 0.5833173 -0.39383948 -0.43620446 0.06467962 -0.48135653 0.34542948 -0.90042734 -0.0067154705 -0.41204005 -0.020282587 -0.30056062 0.41441742 0.005799474 -0.2274187 0.09433557 0.3826302 -0.14028133 -0.6108646 0.6497539 0.060558062 -0.03952423 0.30741826 0.75533473 -0.10200784 0.12914062 -0.12094545 0.54826766
u192 0.2581932 -0.050967105 -0.066854395 -0.023021119 -0.21257168 0.33831105 0.35057542 0.09681952 0.7023304 0.043960504 0.03186371 0.412673 0.7055731 -0.23187584 -0.069398426 -0.13086249 -0.068230726 0.29598603 0.384815 0.06482634 -0.15850443 0.9223392 -0.12548791 -0.083706975 0.36869055 -0.16236524 -0.011080012 -0.36404002 0.5859523 0.300503 0.262951 0.5980742 0.49720675 -0.07946188 0.5501371 -0.23605302 -0.2768384 0.12931703 -0.45892373 -0.06862832 -0.013470663 -0.4461408 0.37636614 -0.85131747 -0.16578968 -0.05689332 -0.14270662 -0.5789383 -0.021029761 -0.19240254 0.23701817 -0.450383 -0.0099495165 0.20685697 -0.0827707 -0.2114411 0.21145779 0.4390756 0.032715432 0.3365534 0.2882098 0.27839348 0.36227864 0.6294269
u638 -0.12126672 0.28317723 -0.21710938 -0.10239779 0.10379798 0.71220934 0.4879827 -0.40780318 0.44425774 0.08381901 0.38707834 -0.2192674 0.22664262 -1.3921677 0.083021075 -0.5716899 0.30222708 0.005641147 -0.19715329 0.3417274 0.027313413 0.5512605 -0.24327636 0.20742264 0.24997784 0.117861554 -0.03080753 -0.21704306 0.25029972 0.73376817 0.7565212 0.19503224 0.44432652 0.18489848 0.2522706 -0.24116206 -0.13519514 0.02169042 -0.020343056 -0.6000552 0.094587795 -0.095770165 0.93894833 0.07825301 -0.025517402 -0.26400837 -0.40687004 -0.2955189 -0.12137076 -0.41741776 -0.42262906 0.09304848 0.043349955 -0.25575677 0.04811699 0.09899386 0.10299076 0.45944345 0.018554712 0.6337543 0.3234092 -0.1530159 0.28378326 0.21192877
b110 -0.471706 -0.14219247 -0.12481861 0.74069756 -0.26449105 0.59613925 0.3614502 -0.21907058 0.38121212 -0.12094177 0.03842885 0.14963222 0.90902704 -0.18136065 0.000519982 -0.07693512 -0.36077157 0.022403387 -0.46524364 -0.58044463 0.15388143 0.23918541 -0.23693627 0.12732503 -0.033782355 0.2474174 -0.35972443 -0.41627258 0.5353817 0.09970176 0.15049513 -0.25995496 0.5390291 0.2779387 0.040017467 -0.48887482 -0.15976174 -0.122647315 -0.40704972 -0.4660882 0.44278106 -0.436432 0.47298527 0.13027245 0.07268448 -0.19981815 0.06359757 -0.634161 -0.5359024 -0.14894989 -0.3651206 0.14671886 -0.410637 0.023704015 -0.2637967 -0.11493096 -0.14396292 0.19674939 0.09842474 0.17605503 -0.11041085 0.032776657 -0.5513634 0.087870896
u618 -0.4786979 0.059517223 -0.17330803 0.542371 -0.50321174 0.3484082 0.15074654 -0.2814078 0.43015164 -0.07636491 -0.103069305 0.72297585 0.6787121 0.01962606 -0.30484793 0.2021863 0.11238741 0.81646776 0.17929691 -0.3476479 -0.28539845 -0.07372477 -0.07436399 -0.11038014 -0.2669249 -0.42663467 -0.24123576 -0.3580125 0.9302154 -0.52085114 0.85869515 0.0919351 -0.027315237 -0.74540865 0.5308857 -0.5598705 -0.1367747 -0.50495315 -0.30875257 -0.3829104 0.32982743 -0.23150559 1.308893 -0.79685956 0.73293537 -0.30958262 -0.044871338 -0.85505897 -0.45751634 -0.27182376 -0.097005405 -0.1885653 -0.44570193 0.25320283 -0.26619795 -0.6200814 0.05336525 -0.3735606 0.23325874 0.43845683 0.19907147 -0.0028748936 -0.6445531 -0.14594433
b1418 -0.7064343 0.5626675 0.28162968 0.90163344 -0.47473723 0.2932586 0.11252369 -0.32788318 0.37247893 0.58184 -0.24500693 -0.09370749 0.64950776 -0.629652 0.111035 -0.1811517 0.3731496 0.060906354 0.54002005 0.3494866 -0.5441752 0.32450247 -0.6638741 -0.1589071 -0.12226609 -0.49716216 0.105498046 -0.48631486 0.5744149 -0.1869079 1.3174742 0.880573 -0.081330374 -0.7648162 -0.27918452 -0.6298553 0.025459968 -0.35853693 -0.18620071 -0.93807817 0.5906158 -0.32140255 1.0500274 -0.6717578 0.09637059 -0.19431385 -0.049728945 -1.1849808 -0.3151041 -0.1971675 0.035970565 -0.33607483 -0.52030987 -0.33914167 -1.0057553 -0.21561828 -0.32736966 -0.2961102 0.36853233 -0.361068 0.045858435 0.50659955 -0.19924688 0.5535675
u1203 0.2419694 0.38426214 -0.33709002 0.3645307 -0.22063188 0.7183954 0.35532615 -0.8197604 0.06725553 0.6074218 -0.6170387 0.21457028 0.846609 -0.9204173 -0.37131408 0.064001456 0.2881025 -0.764101 -0.08120753 0.09849196 -0.43702918 0.028390285 -0.699511 -0.7890482 -0.7974282 -0.022950752 0.005781095 -0.33917952 0.022394942 0.16130845 0.5035826 0.23854099 0.29378054 -0.024417268 0.28063112 -0.26459828 -0.21562652 -0.3409368 0.16767852 -0.36447012 0.4843897 -0.21304204 0.44441304 -0.85266435 0.22727601 -0.43215698 -0.3796263 -0.51946324 0.04117772 -0.6772155 0.45439056 -0.29502097 -0.41881242 -0.23176236 -0.9133643 -0.2525642 -0.0505591 -0.032787208 0.0019160581 0.15252092 0.56043714 0.8038961 -0.33517215 0.59210587
b1681 -0.15533961 0.23254001 -0.2287294 0.16969211 -0.08668929 0.21252324 0.11928418 -1.2415503 0.34994283 1.3213062 -0.58455306 0.20855759 1.103038 -0.7181919 0.20383756 -0.038666386 0.44910964 -0.069199964 0.091930255 -0.22765929 -0.24237828 0.12425461 -1.1452049 -0.47683063 -0.52723145 0.20033692 0.10934143 -0.32319224 -0.03067288 -0.124605455 0.50122327 0.75580984 -0.23940082 0.09354409 0.4642575 -0.22938243 -0.253019 -0.50968856 -0.1802777 -0.7685605 -0.06638232 -0.26585758 0.8605114 -0.92236763 0.60339576 -0.10535476 0.16611542 -0.7496564 -0.24203728 -0.17729178 0.35896474 0.06443859 -0.079800054 -0.33522815 -0.542406 0.5108377 0.005579961 0.29002884 0.34645987 0.040498096 0.6427779 0.9540472 -0.16562492 0.5334477
u201 -0.3311681 0.8530867 -0.2512177 0.21333238 -0.3538474 0.0796829 0.35609573 -0.78994375 0.2022782 0.44205552 -0.22232747 0.107542075 1.2245232 -0.8695206 0.15130636 -0.11845467 0.28292623 0.5443931 0.47084078 0.18324724 -0.53151476 0.5940194 -0.8064466 -0.25439343 -0.32732564 -0.33635667 0.44699898 -0.23050568 -0.17915802 0.11518752 0.4007114 0.74614954 0.17736411 0.16133332 0.44563046 -0.4111038 0.1257971 -0.41956392 -0.25455835 -0.48908654 -0.09015902 -0.24201076 1.1034338 -0.6077387 0.06641732 0.0865513 -0.17124245 -0.36129266 -0.35140127 0.11434962 0.40378046 0.3607793 0.26216912 -0.020352405 -0.45252562 0.6274372 0.057170667 -0.17621306 0.43780407 0.1985134 -0.2119142 0.03302205 -0.47492212 0.33824417
b646 0.7174395 -0.25774762 0.1706169 0.6461041 -0.25784943 -0.05512554 -0.32103837 -0.07798349 -0.20336282 0.116264924 0.22316973 0.274547 0.5996615 -0.7386458 -0.48074624 0.08074716 0.67165226 0.35691088 -0.07059181 -0.13625646 0.10956809 0.6547922 -0.29179537 0.07681883 -0.23673742 0.16378461 -0.53402597 0.39216045 0.6533445 0.24723248 0.5081412 0.72980434 -0.29612374 0.7433921 -0.14404763 -0.65860355 -0.24822743 -0.28199083 -0.32664722 -0.4002852 0.46078867 -0.21271442 0.09406938 -0.5857373 -1.1474128 -0.46681482 0.6594965 -0.78771585 -0.049114447 -0.0145056425 -0.22277361 -0.4805209 0.22656344 0.03506412 -0.49419382 -0.26808032 -0.33924872 0.1088802 0.0023446707 0.21579663 0.038030986 0.027624335 0.36904842 0.5002119
u69 0.06153856 0.6702691 0.18030931 0.030363005 -0.8292357 0.25487763 0.03277542 -0.04923852 -0.1677278 -0.1253415 0.40904525 0.3464263 0.72776514 -0.16269548 0.11476835 0.020165708 0.32562003 0.22520618 -0.045313913 -0.091975205 -0.0920233 0.04269352 -0.09206881 -0.54398 -0.5121262 0.3493808 -0.040105905 0.50393015 0.48596174 0.45510826 0.28045407 0.22434507 0.24878564 0.40840393 -0.22263987 -0.47856173 -0.07659907 -0.21517727 0.0094587635 -0.29324007 0.23327172 -0.21864031 0.12145835 -0.3501375 -0.39112508 -0.70077735 0.42722595 -1.1292866 -0.3027828 -0.4315532 -0.52248025 -0.35071564 -0.030860392 0.06978347 -0.33983123 -0.047304478 -0.057414696 0.53828573 -0.24168086 0.4544659 -0.070851915 -0.14463954 -0.19882308 0.25854167
b241 -0.3037381 0.15916736 0.04589424 0.12576404 -0.2799356 0.87777823 -0.24519786 -0.370172 -0.0068102097 -0.05632599 0.38094252 0.59686744 -0.068034984 0.012461369 -0.054164343 -0.07883747 -0.08087172 -0.07254269 -0.3411785 0.025426527 -0.031730924 0.5449541 -0.34012493 -0.67007655 -0.5387855 0.019908318 0.14002578 0.14507915 0.32379973 0.44661915 0.090543896 -0.038472943 0.16238916 0.30179515 -0.09669266 -0.556428 -0.2829913 0.09909176 -0.6339379 -0.41954312 0.019391589 0.50049347 0.34941941 -0.68223315 -0.19679812 -0.33806702 0.23262489 -1.0814365 -0.1787476 -0.1794681 -0.14474517 0.09551876 -0.11656403 0.08815788 0.22307877 0.03920522 -0.5131598 0.647782 0.42883417 0.6186923 -0.35933253 -0.21273138 -0.022743182 0.5650349
u514 -0.37645048 -0.032328516 -0.0907442 -0.02757826 0.13846156 0.40386236 -0.1534562 -0.05758402 0.46389708 0.5112352 -0.015804546 0.8368454 0.5060665 -0.4473901 -0.15151206 -0.26747712 -0.10135177 0.33477116 0.25277567 0.07905679 -0.030031672 0.46499377 -0.0048676208 -0.51941043 -0.21656772 0.24781685 -0.2549355 -0.23796158 0.36956385 0.60857487 0.38843763 -0.06606114 0.70872676 0.25669658 -0.09885133 -0.37247822 -0.06816462 0.17672476 -0.27997324 -0.68049955 -0.054011844 0.7649321 0.22063677 -0.8289898 -0.51063865 -0.6430556 0.2846616 -0.50805026 0.047710035 -0.048839543 -0.055447288 -0.2536003 0.14890271 -0.106019445 0.320626 0.092902966 -0.4205603 0.2962093 -0.03792033 -0.041709594 -0.22945185 -0.12681834 0.3457414 0.20678407
b144 0.14272144 -0.21912868 0.055452116 -0.2648044 0.40197018 0.17700091 -0.03713594 0.23861618 -0.106417835 -0.008990421 -0.011142274 -0.021010792 0.53856003 -0.08879839 0.24049541 0.37957057 -0.32388338 0.4746328 0.10602921 0.24425678 -0.0078075207 0.19927537 -0.021556031 -0.35536194 0.14076447 -0.12600762 -0.16202429 -0.23102923 0.64706546 0.083971 0.18380544 0.4641176 0.4505216 0.696565 0.098276936 -0.5581336 0.0484203 -0.25871214 -0.072498 -0.66065955 -0.06221074 0.06860811 -0.103059605 -0.3840854 -0.34313175 -0.2102944 -0.25536764 -0.11142658 0.27928722 -0.032147672 -0.36671558 -0.11871185 -0.10740426 0.15097883 0.11566975 -0.25423598 -0.09669204 0.47575447 -0.5126592 -0.14450842 -0.20044062 0.3570038 0.10065327 -0.045787092
u27 -0.02866622 -0.036785115 0.39628953 0.074960195 0.38482174 0.061608043 -0.034086537 0.5536245 0.07012974 -0.010470263 -0.2968279 -0.3367489 0.464978 0.16412647 -0.05681579 0.36640438 -0.33372056 0.52007335 -0.49003974 0.14935714 -0.20620005 0.34684432 -0.3136508 0.14523457 -0.4069885 0.16267268 0.37184584 -0.3909207 0.19832027 -0.29389125 0.4696292 0.039181776 0.057922836 0.57725316 -0.040765885 0.62519914 0.415828 -0.006140837 -0.16040175 -0.28004545 0.02433272 -0.1722042 -0.18544868 -0.14026871 0.07469476 0.32335252 -0.4089303 -0.2828162 0.25737378 0.12496942 0.14645837 0.132695 0.052279525 -0.32070097 0.32576945 -0.0097360145 -0.40313497 -0.32674736 -0.1932415 0.16801478 0.08842384 -0.1314801 0.32226396 0.053924717
b105 -0.18138999 0.3828336 0.4312402 0.3915716 -0.009342586 0.16247699 -0.43779594 0.10560144 -0.031584222 0.036719613 -0.0928934 -0.2452167 0.6127893 -0.036277767 -0.029105468 0.26709288 -0.034592193 0.042718053 -0.537616 -0.09421691 -0.06471993 -0.047117542 -0.25539136 0.3253218 -0.37677824 -0.0115584275 0.09585818 -0.2829058 0.11793269 0.049625885 -0.60120445 0.15230083 0.085591055 1.0261371 0.40955997 0.6268864 0.26433203 -0.28454018 0.23317957 0.19021598 -0.50508857 0.12844229 0.009991387 -0.06891035 -0.23353063 0.2591538 0.3332988 0.13057105 0.057215173 0.084016494 -0.35494396 -0.008233827 0.26640958 -0.018240688 0.22525308 0.305077 -0.48835996 -0.6622018 -0.37223327 -0.47858533 -0.17046225 -0.04887958 0.11879286 -0.27008736
u765 -0.5262974 -0.00057192857 0.5819901 -0.1399262 0.048720073 0.8226195 -0.18938757 -0.07985439 0.34048358 0.122566655 -0.09848946 -0.5850169 0.48672274 0.039218143 0.6187555 0.58387053 -0.100609116 0.42023122 -0.72979075 -0.14087789 0.28540963 0.2782344 -0.6260395 -0.21646366 -0.51360035 0.5578672 0.13070342 -0.3102204 -0.28667933 -0.04388757 -0.19752632 0.1447495 0.20151778 0.6106138 -0.056479797 0.8212739 0.90501106 -0.6492876 0.16861972 -0.039151613 -0.5794788 -0.31730372 0.44473428 0.0012466772 0.20527071 0.6978344 -0.20773171 -0.084299 0.124242306 0.37725392 -0.47035816 0.15618944 0.10890495 -0.25368643 -0.05885129 -0.11727363 -0.6010842 -0.24632512 -0.045879174 0.4809277 -0.26166224 -0.55788684 0.12354736 -0.3782314
b2341 -0.1630142 0.25496763 0.34524393 -0.059524715 0.12536329 1.2097917 -0.43214214 -0.31359366 -0.43715057 -0.22618861 -0.15005262 -0.39529032 0.22362316 0.0963757 0.9762027 0.46136448 -0.13086987 0.19934219 -1.663131 -0.120173745 -0.16834855 -0.04947283 -0.77149785 -0.15493932 -0.31901807 0.46402624 -0.01730868 -0.31740084 -0.30940598 0.292475 0.052401174 0.35219148 -0.020132978 1.311918 -0.2900873 1.4410708 1.323485 -0.5597507 -0.5278761 -0.22911446 -0.22097221 -0.68840957 0.4839495 0.42106017 0.28571454 0.28797913 -0.98238283 -0.49706528 -0.1262889 0.0167837 -0.0505786 0.69419736 0.29494208 -0.033975434 0.20274116 -0.086194016 -0.5294893 0.17084986 -0.25909114 -0.074064374 -0.20680003 -0.9274444 0.0763221 -0.49813324
b490 -0.40041628 0.34909308 0.012613625 -0.51534885 0.3703017 -0.096076004 -0.1005354 -0.0607321 0.1996526 0.06816234 0.04313055 0.23293166 0.18835472 -0.048362426 0.24462326 0.295431 -0.838678 -0.04443226 -0.7407755 0.3648075 -0.025092779 0.20456354 -0.6244011 0.064608954 -0.53841996 0.36604697 -0.20213817 -0.1947196 -0.013031871 -0.20483182 -0.3112153 0.34239715 -0.06328554 0.3853955 -0.0734053 0.29052225 1.1011133 0.052600265 0.4374566 0.43658108 0.12732732 -0.13192803 0.2931647 -0.19782323 -0.05723604 0.2607154 -0.8077537 0.062095284 -0.17882349 -0.3094337 -0.7265737 0.06356764 0.58866596 -0.22919376 0.2072344 -0.2582859 -0.15327585 -0.43687543 0.14080179 0.18839957 -0.06812968 -0.29953286 0.10733073 -0.114603296
u454 0.03292741 0.009431048 0.16794679 0.015614775 0.20705222 0.022132682 -0.5587614 -0.019393342 0.15356366 0.23052233 -0.01772624 0.18911605 0.37281594 -0.07374926 0.04272433 0.26209772 0.21727404 -0.4616415 -0.5199497 0.2887022 0.010707254 -0.01651154 -0.6639253 -0.011493811 -0.604661 0.69549763 0.02317741 0.090223506 0.11257056 -0.50428134 0.2461906 -0.25371626 0.21343017 0.27347463 0.27333367 -0.02243235 0.79621696 0.22419655 -0.20407721 0.667741 -0.35940838 -0.28414747 -0.021391809 0.07674972 -0.21855694 0.42003715 -0.32322606 -0.112804286 0.40115538 0.067400165 -0.26025635 0.017875163 0.33856183 -0.1412891 0.46183214 0.0081842095 -0.32009637 -0.574179 -0.17845635 0.10666924 0.35061544 -0.24262178 0.07754258 0.06641444
b348 -0.13757297 0.07389528 0.29313064 0.25748497 0.3110222 -0.24729216 -0.2568047 0.24651381 -0.25181028 -0.06714394 -0.041470908 0.3056186 0.67880976 -0.23627934 -0.12249 0.21807607 0.00281402 0.5268695 -0.26034456 0.028511254 -0.17839794 -0.11275366 -0.29301465 0.023565486 -0.2654768 0.7702848 0.62582904 0.25825983 -0.08576757 -0.26915944 0.6794662 -0.08080066 -0.07935684 0.6602129 0.13776654 0.17907682 0.3828695 0.016191917 -0.2539796 0.22916831 -0.2920159 -0.15299542 0.43263167 0.27714416 -0.009088987 0.45413116 -0.46808198 -0.10343841 0.3569375 0.3391033 -0.30660614 0.08831769 0.35188988 -0.27993712 0.093412474 -0.08879433 -0.4145 -0.3961566 -0.058245048 0.06657763 -0.30024442 0.026977228 0.023809869 0.16738543
u607 0.35379228 0.053377345 0.07082636 0.6282466 -0.059154674 0.0039829146 -0.25442684 0.54279214 0.044284273 -0.31216154 0.30054352 0.14750841 0.7038888 -0.17480956 -0.35104966 -0.15257977 -0.60857695 -0.19261308 0.027080335 0.071722105 -0.3007059 -0.14460461 -0.8978777 0.22554587 -0.040198203 0.032019623 0.33517572 0.31218898 -0.27312404 0.10062208 0.6597826 -0.12619981 -0.21245275 0.476313 0.37037712 0.6218679 0.33994457 0.3501006 -0.03334376 0.065542154 -0.6776102 -0.32347617 0.2831766 0.03167263 0.20871188 -0.09841525 -0.66540414 0.17991695 0.332766 -0.32655418 -0.37358284 0.1388813 0.33206856 -0.44645143 -0.13441435 -0.26331425 -0.31276235 -0.9734008 -0.13589227 0.4039462 -0.3634594 0.025091037 0.04089579 -0.10185262
b508 0.13518572 0.07506962 0.5627509 0.8966884 -0.5473609 0.41263324 -0.07126713 0.7024835 0.8402183 -0.54555887 0.04677592 0.537994 0.47008392 -0.11387476 -0.06968459 -0.70583254 -0.7162362 -0.6490682 -0.17603946 0.09876558 -0.7398713 -0.4710927 -0.87919074 0.89030874 -0.17371628 0.12362146 0.37826782 0.47995946 0.077467754 0.4536035 0.59279084 -0.7557914 -0.35826707 -0.1772996 0.6294291 0.14437367 0.52241087 0.4722684 -0.07250375 0.16683194 -0.35586017 -0.46618932 0.73274237 -0.01785223 0.48712358 0.28513885 -0.9467846 -0.6763381 0.69280183 -0.4463545 -0.44102582 -0.20010082 0.4724933 -0.4492096 -0.54978746 0.39066482 -0.040587924 -0.9210882 -0.21035397 0.3743198 -0.47638315 0.2074056 -0.641839 -0.41444427
u241 -0.59723 0.36439133 0.9130958 0.326697 -0.5567577 0.82167023 0.7018511 0.62493795 0.6809926 -0.46505427 -0.7344823 0.15085338 0.62416494 -0.32506058 -0.6345612 -0.6728791 -0.8577402 -0.61381054 -0.50509936 0.11971902 -0.52636373 -0.13712025 -0.83281314 0.62114984 0.5684559 0.5611901 0.2871752 -0.38203627 0.18759862 0.75175714 0.15182026 -0.5405491 -0.3593039 -0.81318855 0.8386624 0.8825555 0.4083092 0.38143256 0.08990133 -0.6517113 -0.5892111 -0.27769974 0.31617528 -0.27034432 0.46278885 0.47793874 -0.3236702 -0.3245736 0.8691292 -0.2652839 -0.5234112 0.41426858 0.4807218 -0.15676507 -0.10756179 0.92118454 0.35031486 -0.93497366 -0.34084687 0.36899987 -0.439816 0.410397 -0.56144285 -0.3645409
b959 -0.6457834 0.11269979 0.5887942 0.36900398 -0.67464656 1.0155479 0.86837393 0.7418335 0.57729644 -0.0962266 -0.95508635 0.3372451 0.35228175 -0.6394874 -0.5291599 -0.6552265 -1.0996264 -0.8652442 -0.4266786 0.24824817 -0.49646783 -0.2936527 -1.2796017 0.51581746 -0.16668174 1.1787739 0.78124255 -0.34527847 0.20899062 0.6725561 0.29497162 -0.18337448 -0.19140325 -0.88651943 0.97684896 0.91721165 0.97552186 0.12627703 0.008700344 -0.6572921 -0.28204823 -0.4651315 0.39330554 0.21285272 0.67163193 0.5717055 -0.7209686 -0.5660098 0.7742242 -0.7551734 -0.5594058 0.5611497 0.9815561 -0.50989974 -0.89030993 0.80605346 0.2608173 -1.0040263 -0.35221583 0.4038933 -0.47804418 0.65635127 -0.56098604 -0.88215417
b1893 0.3359916 -0.20577163 0.95424604 0.76245606 -0.5166718 0.70552063 0.42219445 0.5558509 0.49436417 -0.012539243 -0.33067495 0.9025708 0.25831947 -0.17468019 -0.44664934 -0.8197364 -0.7070148 -0.35399032 -0.6011585 0.20740597 -0.9034701 -0.036333293 -1.140542 0.55783254 0.4328666 0.35984242 -0.04248089 -0.43094173 -0.16135013 0.49097544 0.5213467 -0.4434713 -0.2888933 -0.3100377 1.0808868 0.65811324 0.48094928 0.33199164 -0.0022089146 -0.2229861 -0.071925186 0.03768142 0.20160383 -0.31246087 0.4085575 0.20644708 -1.047482 -0.017307287 -0.073463164 -0.26678163 -0.5525927 0.3912757 0.46218377 -0.8167067 0.043195155 0.11227388 0.97305965 -1.032859 -0.23340356 0.052265055 -0.0968058 0.039841004 -0.50628483 -0.23060468
b2325 -0.5802798 0.8787345 0.62524986 -0.34181982 -0.5651531 0.46709412 0.55602324 0.86378956 0.3695799 -0.59086525 -0.46074644 -0.5692298 -0.015819546 0.108995646 -0.90930384 -1.143626 -0.0037814481 -0.23811662 -0.5738709 -0.05410639 -0.7814132 -0.9934353 -1.5457532 0.7849348 0.40552694 1.1681108 0.22403963 -0.75189096 0.094113596 0.5856377 1.0177656 -0.40992773 -0.60881233 -0.9506971 0.67523915 0.47549486 0.64448136 0.10113037 -0.88118815 -0.2251006 -0.304838 -0.36504406 0.66898507 0.26898354 -0.2026698 0.32749087 -0.95324 -0.12043203 1.3040262 -0.14747395 -0.21015054 0.63662565 0.79642326 0.2229939 -0.031321313 0.67962193 0.6867697 -0.93539727 -0.4222931 0.3459205 -0.015747601 0.41210264 -0.43819654 0.06355978
u991 -0.5813029 0.83246267 0.37148368 -0.38628995 -0.0041749664 0.61673266 -0.5150474 0.7383929 0.09564616 -0.18849206 -0.36086044 -0.28540772 -0.62578285 0.43081573 -0.8867795 -0.10990368 -0.51856554 0.5598231 -0.21213807 0.07305832 -0.025793036 -0.51331264 -0.74494046 0.9367072 0.2895974 1.2204611 0.22679347 -0.11148583 -0.35033804 0.35251456 0.94979477 0.1934526 -0.25763813 -0.5520272 0.21898186 0.4268685 0.32164952 -0.3868682 -0.72936064 0.011823827 -0.108080804 0.04857426 0.24735549 0.4728494 -1.1737753 0.51899093 -0.7865377 0.06954472 1.4015255 0.37237528 -0.103614576 0.34827524 0.40434274 0.7291361 0.38798457 0.2388885 0.65735084 -0.9336025 0.080085434 0.0007142409 0.20473093 0.1420032 -0.74712026 -0.39659992
b2516 -1.0358812 1.3377961 0.74892974 -0.20870054 -0.30656335 0.6145683 -0.7823363 0.98981667 -0.14876412 -0.7278643 -0.37097323 -0.8551216 -0.7923612 0.64296085 -0.25157014 -0.2645962 -0.73613274 0.105538815 -0.60309553 0.253923 -0.11351974 -0.3466484 -0.94922394 0.35333154 0.57205576 1.1488553 0.7669659 -0.16016416 -0.3865952 0.40136725 1.0957301 0.49393144 -0.05305943 -0.7832748 0.18597348 0.5172048 -0.059541393 -0.5429365 -1.1636643 0.27261415 -0.8015913 0.11676487 0.2617017 0.4704681 -1.1315284 -0.21957454 -0.8780076 0.5228205 1.281832 0.23903896 0.37346452 -0.05453037 0.84089655 0.3545534 0.52338374 0.6673444 0.48949873 -0.44965684 -0.19905755 -0.06918575 -0.21507707 0.20772211 -1.074048 -0.36074248
b635 -0.1363684 0.6581678 -0.04508395 -0.08568714 0.22677177 0.4535457 -0.3568306 0.485777 -0.29142922 0.080579825 -0.54422903 -0.077394515 -0.54529417 0.64696825 -0.35707676 0.10375472 -0.79025346 0.22654696 -0.30270565 -0.077858455 -0.20531559 -0.37519145 -1.2938576 0.8386445 -0.33560014 0.39348397 0.49623322 -0.56982815 -0.032282848 0.075385965 1.00249 0.344111 -0.3246426 -0.347959 0.16816947 0.04606466 0.39763847 -0.36265868 -0.5075797 0.52085114 0.44053125 0.07679298 0.7684768 0.21089883 -0.28717193 0.44700867 -0.5757314 -0.22721666 1.3736757 -0.3021686 0.10522423 0.25666738 0.16044803 0.5872889 0.78153056 0.082170546 0.28244925 -0.79408604 0.3278934 0.28283077 0.31260344 -0.4845064 -0.7545877 -0.4076586
u839 -0.07314032 0.5520627 0.39990798 0.42746842 0.033195544 0.14056101 -0.362823 0.68230873 -0.3805308 0.4849578 -0.1811024 -0.18210937 0.3124749 0.44462255 -0.03935668 0.34394667 -0.59560466 0.08487273 -0.6870141 -0.55106664 -0.008240067 -0.4032432 -0.8643152 0.15929513 0.04196145 0.30800724 0.25322863 -0.30193067 -0.41151497 0.012568081 0.1620571 0.52465904 0.24099794 0.20703831 0.2849383 0.055776887 0.45888206 0.289405 0.06664386 0.32569253 0.50160676 0.11840296 0.67913574 0.14249924 -0.087731965 0.107518174 0.10130345 0.041339997 0.20819724 -0.73118955 -0.043370847 0.0015524648 0.27433762 0.6065574 0.55821425 0.072953515 -0.31084844 -1.0746392 0.42485204 0.5296219 0.35365546 -0.24884662 -0.5611739 -0.08075652
b47 -0.23974608 0.2918898 0.26984334 0.07805534 0.19629851 0.4209042 -0.4726298 0.5878637 -0.23827864 0.18193221 -0.069664374 -0.10605041 0.29964843 0.23288733 0.25502008 0.56103724 -0.74154294 -0.16252972 -0.43058506 0.28037524 0.43796763 -0.54200804 -0.13644858 0.15335715 -0.28261265 0.74027056 0.068840675 -0.32262427 0.048318893 -0.10926814 0.2631894 0.42821354 0.24724256 0.38257387 0.0797065 0.34907854 0.107992455 0.045171674 0.2961081 0.38087538 -0.22384529 0.18959203 0.3299216 -0.013415636 -0.44819877 0.32132542 0.2893924 -0.062444936 0.35698244 -0.3917945 -0.54094213 0.12425181 0.08093635 -0.33747482 0.15148896 -0.14291306 -0.76764107 -0.7609377 0.05882048 0.3181161 0.26472944 0.119159155 -0.39959604 0.018240297
u268 -0.44789702 0.43145317 -0.12858988 0.45545688 -0.21301931 0.21736659 -0.28560778 -0.24678382 0.3198313 -0.18217157 0.2004429 0.2158337 0.25208393 -0.2107278 -0.18926363 -0.23936124 -0.44549397 -0.15563254 -0.11056067 0.2806268 0.38893828 -0.103853606 -0.5931204 -0.08500962 -0.47287136 0.7160026 0.62092537 -0.4580717 0.011845604 -0.0013516826 0.62405175 -0.0050546266 -0.058576662 0.0036991367 -0.10427287 0.7550315 0.05986565 0.03405859 0.22753915 0.2701432 -0.071587875 0.37755674 0.31946576 -0.13828896 -0.10612646 0.42318565 -0.02305838 0.24272697 0.3235461 -0.09813049 -0.5202068 0.46198463 -0.021967338 -0.02516757 -0.13731658 -0.11917088 -0.4708888 -1.2403173 -0.15752944 -0.14703518 -0.22224534 0.015559174 -0.057446808 -0.15596095
